model = [{"layer": {"type": "Dense", "weights": [[-0.03316537572873298, 0.07799152426683856, 0.009526682572660724, -0.19143759487697576, -0.18256900984924648, 0.05323567350650493, -0.07515156774073131, -0.1454496579372818, 0.0009052250386537603, -0.05606030249774829, 0.042602163844587815, 0.011525103956216943, -0.16700838880243754, -0.006373123259064354, -0.018103508394300163, 0.07510744853134409, -0.007157662831350765, -0.12290893013776526, 0.052854356697335216, -0.01257816637443182, -0.08068655033322225, -0.14645765432934885, -0.054812429512441474, 0.03224784530137567, 0.11391722700555121, -0.06473458044134184, 0.0868721145763264, -0.12810238032540655, 0.11095813823233414, -0.11472725874023076, 0.11954101970055489, -0.10840605986450161, 0.012760285026366454, 0.012627125071650484, 0.1922182741274315, 0.11362866739538124, 0.05273774576275789, 0.19106356239615235, 0.14082585822319516, -0.1410652875140656, 0.00024376853079602172, 0.027106093808644167, 0.063279702517805, 0.0024396944084136164, 0.147981682052316, 0.05646935735994157, 0.09040228640047643, 0.13267221397530188, -0.02499195444132943, -0.10779321673034453, 0.10835700674258081, 0.23113122826527, 0.0515580023185567, -0.04487823890236835, -0.03595566768929209, -0.0654649086460613, 0.098379431326426, 0.11611770144210423, 0.08998385484422841, -0.10404507954815596, -0.012840363043771327, 0.09060769485434395, -0.16432853715270024, 0.00031097653146182515], [-0.15655039737064888, 0.10958013585806642, -0.01593699486673086, 0.05434893029632272, 0.1901981101981729, 0.10852100965151706, -0.052437725337647206, -0.0025374451738555182, 0.08666837419009132, 0.06088727485896689, -0.08580412656275177, 0.08898320904215574, 0.08788085215498613, 0.07100722195307056, 0.03327435793741188, 0.0016531465468771365, 0.04298648950484012, 0.01979777047204438, -0.08002135082329198, 0.10197882820579247, -0.009359094566399138, 0.09282629972763934, -0.15561057996398425, 0.045252851106513024, 0.10379639918371866, -0.15898171498490646, -0.0704660014997531, -0.16645109779987777, 0.17631629006125615, -0.07799330203427851, -0.08875793998676372, -0.0649736207772033, 0.01487143253208734, -0.038714834238725924, 0.13306230673874883, -0.060389457492744596, 0.017369713014586594, 0.09061299505077221, -0.046203486171911376, -0.09467752902194376, 0.02673876135030769, -0.07810817573686805, 0.08593376234027443, 0.10287727103115839, 0.07320314593254472, -0.09002389006005092, -0.009776203473218628, -0.059284851998200806, 0.07665315427730562, -0.01447338343619219, 0.09102402221996482, 0.024785039325216817, 0.15911036840605214, -0.1829969707892103, 0.09325513591680933, 0.02362005093451898, -0.028216550621514114, -0.013174439361173419, -0.007131774370124937, -0.04963912841297042, 0.25306917072262225, -0.05408320060955577, -0.10278518827485046, -0.0019457247798517398], [-0.1139807546073959, 0.0683142935125623, 0.09382875562089683, 0.04732403891496321, 0.02871978886871933, 0.02076232643415142, 0.012313146624384659, -0.0063797693496169434, -0.23425350704612657, 0.11578625029568423, -0.03818574856859852, -0.1551510723209305, -0.03535390213745164, -0.07691566256196619, 0.19824531685192293, -0.011681161641305672, -0.09239616643135908, 0.04214035306400894, -0.12887862062656713, 0.034005890829557885, -0.05307171433792719, 0.1100234475685032, -0.060987233735400964, 0.24459660156561816, 0.009850009708450999, -0.08517686120296458, -0.010937474935470627, -0.11551543905091172, -0.18118777010607617, -0.14608353974196728, -0.01939466447424475, 0.03396967235683215, 0.025906048076524774, 0.10076194279587847, -0.011087763085290641, -0.10777310262784089, 0.13013778001686102, -0.11704824412369774, 0.10088650556459411, -0.044377342010481144, -0.07820588464603104, 0.20964591929093943, -0.046846192872405386, -0.11506852591848574, 0.011343018061557054, -0.061726253488148225, 0.1024818768275177, -0.08014743646732106, -0.05233275691348668, -0.03843392285938091, -0.06065027781347421, -0.09537079196991874, 0.047494497616838556, -0.04152508855236048, -0.024572663635820415, 0.052083041099279914, -0.3202391182496834, 0.1058433247251152, -0.08381050101615983, 0.02650555236606907, -0.08053194855028813, 0.04425338405046472, -0.02084736820761915, -0.0532104451547525], [-0.20731866495811468, -0.15177885814548414, -0.022455204609469637, -0.022045105893387908, -0.0843471664489637, 0.0201182292845, -0.2523809179214838, 0.13094900262751424, -0.040614326357784336, -0.04092017285954651, 0.05556268969412164, 0.0326063319159474, -0.011790757388768213, -0.14331199153663052, 0.03709979035999375, 0.08941544259357248, -0.002404158251377134, -0.08679948401905714, 0.1313535647127184, 0.06080035422543844, 0.03497310907764396, -0.03584202235769615, 0.020316604516640246, -0.012595313719073443, 0.07360919995557935, 0.0522069294877473, -0.03688657074238263, -0.12136012967970951, -0.15075113361303755, -0.04884115922716214, 0.056612574769225966, 0.18569150987800206, -0.06022578951395059, 0.07098246173283823, -0.007260730131181653, -0.00681764865359666, -0.07702917794519004, -0.15243549786754118, -0.11338525319319913, 0.07048516023009964, 0.14385655586365312, -0.03325415929874944, -0.08627040748654241, 0.18120187406098343, 0.0462209364071221, 0.12889403549779613, 0.021275324002980087, -0.0331152705794333, -0.05687096891435334, 0.09649927995837342, 0.026579428767220078, -0.10279640866781486, 0.01166859526546851, -0.03881891384168777, -0.08534512180716217, 0.001229467442851872, 0.12977123366521265, -0.036413556509251085, -0.12243928309820439, 0.05734262964391157, 0.06862752869974001, -0.09827877157489305, 0.03273862296167273, -0.0929243738681665], [-0.1228342562199698, -0.03926980521139478, 0.07662748717304967, -0.03135359656530775, 0.04024506188775123, 0.022025307565564475, -0.09602730280797096, -0.06384816156677493, -0.14971524488105012, -0.0017730760631123937, 0.09074494560609285, 0.1459321741967847, 0.15297788384689193, 0.0668566900567264, 0.005274210057749893, -0.05253543130181831, 0.02257225472524027, 0.10685841546584357, -0.2379200924433572, -0.07661682016712613, 0.009363169046557032, -0.027493150323810556, 0.024535448365947128, -0.16216879006124724, -0.06902343620631284, 0.09173184640888266, -0.16172447782701088, -0.12043795307197869, 0.06803137831419982, -0.11407044807543565, -0.04874093595753165, 0.024232682880066622, -0.036790248651813594, -0.014314108387489874, 0.06063731582520644, -0.0221908299947475, 0.0029899217434735544, -0.027656445649594765, -0.21029989426910697, -0.03503968162140876, 0.063835690302164, 0.33512271803576665, 0.022394621628052953, 0.0006584286796200912, 0.024065035291162704, 0.032341255946501765, 0.03089830034615661, -0.11311817353083907, -0.08884608997844225, 0.08454712413299885, 0.0024531453784361777, -0.1072672936307799, -0.08315439012290697, 0.07088565566275494, -0.07496525052907281, 0.05697710505860805, -0.14593503674239225, -0.028918540295746455, 0.0034358339995353955, -0.07109434159099709, -0.2060603245740835, 0.03864308880662866, 0.020958336423578784, 0.10905530024448336], [-0.05605769207760093, 0.02196272850198352, 0.04873867868152229, -0.08199253456338185, 0.2944824246015902, -0.05031471373675559, 0.042111233534396164, -0.155975808248812, 0.08994171935981096, -0.11571535498679142, -0.07113264340787234, -0.250188153964367, -0.06867019421471642, 0.029693884795229164, 0.03237639359611696, 0.13081460168895023, 0.08113176978900376, 0.08951974415542498, -0.05217589900001612, 0.09711202186462609, -0.04360705035856913, -0.01981496406346711, -0.02908470272588274, 0.08351196736728729, -0.1276752810124788, 0.11257236436449956, -0.05560029013403242, -0.04483263412760373, -0.10521952683277641, 0.028939871370765497, 0.007542391591640035, 0.026411890475936922, -0.09638016322595873, -0.07578662855030743, 0.040095079554841845, 0.05117919957987165, 0.10617265698293166, -0.14700197225059874, 0.10555335620055267, -0.022810359077192827, 0.03723854455633351, -0.21023483844404056, -0.052203123851842385, -0.06451194202733264, 0.07282417983036081, -0.10093499565769255, -0.11359729453528622, -0.06966212144305932, 0.10815564615423952, -0.08946240994711643, -0.053839874068209205, -0.07657171715159763, -0.05811366185227101, 0.0859529666724946, -0.03759453377933862, -0.034267959987383655, 0.0610925795384884, 0.05157600148969757, 0.08567710533941814, -0.0880252201655874, -0.04717772978363923, -0.015844733682477876, -0.2380484666185165, 0.1485355840784213], [-0.010788003209517286, 0.16513985984585847, 0.11057253513571552, -0.00040180404128994625, -0.03882517313874981, 0.12779954072258845, 0.045471481025799454, -0.017542702640510506, 0.08042533195711331, 0.10667314182043058, 0.035381702539303055, 0.1329080968003926, 0.0038872195559062385, 0.02010304287899739, -0.0856927762029055, -0.0950147908999966, -0.009419390040878843, 0.21683330990708335, -0.048525203610138234, -0.0060026981919357745, -0.06455671062332591, 0.06125286009119022, -0.21268191436389242, -0.03528004011396197, -0.01581703779026005, -0.06407415397060603, 0.009015084291456385, 0.08197261932437387, 0.0991605081053187, -0.026823517974752704, -0.047407567969910996, 0.07865387744865715, 0.06536161590954387, 0.04733606352796805, -0.1805664621472678, 0.06690073966077997, 0.11365512538691613, 0.0175472722754922, 0.004866826286496707, 0.06723236530818072, 0.007977044650067048, -0.12019408460811368, -0.030958061898442746, -0.03146661197238544, 0.02129018594227829, -0.11761466365859508, 0.007576024669731539, -0.13056847765848428, -0.16526176298411036, -0.045733794940413144, 0.023111024790208795, 0.0522889588110411, -0.0891096278463271, -0.0020009384123936265, -0.010816371155414464, -0.013657894466378374, 0.2140860422857448, -0.03835551507461988, 0.0483405003481526, 0.047189147570419206, 0.10791002206230892, -0.14940872227815663, 0.07202130400179932, 0.0305073033524851], [0.04575904774147396, 0.16181613650670598, 0.04962093844110326, 0.05444693658166292, -0.035144255774316895, 0.016304310759519137, 0.13962347289486435, -0.003167588394160963, 0.04460651215311819, -0.03936795576561902, 0.15918970453314596, 0.01642469673248922, 0.11532270333878064, 0.014490770897851495, -0.18992025653057215, -0.18551468808027252, -0.02414908583550145, 0.21164556201647944, -0.03881379673902832, 0.019178117750807057, -0.03551627681525475, 0.13917550958087446, 0.19177260586621403, -0.08464651192146028, 0.17995465811425082, 0.2540552124459903, 0.16003967765287258, -0.1330857645584876, -0.06245432058385834, -0.05660347064338466, -0.017546929415868856, -0.0044706625343811195, -0.06958555025866799, -0.12617344804053085, 0.08664980003262845, -0.13267394108250216, 0.003557501816333332, 0.041827908639324715, -0.05418639116265951, 0.1879314141187134, -0.10689698209671775, 0.18694394248865287, 0.08650679543063361, -0.0683986263552153, 0.11480684313827938, -0.06283126952530035, 0.03058323623224243, 0.14075872331142592, -0.04645158157042706, -0.2774763670443651, 0.004169214290670373, 0.06366008206504985, 0.1375349648219168, -0.0002433722927086482, -0.027450928089556244, 0.06349664436885478, 0.2845600089574431, -0.06019879290867666, -0.05893454435009993, -0.07321670097531728, 0.029309826975497874, -0.07186422668150233, -0.0624241551448393, 0.05810719463289913], [-0.07538079811296104, 0.036715277916989746, -0.05818156890613299, -0.025577200150298258, -0.010387792588969451, 0.06905621099919838, 0.020150518902182522, -0.05455049396764873, 0.05542724309904862, -0.001333698678194819, 0.0609869572382819, -0.11933523158842683, 1.189858459811971e-05, -0.062000192375322366, -0.02494174521932128, -0.14049298985500494, 0.12188312870363714, 0.042495815270300004, 0.033286748129597615, -0.027724367108616935, 0.040980174277225376, 0.09656152471611644, -0.07317205438972424, 0.0770139786206301, 0.07512332480310879, -0.12429628271347969, -0.026822221195277097, -0.07670608724693705, -0.02660299188301296, 0.13055286324319135, -0.14901405103533708, 0.04703487129933809, -0.07658922057306314, 0.011563040974013866, -0.020381785432179198, 0.15169591538913296, -0.04416781491396297, -0.22656027451894573, 0.11303545902810073, 0.031681549126497816, 0.1411875635997256, 0.03353801093444352, 0.006297669290508939, 0.06236647283605983, 0.01126116575007509, -0.03611564743373238, -0.017339611923889095, 0.09166907795052878, 0.06239145216098747, -0.020153677845604914, -0.05910048232082622, -0.04168511586412729, -0.11168078413658644, -0.12590401392611045, 0.09910470173605344, 0.09442893041848432, -0.007360052623804536, 0.027589363388198857, -0.011275380328365316, 0.04032763068058775, 0.17501746244883598, 0.1393749613558352, -0.03577656282342229, 0.12633379913967788], [0.15175804002291782, 0.07630369697428635, 0.08019138359494159, 0.06628497656995758, -0.035610404977755215, -0.014174866686577005, 0.07057278447246133, 0.0006089146027416923, -0.030084938204705754, 0.03629439503988274, -0.03724871611584151, 0.09725599721870921, -0.05217324252643471, -0.012610579970978857, 0.006630467000671197, 0.1384035685279786, -0.0702180956301294, 0.0011433216761491808, 0.09254825162103064, 0.07816265468622463, -0.011709401231296927, 0.07347298141221892, -0.0018555696851779964, 0.02605928556286448, -0.030141151342710917, 0.1286758468785789, 0.010666627757691331, 0.06011295035479222, 0.028543892494121904, -0.04018107090808061, 0.02895833038439599, -0.11208327445126696, -0.18494978475615026, -0.0500531817095138, -0.10956983315871197, 0.11565571404009967, 0.12108917703008933, 0.15244100065792285, 0.015919266012680535, -0.14044386644660709, 0.1160985937053028, 0.05184725408754977, -0.05011333993640216, -0.013314432266205631, 0.02213249601530641, 0.05281452022428854, -0.17510089343924018, -0.058264814766658596, 0.0198629281141279, 0.08716671501701163, 0.0025034188202340967, 0.15187905104796606, -0.05533989751231192, 0.1609136009494957, -0.019869194489825284, 0.039686697251462816, -0.02306085959175776, -0.22845729024086642, -0.09076178362519917, 0.08487303980840821, 0.17220551431623968, 0.24585817445037572, -0.10312490026071114, -0.10210195817372991], [0.14155622043825553, 0.02312063138043478, 0.07453561971965227, 0.12579985971386282, 0.10531573792096227, -0.02575400127131063, -0.032706804476057706, -0.19050375317334972, 0.07087787650382793, -0.17152474879156937, -0.05444534494885335, 0.04344318814824929, -0.04762634238065245, -0.02977409939066287, 0.07289188451234516, -0.08978313026665641, -0.1022301652098516, 0.04907957382532528, 0.09510830029920686, -0.14613299879041522, 0.03729715716442659, 0.08570905582541023, -0.04541078802830761, -0.05977435065572004, 0.1284131015900386, 0.015085826279730284, -0.0662696940807562, 0.05265116590383478, -0.01169635491936384, 0.09668452632201957, 0.10035521968090495, -0.07338923243976313, 0.03728262773427208, -0.0024454348068463465, 0.059573192218917326, -0.09051307178488634, -0.0025003395944092916, -0.03438145409321824, 0.01712829991316664, 0.0985460949074954, 0.04315038980415088, -0.062367469438610525, -0.11979645049734518, -0.23009561570959347, -0.09717653368663756, -0.17029358254247542, 0.12945187865947302, -0.11113111325307523, 0.15594761306825686, -0.0075039690287547305, 0.027434008909173108, -0.2862153726119487, -0.0009469506735188396, -0.02838098996244345, -0.032075553798353654, -0.25179192208853174, -0.12820931646669848, 0.05677141421594987, 0.21490061123326398, 0.056215044908402026, 0.19631327266859722, 0.10582455268884916, -0.015320439611726876, -0.10401533548330862], [0.12361687423461852, 0.15382661095627528, 0.02556846050981403, 0.02170030271405861, 0.08264543798934404, -0.12729048366655657, 0.06431107340413768, 0.0007685166276868704, 0.1460783203097272, -0.0746477846221214, -0.15857179569140278, -0.038406816137547414, 0.09331867161991822, 0.054975539763184283, -0.04926847302051288, 0.009771654132529064, -0.04677870300592278, 0.09647608869318494, -0.2537416033084123, 0.08116465578287779, -0.06219822714189817, -0.11755348646118863, 0.01795555934582647, -0.11269977287929532, -0.18269057732453453, -0.08801621004738192, -0.10594291848829354, 0.17341570546477741, -0.09096679555929232, -0.050176684600995725, 0.08836610988921441, 0.06577044635602784, -0.10112453063475141, -0.06041855120884067, -0.17175684004936012, 0.18104501150327523, -0.018542008823683127, 0.08772608986767583, 0.03704083508955283, 0.02189920879544136, -0.1749732753757377, -0.043481898186066625, 0.19431976691007352, 0.01428737549823391, -0.07153276500119862, -0.02408923751414459, -0.16965524311673635, 0.0026916755017676545, -0.10511465827307925, 0.09210908749538987, -0.241111642772393, -0.021745105213709266, 0.28088063666977187, 0.0412042353868092, -0.10697940632538422, 0.0490463517082002, 0.00014196291066703875, 0.15336220223597716, 0.17001670334578922, 0.07278185547555237, 0.22694629444904516, 0.02752816897651704, -0.25138887080612954, -0.08287912652341128], [-0.03044965520988291, -0.021354442542069987, -0.17229755091640475, 0.12325906723730325, 0.05652346353124913, 0.004123770960490545, -0.16418807855498718, 0.10347031988130001, -0.015428736121310186, -0.0378090506911036, -0.029821835648444546, -0.09923741138240891, -0.09186752852456631, -0.08874260051154453, -0.01864078222746651, -0.012965293739795259, 0.03277578383664076, 0.23350295221503992, -0.03302557973996193, 0.08684174381431409, 0.0784302476818909, 0.12593444588505243, 0.07136044463440387, -0.01640058068302267, 0.08231134049936165, 0.009294473506426983, 0.1048343535801579, 0.03833337787874466, 0.033572042173131686, -0.1725466813566315, 0.07045471528782613, 0.005640757778366399, -0.0698238437119699, -0.046426869523986954, -0.020149134427426524, -0.07817804123910133, -0.07526792570947445, -0.0017257317920249312, 0.027632522084200098, 0.2480328200623777, -0.0544977964303458, -0.1207398975968282, 0.045607585604125304, 0.025538310679237754, 0.05214105986330082, -0.023212902619092524, -0.0843816041349223, 0.019754013641409354, 0.22093504193574673, -0.060481525584095544, -0.004022676625614419, 0.1575732252404647, -0.010682312377940468, -0.07772386082024867, -0.053816317181465526, 0.0024370448086688257, 0.05495411878324408, -0.1069220900213773, -0.07017846177834246, 0.06473784955184074, 0.0859397579171759, -0.11399928785463703, -0.012943309503614478, -0.013487050934546177], [0.15700927297838876, -0.22416185003662709, 0.029946540869504986, -0.2935152896187742, 0.0031463706361719683, -0.07233493282726497, 0.029683389986115447, -0.1292277000714202, -0.049742042421614216, 0.40670584913827457, -0.14931852607769608, -0.15695364125550143, 0.025246611427603167, -0.04428905978791875, -0.042948397473801275, 0.06450131849108258, -0.2317381794361729, -0.0607022889554214, 0.1715696746804924, -0.24954552243933065, -0.14589643797588467, -0.0034942746290481186, 0.18565219314208742, 0.1484244474020313, 0.014099376108400528, 0.11936121051529111, -0.09176859658635318, -0.016162993856248475, -0.08795463894874617, -0.16144902459840266, -0.006965020800131465, 0.02692952403666024, -0.04057342905534649, -0.05694122585828881, 0.0705475540526552, -0.27218287005727826, -0.15812967176962128, -0.2342598769791707, -0.00982181539933128, -0.2468567234868566, 0.08367875195582587, 0.09346950273740472, -0.05907190788269321, -0.011764680804545482, -0.26607154374245884, 0.02694677875808568, -0.03485409025236279, 0.1439289059759304, -0.01445996508533716, 0.2559653750057506, 0.028502780547062612, 0.03668569797458302, 0.05101959315103042, 0.023134243585955717, -0.19657917542535708, 0.1588308739455628, -0.28488679055402033, -0.02094684224785065, 0.11184524476142532, 0.23342293429475813, 0.08446763381655055, 0.27826134069441394, -0.1346905104691649, 0.33372524123319064], [-0.09406530887901106, -0.04412692132194389, -0.019011533145651804, -0.20114559882271837, 0.010201844380350857, -0.19292168869358975, -0.12438208547833736, -0.27982047347521605, -0.06675453894199304, 0.21618548709920707, -0.06534029706735728, -0.15927422299552013, 0.0026720638719498493, -0.14221028889760587, -0.045523447816708605, -0.09812344533235545, 0.01395944739353282, 0.007131957435634674, 0.25523483824970716, -0.14669991999518103, -0.16794533210491963, -0.1825151696546618, 0.20212099507388404, 0.10856756763244702, -0.1264193349017036, 0.21431627375539217, 0.1004100109004565, 0.12565367013449114, -0.12321879797867366, -0.2613876844244042, -0.09116737394821581, 0.006152801117564744, 0.12244974519341292, 0.1066936055205706, 0.05362582965530315, -0.39685099251734385, 0.0645390430015562, 0.11184636580641416, 0.0657600203916756, 0.03202833787827781, -0.06539593996194622, -0.02560645442158931, -0.032722599530277924, -0.07090949597453917, -0.2521012494687372, 0.016046375909709008, 0.057676202533054555, 0.013841463991018673, 0.1142877101924278, -0.10023898857663027, 0.016064169570958745, -0.04535982694595874, 0.20505628609874577, 0.050150177682197795, -0.2497849828471203, 0.14169514086401874, -0.2736713228717914, 0.053264122817780896, 0.005136265943687527, 0.07547593552411719, -0.1526499519087378, 0.37470449209243384, -0.1471425531348522, 0.11718236904368781], [-0.12397108522970618, -0.03154348185685776, 0.031013897439377987, 0.11451280123776826, 0.07436220675695933, -0.0329073244185924, 0.01947332104665481, 0.12051229345249, 0.06684287289074757, 0.002615558872108152, 0.0659413955479977, -0.05773987273146883, 0.0819235877834671, -0.0716342779158139, 0.020184536705319566, -0.09560291194498702, 0.06557020192969236, -0.17579311597905012, -0.02542101849299245, -0.11327507973147888, 0.08262515929349802, -0.0957137693373943, -0.051202451723080404, -0.0852996154132706, 0.10684726610217535, -0.02071502889281407, -0.04643821628622913, -0.04645274683222132, -0.077383674275475, 0.07304392717780096, 0.07650321398849158, -0.00013131694571795195, 0.016736451845082826, 0.0448776589743493, 0.07236439885726927, -0.01701862208060532, 0.058396874913759084, 0.010331617216564217, 0.011009624139672021, 0.08661885532237698, -0.0161294419103094, -0.10321196818690118, 0.07043159046241876, -0.03344561272643172, 0.08416546990663107, -0.0041015882267384125, -0.08993785802690553, -0.001036800347897943, -0.0560158020582367, -0.021784169712080626, -0.20186191306261084, -0.031128333392788407, -0.10254989982066498, 0.09638100311149467, 0.032222021260211973, 0.03503872803569976, 0.06449808520273834, -0.09809595845303554, 0.17037579700927818, 0.13006759833504736, -0.06426591894256546, 0.041137145835445005, -0.14640563464436854, 0.037498768046938656], [-0.04129062938891643, 0.14434588524439348, -0.08309555029628697, 0.1041622626553995, -0.1325658963238435, 0.13941202476823453, -0.13390668035947675, 0.020284674309393735, 0.11678361699098083, 0.07286636902060842, 0.16430863271324092, -0.04529699242708618, 0.0842415733737739, -0.0455197535704097, 0.04796385401595199, -0.03889261992551615, -0.013998559540355374, -0.0226698582624794, 0.09169383396694357, 0.011421414833514403, -0.05040182665471075, -0.2005544927516447, -0.04517715832392563, 0.08768927836940135, 0.05320229534795943, -0.03954151590622229, -0.10882893710988453, -0.02137062299921108, 0.0940865005445331, -0.09778666995035634, -0.042502586439103485, -0.1401032428279718, 0.2755862353444027, -0.015243978132250697, -0.14474928288133446, -0.05351364998199916, 0.053572040311157254, -0.07964794723143992, 0.1539368611373929, 0.1495958062952611, 0.08053959708616121, 0.15296687631204609, 0.18908560975104166, -0.10588908489498856, 0.05232751363975981, 0.24091117855155086, 0.02885687109788042, -0.03677208780525059, -0.019221254915109363, 0.1675900732364037, 0.02335646163506358, -0.11089715623503114, 0.04261372187851724, -0.19102194983324855, -0.0993830971509227, 0.014225057694211861, -0.1266247895532697, 0.015370138297127495, -0.0627070379060073, 0.005067023112829822, -0.17666011315047458, -0.05204156381431947, 0.24915794747277065, -0.0352731487330018], [0.09158620001479513, -0.060395945748638595, -0.1624140098506669, 0.10585773898341698, 0.16290373624902096, -0.22165748793570395, -0.01687654807127989, 0.00339824233544737, -0.055784930043688556, 0.008417606247169916, -0.025832894897020578, 0.08047563425810222, -0.14549873503187602, 0.07109525939966072, -0.09298474594232116, 0.020476716560282354, -0.0244762930420631, 0.15244290617513895, 0.28509484013579217, -0.20618252350354385, 0.17907951330579697, -0.05418371726345927, 0.028869127755295366, 0.06537997900616925, 0.04721343944702063, -0.11271617679794915, 0.023871953358962264, 0.02768660048120184, -0.0828983337051708, -0.07577327819182178, 0.022229064933746226, 0.01216995829613346, 0.042546766020124124, -0.06702350759815355, 0.1123366812601552, 0.08126317949067591, 0.001811774238081232, -0.1500574236742902, -0.09943683052372383, -0.17781900963069736, -0.002779485976764777, -0.005501848791674243, 0.001783338156588954, 0.12124699070293435, 0.07953720119609994, 0.030579769397895147, -0.2048104598395785, -0.03089979567188111, -0.07583757809675366, -0.05846127177016397, 0.04439374308876632, 0.010373252752350322, -0.15190067896647455, 0.035174975942948404, -0.10691560730153138, -0.04152396774485828, 0.015323377163122138, 0.08193926861483448, 0.11993662043462053, -0.12637439963917582, -0.013072576199830483, 0.0004621851726474978, -0.08933737522855317, 0.0044282663289488605], [0.04729009211848054, 0.09327180101931112, 0.19105567524928346, 0.1160285558725553, -0.004853216323785837, -0.11155843570218003, -0.10746288887835438, 0.024565469384252966, 0.035376646772112975, -0.16256162188374657, -0.006631769067163256, 0.02882815577588276, -0.07157914519054648, 0.10286884355282395, 0.06239660812387601, -0.14440189777860915, 0.23388181405805983, 0.018794058561266848, -0.05842723928436599, -0.11434175465702541, -0.0652880431522002, -0.125406858216458, -0.08655129818938648, 0.007678121007630549, 0.021079983195689347, -0.012852888551584353, -0.06604931942034485, -0.031254829614582265, 0.14423828603125294, -0.03720744122005664, -0.12606891123739936, 0.28388599989915825, 0.026352894158474402, -0.1584008448578791, -0.043381683440958205, -0.08011305711829728, 0.21806669761581637, 0.13850820965003482, 0.03129162541225918, 0.08392282566261577, 0.031093198221510732, 0.07725526845286684, 0.047419308546576076, -0.041950591651681954, 0.03134282436829732, 0.008911185161049825, -0.23521573784956806, 0.0023736108455413895, -0.1378881577242701, -0.03755302490090694, -0.025957963230821196, -0.1295064150634957, 0.010154929083118117, 0.06957101370470067, 0.12968083153674587, -0.1923714446298933, 0.12285752430891801, 0.08496359073621315, -0.08218850512955715, -0.0901381228472998, 0.04101046362275493, -0.03253638088850795, 0.13314511623926625, 0.2587151207375393], [0.11663064550277376, 0.011111014593746051, -0.025131520268114993, 0.08954785489264605, -0.04482111752250541, 0.0036053249653821224, 0.015897119085609472, 0.037802464065731206, -0.09562005577417806, -0.10633053186583914, -0.06131106791935978, 0.1514285857678364, -0.05551803550904462, 0.05023978132411047, -0.10439968944777088, 0.04992071683850932, -0.1507394170617948, -0.03323540153124675, 0.08221572313184186, 0.2098928335564065, 0.2763140091450131, 0.18304438362059489, -0.014772917979497492, -0.12101658971143865, -0.01042469313034675, -0.06280874161119983, -0.09452763734932208, 0.06010327708130028, -0.12666673453503044, 0.05041550457364227, -0.14747168680640452, -0.21633440393040493, -0.0875870535031737, 0.005609040812593901, 0.1665016751619075, -0.08233073883989354, -0.03086003750417278, -0.0017927204040883956, -0.03620889508767693, -0.035517390066384075, -0.12002343800580376, -0.1979544533812937, -0.043224427439487206, 0.05779916018211065, 0.04151757402003854, -0.03086534168412507, -0.05573646729946757, 0.03045287103531616, -0.2990036715556372, -0.13171820185779745, -0.07501338738059837, 0.000489225375915646, -0.05842483652580162, 0.02952579439074551, 0.10957750638170811, 0.09877870233522024, -0.13579128495003487, 0.09811442634192752, 0.044428746430744535, -0.14094108374060582, -0.0074944637588252976, -0.07797706762983261, 0.05305502259773157, 0.09090342643478777], [-0.0007094229739758581, -0.10640660000555446, 0.13281872329577155, 0.09148243058721248, -0.007854584730362496, 0.03191634539421843, 0.026155571702819094, 0.04641531688742557, -0.13661762741792047, -0.056670796508023126, -0.010161609383452994, 0.010902804982040937, 0.012792891096623413, 0.009618216249758005, 0.04998228314868551, -0.04996054915966446, -0.08769952212476281, 0.02952847904773294, -0.07523599184130833, 0.0513348708308081, 0.12208852639367139, -0.0067323949313463005, 0.19183691378048762, 0.03784025290632198, 0.01857659999933579, -0.026030467105379602, -0.07282258857098413, 0.14974470636292256, -0.007077412396527712, 0.007524510729264799, 0.07825419310382503, -0.007961613408526426, 0.04349708235581747, 0.011824818516698768, 0.08021746656970247, -0.12292378823863966, -0.10152317546856811, -0.11507676914844862, 0.12774558821439055, 0.12374360625356276, 0.029019070715627256, 0.06503826223147983, 0.017304916960606594, -0.0025428474800377864, 0.08779548108148483, -0.04512176466977039, -0.10072705432863056, -0.18585601679106328, 0.1517283862110628, -0.13687148066468696, 0.024638830269571685, -0.059245234237784175, 0.06981891369756607, 0.15144672992089336, 0.007952383180920067, 0.0874019598274483, -0.041516475374436736, -0.010936082167297264, 0.034025705586782994, 0.011306914725106402, 0.04441499491254156, -0.12708183354393018, 0.181218308774877, 0.19431077246951012], [0.13152676148547457, 0.05847549638884417, -0.011791075299354681, 0.08242811697933558, -0.06432587388279735, -0.016417652789343994, -0.09442094355163, -0.006200427312624557, -0.10716430303359037, 0.12613461583006289, -0.13178375734352052, -0.2213673406234944, -0.15081948946069026, 0.12244289096900758, -0.11492780294894114, -0.011950454077649122, -0.01746243541112972, -0.032055890477109515, -0.05545210004916032, -0.012816141910798919, 0.028658294510217164, 0.06987967292506596, 0.0059546293632543965, -0.14525227855125586, 0.06631430338947703, -0.061109049916784675, -0.2382207159858222, -0.05819554357828269, 0.14193762127319523, -0.19513715057863112, -0.008067738299300449, 0.012721871519753684, 0.06679821266389116, 0.04497137156157024, 0.04135025108777507, 0.03885270616879288, -0.004732511199568537, -0.0623500789738674, 0.048093012205298644, -0.13404363885443615, 0.10305711684378827, -0.03253642005656895, -0.06626538964891986, 0.02069305091113521, 0.025175640229496078, -0.06139441564851357, 0.1276431649127639, -0.0025614665744634352, -0.08842773967521034, -0.004572304016287958, 0.06825152272322942, -0.07093249657686623, -0.026966804240585042, -0.12817070155406246, -0.0037752017143314423, 0.1058527910030631, 0.07205769077146607, 0.03737916029748403, -0.014467074612650186, -0.00048257536038079997, -0.02969502498057094, 0.005777369404911244, -0.07165590703059536, 0.09989604566284127], [0.09888088753038216, 0.04149734754403096, -0.020484526187652962, 0.05086317109784971, -0.22512296670809073, 0.037773968887294083, -0.10636792314646393, 0.10085773193706907, 0.012214096992145998, 0.01769436338929384, -0.015898188139530815, 0.09448979936828591, 0.033511255256564565, -0.07587605994151533, 0.05484864654810371, -0.2974412985429082, -0.09499075232497617, 0.0658154653080786, 0.17124814205697542, -0.018146618019886516, 0.08640913440159846, -0.054980221498084916, -0.20843839946919004, -0.11758968468656368, -0.11269165004929292, 0.1028783504171153, 0.0348209559079317, -0.038191871965740455, 0.08783448193514387, 0.03070210301170754, -0.1590555392266648, -0.06418095790641398, -0.01675906169662966, 0.3310989131733386, 0.09270621037312662, 0.21279048726587885, -0.17859107869450033, -0.07099763178539044, 0.12823147875560262, 0.06316212641720191, -0.16365811885868214, 0.06840007203563196, -0.1295770758145608, 0.165355130427041, 0.06752511842384469, 0.050681180987041274, -0.02856075286759477, -0.08292069633353025, 0.000605121711678649, 0.020994639147283372, -0.1440116008589018, -0.018728605470025163, -0.05623470578421705, 0.05981773048610381, 0.17070936615300827, -0.0315722376236176, 0.10710617593262586, -0.06797537984469837, -0.028928305655250404, -0.0007160040448437923, -0.019006226012131797, 0.09196241647278419, 0.05448412922359291, 0.06656611201830204], [-0.003584892068373589, -0.07908032117773131, 0.02507272096094844, 0.03853702072306201, 0.22018282374449472, 0.02793862244744776, 0.13755896019476763, -0.10173680895685429, -0.06098524946431664, -0.06845346893828942, 0.03129953940487495, 0.053299280270650555, -0.07830550440252378, 0.15292755882109557, 0.011739371583338142, 0.16008661998714332, 0.004022794398183757, 0.07566774871461157, 0.006974935169392033, -0.13302863432860487, 0.12322957699342685, 0.006094002215285741, -0.01052952685403039, 0.010711311923511567, 0.07348611706404401, -0.011321542241012282, 0.03241090147458116, 0.07396277571989382, -0.031422865998712565, -0.01876488602070038, -0.11949475323484926, 0.02913202817620075, 0.027214701050101826, -0.07883731681305939, -0.14017769299588012, 0.0697157749551561, 0.07107046876849442, 0.28827391920770945, 0.04137609134514254, 0.1725849093768548, -0.009883099352251611, -0.01190318477844664, 0.12690659364328577, 0.01124953544659939, -0.10782943670792461, 0.09792948011135207, -0.06718467245765102, -0.12972910888929995, -0.06893020544783084, -0.0287595458284657, -0.04581589300511715, -0.15240968602415217, 0.007676605711697433, 0.07007611508137457, 0.02152885630513208, -0.11771077174035438, 0.20005954531753065, -0.09039927402354285, 0.01593941898337297, 0.07308392130649752, -0.29406460415791774, 0.12846188267092876, 0.12201010866849737, 0.05451744274068067], [0.04133397686390107, -0.045837181406765716, 0.03092739812059786, 0.031656286908203976, 0.15878359101289236, -0.014738198209191707, 0.10731714043289242, 0.06644359667586285, -0.19956328259299855, -0.12420302877773229, 0.12597189502666442, 0.026987671181213025, -0.270105211648135, 0.05258812939008295, -0.02387706925501186, 0.05835923482860605, -0.20778512233972896, -0.04055512537820052, -0.11898780249890142, -0.06393578395857921, -0.07208341039991936, 0.04363317100962993, -0.1391414940452814, -0.06337939216498266, 0.06502698209508878, 0.15999670295970028, 0.028083212509233076, 0.19992512992614442, -0.043323283007162594, -0.07877139927763224, -0.1279023625135317, -0.06672407054164203, 0.0878297610311965, 0.14249968500496354, -0.11349094454995215, 0.08256281632826909, 0.041518017064251934, -0.006189687809534994, 0.09684835437382584, -0.09564641956737421, -0.27600072360762967, 0.21735465809880405, -0.05580094064384311, 0.02412851199125983, -0.01106699411534929, 0.04404503641422008, 0.041819182312099884, -0.031413950653806935, 0.03830728710379022, 0.04679190126615279, 0.04991449584433007, -0.13278749874058024, -0.17108678126349017, -0.002119012801025105, 0.19728496149270258, -0.022425902620477608, 0.025036906956662393, -0.032100978215633895, -0.026423064781711504, 0.06486079855839337, 0.018415718989963026, 0.13936913644772655, -0.02439309201217152, 0.172860838009666], [-0.07238510601535574, 0.08387001954444846, 0.11351545820097042, -0.11317869069819715, 0.09530603430512996, -0.10692226724899301, 0.013278931835341484, 0.061782496261057335, -0.0719268523189129, 0.006353582859169674, 0.08827959280650764, 0.09221480615434638, 0.1819194142493617, -0.025531832249101022, 0.0027809462803715513, 0.017773973456015616, 0.03613076951723042, -0.12185156824763, 0.043633772241550184, 0.0053131112701427, 0.014466439914125757, -0.045627264781117456, -0.1743796037492626, 0.18004969411280997, -0.14485429773725708, -0.08661744021591648, -0.043358532058187335, -0.15718933059455156, 0.12322408071329168, -0.16344556930126117, -0.013772693933263386, 0.04097272981067013, -0.036777146052591435, -0.07945127288206205, -0.10111817668984445, -0.030205159387810793, 0.040039381535508164, 0.10737956733053877, 0.14688799101518699, 0.012914869932323075, -0.051495048048736815, -0.06636372790199485, -0.18657924592925318, 0.023409965045743088, 0.09606345870042121, -0.16860354174357053, 0.08414494737275716, 0.08478682651053898, 0.006361166966502026, 0.006554930605484785, 0.06880212363219936, -0.12777324980905422, -0.024915331517219516, -0.16063927763997732, 0.26390686797591417, -0.0779829106647282, -0.06070186894638442, -0.09219605355872144, -0.016383237895332477, 0.11171371683087897, 0.07486910542735442, -0.10583943809391583, 0.04741449999227659, 0.07467737655448826], [-0.0023479513838963895, 0.007177448348078922, 0.01682836059132684, 0.15920297004623785, -0.05597198467518763, -0.1346928268696126, -0.08591744474206055, 0.263397572150219, 0.13699148926639693, 0.17646988051942367, 0.10740554110697023, -0.065495059940559, 0.06772186690566837, 0.21156979168918794, 0.06927979784451571, 0.12250426964077044, 0.06063801330360106, 0.02466111544190171, -0.08220968689856256, -0.09751385341685044, -0.021357636566047656, -0.12433159951325222, -0.06717260679669215, -0.02400150149269241, 0.10757773732434417, -0.025718803488607833, 0.10110186744743253, -0.12748416668585702, -0.0751314789269606, -0.16948526725210156, -0.10804335337419578, 0.09622218387606682, 0.029039063320746718, -0.1350544201481475, -0.013489055538096756, 0.024627303080990384, -0.027300110797185778, -0.1399578805500668, 0.0500217128684382, 0.029804698026744975, -0.0012243069797994363, -0.13057889980299822, -0.033330229490515534, -0.11096783256786119, -0.24011441478816886, 0.04782929906990083, 0.1397918351338233, 0.09239787251214406, 0.06262325994288319, 0.011633534898316849, -0.1274194017961985, 0.08649395897772377, -0.06538586733596367, -0.17277829549725487, -0.09918875913950968, -0.0019048445429010092, -0.07460399892821026, -0.021682207416823352, 0.034381231088593964, -0.044813545530961, -0.1421256065992199, -0.03902098831209741, 0.04848787413984583, -0.007323978587780302], [0.0023157146249261355, 0.00879595596630688, -0.06309972563534805, -0.12693469380698438, 0.17704992589886098, -0.0464873952345807, 0.09181849213322708, -0.19681754186274802, -0.01442235511816965, -0.07630448908267969, 0.07727343370462529, 0.1047751912865254, 0.025868811481170408, -0.04003114457092556, -0.03809854345886203, 0.08893411028093123, 0.04636562854725639, -0.10840540533880827, -0.07857662830326327, -0.016882862091050426, -0.14838264503254683, -0.17793281672334801, 0.14765378065872362, -0.02301170709235953, -0.03658341448567997, 0.07070254656323832, 0.09212035904046922, 0.056615662431150515, -0.02853479705644978, -0.09238428803696831, -0.15557444383409588, -0.039719130761559064, 0.17801171278571254, -0.19712334347716992, 0.0011362662152081939, 0.04306360406814931, -0.07018109407519638, -0.05835812828298507, -0.008772572831981507, 0.204045741094782, -0.04337143073250432, -0.020580949713716195, -0.05369627726696035, 0.03208063907357207, -0.028858875259951434, -0.007008619745396673, 0.021941008131266523, 0.019796375905201315, 0.1454374170797931, 0.03760282315838101, -0.09840773421449528, 0.08318409471508353, 0.05030136434426502, -0.09433270870188283, -0.06917741912658308, -0.015173526310624129, -0.10606415931219355, -0.12257447741747776, 0.1150202916919225, 0.014219725747472834, 0.16113437741118403, -0.09829988153391601, -0.09798326743329538, -0.19311804452799505], [0.02858981919353497, 0.024401426240626665, -0.051963026767891954, -0.19130656702416207, 0.12505212635594973, 0.14056719597458273, -0.21987845203349676, -0.028371834182158485, 0.003613418376755464, 0.12150670228848424, 0.12457268149128438, 0.01909130366876723, -0.12737268200386864, 0.05924247664058907, -0.1143890002008944, -0.0773076845509669, -0.02788675544048852, 0.014352659709639538, -0.20510628508804213, 0.13035904095139159, 0.08621704630240316, 0.02628507904965571, -0.24645169886927798, 0.02539722473556438, 0.12127943071172345, 0.055925373515397975, -0.1358283366132049, 0.1562433133361233, -0.04910300975644387, -0.07752447978092021, 0.11077061387607037, -0.07671676451276611, -0.09485536673377959, -0.010623287940958322, 0.016878363348969604, 0.25055846606962373, 0.12417358016933307, -0.04546887629856851, 0.012939556438029146, -0.06552929666937123, -0.003831777205044463, -0.12189737917611143, 0.01041729442776416, -0.011811999205170924, -0.0017013165827678572, 0.31221547729179017, -0.13374035911621904, 0.09448746723148338, 0.17053305917080075, 0.0750765297444821, -0.11938091522003383, -0.00776505637862346, -0.13938376185752555, 0.22158172125471123, -0.03264744853883873, -0.023011713139881075, 0.05579688526495039, 0.0647896895996974, 0.055930729103376854, 0.2134665666693837, 0.055648887747752174, -0.07684274887934503, 0.08640765315873371, 0.16198613976791076], [0.1215989835271004, 0.18435941047824597, 0.02222927882152677, -0.16197840337041491, -0.12220764041123543, 0.06553667909517763, -0.05522996319638327, -0.039019313816085865, 0.09728741599049066, -0.17539789912580986, 0.1226787081561622, 0.07360293238289901, -0.04076516491150308, 0.058431947132083044, 0.12421570707173175, -0.17150668353662749, -0.08937879193488778, 0.03200289459373843, 0.09904670714325303, 0.081883582923108, -0.05291775431029742, 0.15256110993762828, -0.07557341927387899, 0.04478885080521128, 0.00970587725140883, 0.20216664403690157, -0.1497501108803925, 0.1751003580680346, -0.04448414615597202, -0.012100745231528187, -0.042576905187891284, 0.0930496951073037, 0.021722988929654533, -0.06825517615598196, 0.16558211332275272, 0.027920965390173247, -0.1505538944775168, -0.00744450758352106, -0.0027258353426657233, -0.029110634487304072, 0.005355262180252597, 0.15231809344332337, -0.03640829546604984, 0.05784002575725031, -0.24809590378582316, 0.10159583172428166, -0.13761126968741783, -0.06797540131459884, -0.09196434045022395, -0.062288314948838165, -0.07664303758677254, 0.20637165903177387, -0.16866133437903197, 0.1540193767127349, -0.05994225962329585, -0.008389266438988104, -0.15442324249161446, -0.11438525765792802, 0.056811166337788155, 0.004537698341004022, -0.017762050240898938, -0.06990122643417511, -0.009224015019493893, -0.09471730250766557], [-0.011099299804065767, -0.034783670888996414, -0.01101731983205069, 0.005553208672304583, -0.02128044890116851, 0.02036773554122286, -0.060908525542827135, -0.13630110748265103, -0.03493316824708042, -0.0799851060899507, 0.030366136176744843, 0.0072937927002250215, 0.10725548122277662, -0.07878915557692982, -0.1010758457475271, -0.07200353847741298, -0.15999324013680388, -0.009314757513702282, -0.06466011242868609, -0.036537801760274456, -0.049689402449698404, -0.2068592566548366, -0.003920534993789073, 0.1610854682715037, 0.08605493858946814, -0.08694832153887544, -0.0005196695994901223, 0.07674057626837495, -0.11422906995399427, -0.21683122903908525, 0.14313312028213526, 9.986729105484338e-05, -0.003813625838528946, 0.05785593467518138, -0.08411193703671671, 0.046263416496808735, 0.20778717036670186, 0.1482618022423374, -0.03371848356763032, -0.08554850506047096, -0.03734233084812632, 0.008802654975072915, -0.015153873862983098, -0.15931208099348906, 0.11451339133761834, -0.09131419230989755, 0.101740472147541, 0.024037770073173467, 0.07507971448616661, -0.025123781115621205, 0.037362510042647394, -0.046281288208346025, -0.03396462905953559, 0.028025500456287367, -0.12066737939578576, -0.14751776705167335, 0.025610368612406682, 0.001412993084007367, -0.04297182124531432, -0.0563980511470685, -0.0028991590304808133, 0.06042760372747494, -0.12816970167625602, -0.005018419090524524], [0.07496966222843159, -0.17164851770958472, -0.12222361975979468, 0.06399428016956608, -0.16444809457015971, 0.0015359075640529142, -0.18456052876240261, -0.14593555216112633, -0.0025921893071219324, -0.006719895457436076, -0.09385263521660074, -0.022911657648261374, -0.08887177068625882, 0.049676750974235184, 0.1432157142418147, 0.20024214854902095, 0.14323273398651745, -0.03798419732286257, -0.029513740511693805, -0.053292246485739006, -0.11152854226921181, -0.16679144654063255, 0.03244059610067435, 0.07212148286980999, -0.06375472967483875, -0.03201332145957469, 0.04088153669268237, 0.18799448415267336, 0.03675081905216171, 0.017887327574890404, -0.0387767106548657, -0.007441124771513769, 0.05406477441519763, -0.11715570042203637, -0.08302579359065976, -0.2435267841358298, -0.009194513681561073, -0.09372751671984582, 0.06547610514195734, 0.18279343400896073, 0.05603227324565964, -0.18405044628101322, -0.018363269805406004, 0.0282454390337336, -0.10936268018775441, 0.01979648685185946, 0.017964454539849517, 0.10927428016153012, -0.015531246147497235, -0.07878122895551759, -0.10230670783542375, 0.06142431377988064, 0.03593622097129283, 0.00042533657325335907, 0.12774036559929539, -0.007019368981433999, -0.1036047222100275, 0.14474257461388912, -0.003040661405149793, 0.26152351560885634, 0.08995602767113126, 0.018619013634870975, -0.022979758055515893, 0.06225267207779617], [0.017565095273924067, 0.17664126098342015, 0.19248624165200556, 0.0903386162112107, -0.09894867041949909, 0.02398922898081324, 0.08833424599584218, 0.008119657111636569, -0.10746755395511914, -0.11199647799205975, 0.10390138307274306, -0.005125296161388466, 0.04492118636879209, 0.059414666384081403, -0.04566703247501661, 0.15027359659760317, -0.04600448352897283, 0.15635160730543074, 0.21076742038088198, 0.04123626806672671, -0.2862086942428746, 0.4100391041947068, 0.03014650844095239, 0.102684708222343, 0.17136648018238454, 0.019890640432435092, -0.043581986926150014, 0.030819038917947218, 0.033748054561633635, 0.057403633999208774, 0.06411515042493435, -0.12489045037803972, 0.03893087769717786, 0.11710371342430574, 0.18434178033565185, 0.11368580809624425, 0.019184448436085282, 0.1525563603149955, 0.04161494578789499, 0.10212089840482251, -0.13216472257290784, 0.05364988450590519, 0.05574741910730829, -0.002623474104536114, 0.0523463290724002, -0.033055829988669655, -0.008145348814642165, -0.016110452197944092, 0.05349005321035037, -0.009633390116357532, 0.007463748936132426, 0.1404641236908086, -0.07518227129863433, -0.050536389901646356, -0.22480649807115308, -0.09336825859434594, -0.1920206745768582, 0.15704244280949387, -0.0367556759250963, -0.11242681127201276, 0.0892753233929306, 0.1822547465233323, -0.09640148461279034, -0.05702982608311119], [0.0651007200692048, 0.02361286037088583, -0.013078844262327458, 0.12270786781502387, 0.006251797969818017, -0.0036212213966399314, 0.14902054834400696, -0.11514296946754563, -0.13927638541602105, 0.027404003850699115, -0.1392913368931006, -0.03655903868566008, -0.24275569049510543, 0.09685166791282282, 0.029901021460971466, 0.1341299747971958, -0.21120349084937204, 0.014868676132012754, 0.1614669707891184, 0.04893415527678436, 0.12124291631833307, 0.23528020723434634, 0.1524829034466217, -0.00627799008407119, 0.06981113011790378, -0.01870772639467872, -0.041855175682386336, -0.20208299836951465, -0.18848782771601236, 0.0014239384196118976, 0.15093186390241914, -0.05644739229532078, -0.07676495694022585, 0.09308387339805652, -0.17379557978721943, -0.025401918701900335, 0.0622701743164092, -0.005206529437892664, 0.06351395709424751, 0.27608624039980434, -0.10521787401280895, 0.08604236985257085, 0.07685474523952848, 0.030407707159312982, 0.002437814974098868, 0.22630094693475258, 0.1229431434929547, -0.10038793667744822, 0.005073918485729835, 0.00240190362946367, -0.14542565821554795, -0.2167819702876353, 0.05421236661864619, 0.044271049769216406, -0.08103535345898014, -0.0019110970117097764, 0.09574774110734101, -0.06316898671667043, -0.019021766248959876, -0.06313583238617418, 0.0055778441273697755, 0.047328286164315336, -0.219932919909594, -0.030846210121885053], [0.1362373542041993, -0.1477100044413635, -0.03321630071377745, 0.12998486994407413, 0.05097767120421259, -0.12637742367725774, 0.27655161472895484, -0.05522870689227863, 0.11876944876370492, 0.051579846007435974, 0.054767405435759475, 0.1517348477213727, -0.1721923111413322, 0.031979101903031965, 0.20997280874040192, 0.004865824377068284, 0.2072080117161499, 0.021051460691679593, 0.06518631564059438, 0.13636069337891824, 0.08369537619267546, 0.12298024859059922, 0.19241759479550744, -0.032403839870611066, 0.10780325259782024, -0.07645377123198278, -0.03016069408883316, -0.14310711806209073, 0.11554296164172682, -0.0651271724771515, 0.032468884887077894, -0.006423031566884096, 0.14182840334624303, 0.020992947357437793, -0.22303165271899772, 0.20419425430827018, 0.1254028518868275, 0.12661151599507198, -0.04255066755821459, 0.3003508528723651, -0.2810416274065885, 0.01971929955075868, 0.12493905563115587, -0.2028867177899501, 0.04001225755494461, 0.04811305914882897, 0.06150332911384487, 0.1866876165217336, -0.06032859946751678, -0.1459552251228373, -0.1078527489875249, 0.02821840913775782, -0.18604359133203943, 0.26438401286722235, -0.11689485666551827, 0.05660667772185246, -0.09383845295070797, 0.06657039628010449, 0.015643857604976694, 0.03054869398463668, 0.04371691959125043, 0.050610541818392286, -0.06305934342236222, -0.07912969888523286], [-0.09343205472047335, 0.03692395072558367, -0.27082650184778506, 0.09022677254199739, 0.037612390059966944, -0.03313400737503145, 0.2293790431150393, 0.07853809232337626, 0.24628649847184822, -0.01388290770865816, 0.1502999270206295, 0.2117175742401433, -0.11091473266233375, -0.13828098872924974, 0.20519833687142677, -0.005214101555947675, 0.20983995323704077, 0.06102965877167985, -0.029114467542495498, 0.05726655778285323, -0.20626167617767718, 0.08938424420470704, -0.054678937177833, -0.16918387877934216, 0.0699322728660624, 0.2059308756561721, -0.12041647790236243, -0.009975819504723985, 0.07030939530738836, 0.10319129889884304, 0.14772191324114364, -0.009991726180960898, -0.08407018582999398, 0.10193537795382009, -0.17324877215830672, 0.20987064992236676, -0.009999649025763694, -0.11277181149734307, 0.00792417551445753, 0.05705099883217897, -0.11556944734735676, -0.30484992302743996, 0.011594528215920042, -0.24899056176631088, -0.075128811002499, 0.0016812022631193183, -0.10237443616597744, 0.19055379248847265, 0.10518259504504247, 0.002979743321959403, -0.08229477510492017, -0.11132313211215833, -0.07875083929088747, -0.046379812698263835, -0.11617274085937929, 0.26472204874448196, -0.22365204055143867, 0.10025636872772994, 0.16260406752902185, -0.0667658106505347, -0.1711365463633413, 0.1637388259403547, -0.08980239417450223, -0.09692876822928669], [-0.12543983250598145, -0.15041610122936785, 0.33678122550817025, 0.09412011708038824, -0.30852765140943283, -0.14794435056775604, -0.22036290195620833, -0.030763562822893917, 0.13415555051783917, 0.17061003420037782, -0.02703032431828513, -0.041197514559660156, -0.07832042009881396, -0.2263042960795698, -0.17677199152377907, -0.022107185156692435, -0.02481386461858292, -0.04545632376319438, -0.048547465850053435, 0.05667621735335958, -0.02698854474519524, -0.07039295675456854, -0.050169572275517216, 0.04390798920863415, -0.07816402791636418, -0.2453817912772782, 0.006059679982654009, -0.20159865513922018, -0.2231790239149049, 0.12540533708105306, 0.11419052541246433, 0.015848665589785958, 0.027783274750917367, -0.3566132759925509, -0.24730728254620668, 0.0978525068599357, -0.006372374064660457, 0.1005555478771293, 0.1930102817309484, 0.059069728563146594, 0.059396241263901695, -0.09756705009184603, 0.22254304512998263, -0.10331785058421081, -0.17212015069296255, -0.034167369157993774, 0.10449672374782451, 0.08871305123526046, -0.022585015989296842, 0.06500441644608645, 0.26347253246936053, -0.11759924757146499, -0.1677020209527722, 0.2123493460124758, -0.27623822348577276, 0.22813603198661359, -0.14847839806333085, 0.04880279576485328, 0.1558084766588155, -0.05706811671129928, -0.22094933058520735, 0.33637064064909666, -0.21003814503417773, -0.037808379681881214], [-0.15868883500594932, -0.10260711689100385, -0.019666205313914102, 0.05203110055473154, 0.14357102203085448, 0.09834622166628453, 0.030454240393904534, 0.22714684394519943, 0.08855765749232555, 0.32175015365177223, 0.05646340336598888, -0.24265492658876694, 0.1522097760379373, -0.11516349554562373, -0.0692957925201112, 0.008615911188967288, -0.04952208041729974, -0.043278756432566845, -0.0409663052601265, 0.04400256114475567, -0.04455162743637133, -0.03758194246317972, -0.10288487416167434, 0.1848560077786383, 0.22437941900041158, -0.366289256184915, 0.38763411049074137, -0.07911476557060214, 0.0016792881990076308, -0.20703161825576105, -0.10120267589116565, 0.13002904769226895, -0.04718178630238664, -0.13108291817560253, 0.039742230798205797, 0.17461593309935425, -0.02962111934661904, 0.1222496909300054, 0.020816745731931312, 0.1507689573933281, 0.04945458399218375, -0.11768342115183837, 0.032452540043400147, -0.05520683985457724, 0.011630224173886069, 0.23729362157898942, -0.16712299877323286, 0.04794782058156516, 0.01029387422592477, 0.21678906817328988, 0.10239539606583137, 0.1865773255769598, 0.12528397985282044, 0.027594791804900775, -0.25519384977459525, 0.3209677940006119, -0.3279884166880383, 0.17245246471254827, -0.13455507075929682, -0.045294995299948175, -0.16517398170663578, -0.07813894447493837, -0.18558460679446748, 0.04046381926311816], [-0.37977935310232697, -0.31467941968201907, 0.3253331788313698, -0.2185635251319833, -0.1465515187577207, -0.23507836726797116, -0.14392195719247286, -0.13912710699549713, 0.29480280426498245, 0.2414880049885449, 0.005256649013925417, -0.4441146991628814, -0.33579245508263367, 0.34363979139277484, -0.005146244399020603, 0.12023573762275434, -0.11950015903462599, 0.2626177380065997, 0.2645774879303564, 0.11450176093677074, 0.1543434395587368, 0.0674329160282563, -0.4147928496070692, 0.13614113379306125, 0.24003713758772283, 0.0394500064746417, 0.0749602990133341, -0.1586990416010286, -0.1460390664355938, -0.43313463808973846, -0.23900633786442366, -0.08510239311903657, 0.1563026184237243, -0.26028694457114504, 0.06797014444506658, 0.35064637589543696, -0.022578119956584417, 0.1317566813174498, 0.15816892347476824, 0.4054506237486053, -0.168697124479988, -0.009471311405685055, 0.27717288835707776, -0.18503935438678853, 0.19258916291128564, -0.24246281664951122, 0.18684893783913636, -0.06043213955938749, 0.26226683320363803, 0.062021963079733206, 0.17936736417917745, 0.10663407158398193, -0.0854327023851278, -0.27106125106903906, -0.15413249985213412, 0.14109856146695035, -0.48024429374442573, 0.20063086725854057, 0.2837645096876088, 0.1898292576443864, -0.0833071982969203, -0.07566926061621704, 0.16526786056695872, 0.2423654550706327], [-0.23109754656640752, -0.2523016288091697, -0.15145259812777057, -0.3172687229662964, -0.21000002810731752, -0.11492204794331419, -0.1824143833958323, 0.19940301286985376, 0.028932750823861566, -0.016827731282435244, -0.20769943053445575, -0.3409635572721106, 0.11821418130051065, 0.1665934691594448, 0.23194840578409512, 0.27944915558555805, 0.295953182147036, 0.26665062094792136, 0.2528174489209467, 0.1389039993251006, 0.2742460860549889, -0.2308317951922703, -0.5393910593942843, 0.18458441388704355, -0.2689824861707996, -0.0605824801504524, 0.14865144944025474, -0.07040179325916454, 0.0244376260736595, -0.0858698714877008, -0.10808131105528497, 0.35944579928315873, 0.00655938549733129, 0.33703643128914157, -0.06759359002445706, 0.12575362954201963, -0.07907238486012153, -0.05186112268479869, -0.05469685752602879, 0.24043439598242883, 0.05215401275023349, 0.1857798525144871, -0.08359751939348385, -0.19267459970984452, 0.32711584675603156, -0.30292878276909924, 0.2774653686338399, -0.3308551925486881, 0.11790039004896906, -0.22860635246005673, 0.1648095747359468, 0.20558869133215055, -0.23544732895495465, -0.2141723670136488, -0.144764704710096, -0.22422916435037732, -0.21819005805568006, 0.16352778770821086, -0.04800365211247383, 0.018751862653035516, -0.09723338469276284, 0.2299788034983976, 0.2504584555075011, -0.08026978902501655], [-0.30571440696115915, -0.03782800352008695, -0.14657757973041716, 0.19523994664251518, 0.32137957155706126, 0.08807757643990691, -0.2579588878491575, 0.23265605949543175, 0.02833400904758182, -0.3419155681636826, -0.16146371444917576, 0.0794470432497695, -0.12657217072542093, 0.03739240431293818, 0.13582328243423344, -0.34671075859657996, 0.2046145696720264, 0.22470288075122127, 0.19292004486829628, 0.09894610929109408, 0.26364938328485815, 0.22397085070724906, -0.2640579751864556, -0.3916109282386702, -0.19807603975196203, -0.06685913014451293, -0.18922022654082454, -0.4841697929291163, 0.20508539413131677, -0.40861469630643843, 0.22484579795899753, 0.22759484470801516, 0.10612500209631842, 0.34406544219510443, -0.36048547799581787, -0.16707887645898448, -0.03403298655563578, 0.10896245605410917, -0.44203305373907653, 0.17143577567857182, -0.18489019378042013, 0.0038222057630661415, -0.06610830383363782, -0.32371880629569477, 0.06644315059897751, -0.2884834050927969, -0.1548532026591277, -0.14169337673896656, -0.014250512900219281, 0.16401611002677208, 0.020232444084999014, 0.41818963192921627, 0.056361518937336506, 0.07201281437045312, 0.05029901599564191, -0.1773533379448123, 0.03458530878046658, 0.22159934166827946, 0.011781412199227171, 0.05464126522840651, -0.09469099937238772, 0.06626505548173596, 0.042527868580890214, 0.37668704789366325], [0.18689141340408477, 0.09026615146141931, 0.5025889633689785, 0.12114675091257396, -0.09991798767522515, 0.1954791322800484, -0.28816565473046996, -0.14455546605495315, -0.3514123400723926, -0.2911381665925405, -0.24645797608596057, -0.5329870537541356, 0.07297361603250713, 0.22115075714176688, -0.10152242081055657, -0.13549693166940321, -0.3698463845066565, 0.330204273432998, 0.22901595228853663, 0.34651839325053024, 0.17495099312642737, 0.19118189033227873, 0.0009962705222883628, 0.4630142715496501, 0.04102401968882666, 0.22693726929999125, -0.11645848403261083, 0.014386354980879168, -0.4105776580227712, -0.28404424076976265, 0.15030877805622825, 0.2613398471471762, 0.10195397996606641, -0.16674520672512438, -0.0168003159159295, 0.19394704723382886, 0.08531226406129751, -0.02077743151242289, 0.2791320169021522, -0.045553708883005056, 0.5715063055600903, 0.05942355824587066, 0.23546403203333607, -0.4663492271454923, -0.26791522071682145, 0.3379204335554758, 0.5219010184862902, 0.30735580734959894, 0.3457487518675436, -0.1752827207322882, 0.3415502351618312, -0.19884751044504465, 0.04462278507332329, -0.4221296240085994, 0.008074949851799887, 0.17691822218623557, -0.10034653245623643, 0.029784917264662442, 0.0029948834113436972, 0.25450509701563895, -0.3241253421121253, 0.4127374452799373, -0.34571500220105367, 0.16280999527451784], [-0.11738933643344582, 0.20399036308066884, 0.3188921617824117, 0.07850038891368334, 0.12633517921672166, 0.026171388509857684, -0.058234147832313475, -0.029673124930572493, -0.6358019273005748, -0.2062460386935092, -0.055116757052763636, -0.17159708927831618, 0.039705827648239246, -0.11660032912593572, 0.3796520403297007, -0.19408816337662782, 0.4866037265442846, 0.18876630269282324, 0.21768052557057094, -0.0316372507462888, 0.23307803497094312, 0.2253302226182268, -0.2571063327391916, 0.09615730670313578, -0.40746564866185975, 0.08169268366756084, 0.3356897849050779, -0.015015171711474214, -0.40156802947330017, -0.2128178732457058, 0.2956232127606385, -0.09234035706943765, 0.24781334069764194, 0.014701087621683274, -0.36532855709260076, 0.5123305372725813, 0.17682752418713324, -0.17333230863273846, -0.11549340038909987, 0.27707219314337733, 0.4851700352627473, -0.0008839769574357948, -0.05263678696368592, -0.3474763140444393, -0.4981406336914968, 0.2828326806157572, 0.2540317526086628, 0.3313522391622547, 0.024737392597171087, -0.3644860601309721, 0.08052441267237773, -0.39314606164589483, -0.2062978805428834, -0.20430205159550582, 0.11185108832694741, -0.15256956528678464, 0.21654625753962636, -0.11075921347445261, 0.31113708615961605, -0.08668845612741248, 0.14108988374306725, 0.4441926314400918, -0.3722187471723817, 0.3690942867056424], [0.2859795630593156, 0.08978380894029706, 0.22193489281633397, 0.031381384278840116, -0.1126155035095698, -0.09897980049723465, -0.055714034811924495, 0.11403999787851483, -0.49005001215651844, -0.11848331903569359, -0.3706303945942078, -0.2152162251873058, 0.029324287309264816, 0.23425631523971852, -0.012707259004329074, -0.10832511736244176, 0.3638825192494662, 0.23115878922861255, 0.029651042759439212, 0.2615555243658915, -0.19386726630211848, 0.6805722059195544, 0.22821428527151635, -0.1006038482669093, 0.24117621605596062, -0.02098775701130721, -0.017589987613058473, -0.2108177110696383, -0.2764562182950908, -0.2345899086111691, 0.5046552796616978, -0.3045442408368058, -0.037685004450736304, -0.4902933385688421, -0.22114620513771285, 0.2037520271685388, -0.028057348663382328, -0.17347371408350104, 0.23043431772074302, 0.42584868271250564, 0.39434326881828724, 0.02879581289491837, 0.07210720670881882, -0.4808357006515418, -0.334310536787234, 0.3991633388498341, 0.4666832275388919, 0.31977346383602334, -0.01384652252714452, -0.0363192654733964, -0.23354658097353345, 0.30094966961689257, 0.07934314827989475, -0.3363841025552826, 0.13128258090333153, -0.03195454023420957, -0.2285858719569268, 0.18551033150588941, -0.19262622102346463, 0.07357901062092227, 0.3805530103081503, -0.24511839263358132, -0.5176755491172191, 0.12257364013616509], [0.13937732015500764, 0.07755709810352386, 0.38337624011513644, -0.2573533550857303, 0.3314456829369425, -0.2817242399903828, 0.2170752428480624, 0.11946833709917042, -0.11095373979995503, -0.06390892361835286, -0.2808722443119459, -0.3132252855669802, -0.03484103572766211, 0.20948142083015897, 0.3920150202820903, -0.4298178663136073, -0.19159835362467664, 0.3189915396552846, -0.017960815399667984, 0.4095657824770195, -0.055167713625578776, 0.39116124531782814, 0.32213296902913846, -0.1456999997242775, 0.04912141558453483, 0.2665780739225885, -0.11005837371041038, 0.19158296738373873, -0.1950034718518817, 0.0038151231184795414, 0.5674328973858997, -0.2532149923263951, -0.09097137548237037, -0.11346737749389821, -0.03798902457830196, 0.27947987321516066, -0.058588358277216576, 0.26939075543615293, 0.5370917198573272, 0.3932676650688345, 0.45855658789458925, -0.024327154421430134, 0.19521755940980656, -0.19438521826587712, 0.08097028511884857, 0.40911867145532577, 0.6692736505501615, 0.26966676039350373, -0.17390885928384914, -0.099311269080976, -0.0727157233978294, -0.21297644959249817, -0.439923655057385, -0.44463227457958554, 0.28635138247068054, -0.058355578514650557, -0.3117508121696291, 0.09390532024290484, -0.12059999726406917, -0.035214383891937616, -0.08524527776850449, 0.006292868017866913, -0.06766120529668479, -0.19440067302949443], [-0.08985965347714966, 0.1552158631015112, -0.06431599921368089, 0.10238601172097167, -0.6361851455908066, -0.13759936999102726, -0.03207680513119173, 0.22529740885409688, -0.15678171730980112, -0.04465160041962303, -0.33618158956713157, -0.37001606911781, -0.20797850647389451, -0.11125128229252941, 0.03905272347832085, 0.17711691489081427, 0.20808574614884776, 0.3607676416132521, 0.09937654785546239, 0.4696596839890403, -0.08104253847133508, 0.401059566059285, 0.18123576765008212, 0.3561827837349338, -0.0213077565511643, -0.020447048668524218, -0.00533378303394791, -0.2705226609921729, 0.07952002078073638, 0.0633551036422107, 0.2408602810978356, 0.25272043478376394, -0.13550192419339216, -0.36541848004392297, -0.16652300341914666, 0.019573091188356154, -0.12656349943688894, 0.2960466289397227, 0.4887525185324061, 0.11370688351103035, 0.2863942481687955, -0.00026193887552527454, 0.10100476982514854, -0.21339399549467394, -0.04754003391161789, 0.29584671197158596, 0.27594386496122636, -0.21756694797206588, -0.24468984818954817, 0.07720113799935567, -0.09845030680505576, 0.10772594958515315, -0.5583814298956151, -0.6132992870429883, 0.6091563033799248, -0.1059113592203079, 0.25274430281978344, 0.1288604998088126, -0.32040846674720525, -0.3151221667072066, 0.011457780878994902, -0.043623757526829836, -0.30091505828728965, 0.3070303735485342], [0.03093505792756415, -0.30660557087842494, 0.2398107281860455, 0.09340987930791096, -0.3997281194234483, -0.12244438002335735, -0.2909104674926587, 0.18493292404600437, 0.06849317442410424, 0.02564778596190073, -0.32167983427817004, -0.47563474229617014, -0.141947273783719, -0.02677063028214601, 0.25061812629197533, 0.06221611086730877, 0.3112087066220959, 0.3362340047304421, -0.09515170624104631, 0.3805961237436088, -0.03103370704302938, 0.3690310901260872, -0.03645104287960425, 0.16172774324085762, -0.19889346670874536, -0.23253846299933392, 0.08687860914463863, -0.2193012632330757, -0.1919741410056802, -0.13027806154172578, 0.5058135193449799, 0.18193482727663407, -0.24978623357508134, -0.09061017917863388, -0.23693372687936845, -0.0009102656884371806, -0.14423135619116392, 0.17093572079918323, 0.31023336612394947, 0.2355637480518521, 0.390738222540897, -0.02566963769359414, 0.18249114503084893, -0.38488820079656577, 0.13070382070772932, 0.3553995772286412, 0.08735374761150577, -0.35031182426217683, -0.11315351727584108, 0.3645227605459729, -0.031546256893842925, 0.15809695347124447, -0.4763137521412432, -0.27281874303965137, 0.3797411958458771, 0.042857025677895594, 0.4052695580135183, 0.3642126358514616, -0.2980745138075893, -0.47291794552058775, -0.05413990924080681, 0.00464124762707503, -0.1918103783551626, 0.3641767849249913], [0.31714728894702743, -0.2925658285381374, 0.5902615962878164, -0.34788842834513733, 0.10054551219229994, -0.28540347254270093, -0.14650435723157249, -0.09069549211733113, -0.42046796538612635, 0.28054405385347625, -0.41734902390744455, -0.508034089622008, 0.14591150687254556, 0.15199363246660536, -0.040052680301219744, 0.49188675537967036, 0.2560857624524039, -0.3807963368174394, 0.10572203612833586, -0.09513393127891309, 0.4440747214323558, 0.04795611348641466, 0.10642264167878776, -0.011347819110892492, 0.295016479652974, 0.2151118244764246, 0.40780033398776855, 0.04534947748534323, -0.306344537085583, 0.047826017720215816, 0.3583129188594226, -0.25532565204948626, 0.091292010806603, -0.33588932670768357, -0.23658440644407885, -0.2608353825559163, 0.02859100039446052, 0.05839629531559554, 0.27932514014066073, 0.2937756885123291, 0.5502736705977305, -0.08215793775534252, -0.21549002405086012, 0.4385344728701809, -0.4445981803797761, 0.2159612054390148, 0.27459009430866843, -0.18489153156199742, 0.20574445208179784, 0.17976869053878572, -0.5217493470149902, 0.1914485819788711, -0.32622932805817534, -0.6593296406919142, 0.436725136180417, -0.008155510430296543, 0.002958894484983898, 0.28563519867922144, -0.25451187941976694, -0.32140039260641007, -0.1724145971116115, 0.2191674804455458, -0.4541913259122507, -0.03090374845542147], [-0.29101923520143796, 0.2130032503413238, 0.216579117067094, -0.13580540698359644, -0.1823123074788643, 0.006735087945702651, 0.21218423486388588, -0.2499475366034448, -0.155449619585644, 0.2915429851260399, -0.1309031086097708, -0.12243771318287455, -0.17018789726978703, 0.10451681739001564, -0.08015520057574994, 0.3045774368099063, 0.24601626788810255, -0.28908277928944276, 0.021085919057564254, 0.4800799091457707, -0.06961825297543114, 0.2720837960920153, -0.029280444148876986, -0.36475815189285676, -0.13945386382278346, 0.21887570997790814, 0.21988713065928833, 0.08995904924548394, -0.12102641719738214, -0.014015518539570027, 0.6765836637489351, 0.17230872140224948, 0.40348167802166324, -0.048141506447220955, -0.12784069557219066, 0.1858349239081021, -0.07940377426291317, 0.14261297692170324, 0.21741110342740935, 0.01263399747538492, 0.4083775709748361, -0.03586823788781045, -0.03881469963908324, 0.20368360306373626, -0.11569820350661378, -0.16267588837429828, 0.23046718265199978, -0.43277559620768014, 0.20734713650062753, 0.1398679616869507, -0.36058588777657524, 0.371783803699518, -0.30728844816882045, -0.40842688553098033, 0.3161816249021133, 0.07627213699202309, -0.1286751334521304, 0.33020967113155514, -0.25292167472766847, 0.5337844574492913, 0.23059416012463482, -0.25131903768273, 0.20311368927992493, 0.23988468272215355], [-0.25264929319975765, -0.08002782820413051, -0.3300772143818779, -0.06492969282091897, -0.16725376059663305, 0.11374356752893636, 0.16634128143315483, 0.2591450331944249, -0.3343575007645139, 0.0894262381097905, -0.12306698260082645, -0.19809104238343744, 0.31333055975200025, -0.20443335042989438, -0.016519731049902023, 0.13740645954338687, -0.13587874878301648, 0.01853326114226185, -0.3078458108172544, 0.19298437462787943, -0.1819721323861788, -0.03761702658702822, 0.16255566204296618, 0.4261693026155919, -0.10884084232032495, 0.24770794988740577, -0.15594765185533416, 0.05947243545337499, -0.11101156227352654, 0.11388899631078477, 0.3974981469495657, 0.14625583782343105, 0.1467413012941911, 0.11172469881006503, -0.20291979980305624, -0.1016432967722004, 0.04966648871111631, 0.20382235866136436, 0.38650628641485946, -0.2571118085158376, 0.2889761269803863, -0.018890925543873317, -0.3025793190711821, -0.035280977514231954, 0.03391922569395556, 0.2660468973541202, 0.30477866741157494, 0.19610618760043058, 0.2014534418600804, -0.3267691796910169, -0.053178796351104174, 0.08181058388485185, 0.004636585299938112, -0.3845737492535527, -0.05823917121772338, -0.3748307674276048, 0.23100890811301447, 0.254188619661302, 0.013931908078556519, 0.2088736674464997, 0.14504995695435807, 0.21251961420884743, -0.3258044198064892, -0.16300772885424006], [-0.03397912290134881, -0.17356468274073866, 0.07813977542528411, -0.4205421362145878, 0.07841175088131551, -0.1324738294471152, 0.03143142939972631, -0.18875571781453349, 0.2575656526994222, -0.33807291734394607, -0.26708442793547166, 0.12458625325205194, -0.29663120081040356, 0.02655681237646235, 0.13551216794920048, 0.24968470811101312, 0.17331227685847117, 0.11633481759151881, 0.3849698283331409, 0.17615468949626456, -0.21041298614127604, 0.06422589097491062, 0.2939887738961755, -0.336630682692198, -0.09210410792378962, 0.2878065165593842, -0.14242788495073472, 0.16300752841560018, -0.32546365262258814, -0.17800518777037325, 0.41540682986459304, 0.12294456012264579, 0.29972479435229377, 0.2151671971912339, 0.24761243476860437, 0.12528522191794778, 0.12762689720456802, 0.14367868410490817, -0.03732787067508133, -0.09301003246418575, 0.07039443005164772, -0.07115441134795969, -0.25936630650525516, 0.41734679096200317, 0.01799390490104813, 0.025281558727244774, -0.20239837080697942, -0.02095148319153969, 0.054965611751137636, 0.21544032825559367, -0.011311349787424721, 0.03653123690675179, -0.38301587631780615, -0.13395418679475923, -0.059922184979636965, 0.12981982942184372, -0.13250605872518192, -0.1624845431715371, 0.4834901821669931, -0.2107214404297255, 0.05331667440764026, 0.439675406966142, 0.1370914580093637, -0.12320381550162568], [-0.19503750961225028, -0.1890786839328353, 0.3262984905326586, -0.1648814260675868, -0.30022223794199987, -0.34913089019558985, -0.19659752451489987, -0.1496544997942409, 0.2952599277024683, -0.2815272057989338, -0.06467966311052478, -0.41291867709611146, 0.07163849709606687, 0.33469089944120467, -0.09227561126829054, 0.1396735836540537, -0.336896989335711, -0.12991897691078322, 0.3133848250688295, -0.017962763593266956, 0.42383539680289756, 0.07980295251469505, 0.16678204621528778, -0.05670263905558426, -0.22033836636228063, 0.007977294283354405, -0.025568319963350458, 0.10604989862507565, -0.10493089610228308, -0.2788981053338173, -0.22903692501561265, -0.053093925528747275, 0.42957162832554757, -0.03938062206239469, 0.3037679096394915, 0.059201806540682224, 0.02909174201134523, -0.002551202646253124, 0.1458525251571791, 0.1974946390628513, -0.19895655647307509, 0.14273432751283172, 0.09606571720310993, -0.1511781107029522, -0.16633493280900805, -0.11912773395406426, 0.2334926624171861, 0.1208387047625788, 0.03690398028518325, -0.03876189194678384, -0.08915089486327536, -0.09925352302089738, -0.32877050904718885, -0.43186519716956523, -0.006422289670513075, 0.18735262165646352, -0.07328358966204879, 0.016002031624618256, 0.3018252117767451, -0.00807091245945564, -0.020670747670820198, 0.20556657648317622, 0.3120879261187624, 0.0852720867745269], [-0.15487801985313338, -0.24754291935410153, -0.02888514492829891, 0.12311257635046276, -0.03809599897095626, -0.2785202618886025, 0.294872798975646, 0.04010076978757497, 0.03473120587939137, 0.05105981694052598, -0.1921019489481324, -0.13286024122306173, 0.03894533595415862, -0.19707572945511048, 0.18748400604791987, -0.22682053644596376, 0.17322407951743704, 0.18164173944944173, 0.1516224514205776, -0.23270451005424964, 0.019623984027125715, 0.06349669056841534, 0.009879786734404183, 0.06419280401073338, -0.3073155653568439, -0.05164077309930626, -0.07863394032396785, -0.0644349842457284, -0.10391310786849015, -0.05477904500301877, 0.1691942022847436, 0.11055922993177414, -0.17476223179032688, 0.19958757058726653, -0.12087657760615143, -0.052775731710353255, -0.14657312063150396, 0.022940530748925724, -0.01595221740807805, 0.013417216098354537, 0.07817877147207287, 0.11208382551769405, -0.009065920584044799, 0.15444379711904468, -0.08606504758538418, -0.051845708245636536, -0.1414639252271057, 0.08462540892414623, 0.07573307080918575, -0.1522092755027926, -0.04249822627389014, 0.10095597988927102, -0.05967584640713204, 0.06418952333057086, 0.003538668888354968, 0.05702998900842463, 0.10600455528893848, 0.2240220985420442, 0.17672157486417406, -0.31470682727764604, -0.05891520030787677, 0.25883024065315635, 0.0038350893310717966, -0.053253337469867795], [-0.1308422180331793, 0.17683998848485424, -0.294204499468615, 0.032176404622151274, 0.21695562729064452, -0.16456009136652383, 0.03974507924866451, -0.02519621867871006, -0.1778092968446594, 0.015405665559766888, 0.04062706788772474, 0.12901395877269445, 0.01097181353671049, 0.02101657151129849, -0.06363035059808052, 0.10712453739928486, 0.08801491113281742, -0.1513484375055294, 0.07400999739961334, -0.16568169934244878, -0.013067030613037385, 0.10592661427063961, -0.015696498147228545, 0.043991396298146176, 0.17258192719417823, -0.0629128290115668, 0.06739913068339656, 0.03666088683552663, 0.09500950454405634, 0.042490794833093606, 0.045594925952381606, -0.009244658310558587, -0.03511414252040972, -0.022460815125071067, 0.10642623527783984, -0.0625513121123147, -0.13248906686021877, 0.007025457873832994, 0.11660458031723267, 0.15871016118462242, 0.03902269948621849, 0.12749297181439742, -0.1756326057239966, 0.13391892150017146, -0.031696881213376965, 0.030613792563840714, 0.3757198061575997, -0.20233592775522516, 0.016211248677796178, 0.03834913732440982, 0.023551558774743284, 0.08645472908791522, -0.015460739506122773, 0.06802317561693223, -0.1397896099043994, 0.13764026653609251, -0.20976843239199122, 0.18815508834956232, -0.05906213469585278, -0.010292693711203551, -0.16797193625359577, -0.08630506215419019, -0.08230633220808824, -0.1755875533688612], [0.02717630388667935, 0.06212102876633128, 0.011606399233035762, -0.06336340010872483, -0.19593555198859736, -0.13769015497785475, -0.08200868885944251, -0.05827096187689155, 0.09236948895944798, 0.09765905660467841, -0.16207376662642803, 0.13048824326404831, -0.06879622892012204, -0.14980312017298883, 0.1376346736297823, 0.054141127289901406, 0.1256102829460626, -0.1772268261417269, -0.09957056893186317, 0.0021948748104822354, 0.03135488588908703, -0.06510335515394398, -0.08786872039967933, 0.11262484407847324, 0.1003002054684455, -0.035586144048106345, -0.07692903333123886, -0.1716287026340493, -0.0006808959684119312, 0.18186677903235346, -0.05986561968334547, 0.2083977099242701, -0.010927763824979498, 0.13211084570778417, 0.04170295214860539, 0.13035382561483982, 0.09679891875498345, -0.2804628374320363, -0.06856448197761937, 0.02301736737098326, 0.1802153760387632, 0.05372010548493435, -0.09858274509895182, -0.073614107564693, -0.03909251035532885, 0.12130071585910751, -0.08527387863821444, -0.08154030147079583, -0.046243136395195845, -0.04342932093416965, 0.09258856823469508, 0.03549398906950291, -0.03284787545349487, 0.039769398162364945, 0.009060772856935618, 0.022566650067852075, 0.003981290086156141, 0.1666836184723448, 0.015880190776332462, 0.11919699200739607, 0.011195274784560099, -0.06488443072809079, 0.09032183239570736, -0.05188161783479387], [0.12374231209622473, 0.15932302700499437, 0.15539755811596823, 0.0039450031985218325, 0.1651895183142667, -0.05606083887326137, 0.02862765775172963, 0.240091942014833, -0.013081707926046945, -0.013999777548591191, 0.05901146743958441, -0.16566703317847362, 0.1990108210360692, 0.021110411198479357, -0.013429962851766845, -0.012395557186249854, -0.07651435645001665, 0.11975978626917601, 0.10343402405483962, 0.03472530923015146, 0.017223277492282776, 0.0972829451261234, -0.036210454647786834, -0.07063599936438929, 0.18712045898133012, -0.07301955351172233, 0.04148164183555723, 0.07036677336242574, -0.1207716036887552, -0.16036481080800558, -0.08923170262633301, 0.08646171469602222, 0.29417780549665745, -0.016550825417806014, -0.04905636238678745, -0.09250718722638433, 0.05865721400215377, 0.10423378164550821, 0.030106262997095574, -0.17123879310753132, 0.06892136881689796, -0.09158116015449874, -0.0104414702619637, -0.009884264251089242, -0.06598818954664736, -0.007850181056862023, 0.11043747455312439, -0.18310788673873124, -0.03042323572841929, -0.10488476831132361, 0.03467609071061601, -0.08541853112973587, -0.03910085090963589, 0.11122068298971798, 0.002599198477324487, 0.1412317082077463, 0.023701470047710393, 0.18897751227054513, 0.0125229249263456, -0.008646886068731338, 0.039639783067129224, -0.044281673418276164, 0.18784098451349812, -0.015659553412374454], [0.0648477373979877, 0.0675420086688524, -0.19921089810430773, 0.0032096032868945443, 0.19422737079800617, 0.14029309859176547, 0.0015118189625533036, 0.08927065866057012, 0.24936280248202636, 0.1721446935398906, -0.081442708466582, 0.06223315525919643, -0.014560095917270005, 0.07481403377705158, 0.0006174722637342231, 0.04698922259054317, 0.0888136401895388, -0.027478477715720807, -0.1377762800682989, -0.010254250293858893, -0.05513810847742199, -0.00915319398397242, 0.04274805068732038, 0.023564916873176463, -0.019911599040817272, 0.07227545478999832, -0.010246495965231249, -0.18881098753649656, -0.05320254021901493, -0.022623402830120567, 0.035443844378552164, -0.05618081476405279, -0.025968645324494912, 0.09562169489896735, 0.023838282310707642, -0.1714063251555098, 0.0011015071138894266, -0.06764960275661229, 0.15507510687989862, -0.13225749436759013, 0.001167329413014899, 0.08922452741285303, -0.012125722570402335, 0.06358903966680785, 0.05677384302837998, 0.04271220371358449, -0.023113429953899207, 0.2542126841781026, 0.12520915738928848, 0.06516075630715941, -0.05500984599022081, -0.19187246879964992, 0.002271909932832997, 0.0031880440803595984, -0.029075566016050047, -0.0020115344224721616, -0.12369006390467259, 0.12101390328852775, -0.021715255902296407, 0.15503336586782612, 0.025794418378671954, 0.04845985018588488, 0.1304558880936079, 0.20454877005936975], [0.10534107731307832, -0.17631974565461495, -0.010832572509134799, -0.030884276820792207, 0.10535773122168501, -0.2711874308315552, 0.06539675269983194, 0.026377333722575964, -0.03237174393434514, -0.11912458579997381, -0.08611778175815363, -0.04713314215657792, 0.0007584757294403117, -0.03965904923297017, 0.02097164317889024, 0.06327258762453894, 0.10842246042758759, 0.037598379280544096, -0.1195388340619049, 0.1949089883246559, -0.08712799078051123, -0.14966221963471227, 0.05639728916914055, 0.16576847503702893, -0.005395644036422816, 0.1189222637099967, 0.05977826191739556, 0.02266345062255112, -0.0667008765379644, -0.044086404077864454, -0.025778094580959306, 0.14572647155152904, -0.046252355152651733, -0.10444262183221065, 0.17597608120703143, 0.007473659506464965, -0.06766098072284998, 0.010546233409605633, -0.15001731958831196, 0.08342120025065314, -0.09725871170632733, -0.1960788265362917, -0.02612023287702611, 0.011240185819597038, -0.0507982008627284, 0.04939272791374865, 0.11562448872029885, -0.05254042488399496, -0.11704279894772654, -0.024052072830092395, -0.08652588350933203, -0.037481347340495554, 0.04754122551823672, 0.0433237422368474, -0.13505252525215916, -0.11050342126717555, 0.026737751772265363, 0.07984642304962122, -0.10108741141338465, -0.13340735413861798, -0.046457731979968275, -0.039336654490581775, -0.13621686852795942, -0.22790083374366704], [-0.09518246569805748, 0.27397938719836673, 0.16451035940171393, -0.0011460661815533776, -0.24488313913048781, -0.08447402646669451, 0.08894480328870519, 0.03137414734161361, -0.09185151840493212, 0.10077850131764275, 0.39659952889552585, -0.0342885275144134, 0.061648961612095536, -0.32344619392570617, -0.14515621420036753, -0.06302915284612493, -0.16305416500927128, 0.14101787892531376, -0.28737416616114464, 0.2641898125817913, -0.2598104873977813, -0.07048694146016521, -0.030905057801749965, 0.13265710086860713, -0.37136033868511453, 0.15246906798819698, 0.27645080678327116, -0.15352145061473962, -0.13389565586044608, -0.145780561851902, 0.13299609108189903, -0.23700143631121395, -0.29968568963196834, -0.11541856457579512, 0.0648646394229054, -0.11705574528256227, -0.039634469627964415, -0.00970926790031492, 0.34984044815351717, -0.0264114280397222, -0.174401893348468, -0.10179454189416062, -0.12161250434914958, 0.34832588812521864, 0.11866355115556168, 0.27990662789401993, -0.18891454800819824, 0.26182918024266505, 0.4643960316675063, 0.009784228562101314, -0.21518348965403056, -0.3330359867453144, 0.14150945563531364, 0.11709287083702044, -0.007756293200032932, -0.15901511514381125, 0.34089608407664934, -0.1680403982043477, 0.02080494214490538, -0.2377971380184839, 0.01603192979456111, 0.3818728046638704, -0.23472644231611978, -0.2738359333355247], [0.21788030937772, 0.2780002999270337, 0.2666638589305716, -0.16985212592493842, -0.17596997308966383, 0.028144698569309474, 0.1227604295838178, 0.059713706642017125, 0.498088560226204, 0.12015667889126322, -0.2560972671561682, -0.11793709829119285, 0.0262378014392392, -0.16527033795478405, 0.10493829510456956, -0.2603167915243712, -0.3390770945468334, 0.28116829508942387, 0.03835545584743444, 0.26894741908018865, -0.23609315958101731, 0.05164066271214425, -0.35229437440815314, -0.2643022750797525, 0.14058148925012762, 0.1923184620887668, 0.07967053895556778, -0.3905993736162401, -0.1443801908779714, -0.028755080385670886, 0.38681695447738695, -0.14353383941922918, 0.32899766762246874, -0.13195921401464406, 0.16405651116754988, -0.12438538713523681, -0.084660689317806, 0.21608620406286203, 0.2911506365845728, 0.1846649221109581, 0.11352677160226124, -0.04070106147977164, 0.3212862177694095, 0.029855537248718117, -0.04363207580966781, 0.02926270172438144, -0.4595770088810712, 0.1127011738283744, 0.10903391513924039, -0.12556027803528938, 0.3510092146218368, -0.30199377319026083, -0.16080277832362774, -0.04430423896014368, -0.13607048758157003, -0.3145675001382391, 0.1146375508969942, 0.1885306857656476, -0.5977271087167801, -0.27170349780283326, -0.15532296963271142, 0.34378041579071905, 0.2985489549637239, 0.0845072367677591], [0.13090660488088074, -0.15161479452149743, 0.36168558849121374, 0.05666687334386981, -0.12113918488984762, 0.10518045262517005, 0.1745848862108632, -0.004367926206388045, 0.44625219433671975, 0.13426679552377277, 0.10843596552565746, -0.17574911589038802, 0.31263149197888496, -0.40301083318553377, 0.19808896134427684, -0.208188390512389, -0.15124285503002194, 0.14762898827432447, 0.244779338606563, 0.04330136020204439, 0.11031338890566976, 0.19534771832353925, -0.07719954143351238, -0.3183820813916147, 0.20920543039945064, -0.018230597974791252, 0.3163985925859784, 0.03553543012636733, -0.11169799738840819, -0.18055413181440974, -0.037416479628409986, 0.2788371654671711, -0.1146690316278088, 0.11360927362939482, 0.022646942985949957, -0.2877833513257404, 0.0459071870194008, 0.054948744850889034, 0.15255303938045145, 0.00861116678085353, -0.0737865877371472, -0.007411469698635413, 0.2810501731929015, 0.18410367663836613, -0.27861177548765576, -0.06293128401152599, -0.26195871446847396, 0.12285809051719608, -0.14524404967975224, -0.3108772639591368, 0.13646630112726613, -0.18233746846519547, -0.09367630815859489, -0.186998796507316, -0.22948522648085418, 0.21815663599323287, -0.3982765645268972, -0.07941096513221534, 0.22148146821153747, -0.05791565130391539, -0.10504258330792755, 0.22886247345221522, 0.009395362630226455, 0.09268613742405117], [0.09220313427254258, -0.0519727212507652, 0.23952800474634187, -0.09915875749758074, -0.06664654307815472, -0.15737793750808404, 0.2677520062713108, -0.21235926365258267, 0.4131162406834545, -0.10091131155776197, -0.3275008300970572, 0.06085421986668443, 0.08696981730137757, -0.2079445823449043, 0.06171517268407772, -0.3199125482914029, -0.010709889046345336, -0.0015609072706287215, 0.06122382053082729, 0.17944984148758616, -0.4651811850319251, 0.29053092052771656, -0.11755010718396523, -0.0940297982373405, 0.06593133754596668, -0.00948745849101161, 0.07316537168559645, -0.4136060208330754, 0.24080043093219713, -0.1104925260886631, 0.026429412175165076, 0.08749354651184763, -0.1270881181675598, 0.040973516486856904, 0.1724370707147613, 0.0878317897698257, -0.18820730998294616, 0.24651699291490178, 0.03744373090608206, 0.0014771295153808385, 0.13383245720102618, 0.29061513244820864, 0.07320382998072635, 0.1119585751149819, 0.13426359015561387, 0.051973550065655044, 0.2385398308259537, 0.20058350736753935, -0.44528042463941164, 0.010532464471514884, 0.007041709936394729, -0.1110378345858082, -0.02628100922320939, -0.2401294925437425, -0.0151329825509907, 0.16806006889968172, -0.12094415042275641, -0.247183521334684, 0.2698742161275955, -0.023952735030420967, -0.13113248213306875, 0.11356161942531261, 0.07407580929993514, -0.3689735835917462], [-0.2676160612011398, 0.07561286927509396, 0.4349541733069517, -0.10062713726828001, 0.046634306960704884, -0.16663788912846453, 0.14665983070483696, -0.08807426986412854, 0.0941967431565411, 0.053489030264093275, -0.2507111310141183, 0.000686180984852851, 0.25087555367489583, -0.32113548007904247, 0.07900603811203544, -0.45417599988885765, 0.00926224441210629, 0.3110969784778044, -0.21084378228304168, 0.05253447615755618, -0.10156521058672383, 0.13075791577198548, -0.15307890275463465, -0.4949926913462898, -0.1011807340590365, -0.2686790917954546, 0.10125860422297872, 0.11580431407287602, 0.06773254524751227, 0.12181573307366204, 0.3075641045361758, 0.2574127871259279, 0.10932817137289094, 0.19914896112703354, 0.0320014050993086, -0.24354705747506158, 0.16960360047099907, -0.2109470139813818, 0.05167961929706774, -0.053398486526793826, 0.1760025498946672, 0.10719204027809545, 0.23984518421914153, 0.1519152986061988, -0.07447623663791707, -0.0983521405795865, 0.03176643887804677, 0.03842062178305526, -0.28615106906757654, -0.2633737071877832, 0.013193842957046889, -0.15345975816686558, 0.22567088935740373, -0.20667976644160363, -0.14014935921982585, 0.09527198278327993, 0.0633215536397212, 0.3330498834910065, -0.1929083305580167, -0.12902193242207338, -0.21225321082572396, 0.16864326301461824, 0.32348844057195547, -0.13028747184478962], [-0.17055781987154037, 0.03667462940876166, 0.016539976116525357, -0.07397332243117521, 0.026809052671373935, 0.027149250513681313, 0.019769675620149807, 0.11910197366088138, 0.22942649419911518, 0.0016636254949306726, -0.16005683774749702, 0.06176793235353207, 0.418309792935476, -0.3233784292565054, 0.050248098235577465, -0.26940099542458645, -0.18258833068646205, 0.27242398233505527, 0.012416355552906863, 0.06881837021412977, -0.2750681403405259, 0.07340593785698211, -0.20961295259985216, -0.18943342982433037, 0.029876966739698155, -0.0419846919854473, -0.02278955394291069, 0.1714630079360331, 0.06651896437126877, 0.09201885532658613, 0.4310244430357942, 0.02547501642227988, -0.12748815102136277, 0.11321752093920637, -0.013036645978123174, 0.013033118627413085, -0.2158117512307446, -0.27781689261723413, 0.06797171514841181, -0.0695185774936353, -0.10799979846160147, -0.06291288459543835, 0.04646026243763034, 0.24625653082859864, 0.11776478310070942, 0.07721841041114673, 0.005316886527359703, 0.21792696176357876, 0.17149391714128823, -0.09958116258360497, 0.0976974513783588, -0.32584960388394957, 0.08186409450595626, -0.2019688282198986, -0.2365688850409179, 0.1108767176956762, -0.14310271076575976, -0.09519101857788642, -0.016297058075731424, 0.14615099928161562, -0.3119291406239141, 0.23200027697227046, -0.21912554469268808, -0.11275857615412435], [-0.10956748104370895, 0.21632995734912924, 0.2758523010806899, -0.05951386921825399, -0.18725641751993138, -0.07763477249202325, 0.010321776365694396, -0.12438485750106107, 0.09714921344880563, 0.05959108708399551, -0.5715587897933475, 0.26920853420668994, -0.08151689215731725, -0.26924169750615745, 0.18164747598564726, -0.15898251960428686, -0.012623325357002266, -0.10900579347173504, -0.13713712043787596, 0.13168278150401816, -0.2564299653908123, 0.22353605832735826, 0.14564902071717725, -0.12473941030172996, -0.2124913297802775, 0.06902621809624422, 0.03109856578946353, 0.12148693889960775, 0.12377522287832472, 0.2859190090158987, 0.03720730804394973, 0.12063390448722948, -0.01604541350441299, 0.3819414213179999, 0.09693085377827873, 0.1103217001922984, -0.048919947014037825, -0.2306249903424372, 0.13739508833619726, -0.2288451075984945, 0.04899699672314137, -0.1528467051339686, -0.011179869840779585, 0.1727910751803142, 0.016714846490604698, 0.1489440617839979, -0.18181245832886664, -0.09657899044612614, -0.40669308121487435, 0.3644108987453619, -0.0388382727963212, -0.10727340352898139, 0.08256052540443237, -0.05828123998906906, -0.24768465678864982, 0.08307222390266349, 0.23069623698463532, 0.0717166578405372, -0.1823956142887045, -0.2624642473423147, -0.09481661386577021, 0.34541547981254966, -0.10782594705480297, -0.07113470487949584], [-0.4098054841715457, -0.010083435497759639, -0.10616021028346112, 0.05505216123387672, -0.17106926906322362, -0.10928515318598256, 0.3225981350516331, 0.23444055770480723, 0.03790115639935036, 0.09736601607148028, -0.3244313155719641, 0.019943643450931338, 0.11116379567391335, -0.09669230216444669, -0.10479201952651859, -0.19528889942140568, -0.22274915620261623, 0.1844119783736081, 0.048789146992117, 0.18662372460934443, -0.04769375286184618, 0.30152532083886985, -0.040371057706178104, -0.0038589044467830574, 0.18726904677359638, 0.25674573975977355, 0.22775540890581383, -0.22879963611941137, 0.09528629548080664, 0.10440552255203683, 0.3399311623989917, 0.10370633264472481, -0.13871125537877088, 0.06523337705759608, -0.08450780827768993, -0.05568389096331107, 0.07676988807035691, 0.04727741331263028, -0.08335065884790818, -0.0701944363392433, -0.2926668910839348, 0.07394004204921133, -0.06932367940295918, 0.0848523215995498, 0.04192657454613148, 0.1242052402851138, -0.06808990432087109, 0.1239998299522011, -0.33255004370930813, 0.1434299634074944, -0.10674206442558899, 0.0486023077494894, 0.0686794487260336, 0.26584824049907646, -0.01663860572256186, 0.25243530521975877, 0.18463721139541167, -0.008014622853038717, -0.18528389969058626, -0.13710018479069497, -0.24994606205732492, 0.31611595625342437, 0.02289989408200401, 0.08182683390915843], [0.04036320848690646, -0.1810290511750161, -0.016459317769792918, -0.060884526435558965, -0.03381880161380247, -0.2278559892375449, 0.1748367995687473, 0.0778564759393387, 0.2070726323459022, 0.13844663484221373, -0.1951790014921943, -0.1124579352427204, 0.18663505193240992, -0.016845860909473803, -0.14129755034255412, -0.3927920382344783, -0.04077829859216799, 0.10719376938136402, 0.11841575247689631, 0.16389618965948285, 0.017127962425331756, 0.3113545658923501, -0.08272280417637484, 0.1467231456103737, -0.047687012220245094, 0.2153373278852487, 0.06868703837417982, -0.24012389561202457, 0.12236825161443446, -0.0039072208202812, 0.2851155388879951, -0.11255435270762353, -0.2978786887469819, -0.04702066536481152, 0.11382317653802926, -0.014836150782112693, -0.026084369664506037, 0.16012319321854893, -0.12073260293758895, -0.15102392321100913, 0.08086855337130769, -0.01108295965875288, -0.0005622023117610137, 0.13691859605962123, 0.006692494919945656, 0.15351228486494448, 0.024648043642249488, 0.23969770205744034, -0.20760908169044404, 0.16947874881818678, -0.10935133652901717, 0.21629777515737666, 0.08098194086896009, -0.20760784658632025, 0.3303618589575599, 0.10450903722867413, 0.06884366831739767, 0.1872044999926523, 0.0772187586524277, 0.03233544943309195, -0.11447568609528348, 0.1813696080836244, -0.08283639534603389, -0.2822469812578131], [-0.2216179613227874, -0.05335976397215335, -0.033020525386607984, -0.025743548927605445, -0.12136347263183482, -0.0017096141838784198, 0.08672096044240578, 0.012614894104849674, 0.044419575241957936, 0.1303049233248887, 0.18413328807844523, -0.004093097786160569, 0.27536221658440785, -0.10582488758229663, -0.04348168122691074, -0.15143751202711742, -0.17379017562641103, -0.008140368971197177, 0.22386762103309255, 0.26771637781992025, -0.04615834357903785, 0.22306353555490452, -0.08707381633979044, 0.01046358106162872, -0.2740502523158581, 0.26188270564478894, 0.14420932791372604, -0.2291003266466533, 0.06142172112587624, -0.003842296216097691, 0.07174133648116142, -0.10018536066495835, -0.12272033275496859, 0.2470971818892774, 0.004454610326090033, -0.0978583334966447, 0.0015540034864271338, 0.21652840456492065, -0.004502638592231818, -0.009217195671579921, 0.13552065366017058, 0.1753347440496397, 0.16760427950535225, 0.1030258582613725, -0.07811658649343718, 0.16537366833067565, -0.03938519221623278, 0.12690683724101606, -0.2633739336441691, 0.19998929407382815, -0.45772810817791487, 0.12232802591191114, 0.07368217210769205, -0.17918591367440653, 0.10756130923777617, 0.01046090853908489, 0.0806727800546925, 0.2824153894240619, 0.014904999499507425, -0.19596079672544023, -0.27799473032223265, 0.052124301603172704, -0.08040739387953218, 0.035591120415731696], [-0.03512838546077439, 0.1011845018207628, 0.04231007768491599, -0.061015052592806804, -0.23807840844827197, -0.16371227035036473, 0.0161056825654854, 0.05074136453818932, 0.06888114370292264, 0.004581203408846738, -0.06126651324984853, 0.163556418601978, 0.1492103057721817, -0.09767388815457285, -0.09849104670277434, -0.06981573585111799, -0.09952885875496198, -0.05412406777692089, -0.11559332036254946, 0.10436488983070064, -0.13989750657503994, 0.2061548343561688, 0.160930821133244, 0.08004318118992929, -0.06999563375986607, 0.15602365531501675, -0.11381456812868873, -0.38837503672364565, -0.17982069129595948, -0.1449487621987197, 0.18987898637857703, -0.13934484824374385, -0.2782322453872653, 0.08780266214188671, 0.03416068001888049, 0.10416319127804513, -0.08061568033596536, -0.14455716633517646, -0.059857413006320616, 0.07833814374939249, 0.04073919359840186, -0.06782714893630756, 0.17456321472782274, -0.10816836023180788, -0.05411720159731237, 0.33080011938654574, 0.019456309490665517, 0.18819386591947282, -0.43309550390178414, 0.044678138481016996, -0.1695458585045831, -0.09181735390993406, -0.0020586492495343494, -0.09608992168826519, -0.07567200390467452, -0.01433962633507435, 0.17354103783566804, 0.12502733605288163, 0.14996369470083937, -0.10405558000305508, -0.10415642778020415, 0.15204436915945493, -0.05899870936434504, 0.0745564249175757], [-0.026673670740527643, -0.0770785584641389, 0.17869442152886444, -0.19155894266518977, -0.00530956685541052, -0.1323198911521812, 0.12082737500550576, -0.05847096992856179, 0.14523037101168756, 0.16998878518884872, -0.06602776464243654, -0.029160894673347777, 0.09196848893499875, -0.002295745987002, 0.12819482032767365, -0.17338227718733787, -0.01072645523401255, -0.16213183576379417, 0.13344270663657284, 0.04214321689236921, -0.13713965260946204, 0.08123220367598533, 0.3033617177679154, -0.04855863666044706, 0.15867674610660645, 0.19147910707932816, 0.035490213749414086, -0.25964155455583204, -0.1785371187946924, 0.032006985619110404, 0.13467665097462267, -0.010251873632047699, -0.06820852586552613, 0.23400864479776343, -0.059268916053287234, 0.12775838234261352, -0.20033882865446342, 0.24012014136848536, -0.03180691976292324, 0.1577386113530892, 0.1456903586717402, -0.22122263668794787, 0.14727336451824177, -0.01621641651902201, -0.1829290840621139, 0.10940055102608445, 0.05144500194527283, 0.23198258935173016, -0.16336582701770905, 0.18695419734021368, -0.046649173083271454, 0.18398290392367025, -0.02669295571386281, 0.1264513054550385, 0.1356662758790419, 0.058035893294956446, -0.021235287861422147, -0.0033117757796877964, 0.22072845551760087, 0.031101018933685356, -0.05571258640459208, 0.11278414470898387, -0.007417790247122014, 0.06423587769678604], [-0.10402014065203945, 0.054485830148493515, 0.18115318447965126, 0.1768457473057058, 0.11602563422496269, 0.05748540961770871, -0.14959321809939796, 0.029876862528678237, 0.016442625958673487, 0.04762931229714701, 0.13334935666876524, -0.030610072972549158, 0.0008838793093456641, 0.0034225134892853348, -0.00624914360999182, -0.1728157984461179, -0.06817850171006413, -0.03026796652286216, 0.05056122244262876, 0.3626052866114809, 0.011008482041414741, 0.26622151274617306, 0.028097088107239217, -0.04504278272847746, -0.028337652491614896, 0.2040370093862968, -0.032010699278037916, -0.1981156172933045, -0.4640260480747266, 0.052756359073858554, 0.10091343243236368, -0.14317931010581278, -0.012983128706575479, 0.14313018449554535, -0.042178317318344406, -0.17874356172524478, -0.055549715072336865, 0.11107917558875524, -0.18571023966597958, 0.18913339595774167, 0.07989174080657092, 0.01718366114323083, -0.17091464853689886, -0.1601015301868282, -0.048370806917700376, 0.43508359348040293, -0.060966651470244604, 0.3239996317908541, -0.2735290515658676, 0.25509417550992364, -0.15227504530255023, 0.06383466381364489, -0.00253867316564375, -0.22397830062089785, -0.0165912468982484, 0.19101824188456254, 0.3479774125616629, 0.0920717061644617, 0.2107091626185031, -0.23417856115070462, 0.10531684077588833, 0.158447068060342, -0.12103910784858406, 0.06272477602953505], [-0.04238131820499171, -0.01686874894558742, 0.05541909521716609, -0.06375791038403252, -0.009613093855362222, -0.3990256204274791, 0.21496016586997369, -0.10277603425667113, 0.14158902341757212, 0.13906790885384185, 0.06307871380758914, 0.08494707826555985, -0.02048680873330694, 0.12751554914450441, -0.04784304572564145, 0.05290984700017003, -0.11448088496188057, 0.17483806064464724, 0.07671926248361977, 0.13288123738335686, 0.05862145261306164, 0.05135451513735305, 0.05099373485428298, 0.2035365953534985, 0.10898208639710429, 0.15108745794984366, -0.03302412842720273, -0.2938023559004736, -0.14760052130730605, 0.11520730494299307, 0.2832814972971201, 0.010836469023758942, -0.14080298236530872, 0.09081323450290572, -0.10591035437444682, -0.03731263115170504, -0.1134088162275855, 0.18002481896617986, -0.12404664436088615, -0.005363245607530911, 0.14929369236935683, 0.00039828385440838663, 0.14791128886630106, -0.10401207291627595, 0.07113013813258316, 0.21612980427381806, 0.07016236964462962, 0.1992156396874417, -0.5153932822692054, 0.22868231615089174, -0.2687443724408582, 0.12396537630999703, -0.14717845040893449, 0.03769225406733195, 0.06925268460307778, 0.07372429130735693, 0.12823360167667658, 0.10824173007484977, 0.2946862546277951, -0.23362405319903448, 0.2660564303178129, 0.1731242847986366, -0.2838031122961481, 0.09574825904315047], [0.20313250488580015, 0.10299508648500194, 0.04330231450320375, -0.08128066976219706, -0.08120592163195642, -0.22548475334309404, -0.16269001096634228, -0.26287956821585123, 0.195120254077736, 0.09477850687302862, -0.2369359449559264, -0.13921076594377105, 0.12116127570178443, 0.053522586768244396, 0.09133974190754181, -0.13052600093011485, 0.14635693327037275, -0.04724877301595864, 0.0038042892956526983, 0.056088023299351204, 0.019263317983759617, 0.3190338446381812, 0.1797957085596673, -0.051546519505747034, 0.1299082185549441, 0.09553200059890124, 0.08057772862301966, -0.23844914967604786, -0.27731593907278423, -0.005416278788033438, 0.16640167060537955, -0.1886088870241862, 0.09353169321974825, 