model = [{"layer": {"type": "Dense", "weights": [[0.00023174134298517375, -0.217652398293728, -0.02645193289297971, -0.1180826670878189, -0.04466228650553335, -0.0729276713667693, 0.21874226160324178, 0.07258451858372954, -0.06453157539889869, -0.013542691867898707, 0.08816952837558109, -0.05127516271165253, 0.0738160878409481, 0.0901364667779473, 0.005813913288586492, -0.025676865108393943, -0.030149840655723882, 0.004849281927849787, -0.016503458220149862, -0.041460110801206644, 0.19359890544636937, -0.05968074257490383, 0.15346150146874543, -0.12581456955225476, -0.1986380810388071, 0.06047847657106989, -0.11083725396906415, -0.11251241733794003, -0.02266986342879309, -0.22078577091032253, -0.17328598731938868, 0.053462001519380214, -0.04419767353261814, -0.023178288066520728, -0.02137752771406871, -0.0871393615036066, 0.11083671594983785, 0.011628904606260648, 0.03310187883930379, 0.03153245975254958, 0.08615177429338111, -0.11209454080547528, 0.16887121545112688, 0.13893567958354502, 0.08468618602839818, -0.10522195889468154, 0.04869720251889729, 0.10261224520531531, -0.07076059437624348, 0.015492731398249207, 0.00026665002606807565, 0.012212494823152028, 0.009987304344164245, 0.03960979096138084, 0.07480928774909902, 0.17758226012927208, 0.1128545394356869, -0.17538341520457115, 0.1014590593532522, -0.09103849209152345, 0.05886627564261853, -0.020073763262972402, 0.016757253985650904, -0.12736794616555938, -0.034877134184884195, -0.0021679176969366647, -0.039195551776822136, -0.012338547123378193, 0.021646403045785412, -0.00804058971147703, -0.029520660952177542, 0.056289518839534175, -0.050752977938500525, 0.04870124001765719, -0.0235359545714299, -0.10289272830628066, 0.0753301442207587, -0.07242165156525673, 0.12820950669678408, 0.08501577739373256, -0.11767906879847322, -0.05662977462527209, 0.12165881613956708, 0.0062567925044624845, -0.11037863816550707, 0.07238011929260457, -0.22542903813726223, 0.07888454795468659, -0.10813297012858214, -0.043731128201102684, 0.1659216206274702, 0.26558117775915896, 0.11106055187597602, 0.087083489257543, 0.030905059850093914, 0.03165325908395009, 0.09884004222769997, 0.00397419413312368, 0.05556732776600082, 0.13894435493849225, -0.04663204573945996, -0.038152669105816855, -0.13627105745864926, 0.0659163124549849, -0.15984744948308605, -0.06350352865195888, -0.0909909317575921, 0.0125171946125335, -0.07889236065861033, -0.015873671382945733, -0.16032366891278027, -0.024638700436858257, -0.1274769525246359, 0.010865858444070266, -0.02389543312000891, 0.0008850938915246809, 0.019188597855823507, -0.12235538511284393, -0.036454455645720356, -0.06930351697138437, 0.11045339485034385, 0.040283196080401235, 0.21060943590916092, 0.006148780696733206, 0.05239975475322939, -0.0032709852841191593, -0.04726547668568353, 0.0017638079068087063], [0.08003514909858558, 0.14719433674299787, -0.05662255581954872, 0.08481143830311788, -0.016526936755596796, 0.12158278012820578, 0.014579481419330721, -0.005754800546400783, 0.03515170520919093, 0.13560202612420985, -0.17406526500207137, 0.037746046688021846, -0.040663042893690195, -0.27357549442466533, 0.04363947642409963, 0.07146231498119915, -0.1436638115808421, 0.07247327441404824, 0.06665931776181545, -0.03915950337433734, 0.008092607081284847, -0.01743410800138379, 0.23310165563134155, -0.13782927782173549, 0.07780538475698691, 0.004610981785028499, -0.09333484753277613, 0.06556943359602413, 0.03193750861159497, -0.023628899354591778, 0.03763454589607068, 0.04059863041393215, -0.04538173685202823, 0.11688619254735813, -0.0043205968405484445, 0.08508249251449497, -0.03494359720636808, -0.11201654870560387, -0.04489201845885318, -0.05941064070193687, -0.139899357586083, 0.10850570174383976, 0.04530014444364133, 0.07335189648352372, -0.1175136790629941, -0.13282044380700775, 0.008164391011197382, 0.08439394664965533, 0.0032072183379944436, -0.07632474035947051, 0.023156748191342183, 0.021461417661323798, -0.03371163948525121, -0.03449495024753051, -0.016262833741126716, 0.029842916195884025, 2.6185612853982373e-05, 0.04722971245875687, 0.07099238836237812, -0.10097463595221112, -0.09974820004468779, 0.260449336927197, 0.1073971089178401, 0.058847595166949485, 0.1453576208672009, 0.09553501005171426, -0.06005907129931575, 0.0728749899353015, 0.15183195744435193, 0.07148488292242046, 0.018244260908802403, -0.11041715800016741, -0.08863555755933061, -0.07572059541660822, 0.2058713778385254, -0.07224533355869375, -0.1484771870414249, 0.013088896151407323, 0.06066075201111233, -0.1481245536601332, -0.017931073063839006, -0.005761708080298846, -0.056278790290009484, -0.005617452492576348, 0.16252744237882502, 0.08516476989377192, -0.1449017573443638, 0.11426551602446702, 0.05266385501152593, 0.12108310768603586, -0.10282430986305834, 0.09708439383571188, 0.14209436128606243, -0.04908899674731002, -0.035844384310501534, -0.03191190344204976, -0.03862801075500735, -0.037259571016230335, -0.15121735002663605, -0.07319173119166952, -0.0012236823775277413, -0.013383176186467753, 0.07140583273779426, -0.09700377081385, 0.03552114951814444, -0.05155301707520114, -0.06879758553571437, 0.14723420811678814, 0.12278910920567734, 0.030355514249853867, -0.011823608332025419, 0.032891815291720125, 0.25458272276938854, -0.12298643651520538, 0.02654106516691855, -0.06614081518261948, 0.055448234980149426, 0.13759299630348615, 0.0016469547687002935, 0.013676144474651285, 0.26725198813189965, -0.1137634834904958, 0.07169048927957537, -0.08021197724398368, -0.13713927616173047, -0.1136022769109935, -0.17822637703818925, -0.012181876100936948], [-0.07779021957720354, -0.01739134557497444, -0.1230940532953754, 0.10922258472009015, -0.11640777674676857, -0.06639426540908538, -0.06618432934991336, 0.12377246947683099, 0.020638023401153963, -0.13731820469556144, 0.10537101537274546, 0.04497146604222482, -0.06302972238684303, 0.040489269883650265, 0.003073370936736623, -0.0810933225640357, 0.2149556907451883, 0.31235855805630375, 0.06267944681881053, 0.008248904750919469, -0.10107137374034564, -0.043548559107997355, 0.03564040896064937, 0.06481071307351269, 0.09934815021705823, 0.04853394971754971, -0.07119596788306802, 0.14588289651590297, 0.04319331004946551, 0.00673351175890358, 0.04994984641153842, 0.01661418242439678, 0.014456144685823544, 0.02598720627486191, 0.0431367641769146, 0.013919381303134061, 0.0013135077160133448, 0.05137045769711268, 0.059348660441869296, 0.11331639351692935, 0.09137481773936279, 0.19288283048785432, 0.16868283433226328, 0.21664752318270983, 0.039160311387211266, -0.21500911975488615, -0.029441290828140856, 0.004643222567301706, -0.017789749829722108, -0.08751570836340117, 0.08865470463451704, -0.0537294797753029, 0.023674621801093063, 0.039493411133389465, -0.058815751244756714, -0.14540629908147426, -0.07423794058962488, 0.16100726843979862, 0.1240353025226651, 0.198388420573391, -0.016044078869529015, -0.18045597369110086, 0.09166371153889655, -0.04082580788104448, -0.09807780385213474, 0.05581994192700567, -0.015664364206723763, 0.005628004916506764, 0.009444252359723022, 0.17262534159684784, 0.029983236516981794, -0.03775211326838728, 0.23870228639545, 0.22358764676633636, 0.015333615919943384, 0.05654918454032192, 0.041730117233596244, 0.024355357385583917, -0.005052671872993388, 0.07364051171332579, -0.0618175953538769, -0.023158613079027283, 0.016816798592903977, 0.006522635528769133, 0.15991361631268644, -0.06814316953837572, 0.14030817448299357, -0.21239491147488554, -0.06099808172149848, -0.07853093509679777, -0.0006735192085504107, -0.0624029188668545, 0.08466381070611613, -0.03227961057073089, -0.11737810711417446, -0.0014207829574510644, -0.2219418312929173, -0.05168036316604427, -0.24867303326496062, 0.08304740494217362, 0.11154936558554043, 0.03861117783301341, -0.005364612495398794, 0.16663199762449243, -0.08228311696759656, 0.05587103861133094, 0.022562906814449377, 0.025683139603290585, 0.034882571264105135, -0.203052499447293, 0.009680319006690433, -0.009151074494065957, 0.010182795543188294, 0.0909624086797905, -0.0833079504767568, 0.2846306311472548, 0.14833464829463158, -0.17993085995191418, -0.16089467893045814, -0.07297979988784548, -0.020658720857486424, -0.06556799577489075, -0.041486750458524686, 0.01407583304463598, -0.024744708187304003, -0.06413111570732279, 0.0037602353516703077, 0.02643088028851236], [0.041499365810790154, 0.007404802462961666, 0.0007551985571691195, -0.08855044798174605, 0.07206366910570132, 0.09442491681515132, -0.04810145531101698, -0.1723803651726069, -0.09698460032936479, 0.0031948145046478446, 0.03352963666997257, -0.08013493573181701, -0.10059876510726368, -0.05162867147742148, -0.14465986179809973, 0.1671813068082799, 0.021100805752918998, -0.15680219369730933, -0.00630109192258763, -0.012277494193748578, -0.11046597209120801, 0.06282016463974929, 0.034174879479289065, 0.07026547790940585, -0.05510544461466105, 0.17024428738906425, -0.03443502636827069, -0.010645693082415898, 0.013450939793886785, 0.09305201041356465, 0.1205885534425814, -0.1925298673196502, 0.04432088391729041, -0.07950493661739703, 0.008805463936996313, -0.05830841349074827, 0.13331285995913267, -0.061566370329741785, -0.005910180752292758, -0.3316746778823536, -0.016856570443301463, 0.006143535738812483, -0.02369940944172027, -0.03469339391573833, -0.17766441255588103, 0.11620530666437637, -0.020137448722393092, -0.10331944939975929, -0.12003282104640806, 0.023116760682723447, 0.09293802903701884, -0.011552694198959277, -0.06768178007842267, -0.0013734317778181671, -0.06947490288404812, -0.05648798477585502, 0.08069011710914101, 0.07037127118865508, 0.021556848813557496, -0.003240073601399959, 0.1259922763331865, -0.005313840606968064, 0.09583345660847563, -0.01914285587964129, -0.18627880604479988, 0.027992051400502538, 0.05033306069109376, -0.07230058047065419, -0.026112180433793427, -0.035201810332603806, -0.001604445578538848, -0.02311805841422539, -0.03189594949596525, -0.04055319139896169, 0.0015649236475130737, -0.105928745786811, 0.10230140592003954, -0.06237682258031191, -0.08072606776645357, -0.04145852072535015, -0.14744454253441086, 0.031819376377552694, 0.17176273061147213, -0.03421426396853903, -0.04557393384962888, 0.05068779546558318, 0.13867240309364479, 0.0911144486971936, -0.08316508873374638, 0.06956234553129287, -0.1672972704867572, -0.05038039894054084, 0.008463083595444556, 0.05284764441598605, -0.05191400472311839, -0.13185047270579225, 0.057074604449195, 0.06004725418333487, 0.03439758035544393, 0.0034142076541861343, -0.07103017552132325, 0.18052224386218366, -0.051936364940909585, 0.068007879071695, 0.02742986006089787, -0.07998920567061242, 0.09940003708958436, -0.04687398130737655, -0.0816649502905407, -0.14250019943977532, 0.04516684645047292, 0.016755827881117992, 0.0203461587245042, 0.08089074482171411, 0.12767899863813667, 0.1301297970941467, -0.004256036361928317, -0.07037973737776684, 0.08312528523185847, 0.11469503358952793, 0.1002593022925113, 0.024190514124796947, 0.02476798974577226, -0.036289083040472785, -0.10482515906610948, 0.07748624802337464, 0.08866099705193375, 0.0008504511222840812], [0.1019345158859299, 0.030187395191386565, 0.08682115683051395, 0.08069883724387003, 0.014539444674690314, -0.20643963946109475, 0.12199168626260895, -0.06693444867556907, 0.09260916801901298, -0.1486402346580399, 0.21378153111573833, 0.01728878051670554, 0.036624208047595114, -0.178107262137981, -0.07475623162448584, -0.055430258597839066, 0.04242159360229872, -0.03918359642867112, 0.21228332919272647, 0.029748599856698057, -0.047003560510893466, -0.06972477130378356, -0.012232601604124722, 0.05115260823374732, -0.058539543093755655, 0.17810685231144738, -0.06205334786627636, -0.01588943790326547, -0.08112524376912968, -0.0015105360550495492, -0.1763276597379641, 0.20420982970271992, -0.0643301590656073, -0.11275608687694341, 0.08814027642700911, 0.008441333105029264, 0.13916789432786078, -0.17819333841937482, 0.017735698805499793, 0.10688072316332889, -0.0028226406361187366, 0.12348433499510825, 0.13077608034604823, -0.030218940163861285, -0.055106148184952256, -0.13569775014938987, 0.06836201274866475, 0.024282161774386107, -0.13211684740642088, -0.06161267753873093, -0.06882989904269335, 0.03242920014455287, 0.010297133572946328, -0.061579051841401666, 0.07634037723338072, 0.12023531081610955, -0.10405394443809768, -0.06806278940763019, 0.13334580362950163, -0.18876448695162384, -0.08798090392254737, -0.022695602674760992, -0.16968558943651937, -0.09769875626387439, -0.028644587035153598, -0.07114737799254396, -0.11042674394243841, -0.015484216673943344, -0.13124726193813682, 0.09123455138877615, -0.01720191858411905, 0.05499969378096359, -0.16978732174158906, 0.09303376987364449, -0.06481866732821698, 0.26625107786445507, 0.01565058600485121, -0.0005574905929158285, -0.07206425400207317, -0.02367348270210115, -0.18920432221721017, 0.022616456434051975, 0.15643057645129874, 0.17724275969287226, 0.2070880034677762, -0.12054081085781712, -0.04745096265673847, 0.038028900924791914, 0.11078672796201877, -0.03629824089907737, -0.06609294001102255, 0.015532051137501945, 0.03431865559238897, -0.06160169626496508, -0.03649386154755704, -0.08449552943233736, 0.022825740829085724, -0.2110768394966343, 0.09534914355647967, -0.03677113602436429, -0.07048521209344709, 0.23538951580968515, 0.04377463385389227, -0.058540996009743274, 0.010411397184551273, 0.07454779233509733, -0.08230082448001841, -0.04821289186922754, 0.04821132745907658, -0.13606646521811497, 0.27847897057415955, 0.11993645978061343, -0.11395883069531697, 0.06440709831306314, 0.0966595786420108, 0.11958882490811547, -0.02384716955904149, -0.09637165470159315, -0.0922828098213547, -0.012261135619276843, -0.08610339337762712, -0.10222923207862883, 0.04385433503584627, 0.0742035512254663, -0.05553055974212571, -0.10155033613601168, -0.003125671305859231, -0.0026534819967089173], [0.12258619679705281, 0.10176766601886214, 0.09594160896770294, 0.1032103373658399, 0.05363612998871723, -0.045574655076304336, 0.0042800753704499445, 0.12689229438287553, -0.02719941622182566, -0.23470081828429376, 0.1580072110749149, 0.11726422862377656, 0.07958682453287286, -0.010550305647426587, -0.06516927276276961, 0.023144530825992007, -0.07341383544685143, -0.046749964093379635, -0.08495238217336619, -0.12286656834553276, 0.13419373590065806, -0.07709616419149766, -0.09187356709751347, 0.031413499400411146, 0.0706508549332889, -0.12469841470288122, 0.08995452410105786, 0.08575035096148172, -0.06223754494127709, -0.011934826161992637, -0.02222177457772918, 0.16805496208445647, 0.13001555784040264, -0.029918859495372527, -0.062413561581067305, -0.07857859070001354, 0.06090874414603547, 0.06863522834168076, -0.020177271943933095, 0.07581019282434161, 0.147999504521125, -0.21848685838006265, -0.11319441749569684, 0.15879046856102597, -0.12676103146743195, -0.0113914323078487, -0.04791151712371616, 0.13386073885007285, -0.035619866840297935, 0.0010447815148009727, 0.06905887396407286, -0.032983221730196785, -0.01579876119704975, -0.19692187128614652, -0.09941576290914945, -0.042814990318798776, 0.07312910352084954, -0.0979828000080862, 0.033943530435641696, 0.02573533700741189, 0.050228234145222185, 0.04029806641520492, -0.12979288646397444, 0.0291298356900584, 0.019066217883009814, 0.02551967784719141, -0.03446629996486961, -0.12034412946724463, -0.014745500777764249, 0.06278168498831142, 0.17538885475130694, -0.051080165440586224, 0.05146785657001656, 0.1610359432041862, 0.03331321234888491, -0.04781142542937269, -0.09272135270421664, -0.009031771234837274, -0.04678890029071037, 0.12355823703517627, 0.24052350199733596, -0.1176860392657662, 0.3346991870152255, -0.12005246575207787, -0.05005323855740645, 0.1807155922244058, 0.09360168223928306, -0.08140458256167162, 0.13115952980546303, -0.08821704291567242, -0.05474752584100472, 0.01442340445905335, 0.035224361043553074, -0.16221926265702136, 0.03753961932158059, -0.07647377813115186, -0.1187657012695622, -0.16709180527153078, -0.058336249246805555, -0.2371946478480243, -0.026487489101917696, 0.03346570046312406, -0.013675253503979549, -0.21326174207289617, 0.05616808891654787, 0.05856713441357922, -0.14758275564320222, -0.018463314528466144, -0.08528645547484259, 0.03684887467122853, -0.024943356915821276, 0.009013028394612417, 0.08928570757167245, -0.12237619400459271, 0.04714494596303434, 0.08097853294562748, -0.16764139716376245, -0.020754069932070417, 0.06301504921952376, 0.1087805618265597, -0.05801059436425057, 0.03150021202689652, 0.13094551006853564, -0.06483896310614201, -0.14842783160221257, 0.06316956431863222, -0.0007162448844014465, 0.06220905321759529], [-0.058824969699697506, -0.16831801880055158, -0.07111476650699339, 0.09487408218732046, 0.030247604502931954, -0.02401877226473193, -0.08644067928599901, 0.0454667931212537, -0.04774348668599343, -0.20432009454059244, -0.014119209207410909, -0.011615762337375405, -0.19337316582395994, 0.07511973064919576, 0.05513087797379519, -0.06570451370912914, -0.1373558688371986, 0.036951808787976166, 0.07309261249882315, 0.11701799616637172, -0.10393446238688427, -0.13552662313272565, 0.01176403050901049, -0.02645411481186248, 0.04488841390805465, 0.055167922982003084, -0.08829777044989746, -0.10022090593192577, -0.04972469443384886, 0.011144072099119483, -0.014091680601465949, -0.04305097460530202, 0.058205350490510066, 0.09366762761522633, -0.15175795339644546, 0.10905648595027428, 0.1985539958867254, -0.03741606288005318, -0.038407823018201726, 0.0018924439939999997, -0.08253837515735798, -0.09048799053866154, -0.009952461377271495, -0.04295875609190913, -0.22939596091782666, -0.06965522764163294, 0.1037518734517196, 0.07759684065825108, -0.03718370705585033, 0.07738855616180687, -0.05758004541094539, 0.007400338126617812, -0.16543167938051873, -0.01306790164957612, 0.0907604000702128, -0.05360802618359021, -0.02446825307431906, 0.018714641996537894, -0.14366432694997822, -0.02660843447603033, 0.009188522689828902, 0.01240417387492357, -0.04055226688125373, 0.024918389398793046, -0.033888466717049315, 0.11601077681018046, -0.2167846509720251, 0.04310921204433908, -0.03513515743531343, 0.042544685645669426, -0.09435880433712865, -0.1669500807345101, -0.07124818584942119, -0.12677307198046192, 0.052565038445099514, 0.1058483749606119, -0.009090810907690568, 0.04188960772299691, -0.09271571840897375, -0.15197933805648167, 0.05246972234849674, -0.14368777137683628, 0.09227964498278679, -0.20652691488752703, -0.19881000705022178, 0.14033685694332373, 0.055524642627650105, -0.01863124640869399, -0.08344338927153065, 0.010120343164054935, 0.03395453892876383, 0.08222029543984866, -0.005739546488409544, 0.14059888473906626, 0.03364318754710155, -0.07190912750101831, 0.18749999141187274, -0.028422084664822628, 0.10399993998550186, -0.08271451990781235, 0.19798977610585242, -0.03366617507332687, -0.04035510111723028, -0.05066727142858767, 0.0408612712547492, 0.0714015287181674, -0.03263848895297475, 0.0012458732841105935, 0.1422933568970463, -0.11286424709603647, 0.13197417493814015, 0.02767091668118873, 0.083242895282301, -0.07468334289776589, 0.1810868320475516, 0.06957004882225287, 0.05821720299961433, 0.002705160266455632, 0.012915955035702129, -0.004974820738887319, -0.07040929222844745, -0.013212480605746505, 0.09876182016959423, 0.07282238464813787, 0.08056092664724655, 0.15029028036768965, -0.02401376377668962, -0.06235816298537175], [-0.2175730456771893, 0.008716395165233301, 0.04841215036181364, -0.012157560327202778, 0.06924687112252191, -0.068821403449558, 0.03131080636996916, 0.07697820263110824, -0.011646218564038368, -0.0064335894347606615, -0.03591096916309441, -0.04872486395001767, 0.033255860829911665, -0.03832807686642515, -0.04272611760393799, -0.0018762857820090696, -0.012912914779019586, -0.038397082241909346, -0.1230318379682257, 0.11333971840176647, 0.04504456092177253, 0.126148741689993, 0.14772537405020766, 0.15097467559250172, 0.03002197599262267, -0.016697676548650738, 0.046791606119279495, -0.010324302271822886, 0.022742068123783057, 0.07639910295259063, -0.058541504441538356, -0.07336852933902138, -0.015890739420077245, -0.0019051269855703667, -0.018212384868067533, -0.039840555903335045, -0.19058608063983032, -0.11977554259842219, 0.15301281405237077, 0.04994585249183113, -0.05337246499849199, -0.013074911512969157, 0.09714051512291591, -0.10653625102870615, -0.25340195608194377, -0.21981014824645745, -0.01731512064276749, 0.017144497033227176, -0.09346867134603831, 0.08391271029408451, -0.16441492932573998, -0.045543194862463846, 0.1227312974880981, -0.01666752783108102, -0.08750717021760342, 0.02322073968130647, -0.0737044584351571, -0.015162129808615164, -0.10295633223908017, 0.03696682715567102, 0.06099862306648545, 0.07443367544043036, -0.21426037209195373, -0.10558736461432038, -0.01169870166617832, 0.23115120697659056, -0.07199154675070443, 0.022274065975514946, -0.07230235071523974, -0.10912759263376699, -0.16182810121707794, -0.023139532924167268, 0.08593509369675359, -0.0017660282970349515, 0.13551458295292315, -0.08519586753476507, -0.04604808439940325, 0.025318016039105735, 0.16445777888672733, -0.023099360010126038, 0.03576614490390308, 0.006700356866671935, -0.08650837060133675, 0.10486519944761222, 0.05934619147350278, 0.10986292379361191, -0.06110532879871891, 0.05913859708341862, 0.00931100951838104, -0.016326462796049025, -0.039530596509465714, -0.182627825469656, 0.08651457794293309, 0.171130700380151, 0.08758601728548035, -0.026421861932066235, 0.23052611353045427, -0.003222866419636955, -0.012311079568360236, -0.025315146740828826, 0.09069916178043486, -0.03830303414272308, 0.01613743693962572, 0.020369438989118478, -0.20200107888230223, 0.07026872188219897, -0.02455705820222688, 0.09911392363396908, -0.06043171463260767, -0.09743794287581647, 0.008297854213563733, 0.12976454607156587, 0.002054540200500598, 0.05100724140398197, 0.08916504942957443, -0.0932569571623601, 0.03702176383297808, -0.04804373417059011, 0.027422195877605856, -0.14674069934002615, -0.11581545274174534, 0.11656687725581134, 0.14213141572254087, -0.11160371847866864, -0.17759063210792755, -0.03324131994909198, 0.07451143480119225, -0.03103908562181117], [-0.18283389434438269, 0.09279157619782502, -0.23972431297312058, 0.08760711534706996, -0.0440380440286753, 0.050078896929964645, -0.015617678240526713, -0.0020992808481485182, 0.05359423716320583, -0.0733380458179339, -0.0808952054561297, -0.043137514685189345, -0.0046692272080541865, 0.0443717569503159, 0.05340704353075315, 0.008522521232422767, 0.06333408869180392, -0.023057578852577105, -0.05151594822275638, -0.0364316705461782, -0.1684596760351853, -0.12857309840752423, -0.07634951354286981, 0.051324037968822483, -0.01807901728282356, -0.11980497792100953, 0.028685964943357845, -0.09502929774600515, 0.051516609306234834, -0.05136532386216535, -0.049604537812175095, -0.2953276787730505, -0.0679344841383389, -0.2836195875588238, 0.15586455771866622, -0.10290753945912945, 0.03341225504559316, 0.12034978537293116, 0.05006274530911629, -0.06238119555559343, 0.008278527066788366, -0.1120802159688828, -0.06731751565942043, 0.09140292756826829, 0.11681170688571424, -0.17094887830825428, 0.11545931284101876, 0.08807049411242654, -0.05679111724158471, 0.2480326691947398, 0.17398917241215195, -0.005785473120142341, 0.05426124238816901, 0.015389805916775587, -0.07688934109987267, 0.03804051665199193, -0.041583653470553275, 0.08387963742268967, 0.0874899798260088, -0.03985486604817444, -0.14154770849840523, 0.16770387350890342, -0.018376276837915786, -0.0007123930559953421, 0.12880301899314497, 0.05136147664235451, 0.28292699751901385, -0.06136991256466463, -0.1483325367361283, -0.17283722496933487, 0.07641505012391396, 0.1739421573204691, -0.05073070894940516, -0.05660932273452779, -0.009995098104758245, -0.08090714432835729, -0.22418563758371746, 0.24525089327639332, -0.13032467294994352, 0.16880684379782385, 0.03457591189723411, 0.06231844310896293, 0.011093785677622856, -0.014643235745301103, -0.015115975807464311, -0.028904727156809612, 0.07186102255698257, -0.11799010154442045, 0.016734042269021195, 0.07048649643538107, -0.03478706819697839, 0.06364377977949386, 0.097807597848034, 0.05377703981714067, 0.06620340682638763, -0.00452518086709696, -0.08076421242346726, 0.03506758848496123, -0.040738807660365584, 0.0045156068305631175, 0.040391332525866734, -0.22024696153458634, 0.10256115835810597, -0.13626671170316004, 0.01378719502479408, -0.018290737492380832, 0.10335634606193521, 0.023391352095857784, -0.029981310119489436, -0.08299293956356989, -0.051527542299314735, 0.20068845359176435, -0.01723927008887813, -0.08040036921983149, 0.22439042792553132, 0.04897115526821071, -0.029238060304492892, -0.02458194786105866, 0.05485948780108181, -0.16487993545259735, -0.04397686465693177, 0.0213316801155577, 0.057604320618823646, 0.1856815863206431, -0.11382011233744758, -0.1420132874217172, 0.11057164884531517, 0.08708441427686507], [-0.183306489637927, 0.026388141527252787, -0.10950111365350157, 0.06913584996470466, -0.026605562550157794, -0.078890679837527, -0.07149689108096118, -0.011436190943261142, -0.005058360256271778, -0.05101650247123716, -0.0731194824910837, 0.08907315909124519, 0.045737570132128556, 0.013709477675636853, 0.08700073389479161, -0.09922630721120587, 0.021934866343387722, 0.12335351906766821, 0.028093770436222416, -0.22325439140826076, -0.1467695668379487, 0.10173046500287915, -0.09769476663809178, 0.14939292621482156, -0.004084139000070792, -0.14652026261985135, -0.025944248660687244, -0.10456472769223464, 0.004761879426060137, 0.012220434406417046, 0.016785563132030154, -0.09921025754087884, 0.039055856116260675, 0.15211857089494848, 0.09004714673990018, 0.0938964558268894, 0.09090793840490531, 0.0801461775958279, -0.018348031784054454, 0.012413497339723724, 0.031930710876065964, -0.045416640609037495, 0.05469564475965882, -0.06256996091218685, -0.008975372880059831, -0.03615459775905931, -0.09820346911259427, 0.07904557734287679, 0.00024619097758588293, -0.06603355620874089, 0.041125578964553246, 0.07865493431074472, 0.06740272250586936, -0.11193062231334006, -0.03781352678133773, 0.049879043963894344, 0.027459066684672368, -0.13970783569422762, 0.30425066916871485, -0.031020984749216624, 0.17285207001161607, -0.012355343442773637, -0.13123814118126442, 0.19081574788019956, 0.16027569084053578, -0.0388755423239881, 0.06294486417131076, 0.05128022745801097, 0.05127394321349482, 0.06722252685732795, -0.15041889514574444, -0.034473038936992405, 0.023253909264707055, -0.07804041230056785, -0.0769157493123439, 0.09134402520773247, -0.08974971325443103, -0.046594643048914614, -0.04599457120458406, 0.046457306327864135, -0.026778034022582744, 0.05994989336115715, -0.1351298248601283, 0.08039770047848953, 0.14449330621055986, -0.04099679359288722, 0.12158961054582113, -0.0023408360506098564, 0.14253258447909306, -0.1259423433548673, 0.03820549994154598, -0.042313920802933065, 0.07895180220841476, -0.08518107573278573, -0.11133656905947711, 0.19264775080978422, 0.24926482203266045, 0.02603684456078767, -0.047438007997592034, -0.2482727665644105, -0.19008824311764827, 0.04122652593868272, -0.10934870280701939, -0.18702387180559676, -0.13647904949775072, 0.17528650612231558, 0.06236309659207834, 0.27284962811256214, 0.07146680651445461, 0.036459774069833036, -0.08790335880275583, -0.10664944596705844, 0.015294039353374287, 0.01710945818322514, 0.12351129356495823, -0.13301076880662221, 0.052986025649888996, 0.003328740947916345, -0.023099333954819556, 0.06916637634373062, -0.16869968977575245, 0.16610516304632417, 0.0706649183991142, -0.052901225132459755, 0.016534147340791696, -0.04514655685639274, 0.06403948938349523, -0.10916974605373503], [-0.07057240918219966, 0.04088774401792681, -0.211967599002212, -0.05158441939583637, -0.11656403313275061, -0.0007313603893996507, -0.04095110327526852, 0.004902933352592577, 0.1300692563876542, -0.11767393401564129, 0.004318344649709044, 0.14079276376138622, -0.13421859601992644, -0.09822666560212726, 0.009804568326255678, 0.016813295157616984, -0.0481962840776777, -0.09360135304780326, -0.009379974640543059, 0.15519834979956426, -0.23920186734960264, -0.21001640778132333, -0.09589352972012899, 0.07319378493450633, 0.031034546229809418, 0.1834401521410142, -0.0049090061115973065, -0.15100506323049892, -0.14619173676990696, -0.1781934776790891, -0.12565133817363291, -0.019664640574072367, 0.11131487433293197, 0.0031133914426365854, -0.11300742167602179, -0.008958363640141504, 0.17287749314630277, -0.0232256356213804, 0.05448158887857879, 0.19251423361859807, 0.010991952416092209, -0.17130978832674634, -0.05374293177312575, 0.04561997347275228, 0.021377207961836765, 0.08692491185229868, 0.019101479908394142, -0.00967179903116746, -0.030343539136048904, 0.014596483081343146, 0.043922103563705905, -0.05533445760414002, 0.048026989521112236, 0.06623915231357815, 0.0003058595490502285, 0.03484224487003753, 0.08841073278172659, 0.06916580653134013, 0.1564448551693037, 0.017609274671596457, 0.0053903758351351045, -0.027528117215453535, 0.0041786950638171205, 0.0037266531825221392, -0.015381693938339347, 0.01342632802902717, 0.05586382593294586, -0.09670852001212189, -0.15542431577024435, 0.13033795928859093, 0.03128690751018989, 0.01437515368488624, -0.01063757795895715, 0.03993545578551654, 0.0831833361639979, 0.004780721617734657, 0.047615575593388276, -0.11654078291506272, 0.0006734266603317358, -0.09874545698349738, -0.09273822185122983, -0.05283789940600776, -0.01213711849967509, 0.019803745479845723, 0.08009491213017032, 0.09357255690903633, -0.19370515192767576, 0.023789463095316862, 0.14970344047648562, 0.08486315079795641, -0.0670684670154085, 0.1393707722198489, -0.060409858374791826, 0.0012200661526023358, 0.026682346858914324, -0.004780947749015226, -0.035812320574189066, -0.06548073683749285, -0.040810890794621024, 0.028318973458412968, -0.08765359393712281, 0.07048032645350608, 0.05976459306070513, 0.0650217843505899, -0.014612632121397734, 0.13662964286692977, 0.12421168981531919, -0.07642200998124504, 0.17116670994105232, 0.12231734196197569, 0.016377599680132013, 0.20686713605916185, -0.1180252554757211, -0.11123973179451402, 0.009753705837971784, 0.1481099127982162, 0.09302910954857513, -0.1266077089442806, -0.006845505865524473, -0.029428517169644106, 0.05528907841127365, -0.08095646509941344, -0.06908661122488836, 0.11509666464941828, 0.12177841951206639, 0.11551405801786985, 0.06880798415975115, -0.04652821325289654], [0.03269243046748534, -0.14854274040870372, 0.1046843018263392, -0.0800920268235102, -0.1216114164032524, 0.09913916394864684, 0.1479482282936299, -0.08366199377121446, -0.06935067943650597, -0.08976257185838647, 0.11948677917997602, 0.044527903168751964, 0.08038358350080593, -0.0685013341263437, 0.026387733599879483, -0.03397404630108189, -0.09978637821900102, 0.2882377166327555, -0.1600407156935289, 0.06634044257973908, -0.13661738407920185, 0.10093834021609645, -0.0008382824594789422, -0.06863216485828849, 0.05939869050309156, 0.114728310036111, 0.05445774511201898, 0.07710003099160408, -0.0700155564145308, 0.06529938855467518, -0.07027252579912488, -0.046306860664659694, -0.07771383586652514, 0.08217833014258571, -0.026952116391570344, 0.04923211346734769, 0.3542899276844107, -0.07084193644551466, -0.0323161424001499, 0.06615680246158225, -0.0852472002665206, -0.024026552576756885, -0.05182322549283274, -0.039509185828375176, -0.06998315287378541, 0.06475358266973204, 0.01886198964903668, 0.01089492352592359, -0.030425695377355927, -0.07854306548241764, -0.031062366576588358, -0.10658503751459723, 0.12384105330375282, 0.06541716248698067, -0.10257880038185783, 0.008695296711906964, -0.11171893340228223, 0.13234730052449348, 0.10572904250091986, -0.052653080461998805, 0.10752152859837899, -0.11134021608871186, 0.16247354073181508, 0.09693038671761431, 0.03328684858623652, -0.18757786922196334, 0.20493407958755314, 0.006510328604117333, -0.16078006780126428, -0.00955951287522356, 0.0582960857625794, -0.09838229954914052, 0.12088568027055252, 0.005128618949598167, 0.0607300650360212, -0.03422826982075609, -0.07147231598270058, 0.020214021190055602, 0.1346980480552086, 0.13833347648347014, -0.003374618171578873, -0.008523045896315098, -0.08207020982022235, -0.05245968690593136, 0.009887012628870664, 0.1019833568767758, -0.08968056189439888, -0.08180579235597046, 0.02864600856569033, -0.008111608722337618, 0.14995106146562404, 0.028809739884359004, 0.10439143886488683, -0.06428288671983583, -0.06624954141559795, 0.03331982383445103, -0.15065443716145382, 0.1477521319457222, 0.008431805242428073, 0.09595388272085849, -0.0004579680465185863, 0.12772415343903235, 0.11471052664187041, 0.23276108689536623, -0.014458165517636484, 0.19304386396015843, -0.023919052481832546, -0.2580128917382307, -0.12608463441612536, 0.222711651825554, -0.09476790875666731, -0.04535056269132966, 0.08462232963250184, 0.01955020622972286, -0.0312645709850802, -0.1283566277821487, -0.1393220900092985, 0.1374612434389233, 0.04498916703087602, 0.20471908913692105, -0.11799602060331092, -0.04324105424740138, 0.09153540655478204, 0.07237901813245555, 0.17679424716150413, 0.27910600251425755, 0.12111829496428966, 0.010272846738186067], [-0.06244648967082283, -0.053675693590148656, 0.01917243395546208, -0.28592839289273825, 0.0072604067454763365, 0.1451089585515106, -0.04631946865654975, -0.10302405695025962, -0.004312919868483574, -0.020758202398905107, -0.06912423000748104, -0.02162169643959671, 0.030613765803550054, -0.02445250078151079, -0.15160706381715183, 0.050784379188229034, 0.012072343431210254, 0.01308746612732229, 0.12345155737981013, 0.16585302264581514, -0.12540591239633708, -0.1049871678586704, -0.05812337585354375, 0.01894835894697998, 0.0002600258835851255, 0.11546495707786478, -0.09725363009551881, 0.043705233125013204, -0.07657227060840005, 0.27900385201251815, 0.15608817160931265, -0.04531835347685923, 0.1850847785938385, 0.031397464195440615, 0.02851090306352268, 0.01102850511420692, 0.12223804809014094, 0.13102762511338403, -0.013678518048237479, 0.13946552939134246, 0.06661110239005782, 0.04601614325189117, -0.15266629763592474, 0.17242266262349873, -0.15010010933987272, 0.03710711501715488, -0.038692744069605906, 0.03238496806895693, 0.11864632640595417, 0.011985442235738056, -0.04185623771435482, -0.10181335407682642, 0.05940969498928637, -0.03987013385929708, 0.006260189821462758, -0.10289265614488159, 0.07273694065597973, -0.08359143188269182, 0.16701969038147765, 0.09254013027984512, -0.051934501723512806, -0.044636524145478, 0.06469894420735618, -0.006633100992784892, -0.05823296859226223, -0.12163336417611284, -0.1729943148938904, 0.1086043004295375, -0.16659965277969707, 0.1270259608247409, -0.0027926095302279203, 0.07443978215195582, -0.19318113825584976, -0.029825169302551205, -0.0728115366022251, -0.050236881033674234, -0.013342830685787269, -0.0749033367975667, 0.06577402049657614, 0.02611350277154319, 0.04901339735464589, 0.11321776813692921, 0.11059201171772766, -0.16943840480291397, -0.20132615405739354, 0.01208202077439267, 0.08718283530376986, -0.04855108777569067, 0.08104114608084867, -0.07218219539880477, 0.03753791212524656, 0.06574866188604746, -0.03760946478675173, -0.08166862272001868, -0.05976951860570662, -0.04680938169609039, -0.07945281342468395, 0.05358568926681408, 0.024012173216890687, 0.11405653981292013, -0.019952792158743817, -0.08852337666819636, -0.09253954312555802, 0.07969919847228747, -0.042783004035008364, -0.025789887046888723, 0.04834796678416412, 0.13470304386012585, -0.08295063321008816, 0.17512587936507865, 0.0588179186788676, 0.044962441080645676, 0.0418534286287744, 0.026922669280504283, -0.103301755813566, 0.09305990429651212, 0.010428420440560231, 0.020538552139791902, -0.21755720192448927, 0.0913819492714541, 0.09984685255250964, 0.13763292796461823, -0.001377133931115001, 0.04014141339098296, -0.16266420320868114, -0.04219688447117742, -0.060801728964157045, 0.052399387173046166], [0.14432769797334472, -0.22722400814623003, -0.16205705413655982, 0.03357823271447559, -0.25124122784624286, -0.1192390520107221, 0.06235091676897982, 0.21448140814335237, -0.08239849318626521, -0.06840394686205441, -0.05565300352687925, 0.028000150571828863, 0.09859263721818004, 0.11864498551584704, -0.1890240401613357, -0.14201136775765236, 0.01186502286283899, 0.168027599314525, 0.198208718371629, 0.056458823868301894, -0.05384766673841168, 0.25990702947236877, -0.007049754188441558, 0.054836987632763734, 0.15522108256974534, 0.08742254764013023, 0.06111481920890503, -0.2162865895388152, 0.4225039163951264, 0.10704276574438365, 0.04710349088079265, -0.009427699367898864, -0.02642299129401888, 0.054895071088712, 0.013506422357522974, 0.09595783127663803, -0.18266382625039748, -0.21094329314301938, -0.0658503259332739, -0.2053023249681926, 0.008568831018038276, -0.0051829148955341705, -0.03172598412751417, -0.015737457665028945, 0.06380781153859637, 0.034829974757824664, -0.07441252017301485, 0.2360248872557536, -0.19379520763028427, 0.4193143131647168, -0.05018235058935542, 0.00978759533283083, -0.08776057349551275, -0.17387764592329308, 0.0023221018416151587, 0.18641580085057055, -0.047182767880204306, 0.20884017113588296, -0.009958603522973947, -0.2653242540551543, -0.045035646088934365, 0.043387972504704296, -0.18213934325969638, 0.02746681997915111, -0.008521325098365298, -0.07651536520654356, 0.1610068139996339, -0.030135431321719232, 0.3477799039717701, 0.145939723091061, 0.09999464905065879, -0.11363422196452688, -0.07732023586092966, -0.04697022087385715, 0.12923055409164055, -0.24832543088954348, 0.021007681324826624, 0.009034152764902133, -0.39604457865321285, -0.3890166965387864, 0.04237070712290438, -0.13244059886206866, 0.25073562638041486, -0.03205996113481451, 0.07370530906419186, -0.22064660314376142, 0.08114716407581397, -0.1177681215929442, -0.1896346018946343, 0.20875586572823343, 0.11952199529964674, -0.05410639202186345, -0.0654164890782182, -0.08682733526942471, 0.1603693327060607, -0.04994998294399123, -0.16069601463720526, 0.08316700113936139, -0.07362500809594487, 0.08462182267030209, -0.05897128809486869, 0.015190241788924289, 0.011183966470088576, 0.11847539493000069, 0.10388327787367671, -0.10587470086478852, -0.0981211171896633, -0.07967605904499248, -0.09876343341407433, 0.16503869570242852, -0.2053385878819276, -0.1783635648650045, 0.08225977683441761, -0.18506733223787666, -0.05636598646608542, -0.11051298096908282, -0.16344689616055466, -0.12175341539544807, 0.12151792467205157, 0.017170554200025022, -0.013947953188816248, 0.19273807055219713, -0.023514795223295425, 0.13688217665649952, 0.14892709842396573, 0.19921976712482778, -0.07155417722148091, 0.20624620107947472], [-0.02675122000393894, -0.017495287602707542, -0.36084211830540075, -0.19835161887254704, -0.19636786131869163, 0.04543578004269235, 0.07305387382254125, 0.11881922610539064, -0.054001080250816666, -0.12739391688957633, -0.05952586581364817, -0.05573616575401205, -0.0809010240758403, -0.009020282240344053, -0.03887372612412521, -0.16192801104618773, -0.05642148194604468, 0.04566659254507717, 0.15312054009709475, 0.09923283858288091, 0.18205039132519027, 0.3079401847380783, -0.11918815628116161, -0.046819075401649854, -0.07582222187244297, 0.08318261773583303, -0.15464590440347972, -0.12396509797363604, 0.16918546870335419, -0.03610656607350679, 0.004110663702129054, -0.029654166473994756, -0.0025232558969936507, -0.08399567130564745, -0.06684227154152257, -0.03399898070973776, -0.1937758143247362, -0.42279771252057397, -0.05286432350003328, -0.012488750384031522, -0.13464870154229244, 0.06768257329382536, -0.07460553398925023, -0.05296982783641363, 0.25830767402362603, 0.12381262734519781, -0.009194115190604289, 0.2620196481621578, 0.07429015621586318, 0.32762400870832165, -0.07589304075099348, -0.06798559583880384, -0.04226153548354151, 0.032709404933140195, 0.03855601747865703, 0.19263419427028808, -0.04135247003192136, 0.47715997107254104, 0.07226044945670705, -0.027100121173760386, -0.05882259014256282, 0.06800529403410316, -0.054467293029951416, 0.02850007098406704, -0.07524218242344696, -0.025103881410257458, 0.1227552181937197, -0.015002469387022361, 0.28380731029280615, 0.03676704669105601, 0.005197646517272889, -0.2407438150446648, -0.08984479703432542, 0.0033892071331147727, 0.0725002978939833, -0.19912585001323682, 0.18050354254673534, 0.05605759610875419, -0.28584428967691505, -0.09322757894772808, 0.15626655075051546, -0.028360226407057515, -0.00704228215041547, -0.12364222927973607, -0.07968545440975677, -0.062063808549080404, -0.07046887892188157, 0.16085230006431672, -0.2699465049812518, -0.2994257412796445, 0.2568323175435324, 0.05610175094013932, -0.17622968345948734, 0.052947115568700756, -0.016807150913181704, -0.08220790408476154, 0.036179099957192894, -0.0660087663099519, 0.05455296212488675, -0.046253747242038123, 0.012384033541688566, -0.029246150407465688, -0.08692273717925576, 0.010788129643995883, -0.1272096039985616, -0.07510096079604478, 0.09395301330515521, -0.04977495793151777, -0.2110445259335181, 0.13641873358121637, 0.0811320917318239, -0.04449222306939794, 0.20805924125128047, -0.04985007014916231, -0.09667553872734724, 0.11276216218473796, 0.03329613136899745, -0.03924037907761741, -0.08112599590986488, 0.18917718798005112, 0.03826665742403476, 0.14672382407493248, -0.006832431822297815, 0.146157736840219, 0.31435410387642704, 0.13860464903511396, 0.012393945795232916, 0.012637088880230848], [0.08264204716884954, 0.08481196808611102, 0.003348907431688168, 0.06888638052278076, -0.02687395930081024, 0.19894606789157435, -0.06723342615436952, 0.06778035924110064, 0.19678574612887847, -0.060598049846325545, 0.0010126507526689178, 0.10351951706480873, 0.0073917034914750745, -0.06213687140855243, 0.08144864292083875, 0.05196344836481917, 0.15159574501466416, -0.09134209211178396, 0.014234485401024555, 0.11582392320615116, -0.0689705514118992, -0.1225400390490567, 0.04836042760701967, 0.011443359228599964, 0.09593217011030636, -0.2215703201007041, -0.001994192516133142, 0.03952138670408027, -0.054896466730345254, -0.09241393359892608, -0.01498927301468161, 0.15275141865659175, -0.026532384841347952, 0.10379372660340261, -0.057605665733580586, 0.12382361000097586, -0.09317475711998918, 0.0698487811142521, 0.15866535832554662, -0.1592169441443, 0.07475297401878232, -0.08354232442590367, -0.05162209755258608, 0.011804284686011107, -0.0658003755388328, 0.17456271406013904, 0.05300546079247836, -0.0780677041456744, -0.09550017230773877, -0.1509773030097043, 0.07544641779207162, 0.1416744094745266, -0.23382615481587374, -0.1038524082692136, 0.08771714379389206, 0.09309791343720014, 0.15690451553137152, 0.0011223683300480543, 0.06190812445957649, -0.02065916478423041, 0.12938996541958883, -0.09658310974994251, 0.023875942574172353, 0.06942417130036414, 0.0401079957115591, -0.1321047279936742, 0.05494080830435614, 0.014938945436393092, 0.004967845792426573, 0.09062307254815859, -0.10966159368019056, 0.03362984085899997, -0.02097704093951796, -0.0872419738801283, 0.09821768358455857, -0.02065076450071164, 0.11117393525952282, 0.11932173027398651, 0.09095880296326884, 0.09789607649542943, 0.0736148934816308, -0.019682021804021628, -0.05344689693304432, 0.13806780619973538, -0.030304773129950724, 0.016895529063569358, -0.17295452109415732, -0.09217821206756571, 0.07670081978654608, 0.006765207990441927, -0.1809841396279976, 0.12307238419415417, 0.09100148167774011, -0.06988497934577519, 0.12838672440006282, 0.02320003079996684, -0.07066027722446762, -0.11163888057588199, -0.030203744164701726, 0.00839843094253899, -0.008601512876827594, 0.011550137510215473, -0.11516193250413545, -0.2170824671385645, -0.08928029457276307, -0.03960149590266056, -0.07430606050556719, -0.01574019325361998, -0.05060826503993563, 0.018367631412059087, -0.13074340317325414, -0.08775802608663279, 0.021332889357650844, -0.11160254488532895, 0.122355512840754, -0.0668526346354085, 0.20324632309528226, 0.07062676728932248, -0.08281232820511822, 0.1513051973036418, -0.03262440397782459, 0.016794969654302227, 0.07671132891277795, -0.15037105633694425, 0.015586930505540917, 0.12799987563408138, 0.056138260881748794, -0.2025046862477407], [0.08291813312596302, 0.016196651066564285, -0.06214290662197939, -0.010190720893991161, 0.03497298530242584, 0.11772973992770491, -0.06142583286276866, 0.20291067228983317, 0.14262273323079944, -0.2470999999226372, 0.10842595212230602, -0.056310553436998936, 0.1204929325448768, -0.03774228222359686, -0.013953232668150784, -0.13355737217676525, 0.007431970024182015, -0.14605975200359889, -0.13969270812653134, 0.07086646989751506, 0.02881970763028324, 0.13121817532594093, -0.08602811713872738, -0.21297620298602662, 0.12245634866441893, -0.017901895236903522, 0.13998575261906493, -0.055507710081563556, -0.025592447046496405, 0.08200639191621956, 0.12735698556888564, 0.057802086958747084, 0.047216252956842654, 0.09329235798492111, 0.13816462886561073, 0.1433002046452044, 0.0031033853126239803, 0.09450567761018033, 0.10431691401650606, -0.11688351819145892, -0.20348722558772533, -0.2541346389735017, 0.09830223630347731, 0.21584942210343236, -0.01542870929911988, -0.09084865231165791, -0.08722893533442352, -0.08908992978956554, 0.0013678460997574844, -0.056717010391776235, 0.0941887799095271, -0.04853732532006058, -0.04916513380322638, 0.08307607782347008, -0.18312921222066061, -0.02597133949871952, 0.0557530994752257, 0.1368537498099377, 0.07030734215830295, -0.040088843215326186, -0.02437220391898329, 0.20112333732262933, 0.07059160009411765, 0.048639379598053326, -0.07301246004340085, 0.06637160339512711, 0.06011815540805954, 0.05945940700191195, -0.045018583353979805, -0.33102245374997596, 0.12622712510977022, 0.006690717246712487, 0.09870645988469814, 0.13523367717201257, 0.02925698154906033, 0.1075164521884378, -0.06137140888706108, 0.08270688135153775, 0.17846501537600412, -0.10401319671135795, -0.061742076512944555, -0.12234456339445915, 0.062053585023860484, 0.19637682667402329, -0.05018486539359068, -0.006270752288749033, -0.029155671002237416, 0.03007067406930096, -0.1538704318362506, -0.013237056816810753, -0.08764662982822802, 0.18001667943079772, 0.06493491308377543, -0.017091449002917394, -0.0574184399439464, 0.019731146215442596, 0.10516026191318001, -0.07552368624693545, -0.026586619907042943, 0.09668817782771061, 0.06111375114872164, -0.021736886958822386, 0.042376575798374866, 0.03660224446489103, -0.07247776330664242, -0.14021563702557105, -0.16210718648356326, -0.0409393131504348, -0.032897411750046436, 0.008798850227668681, -0.01075754595905552, 0.054980027456089015, -0.030922213191713635, 0.023416192557862314, -0.10185724559067953, 0.02736859857213433, -0.0306051816306923, 0.02059601688135995, -0.07256105147305349, -0.24424096222324812, -0.08250335683252288, 0.01528257156562481, -0.095835637946107, 0.107357197189904, 0.12752083848072562, 0.05284917002483548, -0.13156887896092084, 0.003986417375185374], [0.07537122206634635, -0.07407052165656097, 0.03475196695214163, 0.03878117470153924, -0.0007555553611117505, 0.06180185147056834, 0.08765979262627654, -0.11929573512760899, 0.11103777003803633, -0.05229392283953959, -0.03409958028413482, -0.020758506015694008, 0.04830418732390433, 0.02891118589177314, 0.07095236591472684, -0.03591804879647431, -0.02733688521567007, -0.07233177072655543, -0.16185941851635127, -0.1664204374878704, -0.05688986574121946, 0.045340687400897, 0.10926877143154537, 0.11680358767424892, -0.05159450124655205, 0.08029844001194952, 0.053441674527791375, -0.08133377456751648, -0.05591184873191686, -0.06789581855429204, -0.07436434313210985, 0.03929290233382779, 0.01254540175947806, -0.1617043233099455, -0.09365047188723002, -0.257542370885617, -0.11130768184390648, 0.08022726147641375, 0.1431852151905836, -0.05712935697800397, -0.08936971658300215, 0.22241899094074477, -0.11861840506939914, -0.030725823580881564, 0.13833167336991734, -0.12395799483001689, 0.002261698533621474, 0.057254871603277684, -0.13530905173745364, -0.10242780104759781, -0.08952439552217033, 0.07536535090628728, 0.15938504515739838, 0.1816879510016029, -0.05216274037855663, -0.28484835397362435, 0.08771371603711413, -0.030546879558851516, -0.002515602111720577, 0.12066688377323101, -0.11748995168076559, -0.07907773374749852, 0.0371948111524063, 0.10691727102875233, -0.18937510020410678, 0.014491020604363712, -0.21952231887162799, 0.16527281348639367, -0.09464134235089018, 0.011709818137410913, 0.08783203344287445, 0.05224867602453359, -0.19354678349413346, -0.027095049071583485, 0.0043189023008491185, 0.026668867953733362, -0.009932871414863029, -0.012302634748631384, 0.09326559321667821, 0.03164987726331839, 0.01618931810387064, -0.24276590417045646, -0.039072558419293524, 0.01402942034883601, -0.11658911871486138, -0.02459736468128515, -0.07486631558871815, 0.10272554559234828, -0.14883282750256843, -0.08623591184446687, -0.07437924718937676, 0.08870496160248015, -0.003946836878498772, -0.004755512872916717, 0.05425231517347802, 0.010030816443519877, 0.12386564744374613, -0.05125375107301994, -0.06132789437696399, -0.047944944340294275, -0.08390042817375717, -0.10388743623111292, -0.01672247452542461, -0.028115730880738866, 0.09978216096449875, 0.07079586263877741, 0.10316098851044264, 0.05257887984994778, 0.06693262872789578, 0.0028196554398163204, -0.0687453853052258, 0.0680491816300438, -0.19055759380016368, 0.010820249735499976, -0.19658325795674078, 0.06575859008865964, -0.07172206341717609, 0.10575514683910812, 0.04979069739045153, -0.017037877568725275, -0.06033939518754751, 0.08575204170406836, -0.07993317535781447, -0.11208530663958849, -0.04131713919738218, -0.11766700055868834, 0.15072350093149162, 0.037136053616406095], [0.017902398325718816, -0.01037080924950052, -0.07749003581572002, 0.007068815123367997, 0.14418189805089282, 0.023859647410007442, 0.0364124158592059, 0.02855638267095863, -0.06695985721713252, 0.14208933319123082, 0.016677181470786024, -0.0032570154711713097, -0.10127188374609881, 0.14683843986302966, -0.07901099733437829, 0.0008779877463722167, 0.006567775591185324, 0.029696421014632303, -0.08154796681668054, -0.15088170256346012, 0.05761740041961019, 0.14925123234873147, -0.034472094783916475, -0.03824775673694202, 0.09629123528719627, 0.11444725307821993, -0.10688929361076266, 0.01303863975771105, -0.06399214333262244, -0.10904489406174055, 0.0964618285502792, -0.1482263730320088, -0.01433211462716978, -0.18566928082840822, 0.03301988396673682, -0.026491307670665376, 0.04057266534556229, 0.04015032931995253, 0.062334359968757885, -0.028800446031466212, -0.10309038413522975, 0.12109661400754042, -0.18839514158158452, 0.033992797279806114, 0.02923336542720752, 0.0921423575459303, 0.017331363046849825, 0.039143546732878176, 0.09142557304446729, 0.1316409612732032, 0.12232457355500058, -0.05416471409689514, 0.007260626403465149, 0.13375298317317963, 0.3136207135662883, 0.07291703751418897, -0.01065359452762242, 0.017354418531130195, -0.021201203310887262, -0.013926522776134135, 0.005590897184330181, 0.1766312281818676, -0.05122416145854415, -0.06681083506117702, -0.0012113181529035983, 0.034334991094845356, 0.0846028501850635, 0.04264757459721227, -0.016336804804027667, 0.08355506807217261, 0.1183796383388738, -0.03297762240606052, -0.16254153156655685, -0.1455355150271175, 0.024667971777037726, 0.07625285840380641, -0.17027700080754912, 0.005234582769298223, 0.19281113916426657, -0.0076933577162198764, 0.05131483584460797, -0.21542041323740932, -0.12968135080678275, -0.09721915496952954, 0.09622354424624341, -0.15935089814821116, -0.08649414395985468, -0.19206411321903305, -0.0057488683044263755, -0.07635508056083329, -0.0075637600912964835, -0.09166211384548358, -0.2628687091209791, 0.205752276827771, -0.08023080844038535, -0.023306020734607538, -0.03902001259051086, -0.02903410889573765, -0.14394672686999863, 0.03156956647729386, -0.025138640091461373, -0.07593805821197884, -0.09208838049897705, 0.07013463103584949, -0.046306047116320186, -0.1543146398938373, 0.011658112341398944, -0.030326791155979412, 0.09234191392455808, 0.07112519474216049, -0.1245646902875264, 0.03267877641986216, -0.037412083658120494, -0.1071687699974474, -0.13838625169987748, 0.12674415773208073, 0.13039517208462348, -0.09813382627572505, -0.09434510947278552, 0.07707505922336173, 0.07967622651693138, -0.011698040462409083, 0.13871429566483998, -0.05865672969215158, -0.06657613138812378, -0.23179247270503478, 0.04325852029007636, -0.045607557101891544], [0.1269898170215449, 0.18308887401214272, 0.08648997273285633, -0.12128402015390818, 0.00599643118306331, 0.0198420914142421, -0.01382829578934858, 0.07252526796895566, -0.04871835073109548, -0.03673872284244764, -0.05014396043372027, -0.02089784593252731, -0.2759977113415077, 0.11975861205697869, 0.014051143841333475, 0.05822009991419957, 0.029203246571307462, 0.056134706005351975, 0.06791891004591052, 0.10887057352699776, -0.12855338954739537, -0.06362122984900946, 0.01576982295087367, -0.022386690068916346, -0.07640980028143594, -0.07176151222439864, 0.023633889304916125, -0.12398563980244204, 0.0609750288253059, -0.042610047960451244, 0.0893028312778289, 0.15636430115624617, 0.0672275734977192, -0.037966643597972236, 0.03789949026329653, -0.16971261967046328, -0.2543513279057516, -0.025301319137600944, 0.08228569418957474, -0.051654330209771115, -0.10022138236557449, -0.038357481665775434, 0.16441904090390214, -0.05446816769638838, 0.0742805713332058, 0.055345354354693316, 0.026137138708185556, 0.03216852380588855, -0.1982293204246009, 0.056779239106491276, -0.06856173002603173, -0.12753377877926755, -0.2469992754396717, -0.030708820508920112, -0.11383535018074714, 0.10081521807716781, 0.0415503331419634, -0.11686729066444651, -0.11507890130068095, 0.003150628092530423, -0.09618854123983309, -0.007556460666435934, -0.01078341988827234, -0.2000431825966283, 0.1682419040103476, 0.11194291720372745, 0.06508288917854801, -0.1288868454956541, -0.0780495112797715, 0.10463483677724023, 0.0352921293850093, -0.09697126794837518, 0.11088821734093353, 0.029972321369793577, -0.13821666656437556, 0.03456361919827849, -0.03177316922435105, 0.01072234439534634, 0.28987209097894956, -0.08811962477366803, 0.009057438583692966, 0.004161921980927337, 0.07444546780219806, 0.1271309845468162, 0.05155858563540634, 0.09855297621282166, -0.002453259981905202, 0.04522122921120621, 0.18591467984249543, 0.04583692754828714, 0.12669770539358322, 0.048836592688868995, 0.15596966346997707, -0.12355504090366512, 0.039102124584710296, 0.08091920625265615, 0.06788320572665521, 0.14228786753633754, 0.05307591083832838, -0.10428287241998756, 0.0005216391117709458, -0.14811589362369235, 0.09791731239827034, -0.07276515745237377, -0.06748008143491084, -0.13980295720035896, -0.1972228215510921, -0.034302777701750664, -0.04829299538902344, -0.014126752455695675, -0.06730455041052472, 0.1512275620980937, 0.02674342161437042, -0.0053757133481695035, -0.04913439553751149, -0.06737200878923104, 0.17603236333138927, -0.22845686082248307, 0.3161641871106736, -0.029678562612358947, -0.04836469331284732, -0.2542760595530241, -0.03784882371138311, 0.1699813696521009, -0.12335018162059659, 0.002772766299048263, -0.09975095357848125, -0.054011853045531105], [0.024010194115937557, 0.24247562721043653, -0.1344758565631512, 0.25326788398233097, -0.19597290717825488, 0.17538712286595248, 0.09393487796678224, 0.141984227114392, -0.10307035343747953, -0.13638881914131423, 0.027109452376123472, 0.1943327025376803, 0.06916584535564176, -0.0819913912353334, -0.004627336141619465, 0.14866648352222642, 0.12771146202894731, 0.1730742164557676, -0.05696737896001933, 0.1147635856385632, 0.1645634257826859, 0.17503373642027084, 0.010696939543600483, -0.25415634314368785, 0.11028658503001315, 0.042993272150438355, -0.007832487648967606, 0.0006336255085087278, 0.035923093093458064, 0.06993855262528452, -0.047476609431758764, 0.03208123725595632, -0.07232991353380684, -0.026490194063324257, -0.01854582877897023, -0.04642744600314712, -0.07718535062059273, -0.003173843659768639, -0.011944918821214331, -0.15388506471002772, -0.19297248949834148, -0.0749658145606959, 0.002388769183307966, 0.06696409080828167, 0.06886105106011652, 0.17421741041612943, -0.27772644045199074, -0.12702805801576098, 0.10107307685179567, -0.06786615798407745, 0.026367084129278295, -0.0738256268009155, -0.03135804438872947, -0.17657945027915134, 0.03221751909644591, -0.04791126652632702, 0.08436639798063104, 0.03138210420487674, 0.1430592970768738, 0.09630119437677255, 0.056160283995542376, -0.0661095533714599, 0.17263338250209992, -0.1364499190657284, -0.10299387712893862, 0.031836306730516385, 0.08697463985624611, 0.006630947102879258, 0.09572769025931052, 0.09323327325295877, -0.03152848998791687, -0.05881222819750351, 0.13670275264942874, -0.1098078906330611, 0.08043208550814501, 0.18496979058346397, -0.00791630771279476, 0.16548532735499688, 0.17731554062466923, -0.07078178128129953, -0.07924552792095804, -0.090701406303069, -0.011678775995534619, -0.1113514662153699, -0.038403301442461166, 0.018229860521883044, -0.22225029374862368, 0.004526226067311233, -0.04292901555158094, -0.19189516596043849, 0.15268288217040682, -0.12133511326382858, 0.0395389352509384, 0.17829993243484854, -0.16715220883612547, 0.04725377849217113, 0.03038979360681416, 0.04664735447331422, -0.08106614708846738, -0.08385852428323687, -0.10246919361992951, -0.1779306977882749, 0.08923205602536431, 0.04647688947383283, -0.1365675819248417, 0.02004881884539393, -0.1485941963017223, -0.05324661578102943, 0.10583204518144158, -0.08618675940254845, -0.03489703467321833, -0.20868743181137597, -0.13043915994498242, 0.032178228128085344, 0.1957742738598658, -0.12191922741059731, 0.19959733392273873, 0.025010416934528795, -0.12820405026977244, -0.04877069192234323, 0.08160619209494567, -0.06554049957374841, 0.03672500909303848, -0.10621805183832733, -0.05833301645670802, -0.06833742071929043, -0.05464478451550392, 0.10503846445314556], [-0.04627067414484794, 0.0752309482187401, -0.10583631518576786, 0.03953963668643375, 0.00868823017371449, 0.007220647826773706, -0.10148317763769157, -0.09810258740569562, 0.04846455399670244, 0.01984311933423266, -0.1939402736575091, -0.1257113602542083, 0.1730495894846333, -0.04207680111485568, 0.11210896369242399, 0.051562089298514684, -0.007534198354893252, 0.18398958947575547, -0.053449093043365585, 0.006587007983320074, -0.09285048916517206, -0.14015026187962634, -0.16548081055648056, -0.05452116404410347, -0.1733515293924271, 0.20142144055114464, 0.13114197811867515, -0.17582682330510185, 0.09513773306972331, 0.06396538472448336, 0.04297650257324406, 0.08398189543742662, -0.1180865202349831, 0.10006813412115495, 0.1304222040301587, 0.03700028816992217, -0.023226878717803767, -0.170940740731277, -0.056833711944915655, -0.11613496519314542, -0.16998978401479678, -0.024245571779923408, -0.17496503057346968, 0.03964343306213339, 0.010402709291230416, 0.043581572088109054, 0.06336042920877386, 0.19296757315427226, -0.03182803015884993, 0.0036571084416107155, 0.2108826016677207, -0.07147896254465905, -0.04917954133737534, -0.20936324294413372, 0.03230583930038369, 0.136067955377961, -0.1210329380367355, -0.07105269183228355, 0.09987954620739109, -0.18255574707056518, -0.02382890016511069, 0.0445123074911945, 0.1244189324134766, -0.18798815036507946, -0.10890569573019092, 0.06691399377855613, -0.07495041310177028, -0.10105244360628325, -0.13495394122001816, -0.22431721556907586, -0.09329897767148088, 0.062211702255462055, 0.05346604969451061, -0.07234520878919985, -0.13623380621463352, -0.12029110802036505, 0.1374959648018355, -0.021161068196620562, 0.15506083532253317, -0.024190296256995154, 0.2219708297641203, -0.06618149849456605, 0.04429440369971894, 0.10238287106766364, 0.06249779825477741, 0.023088298691164667, -0.08869530169517481, 0.01627896247788927, 0.016781205370127585, 0.19237786701219314, -0.048923915628056924, -0.0828813063074133, -0.15901939284336897, -0.20773594566858075, -0.11080228865469668, 0.14795427211039008, -0.06059998905447367, -0.1262395033762424, -0.005216249192738609, 0.047292352623341416, -0.12504450219493715, 0.04678998439651601, 0.07581683986804531, 0.05870880234216657, -0.0366824705841716, 0.054399686757926995, -0.16930212116459928, 0.09931196555832622, -0.15221303990372603, -0.07281751627010187, 0.02386265081310917, -0.11070088754299992, -0.12424840123380217, 0.13927230648802877, 0.05700398196976644, 0.05386050529656716, -0.02106526176891007, -0.05286465324619366, 0.04546754735520682, -0.08667660047327437, 0.02605434397654326, 0.07459312876647677, 0.049521179031596814, -0.08025744465186871, -0.13677863503730908, 0.05812741404903054, -0.16160707737625463, -0.029587787917123805], [0.1767877961371738, 0.07394623743488532, -0.013913494449282164, -0.0024207360753143265, 0.05948843002715546, -0.09634732633318459, -0.08327967519741013, 0.21900850562162325, -0.02029106650898625, 0.21762608912155046, -0.15344548327771446, -0.18141712528289186, 0.04047408037844122, -0.046016405056108795, 0.054616782076941844, -0.06593837233321305, 0.05873059408282188, 0.0466640822285872, 0.09040720369934972, 0.042709740566362245, 0.05746583629790341, -0.07289525258029854, 0.02852613659353577, 0.15964710349247097, 0.030774554569458035, 0.03370399607160433, -0.02584028784065766, 0.05986779919827839, 0.14312471782409195, 0.10571910923048614, 0.08185477216874909, 0.17440338753315343, 0.11514105992509648, -0.08984059304436078, -0.04592913272452215, -0.05148540690571007, -0.13296653876127557, -0.05615841181386157, -0.014587840857953331, -0.06126280249708558, 0.1320114858063587, 0.03477699517073482, 0.18159227289051247, 0.06744498706993053, 0.15027955324920764, -0.09057290465211096, 0.07139082853057026, 0.03715518244699539, -0.18204113583836223, 0.15798555560057212, 0.013487832474416908, 0.12548085409733425, -0.18717433295294095, -0.07825653848778102, 0.05874442547331896, -0.008052090652880517, 0.011231096580809417, 0.08096904865287419, -0.14023753798375102, 0.04566227895671009, -0.03037421194106936, 0.048510338680737015, 0.0760279374175102, 0.07419245855795507, 0.05085081325230602, -0.004972706993164968, 0.04454194280153188, -0.06038725415291536, -0.1248741706656555, 0.09502303635127214, -0.06841829244691076, 0.07693425372342134, -0.05922622587454499, -0.16268561904203258, 0.03898383454811881, 0.08101385429441177, 0.11284703390906557, 0.009502173157705506, 0.1387575588240678, -0.11261901737833989, 0.11639585155373666, -0.1776983676206524, -0.042587475529411147, 0.15091942120312274, 0.11724893097195058, 0.003106729530582024, 0.07303780958576413, 0.006964126751743838, 0.03776003538536731, -0.009023327565841092, -0.20569659323863518, -0.02824465632150025, -0.03648706087213484, 0.05263471945782925, 0.13642810151386994, -0.044965084215325975, 0.1406463683976033, 0.055857858731502445, -0.011783746960914469, 0.11417258534814508, -0.018420992209225905, -0.058093687655957064, -0.01880562078794811, 0.07551984720385174, -0.12542953188338768, -0.11447308336701806, -0.0898764704191322, -0.21212916496623785, 0.05904554223054123, 0.018588996784660895, 0.022425842927069835, -0.0891830605022557, 0.09498609947718177, 0.0446309429275398, -0.09777668730995324, -0.09803521235975204, 0.07907145804914045, -0.08898366446878364, -0.018427896290701903, 0.06967953176851709, 0.038348261899121903, -0.036111563728087354, -0.04248550458478482, 0.09994112199157638, 0.159406592721661, 0.0017000250991297712, -0.016880853249850013, -0.17487215666166844], [0.015194489614442381, 0.056973342179679066, 0.08159338536315368, -0.04853634615292919, -0.058314098952873754, -0.04970471444384941, -0.1559425304505826, -0.04245350490207609, 0.1320496502119443, -0.10401366845971903, -0.08702648163853977, 0.05410954178332966, 0.005275674500922162, 0.09365308944597382, -0.10210634943769924, 0.03614850493000945, -0.1307181309719166, -0.05002772598108717, -0.11866051318749625, 0.2598718250716527, -0.16160004843324963, -0.16943066316293728, 0.0843451406800079, -0.05383126613758704, 0.10643653427873959, 0.11774004711152629, -0.034982428754220224, -0.13158335560724033, -0.10515959936540759, 0.12582030138260605, -0.06259998037035906, 0.045392479383124885, 0.05723246735619358, -0.006970182954475407, -0.014854788635043826, -0.07137331148933428, 0.09544870550437949, 0.012277709758861092, -0.0522782097609312, -0.049259270161212405, 0.15399996278591754, -0.10842830222981306, -0.08386973292948613, 0.25191980657681196, 0.10122391046539476, 0.003640389836630807, -0.0036302626308754235, 0.10841094971050802, -0.07868359209979048, 0.07064039417930311, -0.11682413856917828, -0.13505939164093628, -0.086013456530175, -0.07677653079250767, 0.03317767981673025, -0.035605043430569465, -0.08391008981860815, -0.0023997079560927775, 0.1546589707083448, -0.010512912601886276, 0.15353550783663064, 0.020551995953685624, -0.1023400161101366, -0.110917170977653, 0.030687256146150615, 0.347878905298796, 0.2223393852200775, -0.11471701074066612, -0.09069634211963194, -0.006126217078123546, 0.07043423426238767, -0.17059793566395043, -0.1264312995443647, 0.06056201729762663, -0.05805107987872104, 0.06579451145199103, -0.09415581994883793, -0.08529583978941573, 0.06495217504321461, 0.0009751204399294739, -0.041898450920790226, 0.04807676764547979, -0.1247401907921229, 0.12976143786529618, -0.08185041897481174, 0.11456850223937219, 0.08599492220109152, -0.056084263603884014, -0.09911518096843452, -0.05462951924956394, 0.04097404482228753, 0.003546433906765341, 0.006324017811875341, 0.027173560379624567, 0.043875937899095434, -0.08130247684075835, 0.16345916846215483, 0.08194242517380977, -0.009687840484026634, -0.09141587627334868, 0.19296987703693888, -0.042962407299482336, -0.07124856904304697, -0.050741008706246274, 0.05953556906533253, 0.15131534190697427, 0.04596204644063931, -0.14315328298006577, 0.08701343680346416, -0.019774765284117396, 0.14344605079262399, 0.008871315201329283, -0.07735780453853708, 0.14571354790281466, 0.028638845170660635, -0.15782936432971098, 0.12228181500231101, -0.0803671942342381, 0.02257152376271312, 0.07917847211276322, -0.14718231067147253, -0.08792123177519172, -0.10064307343501888, 0.13228039822918497, -0.032785057513963815, -0.026892479172302586, 0.12240265035143556, -0.06654468767137915], [-0.16980767901579377, -0.17247266662290175, 0.035375163157318965, 0.020935792734937637, -0.06606098847191115, 0.07909075791656989, -0.01093501066588061, -0.1641502920836185, 0.07843620056364257, 0.03524515311748835, 0.04490567905682266, 0.026048157165482578, 0.012946871904246308, 0.023908574734898453, -0.021537975375678014, -0.03941085507925516, 0.06354907307590266, 0.0738276533717469, 0.14665935761320192, -0.08287699021911868, 0.08211587697127609, 0.04787388744814896, 0.034839535727327176, 0.03813104703751953, 0.03314706451528645, -0.006146047969678498, -0.04485687871265973, -0.05188835672313196, 0.072016729319756, 0.09323383295866364, 0.008323096521299079, -0.0697744845844007, 0.09674850297812712, -0.11340299961726517, 0.026815173202977573, -0.16640581255184383, 0.042386834771411426, -0.16986348224358294, 0.20773215377859167, -0.08833783560971076, -0.035390918720413604, -0.09823851730484116, 0.13731422916844, 0.05277499634067317, -0.15784151341208258, -0.2196921930783149, 0.07546124218359906, 0.07034521906774871, 0.13398916409386585, 0.04494257242097809, 0.101690123057282, -0.005764941471681433, -0.2537948671143493, 0.13003602299525485, 0.026980941483365974, 0.07397744420884171, -0.03661257439247342, 0.026203996099399243, -0.069141170980783, 0.01422605482570536, -0.0012587851657442702, 0.10695494389986858, -0.022153850409892848, -0.10496774510929546, 0.08662916796053095, -0.05736898454462023, 0.13210988463576784, 0.07324101078619957, 0.08914017009846463, -0.07380289985424789, -0.03185998316524766, -0.15438687748719948, 0.2501989723865658, -0.09954412177890178, 0.1312814772510569, 0.04217274540208345, -0.03753187058073936, -0.10959668944563106, -0.017878212421166086, -0.041831555117471504, 0.021266390566741882, -0.03479985104071554, 0.00779730550292548, -0.12772722413438514, -0.08786792141858434, -0.07992346095668557, -0.10000485379051532, -0.0014284209076038791, 0.11787966463013116, 0.010046815254664228, -0.1730285387713245, -0.18180143704771864, 0.16001721586516182, 0.0017196185182612404, 0.14411706591976015, 0.11549951550448467, -0.04897579335971476, 0.1463550408871185, 0.11023178675570616, 0.15654968119928772, 0.04060620124682156, 0.10220445472985507, 0.04038306945619814, -0.0650347273018113, -0.04393284324975111, -0.020597305724311593, 0.022859783883580446, -0.146349784447784, 0.04847072768416036, -0.009530234529663369, -0.11617658178523238, -0.09096627463357401, 0.14754033582381063, -0.3104768151338635, -0.057608116580594296, 0.2558080092941637, 0.014952722024198995, 0.023915602578970168, -0.038852324141226795, 0.05689018035745749, -0.003109934452001144, 0.03409914720286647, 0.0011526987725589788, 0.09926490768549918, -0.22304856797768108, -0.043517854430862424, 0.038368455813850476, 0.015558421466612083], [-0.16183513939406985, 0.1206940692473053, -0.03265193838978305, -0.0900663109693996, -0.005817523887155249, 0.04003876262725068, -0.15916294670637912, -0.16284456478517345, -0.06126269167032872, 0.03222984934241996, 0.12759278329944213, 0.08107494154099495, -0.024513258274598337, 0.1991618729142497, -0.09774673026595747, 0.10087351268688578, -0.1453451002463376, 0.04116019687764612, 0.07074960103892233, -0.05473584718111103, 0.16924586770531924, -0.12367806408000225, 0.05259533615801629, -0.07709070818754335, -0.10852238315858037, 0.11468386493248095, 0.016568750874515478, 0.12034979065884083, -0.09891509999273074, -0.11236666424582974, 0.051282846361491455, -0.00792473643241429, -0.16756076201559134, -0.0718887464852167, 0.16060009390601704, 0.049390700997674924, 0.0007113242327371652, -0.08705682821623827, 0.0019234475763975402, -0.01434483319041127, -0.10188141101051473, -0.04059543072956225, -0.08149566581146062, -0.007243322600281203, -0.08550573813317225, -0.06378579511691788, -0.0572722992384706, 0.0008068082746059254, 0.059474351671629594, -0.07498396727910851, -0.03819347768213814, 0.00834825671885736, 0.08357202378958563, -0.013040036653034505, 0.010804872297824949, 0.06758438860026543, 0.05825742948677947, -0.061107280986644044, -0.19727501092251087, -0.16225733633178374, 0.22978142512067998, -0.12907685199790497, 0.07930117841020057, -0.058483843053828366, 0.07252168530800837, -0.03264577702559023, 0.18585944415780675, -0.09206743183305285, 0.15406630347124714, 0.07364000298234717, -0.23315978061989445, 0.29925666772993903, 0.05806613580288812, 0.09693632913956397, -0.15366196716468206, 0.05304898922448773, -0.1255411291104408, -0.2311440920243685, -0.12768111426885845, 0.12177311016092365, -0.00501410955508013, -0.03136535088197624, -0.07087383234373477, -0.02429511629950111, 0.1724136652605067, 0.02530978973338275, 0.08514838579510428, 0.046153178125551524, -0.021013238578518438, -0.05609524132706313, 0.05985856948550461, -0.032291156338354596, 0.08174760060649376, -0.1457044940408739, -0.10458303165998516, -0.04632816640889352, -0.08313395679242784, -0.03715551833664034, 0.1199612126636625, 0.012559801766198456, -0.12205244869596964, -0.22132645712808563, 0.056988190826003815, -0.0062587902513044765, -0.00652288314158698, -0.21551625597212964, -0.08141836737227462, 0.09901240833342906, -0.004310767406054043, 0.029289245254306137, -0.22145152467741838, -0.09403769008359053, -0.038877380072599554, -0.16924001176806833, -0.030987693038261033, 0.04289631493661969, -0.02004127568157406, -0.1248766500827842, -0.0681222220494381, -0.05185349813670819, 0.12570536894478815, 0.007494417255172893, 0.0414988935798142, 0.06510325624900318, 0.18649129589774213, -0.15633839948847505, 0.03494714549733715, 0.036118128059123435], [-0.12242806045877626, -0.09137919770424038, -0.053381587167755054, 0.2414310259692544, -0.04504544520247056, 0.2555907819184005, 0.059663511199154834, -0.07548671523062406, 0.31106750296159513, 0.09010260770455164, -0.058004932587227144, -0.09979660584219352, 0.14200560510445184, 0.009582878916907034, 0.2854224232123495, 0.168309837147225, 0.08282486896196758, 0.0029120109556950275, 0.09806720999873571, -0.03317692474700914, -0.05071438278370793, -0.022027134913536202, 0.07209996687764388, -0.022768147746593637, -0.06920852980616206, -0.028957290169024187, 0.027162493828113088, 0.01802557368745824, 0.07723295693923957, 8.681445302256334e-05, 0.06909642743070214, 0.1202083073224549, 0.0980669172697963, -0.12119721217288343, -0.02248421278455943, 0.05383524508776617, -0.05038246015688125, 0.11094025682523681, -0.1422590147467143, 0.07684205236059029, -0.0505402243005858, -0.05578421045537002, 0.055143373069677086, 0.1869668956269836, 0.05727704615358656, -0.005471638932559621, -0.12564252478022084, -0.0322791876243639, -0.025915602058475, -0.0628429201513121, -0.21899896798766744, 0.18326119935548102, -0.10194339076851691, 0.022559848005147803, 0.021965929508090506, -0.03385667209266414, 0.025244384297402542, -0.21175767262217038, -0.1547769313754146, -0.16518740855763764, -0.11581869299519616, -0.03852546302990063, 0.10961429374910055, 0.10937535486329333, 0.1218154089421343, -0.03801959763425124, -0.18453619714742903, 0.13076201091462689, -0.09831518414076375, -0.11709723913658542, -0.13725254776750032, -0.010769566289935641, -0.06966246243711188, -0.06585417720584134, 0.04092179352163772, -0.06077832966084321, -0.1156679436025021, 0.05821981579401532, 0.01396640954949925, -0.060954257534757875, 0.15692126517366012, 0.11575569355614863, 0.054481689922809245, -0.11261330253693724, -0.030882534404824597, -0.10635737899870729, -0.1056000475962903, -0.10436079919967117, 0.0271035655881142, 0.22981289422314002, -0.009245527379395884, 0.07491138091681052, -0.16504782152962863, 0.09894861878441052, -0.31873503505310596, -0.16868912367977107, -0.015394694651977457, 0.18008192507846016, -0.06510316734936263, 0.01036326587820732, 0.1772266999494206, -0.06277537726545439, 0.024336682029722237, 0.03001221081292793, -0.06257334898501528, -0.025239370795385227, 0.03290608302108911, 0.07925984488337823, 0.10088349696735684, -0.17155858289537299, 0.12978180416523089, 0.09676881004582433, -0.07306940377694482, 0.035298724977274834, -0.20986216250513112, -0.13542568988364598, 0.10067969029812879, -0.027321950404457025, 0.11015690953008644, -0.1676965710269299, 0.17010621883034707, 0.059873020385847846, -0.036052628916481935, -0.12480315952620254, -0.005526239136211372, -0.12928790018766875, 0.00534658397468114, -0.23749408580292788], [-0.04536650370763372, 0.03818752445260454, -0.029257398133288894, 0.09910950748528462, 0.0049745643139308855, -0.017309014449539653, -0.027692199549697833, 0.18920219276029696, -0.06862492269581308, 0.01656379144105088, 0.12032038383625086, 0.011946056121898313, 0.07018438226395289, -0.027780461713101237, 0.23008095262278203, 0.02451238222818744, 0.15556643250568616, 0.0336105274880641, -0.08625837035963599, 0.031197361508372264, -0.07790843657235655, -0.12362350063432517, 0.08658833971408395, 0.029575530182960042, -0.025242281941120378, 0.00419631220623416, -0.10081978004250564, -0.010454301813275689, -0.10735845066027344, -0.05072135997053502, 0.05773727186138088, -0.1899373242165675, -0.08321524828776981, -0.19264516432343198, 0.04680713075872067, 0.14349709727832324, 0.14932566349582777, -0.012117031759196227, 0.04207671349412775, -0.030420204176203877, -0.1106283130854239, 0.11344519002590742, -0.19077712271441913, 0.10506388899193478, 0.08452772550692537, 0.12675153696238037, -0.19336851863912985, 0.08142055285501626, 0.06761571865585257, -0.02106675046963502, -0.08638205396960516, 0.013247533131631309, 0.003571899835194483, -0.08243451475457443, -0.0828203287174759, 0.19906703250446944, 0.013973563110888293, -0.09267940407416775, 0.17841959007558364, 0.03804694568384198, -0.06290022791638188, 0.11844504861156163, 0.14200175689380887, -0.08792096831550034, -0.07537544414063117, 0.06566503947222123, 0.06636793662590382, 0.008574930834563054, 0.0731085327698077, -0.008879076958751446, 0.09183162785972558, -0.03854708888454081, -0.09443096346736171, -0.03369745036222468, -0.16902420238629473, -0.28282953362783186, 0.19677274008479662, 0.02335953601432493, -0.21689043907434016, -0.09804356999239362, -0.03278605064129527, -0.16884754960917248, -0.06398137465483496, 0.11286079192900983, -0.0683894714426742, -0.06508401540838996, 0.0623736398394672, 0.108249607958661, 0.12128939622895857, -0.138324009316433, 0.20002063687451874, 0.023620279933113428, 0.07559660174128767, 0.036232121794478954, -0.0031313203184809716, 0.12291853091672014, 0.03352981995077467, 0.1026232135796956, -0.1481416395388989, 0.10189453883957983, -0.04425877763026588, -0.013362688786153884, -0.07961374921213066, 0.005187967615183253, -0.039314606211851684, 0.0078094543927678325, 0.06532119727825796, 0.010632261434347005, 0.16258349685678367, -0.04059130274630576, 0.053488780977426265, -0.14686443271518543, -0.0070085363912969646, -0.029781730244770654, 0.023373172242762343, -0.0586217411268548, -0.0635968977246744, 0.05253262295568493, 0.1453765081760782, -0.12170812279461343, 0.011933762144309535, 0.042721912480403135, 0.0020606279597510722, -0.11493439539435123, -0.13044185643581382, -0.11353196949355314, 0.09710734730727488, -0.15327880092070834], [-0.0622769176527931, 0.044181522360850184, -0.07393234155676907, 0.028083207604262674, -0.11360503670232076, -0.08500997664561608, -0.03909601280349334, 0.15391798284880212, 0.1956765585997039, 0.12149932037498208, 0.13739388898364835, 0.1225964964219259, 0.034158147749808396, -0.0420315262589285, 0.07389051840853125, 0.1122580809358656, -0.19369581229973593, -0.0703982416690971, -0.12365872751179648, 0.13826539095961332, -0.06190598524056661, -0.031110354827242073, -0.12476735705312669, -0.17411239473959425, -0.007540173232481996, -0.02581887319636841, -0.03834727137490565, 0.049533867990432155, -0.02361559339219546, -0.08326606768988552, -0.08851550297467241, 0.09366223449272615, -0.10263061672474783, -0.009288461692860989, 0.14057343515509763, 0.03246924296607014, 0.03629644264993302, -0.11026373461447661, 0.0010890678084459037, -0.008046061856796493, 0.016064053912096584, -0.16389229898872598, -0.193015193523999, 0.068090203666645, -0.09124643742824787, 0.06549554576197612, -0.09622912294120815, -0.14499764647260466, 0.19089715755910902, 0.11024090187438812, -0.07930532171180849, 0.09696408803923227, 0.11045599338343491, 0.13927501821133656, 0.006553056020237361, 0.020555575870164287, 0.03579148827278191, 0.021813160172533038, 0.13622467954493742, -0.10819754311262374, -0.039232548193510595, 0.046506318749243436, -0.15530908310847447, 0.007557282733779153, -0.062198757101540415, -0.005890627956496253, -0.0012290496755668421, -0.04046764938644429, -0.2517565293065718, -0.01591501790184138, -0.013623631679673842, 0.039741188095680925, 0.07985809350142567, -0.11570814937379548, -0.06460620516697631, -0.018170540222773694, -0.06199427211042927, -0.0354434554473618, 0.1680557776554505, 0.0015076941363464805, -0.062399846099399636, -0.09603057039953387, 0.027302242852399367, 0.006136180275297052, -0.09386596769147552, 0.1215516403709444, -0.057595015455387644, 0.05594290511618612, 0.13533999786027986, 0.013611451814883595, -0.07943822508798748, 0.030382280285968444, -0.0247269531825615, 0.08095722979664753, -0.128422600515864, 0.039211296060470364, -0.04579095925186853, -0.19653349013447108, 0.09357615940879296, 0.04217096381264562, -0.09992024046236848, -0.07613711445518978, 0.14965135910202598, 0.05254204628796874, -0.05906408669730267, -6.878776868354752e-05, -0.06121394058732717, 0.10422233152442778, -0.13229659651488712, -0.08169198895317852, -0.04076024436504175, -0.08230263922455258, 0.23376865591552437, -0.033919339689346954, 0.004240853051754565, -0.04373082277206881, 0.050353791437240614, -0.20127568720546563, -0.017748002977276602, -0.069770578928799, -0.12015761794119087, -0.10581389631379595, -0.05969472771840656, -0.058314164113448835, -0.08560836148023689, -0.13418819143792224, 0.05075740217086975, 0.02399907133003503], [-0.08317573883741866, -0.13564665575098792, 0.03681693927256777, 0.016254171237412633, 0.2062429305711032, -0.037089453778737076, 0.04106644647807155, 0.05187309373683189, -0.12043350148310944, 0.06147381496575689, -0.01513009263560004, -0.03999795118428273, -0.018430816856678658, -0.024529463479932095, -0.01820300851389628, 0.039600399190048374, 0.0820547938553048, 0.04615279552598878, 0.16272543704025647, 0.01084579496602815, -0.07407285723518602, -0.13078969511096733, 0.07529389443700302, 0.0035015305615637817, -0.16943510396978106, 0.028119200443172062, -0.036258122362054654, -0.12905343077126524, 0.14443488267928029, -0.09339641251148834, -0.1257829831214868, -0.026705377070069404, 0.07504144296690729, -0.011869786336055507, -0.016440050963395705, -0.012658601950259009, -0.070408701433754, -0.04360820080598149, 0.03826391628585162, -0.12219515124143027, 0.24228281254810274, 0.054239807994415384, -0.09664637060266718, -0.2359385826488805, 0.01796766046098257, 0.08092142486942429, -0.17547746268132425, -0.03324060631697017, 0.10708709910835679, -0.08095477179048526, 0.09870103665328288, 0.032083418862170955, -0.02959547652783566, 0.0371929361017254, -0.06285453648223835, 0.08207594715565361, 0.14721433192556257, 0.092398986081, -0.008329886309404979, 0.06367264451800489, -0.07394890967657561, -0.11626653341186183, 0.08448810709130478, -0.08651976648441365, 0.03595477027853467, 0.011719454373681597, 0.05419980573105498, 0.08155415586193285, 0.04279135552686894, -0.005671521460512578, 0.09839428955082742, -0.09762163474293956, 0.13405407303117237, 0.1841109439773055, 0.231090531458794, -0.11429080288065736, 0.019838699908673093, 0.12806122177357185, 0.04765218975199165, -0.08978301159857244, 0.13309559543726132, -0.12279728662549538, -0.23023851327007525, -0.0910014984347888, -0.09620601901690728, 0.10174359965438201, -0.07322886808707238, 0.02023294460017697, -0.001126208530201056, 0.17173090030041793, 0.030945594524050653, 0.11493029947887722, -0.06394789867844188, -0.0010987088072063123, -0.038034062950811735, -0.1052782386788088, -0.14171106789366858, 0.018421610237138047, 0.007410106352539136, 0.10773103802980771, 0.034472246950011845, -0.016710999936947857, -0.008715729374271458, 0.009347329087639638, 0.1088991625901457, -0.13570861524297845, -0.05191168770929081, -0.11917608543090873, 0.002645416820270462, -0.05653047645766806, -0.01610011204096639, -0.08201424731172376, -0.1538881930032131, 0.04593631700959519, -0.014946531526560065, 0.039419481113044184, 0.013832057807482727, -0.2055062942471697, -0.1156452764036914, 0.011505028730815464, 0.0771826554740072, -0.06255218090373797, -0.01622576690598476, -0.08213449928234007, -0.15877817542901748, -0.05721896533918495, -0.2027116877379533, 0.027884901138880452], [0.030907728214733223, 0.039510412190920226, -0.008057592114968605, -0.07373125374551155, -0.04841788995812914, -0.23366043148899274, 0.15746717166283214, 0.05756870260408366, 0.03325662841461532, 0.01346403607735448, 0.15581255944456693, 0.002872948701347409, 0.07659734584599578, 0.07345055732220207, -0.03613511209006475, -0.14054938399689684, 0.03688106462405489, 0.03675472840095293, 0.2612396583658137, -0.1984121563028282, -0.06063601676826844, 0.0852989164209943, 0.06407567445378463, 0.22598914416170937, 0.1458463697439697, -0.002873857873519096, 0.08881991276033235, 0.13350599893146928, 0.09448323326049873, -0.012800785678971693, 0.053345902948924245, -0.08690346034156304, 0.017747261306044572, 0.0007123434681235957, -0.01915049248658879, 0.022436291667746494, 0.010328556990636012, -0.005952363381292665, -0.14341976342684615, 0.13842429102577633, -0.16168377498934827, -0.08160498001891713, -0.0785142284131166, 0.11805459492276323, 0.0444682407333265, 0.004223881819612153, 0.026770999060431594, -0.08310740602614468, -0.056034064407611085, 0.0009569286054759429, 0.09416067137030126, -0.07062947941585783, -0.0308936227716062, 0.0890107637359622, 0.058721049527908686, 0.1132686882484592, -0.050099498877801664, 0.11424917690446999, -0.08136896911844795, 0.04700157966285766, 0.15250638567743668, 0.03489298673818858, 0.11822409807649792, -0.06686623686546588, 0.16230969341024892, 0.004156669824202691, -0.01754425926312007, 0.14870183434071124, -0.10923412729465805, -0.16611453455629674, -0.06585532516309145, 0.11151301941241785, -0.027959611059739233, 0.09823244541736531, -0.003109083945671395, 0.032576081652685156, -0.2796302491485312, 0.08766263435555724, 0.05095646343364374, 0.14374358460666295, 0.07516089773992034, -0.09591646398741643, -0.01829157492634072, 0.09343530604994095, 0.1778005773522683, 0.07110859281345798, -0.12469980208192898, -0.016675304899333217, -0.17862924965232366, -0.019464014847391103, -0.11300889367630074, 0.0937628236189838, 0.05282397605985617, 0.1941218210759569, -0.11638081274033454, 0.05584331863122554, -0.03790765940192804, -0.1355289393789594, 0.020797040162409654, 0.11858417638077119, -0.03883390144628745, -0.2058393198049606, -0.09879004753196932, -0.03202843326836168, 0.03302113292245601, -0.03826244011770388, 0.017004329995682105, -0.08871561024935476, -0.05431348154604814, -0.13571859526295085, 0.21329856515967763, -0.07950279610353234, 0.07640585262844363, 0.024817154955204524, -0.03902275427794295, 0.031240785608899216, -0.1032745767900742, 0.06406981211669754, 0.012786227133388672, -0.1224241497497558, -0.0771154928935877, -0.05577821839342221, 0.19117575746685403, -0.3493780998613878, 0.07366636606012152, 0.020105049871066826, -0.046239673057418745, 0.11164036915273985], [-0.012332748773608475, 0.0006266736215152658, 0.08975177083248598, -0.025059182958608137, 0.1319533747241754, -0.06976293476420968, 0.1436123030285353, 0.05368876823142648, 0.18994337285209362, -0.01508341439382714, 0.13484490499844698, 0.09244037042401221, 0.16049315170905842, -0.11169021424624521, -0.1041972862725939, 0.08807628965367831, -0.14167604815756274, 0.13991235571090696, 0.02355382235298163, -0.06612993282726297, 0.0372600928229365, -0.08415795057621184, -0.056274534052316506, 0.036485142291851784, -0.1313215590863497, 0.12700505071212598, -0.18756867195284688, 0.07064939793966635, 0.11911610717379556, -0.07532087835580653, -0.01919283360780119, -0.09470201231017153, -0.06711732920977455, -0.2544881310841319, -0.00830912821273951, 0.06635051337905333, -0.03468478122213164, -0.10229687171473777, 0.10333063950617644, 0.0061360667295120045, 0.1434009548435329, 0.03453242069990294, 0.06361901913583899, -0.28906075746284676, 0.03799419451894103, -0.020840969792289134, 0.1352494975618281, -0.2226966308275342, 0.09654581210207247, -0.14947888043646218, -0.14883304541364403, -0.023884594019739032, -0.04646050716209993, -0.17403855226716936, 0.015045929119218213, -0.20097030306035082, 0.019441078987034184, -0.08782599402057273, -0.05340927986622214, -0.018671390967194695, -0.03682907273602186, 0.22132010865355697, -0.1594498792505881, -0.11686530292467723, 0.11926233697604878, -0.037719469845925974, 0.08919080613259443, 0.03504529779042697, -0.22861764805378854, 0.15506916406108734, 0.07027517987291719, 0.1372959140407345, -0.03943518236174863, 0.003562364747061045, 0.01672013469371424, -0.0722456873481446, -0.033021420920954184, -0.25728495236386534, -0.047814883784843505, -0.02819704542823878, 0.09903137040598478, -0.2138783624182005, -0.163019878399565, 0.19969583022142942, -0.17433736317817738, -0.011449081867320413, -0.04168793065998052, -0.18801826649894124, 0.007132546214285668, -0.03843093016173555, -0.057698008839356434, 0.00010793760251028635, 0.13929915740815565, -0.07129066865205223, 0.06587442158645584, 0.030316656434354845, -0.06742129199359925, 0.1564085421849156, -0.09958436401284354, -0.12574937317651738, -0.05611124990047787, -0.20509999380239496, -0.02003376642232868, -0.01692438053671615, -0.05391809003286118, -0.026042940167337582, 0.03954937791770473, -0.04184394734720812, -0.04385936731532967, 0.0029212757605840767, 0.0028292214035213975, -0.11704572136017913, -0.143119418151648, 0.03488114448163609, 0.02186420735587361, -0.07643375268598024, -0.06877625752657643, 0.08752725575908799, 0.03321798532697526, -0.0007889954013917298, 0.04293981899739996, -0.0534694613600972, 0.014385548245615663, -0.09160880532466437, 0.05795935776371863, 0.02549113836320558, 0.1703240823122314, -0.01600282918332704], [0.10683102645002603, -0.2873476513698969, -0.0963667664477518, -0.06012389605853527, -0.1615495248112247, 0.014843786890907849, 0.07917271093547174, 0.10773354392178301, 0.1558740148201369, -0.02640351276728642, 0.06989114071949197, -0.02662605752119838, 0.020343420297114254, -0.21592974696860845, 0.06702793181483827, 0.0021921450838538015, 0.014174594523678863, -0.008279365834554351, 0.0054006069060962, -0.24845265255910248, -0.29624227381694385, 0.32939384379569125, 0.18848106257150787, -0.05753529630319946, -0.016240063626422226, 0.20908162911033026, -0.073341265112336, 0.044779881093947836, -0.20794527750408087, 0.16911705389634668, 0.09908603472101961, 0.01403294566136874, -0.05233013644400813, 0.04883083476508897, 0.02576299072663986, 0.0276674445813908, 0.057659589813940273, -0.007778205252436082, 0.05365166464483972, -0.009746565379179152, -0.011681253799438057, -0.15730583873268855, 0.01136269547292991, -0.011546867706168008, 0.2195287160959885, 0.06850513822744723, 0.15934074866094897, -0.21900259431911528, 0.07396796578236808, -0.08771940054738087, 0.10282108260767793, -0.08790676641270063, 0.030722324532791237, -0.02986487148413566, -0.10794843096399333, -0.05217662452691219, -0.0842910673298755, -0.14022910641227634, -0.21808018085973627, 0.22580665937559696, 0.016103209451997835, -0.018396753090703908, -0.04802818024727624, 0.0036674840842418747, -0.10619366148762058, -0.2138693868476727, 0.05754141718987762, 0.05702839714224374, -0.07814881795748356, -0.05551087029862814, 0.05371420932603064, 0.24718148387128014, -0.11988001891586278, 0.153139667965365, -0.06400250585191633, -0.21621547027693763, -0.27455041790250645, 0.006110667290379738, 0.06170588896953018, -0.17707370083449525, -0.22553087924494483, 0.17893379011905552, -0.12743527239838187, -0.21373687901381436, 0.19737569324888327, 0.17272748936622495, 0.16976596199945757, 0.05517966374465214, 0.13081092077619655, 0.15328549555521687, -0.034136499223442175, -0.06841375441365602, -0.055372035753607794, -0.08288048015975921, 0.048029497438746585, 0.22987952630670377, -0.04455369749125261, -0.012269897603210013, 0.08256658018226364, -0.029610608803340363, -0.23608447396136126, -0.0668458634952321, 0.2375590142629509, 0.3563243958012315, 0.08339434589825387, -0.03442608996788686, 0.016297935554632666, 0.07869260979745579, -0.20340831598715492, 0.026433981949480618, -0.03478946504425206, -0.01829947032026184, -0.06078829175655747, 0.15175671163515653, 0.1952090019809531, -0.08835917123833233, 0.04478454022217174, -0.04888192831346107, -0.072961943503074, -0.024661966964428024, -0.08344790467869095, 0.0028335339374607094, -0.03092715805766327, 0.04265765409885869, 0.09819347341376278, -0.11695569215860588, 0.04276537233613586, 0.34120113788049106], [0.2514716555471784, -0.013866751006692102, -0.19298970479980518, -0.031112219586039266, -0.21426951899284288, -0.10011450802911355, -0.1174031038041819, 0.23289215160773458, 0.08592188502370153, -0.13305257356450576, 0.06803626640753631, -0.2532652321044737, 0.19043409435233213, 0.052608786383465556, 0.02808551658926312, 0.04282126568423688, 0.05164291919105056, 0.0005525148082454988, 0.05150983489198124, -0.38689101437559925, -0.22662939941202495, 0.32079566106471114, 0.29314380372629867, -0.18203504738787663, 0.010267038556908425, 0.3149579408373133, -0.02760025293372865, 0.10587043656311827, -0.030087173900968142, 0.042438864128284744, 0.12890918448852076, -0.13321632896331512, -0.21506610860908273, 0.05849598613648235, 0.04579682920767986, -0.07105437371739802, 0.1992686686425095, -0.08393325638298721, 0.08493443810896395, -0.08031903776912147, 0.11687011496580581, 0.09325687075209822, 0.08809059833334362, -0.09167427839237431, 0.17693651007770256, -0.08765437512346093, 0.04454967308781399, -0.334844167953106, -0.1144192959474014, 0.1591697185456961, -0.04117692991803421, 0.04472922635884219, 0.089003602974759, -0.1398319879459321, -0.03579881699443238, 0.13774409084938166, 0.04618982163197727, -0.016842266132870293, -0.1868559105535237, 0.2719585230489914, 0.03776205402946452, 0.021759256922383445, -0.22457749727403786, 0.2176756628775469, 0.031560055599173104, -0.08031096364078603, -0.15265341938645766, 0.00911155741395682, -0.12094814640254517, -0.05552696727374004, -0.06064058959591251, -0.08145324213588645, 0.01664335321735158, -0.13864208713664902, 0.005731462029499027, -0.10306143838135529, -0.1716540253732858, 0.12660563853955464, 0.10519570837957182, 0.10643354627710279, -0.1985919336514509, 0.18960344115511737, 0.1682302005873126, -0.22493186312365793, 0.15069566430282658, -0.007128033550541358, 0.22695106042106333, 0.2004763401187126, 0.0934373810883345, 0.17637624409010383, -0.034458174256672525, -0.04601446983041136, -0.22952625726352482, -0.29322370960251964, 0.016438519888646193, 0.33845885920231256, -0.06494410770331949, 0.09671660549109187, 0.04150167901974409, -0.017670814944984858, -0.15249492243611615, 0.07382450247486343, -0.06031279092033123, 0.24367890170517034, -0.031562206494892164, -0.10634527185562653, -0.07055802184652087, 0.047331252618521245, -0.04990560400448449, 0.02174916078358457, 0.17825889261032193, -0.18524351987154192, 0.11064156823818203, -0.04259211907731948, 0.1298372208954221, -0.10130073139047502, 0.18638471553367741, -0.13348566671524079, -0.019254846321144915, -0.1917629487139485, -0.02924128382049045, 0.12187075209133041, -0.0700872107447576, 0.1551573123673541, 0.24963908111448446, -0.08219388022886809, -0.09032135059491646, 0.2243969672858864], [0.11134667329786799, 0.21296854066332344, -0.025347076473289765, -0.05210575533950678, -0.35072688067713575, -0.07069353359979545, 0.0580732459454534, 0.022941737484467813, 0.21314765287051127, -0.1626262799067571, 0.010660921127359725, -0.4722213284710782, 0.08479058465073779, -0.04553304372520059, -0.07787476522589273, -0.09370472673886478, -0.008580371912629637, -0.03384972823562547, -0.07041502703055773, -0.011179433414685434, 0.013342125042037278, -0.0036226825064198526, 0.23019622997511272, -0.028078033768213228, -0.16516671989132348, 0.16017219393473117, 0.0006610092026089861, 0.26297289771975696, -0.04483231914638336, -0.07911468532844693, 0.09560885538012408, -0.03761215850254332, -0.11292607237096366, 0.02755238189492208, -0.16484417896250525, 0.027988698859281624, 0.037026921711741545, -0.0006022784292439248, 0.1294731319407068, 0.02311736138690284, 0.07340620908517419, 0.032498410893052096, -0.24497974092431993, -0.12416743690897014, 0.350486884726982, 0.013041257499193543, 0.08870583320529973, -0.257128569832926, 0.15126328814405698, 0.21367623663649898, 0.09138984731593053, -0.09530098311241969, 0.09343030160866787, -0.07362318000371441, -0.11775674183257938, 0.020925708523318952, 0.10946282577423001, 0.1243919544334013, -0.24299101285095243, 0.17598128704217575, 0.05316185137782679, 0.009532413199085269, -0.3807014681727862, 0.03120467259498094, 0.08440011568588904, 0.019560075123046358, -0.22725487081157889, 0.03492562553375797, -0.09146432684034625, -0.17356522924139672, -0.027629429185402857, 0.21911664158409958, 0.00921635104991338, -0.015771537249806705, -0.013288941696326004, -0.19277325840863188, -0.34870024866725685, -0.11686514683243265, -0.08599571897290464, 0.15412680428610173, -0.11691934580588736, -0.07258082786315798, 0.23227473277992783, -0.07863695009629064, 0.15706912311923515, 0.15879350453216629, 0.3281274294179297, 0.14331021594023619, 0.14609826810802823, 0.2210699528097372, 0.017709286852088155, -0.14454737879885818, -0.14784624317021566, -0.09682547745808556, -0.058421595042838836, 0.19635104473998805, -0.1009940165107758, 0.010776453294169446, 0.02911347867441922, 0.0027908299276524907, -0.08137308799051808, -0.03718501710333412, 0.06372611378205288, 0.2099069503985753, -0.10803150815461182, -0.2089796445675245, 0.08958977735565964, 0.011115182443795628, -0.0484184687852653, -0.12439044484835655, -0.02384384290770659, -0.19065191285348979, 0.1672911655471877, 0.10020454719671167, -0.010588059132227094, -0.11332819294341519, 0.05968971214578944, -0.03203201923237042, -0.001422837340138221, 0.09168211507039548, -0.005116109301776347, 0.1438204141901677, -0.1791969789930183, 0.05835759944356217, 0.24332180656149038, -0.01972156424430855, -0.05792568017741438, 0.1538042045650526], [0.07201094080076531, 0.1677764089696976, -0.1382378694056074, -0.08523050802003457, -0.3206887693533733, -0.04057760248873422, 0.0032830553350204216, -0.14473457410773607, 0.18831305242745383, -0.034061414185290705, 0.1758819002199112, -0.19008987803089733, -0.006510577052230952, -0.10576493529457856, 0.08116761212126616, -0.13267274242482918, -0.14543033891239543, -0.005253371043495416, -0.06277788410262412, -0.24007570206676937, -0.12967867777940972, 0.20222358223196693, 0.13831495075206846, 0.1361649934159278, 0.05929682430355772, 0.22408976451803733, 0.1726361349936058, 0.23688276549969206, -0.1981065022320332, -0.09353151485771202, 0.1259461185617662, -0.22467203564136184, -0.23147398157462776, 0.12070531124812822, 0.11921779577633933, 0.09732420622819017, 0.21820953614128996, -0.06870270367690627, -0.08921426104321985, -0.057543733778569556, -0.046243127171973215, -0.15650180530972305, 0.08448334438714977, -0.11659989943975438, 0.2355838118967149, -0.3391762801385369, 0.08945055564217126, 0.00930686618509804, 0.0627733935703778, 0.1331258170913833, -0.07408015084910331, -0.06976671854537116, -0.05936711089265584, 0.010766884682957114, -0.2073741128663356, -0.0454719427269544, -0.08693336112656543, -0.18271063728350126, 0.04751435493522826, 0.06665276801655788, -0.003138372784868559, 0.0892656501442161, -0.264111818068009, -0.03093470681168403, 0.16448965294784962, 0.057777148956444695, -0.10432791587792897, 0.2654813701287818, 0.1251366193108872, -0.09009014433286543, 0.10257381749977267, -0.09103763256862077, -0.08113177667105341, 0.1362370643822088, 0.16458183847011124, 0.022465575904898782, -0.15679382429068955, 0.18105738692216533, 0.20691109159123552, 0.01847709113995303, -0.2507066842959002, 0.07245101160810037, 0.1314555470754745, -0.14247660048875815, 0.1690935772937019, 0.0011731929087350468, 0.32935648345447305, 0.22231770994976524, -0.0983756747196737, -0.021950898076136982, -0.2794172996242147, 0.1270433870172086, -0.1306457478835786, 0.08485055649698937, -0.048111932430663806, 0.47343265159988895, 0.023410324122573857, 0.28155662542683946, 0.030092902372499716, 0.06639436778235186, -0.08217928269004181, 0.04043805814255912, 0.18257506241540986, 0.07179498456531101, -0.021345861065623625, -0.108508312545403, -0.2049076350770352, -0.0989704309107169, -0.05792719631314902, -0.2898312108942972, 0.11821715069096005, -0.12194207346413206, -0.11969704339035243, 0.1808038173056872, -0.010902511651342643, 0.06052096620422161, -0.06336316072886883, 0.061929471529606143, -0.10287931908562074, 0.021824841046669125, -0.05908351962146447, 0.08580689389406197, -0.2486991380346993, 0.16072447163014555, 0.06707062066305791, -0.2604473110971657, -0.11520875669338417, 0.16114767589217985], [-0.21113832512711384, -0.2551697469245158, 0.42948497458705015, -0.2354900173630367, 0.12836460011432613, -0.05537559456137914, -0.20614640950182822, -0.09669976215298089, 0.11165645253851188, 0.3252853820848272, 0.06223065821844121, 