model = [{"layer": {"type": "Dense", "weights": [[-0.023096960767582515, -0.0891678222752643, 0.07403528490439924, 0.09908841379740921, -0.08529627709397963, 0.16777823309402928, -0.08401444999576024, -0.05533599070314959, -0.05986085409425618, -0.0725014288830396, -0.08063960229388215, -0.05263946377567729, -0.150365314240143, 0.1038128314525802, 0.14406730935316236, 0.15243598551029247, 0.06648626548809493, 0.004937381529151447, -0.004490410296043339, -0.10709717920784073, 0.08570436044845867, -0.009142381451145546, 0.14878764511176085, 0.10362081689472076, 0.020188592893334852, -0.04655183132860459, -0.24361067118081825, 0.08551848742665223, -0.08134715867467511, -0.08180000891204689, -0.04010137069372928, 0.13883717409099014, 0.09306854816082831, 0.12978717783256885, 0.05748578739701359, 0.05657933581191152, 0.12459345683824646, -0.06078827273020067, 0.09952492221037545, 0.01785952451941971, -0.024994056318800258, 0.05881306514458876, 0.05070518662611469, 0.09946042193466587, 0.029207307800343352, -0.113362149096155, 0.1197653985534547, -0.025485451288433894, -0.07779599126479542, 0.025695110401592915, 0.01045321217538805, 0.031216113693509254, 0.05568577912769801, 0.011652668053365244, 0.006011154890509418, -0.1285095027735844, 0.019923457941168784, -0.023470716458498263, 0.10163340159756316, -0.2660522745712141, 0.11253399738509484, 0.09201868613780921, 0.02332222850406536, -0.13883900489397757, 0.07109959844835063, -0.04807742778877236, 0.03719900622324851, 0.0835522186147008, 0.0619611020177132, -0.03780915825454406, 0.0930966787173676, 0.02469246297662446, 0.047551229403824155, 0.1480634399796185, 0.2112126954371084, -0.0006840469540100712, -0.059776541352184756, -0.013827330242811015, 0.1828347602901163, 0.1625607650456659, 0.12121388764460549, 0.05409531228484443, 0.125604887798246, -0.13511300126639805, 0.22557533817917186, 0.0943526220127684, -0.08671377137784433, 0.05596768107631575, 0.0424267220753871, 0.12602810074663495, 0.05484516328999245, 0.05111707632412049, 0.09688406915732196, -0.18526279097583706, -0.13066967419001094, 0.10635719073887957, -0.010606128441113258, -0.00486064033174694, 0.146807915321784, 0.05954170668178933, 0.09145230486357359, 0.024336652759176236, -0.0028489030755145476, 0.01795989913455084, 0.10787175550795834, 0.15120199231202758, 0.11801511119010094, 0.12133524870958423, -0.08146501788612169, 0.17898687723945025, 0.1570617284106853, -0.05419815697890878, -0.008502044973245667, 0.04575249655256691, 0.047744564279386184, -0.040760878094961144, 0.10537644572058219, 0.001410005630021074, 0.03581092436755291, 0.020593672961204644, 0.1664793369541676, -0.004251191428752808, -0.009617384102277745, -0.03786900014962659, 0.020243933592297925, -0.006627848065387596, 0.010318555129193113, 0.05774352141261033], [0.03873765416386843, 0.10667646618516768, 0.08862948212267971, 0.05803835619818335, 0.006375184551088493, -0.10708627215538209, 0.0639156107842939, -0.07457869972816647, 0.02919561161153882, -0.06882238457338175, 0.017527654471662667, 0.007019617227371204, 0.11127093046382049, 0.02400574263037776, 0.08860406193371355, -0.0329963355539361, -0.024010549708140382, -0.016699435027551467, 0.03794415439858024, -0.13797050716621193, 0.05839303615257907, 0.14611427096275179, 0.249194198838028, -0.1106131354230826, 0.12958532783638463, -0.09120049760103184, -0.036934300344335244, 0.13229862732895334, 0.07343199122490814, -0.006346562104757203, -0.04868671091604288, 0.11765145480717948, 0.16669544943708708, -0.09461822060140819, 0.1486275656643325, 0.1298568966756934, -0.03878971887016007, -0.10198678976080296, 0.02540648639969477, 0.002631757345467112, -0.08267116012610509, -0.22039317072929876, 0.052425802333430305, -0.185968464785621, -0.0851608265643296, 0.14785078561331014, 0.018354409165514722, 0.037465693625918284, -0.07335639580100255, -0.12293841037435332, 0.16013486702451177, -0.19656635807309958, -0.1485339987581992, -0.12731814451992024, -0.0007143235061277568, -0.07065740170018107, -0.07156822439014981, 0.062210095275909774, 0.0091179579703372, -0.16054820011527557, 0.11311801003490912, -0.26684279220286816, 0.08558878441683905, -0.06803159460669343, -0.033840409703484786, -0.0039721826312232094, -0.14477694505884506, -0.07638118317684686, -0.018516869198930818, -0.0396375893616063, 0.006188073880854056, 0.11713549715717396, -0.035143911240890086, -0.24191253148436573, 0.03972255566646025, 0.0382659575748437, -0.20860279319050054, 0.07147481569901032, 0.1838321791766155, -0.07382026301557508, 0.010841514344946368, -0.016887314600809302, 0.008283491672445983, 0.20008187242250008, -0.06947635398263169, 0.05685342937331407, 0.07042675781583332, -0.09699053737264317, -0.1344460636298967, 0.10335257103399027, 0.003580487061144988, -0.08968251402313863, 0.01416080215107034, 0.06079591106446966, -0.07413871843788772, 0.04623516292068881, 0.07701292240428692, 0.13204256353929472, 0.02343231675461956, 0.01322367035889052, -0.026238694995823854, 0.031114461017551366, -0.2304118557276337, -0.03756731466380552, 0.14692474767067112, -0.022884294261730494, -0.0627671370175925, 0.05161772263735072, -0.02620400074873659, 0.0720729382558704, -0.08977855279517083, 0.04883178940793936, -0.15782968149181964, -0.01307335611382691, -0.00785619809102811, 0.09264039763869816, 0.19098229362503916, 0.11855094512617126, -0.01618872203872815, 0.04489921349213612, -0.04825966030902604, 0.058604516894033766, -0.016651136959050333, 0.09444794824456772, 0.2964975823434748, -0.07338285546861807, 0.01989501697599016, -0.06791404515236546], [0.16340252519306306, -0.05889526006545788, 0.19525618647472442, 0.0056267531882691155, 0.11289152682353368, -0.01843426942468242, 0.09893902583999792, 0.11173550710150765, -0.024932606851946263, -0.033843918693085805, -0.20401611948103926, -0.08687672148858798, -0.029659059559631107, 0.01798649509558791, 0.07984508095334127, 0.10012854288436544, 0.12247315273590619, -0.07254376723620483, 0.06983603150532605, 0.052986219468463935, -0.020567384894294063, -0.1383288390161241, 0.04373184190384129, -0.05988289075686263, -0.11693940975527815, -0.00701746713482509, 0.08147027098238449, -0.09103799607317407, -0.059454650050263846, 0.05635856876985984, -0.1063395265690538, -0.05278334191794463, 0.07487984859736867, -0.06325532286140803, -0.07479957552384474, 0.09412474062646432, -0.1839976978050097, -0.0740665514535832, 0.15941381553460165, 0.04957070085205819, -0.007049159761446175, 0.11171038684507072, -0.030926859651244944, 0.04785174520804576, -0.09814587591123684, -0.06578540935844636, 0.005569038597906499, -0.10619311289949507, -0.05964442812795635, 0.05287274702179384, 0.026228654301521423, -0.16618643184752324, -0.05718308286750465, -0.09229070750024695, 0.0042828821851703495, -0.15979689403884556, 0.09901566632144336, 0.0024620699241112813, -0.12753694522775258, 0.06752173561288559, 0.21830058213792683, 0.03963333789624699, -0.10979612207712107, -0.17339798002779658, 0.13226709129391095, -0.05671872282559523, 0.176823555601045, -0.11781262047505044, -0.0369900840606724, -0.15873605799031165, -0.22836660905148165, 0.028466600297216163, -0.015453863916150282, 0.0601850871612738, 0.08287898734002817, 0.06032361203695757, 0.0813595570338139, 0.040163574655545396, 0.1276586415352083, 0.03305339119986033, 0.05207135813384878, -0.0003542509258114441, 0.0039606494686085635, -0.07278310294423827, 0.09668333236236598, 0.062063500764819736, -0.10512956877565574, -0.0500094132357253, 0.10438424400259112, -0.043772137155676016, 0.049127030476216776, -0.08938870145494293, 0.050124149764233364, 0.11955054338444056, -0.002371982652459744, 0.1505966616755836, 0.006740391197779733, -0.0646840668501646, 0.01573071393018761, -0.15920903169969905, -0.09233795501781601, -0.06510770614560937, 0.08397108550382436, -0.0515404569702933, -0.01798312801381639, -0.01598238675028386, 0.027041806945603927, -0.0021917668664698724, -0.025913580553008516, 0.11012442979169422, -0.09803958757512046, -0.05719473089995112, 0.05880518524118181, 0.08950693131739726, 0.0010615919038018478, -0.011190037240866051, -0.155180671977479, 0.03595845858772193, 0.06772156753562174, 0.07119612339501602, 0.20077587318198492, -0.24008477267136438, -0.017857056816982214, -0.019754150584917182, 0.2241524046264407, 0.04741522282292263, -0.03657520679479572, 0.269417038815243], [0.15518362114306844, 0.10612738741810988, 0.12486085057174878, -0.0033524413169472612, -0.020785747953247224, 0.18042819671139118, 0.17820213392172754, 0.08343014384402525, -0.01172571326053799, 0.03346028796822753, 0.17357903297450855, 0.2266531782881565, -0.03482468880403627, -0.12765699875384856, -0.02325763463756276, -0.15869209827900888, -0.12143783816256984, -0.08930869745109249, 0.1210024336461899, -0.02526684501307765, -0.07382166411766977, -0.07124612003325219, 0.0948193336898473, 0.16587550460713063, -0.05462185077095284, -0.03739911628397606, -0.08491885770346341, 0.09627452504560235, 0.031786964775037105, -0.04857950920325907, 0.052289168777120004, 0.02912779148931064, -0.10271391380083628, -0.07328238498516357, -0.30339086494961753, -0.035158161565046815, -0.005088216719503492, 0.05319996735115329, 0.005949125476374747, 0.05138305061125148, -0.0876138962910255, -0.16985852686297245, -0.032056082068395, -0.11679438292938985, -0.07379424064754482, 0.050091208315665506, 0.12995357789720344, -0.1564903644912585, -0.06020289649550893, -0.0871689995469847, 0.02478305091651689, -0.11047988014060284, 0.1250852542051809, -0.13958170150243548, 0.20761983258543482, -0.037827436683640206, -0.0031124890158039232, 0.0317635004599042, 0.06461450128140749, -0.015924358009832284, -0.08386501115663969, -0.1012304720291213, 0.028697783270471094, -0.08962483139799932, 0.0854454425310996, -0.144048413461102, -0.07201523872104343, -0.024644771034736345, -0.11111192817194884, -0.06404729335347858, 0.02482466240595163, -0.007722808292317425, 0.01544611945520032, -0.06954484537701235, 0.002150480168493321, 0.0662899525143525, -0.10537856717734351, -0.10772802156457306, 0.05819508044497118, 0.2542904889188469, 0.0102551408978278, -0.07484415942674626, 0.20307235505465934, 0.1545831646152622, -0.2005265392894925, -0.06493356456159603, 0.0015406351129535413, 0.08767724373599674, -0.21421495741871227, 0.08478992619580727, 0.06279878322016107, 0.012224282382650666, 0.3387562685765704, 0.012317468191408422, 0.09508941100854978, 0.029411727831957748, 0.016730445593663976, 0.06731168470817607, 0.20590754684258594, 0.02852413070393009, -0.08210104885367862, 0.17992533863705026, 0.13513538147865656, -0.022809897648124886, 0.19115367212543813, 0.11097691825143137, 0.04513788288496781, -0.06835769043379056, -0.07959633407121196, 0.01052430944757564, 0.06555195422816008, -0.04001294870311031, -0.15386348183287082, 0.031452870014873915, 0.026314153533916775, -0.008298685098492796, 0.09030637234882155, -0.2054963577073059, -0.03672283736842507, -0.04968122907272752, -0.13516807638185632, 0.12858757034411952, -0.055390067735598306, -0.07162000768710897, -0.17922191482131236, -0.036340498454946045, 0.05417919900579459, 0.055640719719218884], [-0.04455707518717849, -0.029630661403904926, -0.06966081717165534, 0.01943816539511147, -0.03722209452114709, -0.036636311801832015, -0.008469007286346647, 0.05070040834698534, 0.058583348975061025, 0.0027691895341726905, -0.09051987546258987, -0.2038254615170414, 0.08563339750491925, 0.19988818241201803, -0.14238566634115202, 0.04698668520420748, 0.08172484115248684, 0.06614483999472716, 0.0018890062902118456, -0.05634718451694304, 0.05816676146657919, 0.18425154032014315, -0.02079393088523137, 0.0011114734266326374, -0.025989417657961797, 0.10706563651899342, -0.030590167960970305, 0.012124709957430965, -0.048503431332370305, -0.07793071330124794, -0.14035585111065865, 0.07356598034038996, -0.07153814705708417, 0.07596590756089289, 0.22667475007017313, 0.017819905630483773, 0.10677551117632333, -0.06516860185596407, 0.059917567412487285, 0.056262518434907885, 0.007838955263420681, 0.07486854828604142, 0.09605333285359643, 0.028300132480185338, 0.11867548948845646, -0.004682944835044839, 0.025820387050856177, 0.021884399932836973, 0.0700058830835306, -0.11227729337232084, 0.05301051537152634, 0.10848178868434949, 0.09044499318672339, 0.059968645565842416, 0.22435523872641228, -0.002551187769805053, 0.0005082115352235434, 0.026602066904747645, 0.11700668490778249, -0.09371770741188537, -0.029938061229117116, 0.13358108195213952, 0.08969465289377265, 0.011678336804622583, -0.013596893607269579, 0.004013332305396779, 0.14053715062915537, -0.12953336375034186, 0.010263682210940367, 0.13791089838665538, -0.0401606093453719, 0.08560221800577983, 0.059620404137425476, 0.010601193886923259, 0.07029938118010987, -0.142441315079354, 0.11611301640810796, 0.08429845452423913, -0.05880023882659299, -0.061125830143866536, -0.03893350234723574, 0.08742221798514432, 0.06496790004921547, -0.16394302727835597, 0.06167549219912947, -0.18041397300541182, -0.027870922477752733, 0.07174274803392303, 0.09359468920241237, 0.23284888500597145, 0.05745100299973374, 0.002084610849482307, 0.04461334359054381, -0.17741077268882954, 0.06873396919477921, -0.019323131332098134, 0.13848976326417445, 0.092584132491287, 0.13300944033072196, -0.03228968010363864, 0.0710251680673588, -0.038701710487197144, -0.011852104905662757, -0.08029361297318632, -0.06146541757451971, -0.025263901690363938, 0.16095756786023194, -0.1226438401733106, 0.07460742078662234, 0.06191340793514432, -0.19724859063095057, 0.06211043328188992, 0.10621810275086503, -0.12439351657608909, -0.1452875931204503, -0.1697751528496156, -0.24308303155685562, 0.04552484001647916, 0.001108679997945844, 0.16283261806736501, -0.11139026151160299, -0.1293562483320449, 0.1471954685197076, 0.16299579584975266, 0.05288398188864647, 0.10207586666662896, 0.03710021243413835, -0.03694884149102797], [-0.08166452882953101, 0.08011005184451409, -0.28263072498379066, 0.15515621960154538, 0.08369876236892598, -0.14068119197278842, 0.05327078657113104, -0.13640424184157926, -0.036220018111586, -0.007684609891854272, 0.1935501782164671, 0.022129687191480264, -0.011859883283289985, 0.05624775833237131, -0.13927227709931353, -0.10247030559985473, 0.0060016948698105145, 0.022423456324297496, -0.027159195219060673, -0.07489939982327129, 0.10819229841267641, -0.004525550872706355, -0.07266839739028048, -0.08733202329549294, 0.20473788605525406, 0.11772786213296393, -0.04560697444155626, 0.058082370486263024, -0.0588657672907007, -0.018324043439584707, 0.04212383548630489, 0.02895261401995508, 0.05285803821289852, 0.04407766778649819, 0.06555194809073737, -0.05508137638687049, -0.042693078094366864, 0.00799546719798496, -0.025555892493878202, 0.02394932894286428, 0.08316646240326547, -0.03969326297800249, -0.07227855732477775, 0.16269736848421845, 0.012496857181251837, -0.03040306101601252, 0.17183375260641576, -0.023872275690669704, -0.30229444893125207, 0.10648732630291945, 0.06168241313127934, 0.02095599560925404, -0.013667284629212234, 0.044321650868283324, 0.04257682642421606, 0.07052333694967076, 0.2023358704620593, -0.05357564917496707, 0.18158996642035974, 0.15089267034109038, 0.16585380813678252, 0.09697782102204754, 0.013588123173119493, 0.1953153712735949, 0.01959694512836853, 0.052086951057290304, -0.010452140940898967, 0.07863706836805678, 0.1782149374599406, -0.12428493402323687, 0.025012900581348092, 0.29353238785251834, -0.08820466324955614, 0.15862018202591485, 0.11923287199128518, 0.11695991764430705, -0.00807720356022625, 0.03625753196481041, 0.01826362831146731, -0.06994605023188448, -0.000537698729254939, 0.07887558351513929, -0.08736852779827213, 0.040595195604829395, 0.008225190860474551, -0.09209033101947886, 0.15686012038722594, -0.1361536716353072, -0.031592324163188606, -0.05011377843569609, -0.031640004671882674, -0.06578208471671873, 0.0611232494933896, 0.0676114279459816, 0.029288112235542653, -0.09499358681299497, -0.1316961730581261, -0.046343749526609586, -0.03107395109517985, 0.052167471413867565, 0.10874188783636002, -0.19012611602224372, 0.27685350702405104, 0.04174992347126237, -0.04326476363638681, 0.02075320985276133, -0.1962263905181415, 0.19767390814659663, -0.10182532228049922, -0.006951190180157523, -0.029300811070626348, -0.14289912217507283, 0.08286242573035976, -0.186019857564946, -0.05564136953742324, 0.10380159330809798, -0.13738403707714028, 0.12369534682316835, -0.0608983478183237, 0.12757696421033568, -0.051500078532365594, -0.14862235254164513, 0.08718976230321485, -0.1217705232012084, 0.03345313479960069, 0.20701788338705326, -0.22585111836510055, 0.05596143898098685], [-0.026235114217807828, -0.20442751600886835, -0.12431796970618832, -0.0018316893979860413, -0.05622747223498529, 0.03898039366640359, -0.14423039688210545, -0.24699597605364387, -0.05487158207170104, 0.1320316209499168, -0.042810361971063436, 0.0340154559553183, 0.07495324922453142, 0.10277334674569938, 0.03974614660406942, 0.09212239523130701, -0.13728645838946604, -0.037708852540538844, 0.06705594737493034, 0.0005727570619987777, -0.07026371955563736, 0.004917475832661447, 0.06980630137240566, 0.0013433857708064483, 0.05122079916889305, -0.020952592301757066, 0.044493538340685895, 0.03191461280492643, 0.18488741386927365, 0.07005699524709444, 0.1611801080350017, 0.018284181709067843, -0.11611745619984178, -0.08923084114784086, -0.0013078318366567924, -0.09238358066178393, -0.09509177764804609, 0.10425756986329891, 0.004866617494180877, 0.11090891743804449, -0.09399991081570432, -0.1908313809111134, -0.07314649742611795, -0.09515842307388997, 0.03983944308030119, 0.08085925633527857, -0.05876874631289315, 0.03189414882755036, -0.061985996727223526, -0.04535982637192004, 0.10425671105703407, 0.023755241070818812, -0.021789021009093593, 0.05830008300654749, 0.2314792309887586, 0.06300429690027624, -0.23829860366997158, -0.12825575914162277, 0.07043612876855732, 0.006780239108612137, 0.11528695393207454, 0.10730017369308226, -0.04488606949656314, -0.020928414781259373, -0.0939176560402701, -0.0398399587103216, 0.1099188680799558, 0.1183171307453457, -0.19272276269258692, 0.049137502299499584, -0.03770184386922135, 0.018876161914901653, 0.06436529499654843, 0.04638093246940767, -0.05911974425900507, 0.007995639599106442, 0.08308599966630295, -0.023811673843556865, 0.07163090613062686, 0.10979094870976402, -0.009092418810939503, -0.033877668092541245, 0.05473405370598472, 0.17102321212270233, 0.1448265018716846, 0.15977108366186266, -0.21652305924157084, -0.07632173107519753, -0.01581283496147889, 0.18535588633866962, 0.05443937459346922, -0.13558760448550042, -0.022164815427551846, 0.12527569061664565, 0.018837350580759325, -0.13390807244251898, 0.018972967575971212, 0.17346934235682945, 0.0037048473906493235, 0.035453030287832185, 0.11534839063392742, -0.04458693176317884, -0.045679144166115765, -0.0760711318717564, -0.02294083099077867, -0.03230016359809844, 0.043923161734808105, -0.12501661876522677, 0.08562093691455752, 0.11753436594036185, 0.08704628094860428, 0.050391674412159505, 0.03478234665498942, 0.0790308267035143, -0.12503366458098858, 0.0228390698745264, -0.1808951683943747, 0.03569710083559512, 0.197889664735251, 0.0046788593415716725, -0.1013132786577265, -0.05423769475122047, 0.06780565529621162, 0.02574842512848907, 0.006440573348187448, 0.13171006645229233, 0.17419411660483342, -0.08706826367215709], [-0.021374335616948698, 0.07241167261673478, -0.0026583305950736323, -0.08254214179640013, -0.04735452610901893, 0.17440330301322704, 0.05437974127784056, 0.009952411799665394, -0.018623736987550876, -0.039748643889020704, -0.0069186987905858355, 0.04087031706568822, 0.07346554980417985, 0.05545390434928302, -0.10885342602041129, 0.057688348088406054, -0.025086292845644228, -0.02713945844781523, 0.03213402672645675, -0.05979578890433082, -0.015078268389557762, 0.12996880706221903, 0.014041513291630062, 0.10803480279313156, 0.018916541225664264, 0.06655715835157788, -0.13023993786427826, -0.015177367373118823, 0.07051354244256512, -0.3312289260281909, -0.09437896446975791, 0.0851141749089489, -0.19195527164935902, -0.09450575397316655, 0.0022531210980205516, 0.15825850393395544, 0.10929741426954945, 0.13830321520767935, -0.09409439343163428, 0.09982433217583168, 0.20200178410741457, 0.08026824392045588, -0.030537497860642117, -0.05609511850387562, -0.08227735104507092, -0.0766951018288699, 0.2107236660302045, -0.21454201655805727, 0.06212828839058138, 0.048645859428926574, 0.07396818321272647, -0.11266598866504512, -0.1686853340333891, -0.04196443083895781, -0.06254863825446876, -0.005131953393057324, -0.014755091994581563, -0.014170259030858091, 0.1803351568740203, -0.13310922738055422, -0.09811396254300503, 0.028646114297741956, -0.024796455473051406, 0.10056777537792559, -0.029070550626915704, 0.005295074988649724, -0.022011725933564718, 0.11604500088918185, 0.016499129389770762, 0.019822249397969248, -0.04319220327518159, -0.06195264566239486, -0.06492279588953248, -0.09833377801359479, -0.04480547679757149, 0.0551576032854484, -0.05381241637887305, 0.004513699617169348, 0.017748548429193788, 0.10284054027006824, 0.05446961441601644, -0.21131615249354724, -0.008726689887225565, 0.030919006510191596, -0.09108726694023499, -0.1028355607127347, 0.0139572199133372, -0.06863276187713521, 0.0620958376080164, 0.1089642261400889, 0.03891146221185726, 0.023317061784795538, -0.05775336118400094, 0.009670190212696769, 0.048119398249455755, 0.05720397509912489, -0.12874870047667333, 0.09750575610799683, -0.02463683103901247, 0.08505775113627781, -0.06360283370300339, -0.07881415650984543, -0.0036904139941238167, 0.09425462670186249, 0.04699195766096859, 0.04830740430591489, -0.09614638928144997, -0.1475621105966931, 0.17316460132127462, -0.11878706292835169, 0.07305213477349805, 0.08324304056933601, -0.07282298891014367, -0.01675691873975513, -0.0830021655369172, 0.16740663886167156, -0.13367208603076838, 0.024024273834642257, 0.05842308014577198, -0.009735345946606895, -0.05850662903546055, 0.182427764727424, 0.1075653919228376, -0.12385518048148746, 0.030946186516092322, -0.07862331448346953, -0.06878581285576967, 0.14037991421910972], [0.1296907144599505, -0.11668047968629827, 0.02177600778950289, -0.10690519075517463, 0.02927710450149931, -0.10413965797545269, 0.1533089257226503, 0.096821623029744, -0.04717237103469221, -0.01096238872373708, 0.07369923646081762, -0.11025201831882625, 0.0036903250537552498, 0.04562915952461062, -0.02009904511199878, -0.09468544446576578, -0.12709082209779662, 0.02485404183258841, -0.16136174224616975, -0.08333060006522908, -0.033732001935932183, 0.0395443359759689, -0.01811676760115528, 0.07166630765355046, 0.10925060147161608, 0.05733164346512368, 0.06864095940252077, -0.13498121299219065, -0.1613168853329281, -0.15753060950070374, 0.0026921980893134584, 0.04739518094895879, -0.09458157598482346, -0.062359770777787316, 0.08097072033758987, -0.18505676235384866, -0.03295515759135282, -0.06360588727820922, -0.22980299792346826, -0.03744897952769275, 0.0879514591594882, -0.056842873714072255, 0.18040883127499477, -0.03796975133731282, -0.05647574775921713, -0.16961683116663992, -0.04751776246691692, 0.06975034862188896, 0.08136862140440564, -0.09368333440672535, 0.027746490112762923, -0.025609345580689887, 0.004530851439644196, -0.05432053606260626, 0.13714844157207617, 0.008006099058513733, -0.1200063081559209, -0.18949802665719326, 0.19265448694012272, -0.06846308039064544, -0.02525562407911118, 0.11118315061413478, 0.06186467773696798, 0.05233842706292938, -0.0446829473879189, 0.06824115915422943, -0.03940996160058578, -0.005183083613681704, -0.08795216374078159, -0.02394540976715279, -0.08634786528384913, 0.12071589045548624, -0.060206117312259166, 0.12287136155409505, 0.05409664186226193, -0.07233800431477008, 0.027506722626189306, 0.11242824916998384, 0.12039570157268453, -0.002491346489515528, 0.13094550634336385, 0.16277188289667344, 0.07550731129752253, -0.03122796567156885, -0.21724905575521825, -0.04570798763896457, 0.03955360504947636, -0.04966250115153086, -0.04100640829507437, 0.02694767114006121, -0.046501737348497295, -0.15592593650283193, -0.14890646128126592, -0.03745077367449672, -0.2115684850492998, 0.19736460721279006, 0.04047016945952428, -0.05818343268092448, -0.15084435288888423, 0.050989512585887936, 0.15423265820928383, 0.030075430625377056, -0.12194808923250865, -0.03827489643969628, 0.06664212256939314, 0.09204894065156441, 0.0742180391351588, 0.0685711469161759, 0.1550470583646976, -0.2165738457596431, 0.10855316618212058, 0.005869543224672568, 0.11016731347104286, -0.02509520215462139, 0.028795139964999213, 0.05642479111231207, -0.019224427688818865, 0.14670285921197296, 0.0034129873633054427, 0.08808424381952645, 0.09804792462526306, 0.01066769712919851, 0.05297030868691891, 0.10297990390250106, 0.06780964126253036, 0.14043313903092522, 0.1379497523172035, -0.03322056474959089], [-0.15962657254945453, -0.05396656634397243, -0.14138510837175014, -0.08523009689898546, -0.1562948968759108, 0.044197697346731346, 0.00942700953902717, 0.20568508844308067, 0.016843252398424335, -0.03314583987627798, -0.04207464408547921, -0.10062739293185324, 0.05579545722700957, -0.041760282868668855, 0.03386397527379716, -0.1518574023556846, 0.054653925441136224, -0.012232253097777685, 0.12946978415886465, 0.09177003015637217, 0.11572255922392434, 0.10272888568101601, 0.04249995990434919, -0.01481648159637111, 0.009322468706388667, -0.14591488702583333, 0.015036176648964564, 0.1663610979740212, -0.038968218002300485, 0.0657488078926977, 0.13110746041139731, -0.038025805537368645, -0.10017285992774766, 0.2826981859772219, -0.06217667178317152, 0.04990686398960628, 0.13685194014297877, 0.2097581767513637, -0.0989825069486955, 0.0029527806317916462, 0.05603847152899623, -0.11726917982029444, 0.19443959345302889, 0.0105186587247778, 0.1391209044331155, -0.01673840331634812, 0.0458307755879273, -0.1524346373969797, -0.06829308133642929, -0.06933719482996957, -0.15513678330705846, -0.11103696477751557, 0.07094669438646721, -0.02345068340636416, 0.1388193566421508, 0.04107434141177416, 0.056135689256784194, 0.16546946910228186, -0.0005211975546503105, 0.16216848791937133, 0.09938692044136888, 0.009573786984031768, -0.14278584065848518, 0.019524910702234707, -0.07123752973962172, 0.10967811545410817, -0.047379653924377214, 0.16220300036952248, 0.11993534586601351, -0.14813345182999982, -0.005190751691806483, -0.03937983805784634, 0.12421276843463214, -0.06627214662098807, 0.03779650454944738, 0.10368665095549807, 0.10186818533237879, -0.03507343284028103, -0.0469022829451917, -0.11772357848236426, 0.04854360679488799, 0.04564855294566658, 0.022068730236154105, 0.02047449064578845, 0.010978667163384056, 0.11379628965868833, 0.18412604687238548, -0.10229558214836793, -0.022171863438512934, 0.0046077755050756945, -0.06760246286854123, 0.1198823032227544, -0.0007294512508628121, 0.03720108647832917, -0.17541785244120947, -0.017599360001673777, -1.0227576537845022e-07, -0.09924343118863772, -0.02171446676185147, -0.07573351774444984, 0.15449913935319634, -0.17883365629877546, -0.20511273815537645, 0.008101672086008238, -0.15639239676478658, 0.008644020944294417, 0.1643168235104059, 0.14615523559557675, -0.016519001972796984, -0.1954707134583695, 0.08391327983139935, -0.16758033154184687, -0.03784006254294818, 0.10634556276131371, -0.13412706685948633, -0.0893367787965818, 0.11353647222366069, 0.0751004607872354, -0.039557382013423126, -0.0359291098733529, -0.09599534943830862, 0.03587769533349739, -0.01094484501953084, 0.054346613921048004, -0.143855604360351, -0.009018320017977869, 0.2536739489375063, -0.023137857548015728], [0.014458183724994784, -0.05470226411509119, 0.1215136336524295, 0.0491429288591371, -0.04581213049071573, 0.11721098535193289, -0.004888403382663605, 0.0956591911776854, -0.13235871824539555, 0.0165178145062676, 0.1909727978023055, -0.021570977563879108, -0.043344975660189626, 0.1703076365313424, 0.2198487374421193, -0.05988285966477223, 0.004279485763877448, 0.11108580758825333, 0.03786562097889917, 0.06741901265220718, 0.1216498328383018, -0.01393353819546065, -0.08507821390739573, -0.06833309277946603, 0.034755401862211, -0.0678076478653924, -0.06187347288082893, 0.04508321149382605, 0.03332125336041518, 0.04648461036346718, 0.04937330309993779, -0.045655515511915254, 0.09181630136622732, -0.05172677614242969, 0.18513565388320602, -0.06313727897192344, 0.06979201770310853, -0.12490056139875415, 0.05151024568339903, -0.07675884605586909, 0.08436613990721556, 0.08514128357760962, -0.020078978650318876, -0.15955025842057907, 0.07656484600104609, 0.0968328968153469, 0.006068879238170444, 0.2130243256178083, -0.09940987498900117, -0.13120315216738196, -0.06491409404958241, 0.0042158051844370815, 0.09122622393185664, -0.022139974905388302, 0.1090384109680316, -0.0516125615133103, -0.051732468013875044, -0.10694099978639307, 0.0040423486864686695, -0.10566191196560258, 0.05434778881745678, -0.11866851546904383, -0.04207496094778035, -0.04396532158513755, -0.03729853626929862, -0.004155455067507353, -0.07177596277421823, 0.01981002526979478, -0.14805579971024227, 0.023982389059571375, -0.14369666563354005, -0.22817034522950227, 0.1281759519581848, 0.13705698883741915, 0.23318137208276554, -0.13777151902011722, 0.05173066693693961, -0.062114060970872124, -0.11145124879160216, -0.062052502661706616, -0.05822531594651034, -0.0018771448340238481, 0.08548204576593162, 0.09348502622210016, 0.09940594487410034, 0.12287770307435496, -0.14343844491538796, -0.03279748967163391, -0.010330466850953434, -0.010889678105337686, 0.008344892423437783, 0.0762749839121541, 0.06637020068882996, 0.16906715524427876, 0.10303350230054374, -0.12085695697537063, -0.09777233496598985, 0.035739263079042766, -0.026986220811135525, -0.05118122297274444, 0.0384655254491138, 0.17799170537277903, -0.01174491541170304, 0.04030606724752596, -0.09690535387718187, 0.0581970716088566, 0.13350047627381817, -0.058802054088860536, 0.013755842631260435, 0.0025730924298568276, 0.05024694447013747, -0.010204683278976537, -0.07580189638908165, 0.10605643551438314, 0.02790243270206773, -0.048517638778665884, -0.007510225622067108, 0.08892077838851875, -0.21914864953941493, -0.007279127279726372, -0.040101214440609365, -0.03701564433553495, -0.045195175024920944, 0.07949804906038571, 0.2484985033466745, -0.00899002506890424, -0.04246600443084381, 0.034696783235883724], [0.06446183541832827, 0.05752593932787599, -0.05470158845613502, -0.06956025932834235, 0.03395551721506002, 0.18414267637943416, -0.1508512624956076, -0.1824326075116418, 0.05728075835242801, -0.04301805646723115, -0.15031246928633551, -0.04903921019241328, 0.08252145964276662, -0.01721114069059736, 0.17085712307796352, -0.017265701149607505, -0.019273481035210642, 0.2236047542114874, -0.17634448524295263, -0.15080886319687337, -0.024833850604252018, 0.04960097219779905, -0.10227377603990102, 0.032294865714218225, -0.0896492238783283, -0.07014152497872014, 0.05679761230375368, 0.016882200031216925, 0.005254607195160486, -0.14496708495836716, -0.10569951803608069, -0.05327214200100148, 0.0889919635535489, 0.01247920558046687, 0.062259135176981506, 0.014376556076023037, -0.06603218836345646, -0.23700870304990312, -0.12716591278446673, 0.13932325617960162, -0.16182948878382844, 0.04239681563846748, 0.22601879760213706, 0.062068857390028036, 0.0036149933600993773, -0.003364437921165961, 0.012521279602711247, 0.07081788334076942, -0.15072327541865432, -0.05407984069451869, 0.03842546752021281, 0.06282476504321909, -0.10956619971348658, 0.0730487049952439, -0.09236125039311777, -0.05105368522073857, 0.11445180611582102, 0.04304717998873067, 0.07744410535018587, 0.02840246858483536, -0.012465623234670676, 0.15570521455100028, 0.03704282680340489, 0.12819137065815767, 0.0621523934663204, -0.16417092516066908, 0.10040595369622124, 0.08656735574718719, 0.02776577943661009, 0.05064798730565813, -0.07780860996173582, 0.11329537788087359, -0.02449609415220167, 0.05691010367110612, -0.12182704434427168, 0.2178007584480245, 0.09631956406151167, -0.006474490176863652, -0.05504192890706579, -0.0796596709223725, -0.010635009619476105, -0.04283050927452366, 0.09132643837887942, -0.08825850466120932, -0.013616125426486339, -0.10559770144967828, 0.21100306765442542, -0.16908847895227952, 0.03774915320800222, -0.050190921994892834, 0.17441301642010656, -0.1621211531634525, -0.043047601188692663, -0.014874325333010238, 0.025267497816621822, -0.07717820408223484, -0.025275735930820126, -0.11505277949660256, -0.10677251004093424, 0.15870242236444318, -0.052367969776607085, -0.09642224139680924, -0.008331014212332873, 0.003709152086977186, -0.053442256523816824, 0.09311336316003858, -0.02064992600096401, -0.021010592319221175, -0.01632002474949461, -0.030783312408413484, 0.08643646172097617, 0.011163981168412676, 0.1111661039994673, -0.06620056642154747, 0.15819936819876423, -0.039274866357779964, -0.14622299360898716, 0.1622786869429664, -0.06286186846331425, -0.03900305174715611, -0.1719641529951984, 0.11482937043248481, -0.04798676111064165, -0.2208020622850373, 0.060241215186557354, 0.18017939025999252, -0.10587140779147869, -0.20049544974892008], [-0.1656761379596519, -0.07134082104665022, -0.024837687629571274, 0.16295740970877792, 0.09397735710791959, 0.016711254399471374, -0.008853499479189878, -0.018920330734642152, -0.010696079769394337, 0.02770786177082012, 0.013167080026149403, 0.1646036535500504, 0.08697854192731808, -0.13937050640816667, 0.1388995979746509, -0.1026634981554875, -0.04883811593761844, 0.12942722377355426, 0.16832645777089394, -0.07315903887132885, -0.04897954656275728, -0.06534048456107959, -0.06410915709214472, 0.009433553245233229, -0.013403833051428, -0.1278381178843239, 0.0710351157271057, -0.04734547307750105, 0.22865734854358344, -0.05541505309875064, -0.07139639763358606, -0.007634967603368, 0.015582267066453374, -0.11294543869113716, 0.08270931369958635, -0.12583693555091935, 0.06549918651287884, -0.035444464397161986, -0.15384016556087224, -0.09590905070400212, -0.0935765473459218, 0.0229036475502382, -0.15276558545245864, 0.060581591245399274, -0.003952200824608643, -0.025791197451989184, 0.056320284158072165, -0.10923546442455917, -0.15160745034652034, 0.11866681307023641, 0.13663363094376765, -0.030236250840493934, -0.08460081949794951, 0.003015503931014582, 0.0073008563264971085, 0.07950367753750498, -0.038885561851735, 0.11063186774390002, -0.15987151553447, 0.1181992243105726, 0.09764673776093417, -0.012001927323595805, 0.001120389072610252, 0.12835492226213763, -0.047496443411752715, -0.1083043412016554, 0.0694279511812148, -0.03738738907964552, 0.015895839455075177, -0.0690108300537844, -0.09487618142349714, 0.05334493881319022, -0.04217359613564499, 0.18079398331611218, -0.05881205359932376, -0.07984749915720274, -0.06335717443237013, 0.19076618809800286, 0.09623742818092702, 0.011769988762963627, -0.19087207980034593, 0.12122042463640491, 0.09755106837630002, -0.06198108835901004, 0.0896701394763069, 0.0061572698826624535, -0.03732402748293788, -0.1174886221221908, 0.0157819452817417, -0.07762114442940533, -0.06091522733334084, 0.03711769307780728, -0.11022074990911407, -0.032573843432177056, 0.10234674441284071, 0.024427805286679545, -0.12146661865610818, -0.12415027436033897, 0.05981066322128236, 0.16532622575564138, 0.04399481480488977, 0.015514323108948748, -0.048194640821950845, -0.04242751942746567, 0.13287544007028493, -0.08549208882862687, -0.14376412446795306, -0.14831777169035112, 0.05094239696171953, 0.14826592019711993, 0.005522966146785763, 0.05782248035297776, -0.07621442550516454, 0.017893310617212454, -0.16870801524371518, -0.0022599605126097846, 0.03738581584482577, -0.08673975946005802, 0.09726050199086064, 0.04185578393755238, 0.08099791651078832, -0.20002633900047356, 0.022475773226565948, 0.06619595583048474, 0.03720434719385227, 0.025954434032495623, 0.007729973757907651, -0.02390820565520687], [-0.03151563016301364, -0.010749202321723664, -0.17968467652771783, 0.14336057772172192, -0.023662806672800917, -0.09595699398162005, 0.21862683400371288, -0.03566874136463034, 0.09635413571269671, -0.030904826000917072, 0.029844919330123454, 0.041637619840040406, -0.035447027130980795, -0.2813473634591588, -0.06717908443771335, 0.03604978073241291, 0.05165741097963344, -0.01832833013377362, 0.06694286681382032, 0.026656209834261077, 0.09867702763366402, 0.21737794759004042, 0.11036542813359357, 0.011923790027983744, -0.061536154530599935, -0.02009848024420851, 0.09173753668252711, 0.01193471000079658, -0.08621285939327769, 0.19088260011228256, 0.0236702064330647, 0.19528172330653595, -0.17643761583163853, 0.1027793686646358, 0.012838279646733614, 0.13757952167843984, -0.014819976042353258, -0.16053750038098627, -0.2666759178608725, -0.08656394118140721, 0.21028099588152974, 0.031499243535647876, -0.08392554823198423, -0.01040886013827042, 0.045165814179409874, -0.012628207941823174, 0.20840475439656317, 0.16489959264057158, 0.16919807642821394, 0.04213609000354527, -0.035304404072823085, -0.3397409592168781, -0.05728272458263525, -0.19347877567686889, 0.19813345561915424, 0.03881062056877544, -0.2793198477334196, 0.07116027658898783, -0.23945875102599465, -0.059670017465825745, -0.1703956357537776, 0.17525960247313677, -0.11560948385004842, 0.15358903727933046, 0.138086565027097, -0.02923740029753371, 0.20326396708150996, -0.07761035815392026, -0.16381365786964802, -0.06397393770613628, -0.05643426454901899, -0.07427489797336255, 0.3485604989566631, -0.061268585486251095, 0.08286739882247098, 0.010983839828930845, -0.06025774643152502, -0.16105299295733047, 0.24111996774426456, -0.03971061124908909, 0.05893457114125464, 0.08558226477770606, 0.12152363260863289, 0.26569263126615267, -0.02638653207620368, -0.10082874171306995, -0.15473035410446712, -0.18370412450262158, 0.4895230990262287, -0.1174523473532596, -0.019567157504308135, 0.1959367771534045, 0.18683695086472854, 0.03178270094361276, -0.1846448603264033, -0.06387514229487737, -0.04699197313463216, -0.22152727378089798, -0.060072972719309385, 0.15887322535336174, 0.15347427273280279, 0.07534161332597458, -0.2424514833558674, 0.009780464117585883, 0.3072716727834084, -0.008884901578312085, 0.0026092425311329014, -0.3809310749997327, 0.002082919820927745, 0.10019422307383752, -0.1439070762318427, 0.36083040119296, -0.05028069587406036, -0.24204104305795326, 0.11353638547163768, -0.09796618098148958, -0.10624001501105969, 0.061748924680469046, 0.029888708456133867, 0.18351189505762117, -0.266497603663645, 0.054787005902896785, 0.3546951765249905, 0.12334966359454698, 0.004681398004411803, 0.30064072066856523, 0.015443490078271425, -0.06574641521988212], [-0.1225366132653816, 0.09467201289998126, -0.15694922277794074, 0.01269689352764769, -0.08526971960408107, 0.06158211270758769, 0.04403472113801746, -0.033532701363592106, -0.1342303469472637, -0.06846210174598288, -0.05405274100666401, -0.005387553599154567, -0.06134395444178891, -0.10415531215623153, -0.057944029108514344, 0.07850304065434821, -0.06337860554635467, -0.036573812848764674, 0.3242826400731419, -0.09758945114368694, -0.013706428970482926, 0.33433140820638224, 0.09803934189471476, -0.03807287496635149, 0.11221775544370655, -0.029549120071244092, 0.07875236011290455, -0.010070629038187376, 0.0322907802747829, -0.10969782814654452, -0.03225609960328623, 0.12930475772157285, -0.008782812427214778, -0.011614481394073757, 0.024860308632346964, 0.005629897774451548, 0.07098991294012147, -0.12426677821220065, -0.0632042124079477, 0.04146592052052579, 0.17641508328920033, 0.09281781503683634, -0.14511759978948158, -0.043727711481259486, -0.2217042649882772, -0.1005901375900775, -0.14903242776640394, -0.01221524183002047, 0.15110464640408172, 0.08542647436436221, 0.01464202405813701, -0.3109752785566663, 0.1978226249781863, -0.41199868529380523, 0.08784654584227082, 0.11422552032271752, -0.38770242026927865, -0.023952205349825447, -0.39606262999655417, -0.10785530890804591, -0.11178411268407346, -0.18911840171620198, 0.03716595119655648, 0.17309711989948054, -0.07328413203977423, -0.027978321475443137, 0.12229797936883809, -0.04836804489501587, -0.013627443718003437, -0.1753371601174762, 0.0012825593186869748, 0.034847565241499755, 0.34949628287540435, 0.0650253688905544, -0.11665813050065214, -0.0740532043423263, 0.06471085507438379, -0.13235208528613987, -0.01487421227632003, 0.038131097831633896, -0.09381070954257446, 0.09095109588518661, 0.07799530692920768, 0.15761506145210716, -0.15659931058451682, -0.02709733872466178, -0.02755506876962436, -0.10683859900049843, 0.166101555952052, -0.14057237902819525, 0.15200432457893695, -0.035004322350815284, 0.03349296704468634, 0.1092147273856357, 0.07619028207030397, -0.06192535294654507, -0.07071716247358997, -0.32125416172331867, -0.00660257360036875, 0.04233887133833976, -0.025034694808917797, 0.007768775666423654, -0.4323909598116421, -0.07778393223900873, 0.1622225909487549, -0.07819837080204099, -0.11991298904005021, -0.32161023615590917, -0.004133602578691127, -0.2071357357292093, -0.09554597726131629, 0.37001839232956196, -0.06428380250328618, 0.15200740823066416, -0.04985155749222701, 0.02574944711141619, -0.15423490798474127, -0.16991932921244227, 0.26670034354866784, 0.19995080973071785, -0.24672079090519597, 0.024599737507109306, 0.20916734175920032, 0.01600191532304479, -0.025553615886870825, 0.11953324980739671, 0.023535108494220844, -0.29799687399166525], [-0.10788947735083745, -0.09656216053140494, -0.0349726000195601, -0.030698857836459755, 0.07676032784621237, 0.2079136807552079, -0.11440220702053412, -0.037559164990487365, 0.017251156329344854, -0.023349926263261274, 0.11154579469601633, 0.11335568101178767, -0.058737984241199914, -0.04983342757689025, -0.05569130222252582, 0.012157010131441383, -0.10085609494743207, 0.0676622314115492, -0.08956363576876986, -0.02540289661080618, -0.1064911406369808, -0.06479025359700046, 0.04501580045784965, -0.04953645888376521, -0.03763663003461321, 0.10897717356438397, 0.13262269390648776, 0.08383145457218512, -0.16681370770876378, 0.1297349022937126, 0.08685747860081157, -0.05192420049596283, 0.049440791556733144, 0.12327579271195588, 0.09124975160449214, 0.015122883604461674, -0.052566906684748095, -0.11095098584536736, 0.28146925017261637, -0.024275326901358467, -0.1487014312479959, -0.17932299286428746, 0.09374354470702717, -0.10505069376225061, 0.08837102502398278, 0.10921151256693518, -0.0052049278934809835, 0.03935701066111957, 0.13300334823306856, 0.028550754947118097, 0.0031055109658199207, 0.07862827623431007, -0.16259281988487792, -0.028477590193816182, -0.08494100522526492, -0.005253710244078985, -0.10444758554556066, 0.11418192560823229, -0.06080581057179501, 0.10686932425711133, 0.0030356181225841827, -0.06325889093738396, -0.04079596503495425, 0.019580380645972343, -0.139452847776438, 0.060952548670427965, 0.026562604204035046, 0.07275469623577932, -0.12640356980263906, -0.040037580573255606, -0.10849788454947251, -0.009937080491285, 0.008690921296773185, 0.08684471229769748, -0.1611569677248905, -0.04975982035466519, 0.08824626806751691, -0.13384499084372534, 0.08782752524127027, 0.03960378171250432, -0.16346729324432407, 0.011249050365465484, 0.028061733525627394, -0.04040974670876673, -0.031654028311579256, 0.012642873476846353, 0.19009375419062152, 0.041625783382587205, -0.07403591062544615, -0.15714576580027814, -0.045076266795684515, 0.0940476770954451, -0.040903655477529215, 0.03827002532036611, 0.022152845291153814, -0.0050205343948784235, 0.04315441062418254, 0.011578243039881071, -0.08847226839448892, -0.08986445960629269, -0.020912269238095683, 0.0058756957287831625, 0.06873818960050085, 0.03370549725123507, -0.005218359311040595, -0.13811755612569623, -0.08665914479639066, 0.14337824195787016, 0.012811675587807186, -0.11496697488811336, 0.07455909656041639, -0.050444463409485746, -0.09412681298724526, 0.12951728372307794, 0.1587703924145507, -0.14203041526356008, -0.06648243077620607, -0.08496430901810775, 0.03422365081758976, -0.09442527317110078, -0.0839482984149996, 0.11749740510297531, 0.16002753968991124, 0.03922900606247404, -0.030029312525155623, 0.033298189636543594, -0.06378964018284528, 0.05360645582102516], [0.06451707540151068, -0.05188685880041778, 0.01045612188755994, -0.11450297605540788, 0.0321698935682246, 0.028694389772573176, -0.117277722810223, 0.00858241078197664, -0.005057079978458995, -0.022051220192411212, 0.031264783848528016, 0.08416737956088576, 0.17686646518317528, -0.2309162504112647, -0.032663464507920126, -0.07523812511143096, 0.08866869288963744, -0.012732380677617975, 0.020090449444586777, 0.04198320544484577, 0.010603633177368052, -0.11609361016130382, -0.07330363023669649, 0.0865606386479045, -0.04471643169208124, 0.04666768837423246, 0.02358436549477761, -0.06291833731665451, 0.06785079356679177, -0.011603190765144197, -0.11003311854571596, 0.05308725919366272, -0.18018405709031765, 0.14524302380259657, 0.1380473046276994, 0.11320502006539504, 0.07079168261844941, 0.18340989297800803, 0.03611597935982088, 0.116520254647634, -0.08018142713926929, -0.032612374284684685, 0.01253335800257175, 0.15375317513944847, -0.31536729753109527, 0.04832785484863916, 0.12207750170179264, 0.11255599310440481, -0.05180652726890448, 0.19344967288344184, -0.06673056234085585, -0.11352492772368966, 0.08626367336527502, -0.1724177460035802, 0.03247944810098183, 0.06169909953243612, 0.11226735677698872, 0.16498292099717718, -0.09930787132826226, 0.18232369621665157, -0.057852375100240265, 0.014384324849322939, -0.004952738896367832, 0.01241287060439221, 0.18175702173184619, 0.043314854473701064, 0.09179408264018951, 0.10501486259305454, -0.06379702573096147, 0.11794099263010481, 0.022792873990443423, 0.04885125105875681, -0.03598196375678856, -0.0005072525436237697, -0.05041727605203261, -0.03299380375269333, -0.005692944768051321, -0.1456504984993265, 0.17956840739416224, 0.03722213083617005, -0.03441453327762683, -0.06439075229188906, 0.013737569681896733, -0.14194877375919004, 0.04050785509938026, -0.026629090958364257, -0.014886692924549777, 0.13646688862087472, 0.08124567909785552, 0.10554323092131711, -0.18035656891951246, 0.15787549302810422, -0.04927794615370585, -0.03979652916475507, 0.010114921649175207, 0.03156721172808679, 0.04625168372024098, 0.08693590463670041, -0.06898982247360964, 0.022028081453926485, -0.22825789525656237, 0.05833000747118677, 0.009555263972142028, -0.07354656281921211, -0.0012029990450476828, -0.07216625019603831, -0.017292222011993288, 0.06526865386107601, 0.07932044551742864, -0.016157027389025632, 0.06133962369317343, 0.041286263249316835, -0.03149877008709331, -0.07303023825322041, 0.021790894682659573, -0.23645666655785758, 0.1307099391098272, -0.008817673061360765, 0.09161700549306649, -0.13416828280376175, -0.10896129853662517, 0.05797904942907545, 0.14611180513108307, -0.050347230945945856, 0.038281268835165944, -0.0525716948974633, 0.004850848797042312, -0.060890216750796346], [0.07015912794697557, -0.06602587715015645, 0.053263250943264874, -0.04008454633562197, 0.048054306497041344, -0.06037765378566217, -0.11246075544986614, -0.05774608685985577, 0.016879979300467633, -0.03325762505402614, 0.042730561845479874, 0.07339342046136507, 0.12159278478118085, 0.1534491404169675, -0.21921188521271895, -0.024048565191463714, -0.06408868112728984, 0.06346880540570571, 0.15476853997028234, 0.19584058464577256, -0.004570792774860696, 0.042428006292861205, 0.1663212327077095, 0.1724164145687449, 0.06508600920458586, 0.06063666363657645, 0.022713409075198223, 0.21133476906299228, -0.0223698362932004, -0.04693507906167039, 0.02623792670266993, -0.06359159110691386, 0.016599147634702244, 0.1305045465933745, -0.07577993109246899, -0.0780876971758018, 0.041390112657710115, -0.021583890671549578, -0.19602644675770908, -0.08478562783290298, -0.03491877744428612, -0.23564398862262348, 0.03427265959133863, 0.15069956246455612, 0.05177071903411458, 0.3146441408404237, -0.12801019562384072, 0.06502765167639274, 0.03711581231005755, 0.0009014523907228882, 0.05902163648357766, 0.07565776252915349, 0.11301980659519673, -0.04675792850769045, 0.1037663087761755, 0.07858331971721776, -0.06976684325880249, -0.0005090720747308188, -0.002525771909304173, 0.07711358678221586, -0.16888109669190365, -0.025048740842143542, -0.03458896563810349, 0.027174437474759245, 0.04204728258473961, -0.03147888419964399, -0.07557403724282291, 0.058776507289247215, -0.09360652186614972, -0.08669791399835794, 0.13210389292768474, -0.05489985722528348, -0.0332342219069585, -0.17075581719441907, 0.1089503071717928, 0.23573750314979738, -0.12773792708524054, 0.011289643129415772, 0.16946154316815193, 0.003523613280253952, -0.07688989952067896, -0.010586000935294783, -0.051572009719804524, -0.028454286578640704, -0.046917675754031406, 0.05119941976297726, 0.16205406881118975, -0.10802064984102738, -0.0055314736972344875, 0.020684984676797052, 0.11659310956170024, 0.05751467656828638, -0.01965708781470154, 0.19723023157337213, -0.1726545700457995, -0.05456114973622661, 0.019527833284472804, 0.18866777297128637, -0.010429485215800826, 0.09600963407806139, -0.0831155474851172, 0.17160873698097723, -0.08605515113110085, 0.0902411534431713, -0.03656013591364433, -0.047723620893219146, 0.17963752526745735, 0.04591619972074944, 0.04705167382170278, 0.07694421657115447, 0.15490714087923865, -0.059270080462984, -0.06112620958745684, -0.0746343985899887, -0.12727888706313842, 0.052208523024759826, 0.08587261267570245, -0.0769265939379906, 0.041712563549861456, 0.09342887112210592, 0.023733375686377112, 0.0715379874304621, 0.03153632836465507, 0.05715456762337834, -0.02630414739560454, 0.13149180485048956, -0.029489554034790363, 0.049755004037046406], [0.1150522482147705, -0.0331280319336406, 0.20200442947865246, -0.09241659928970807, -0.16145835626678062, -0.12001059150812486, -0.04719664573691176, -0.06655083296599067, 0.05944365020387683, 0.20746395605222614, -0.04160809553122932, -0.005890876857779435, -0.017177030490756803, -0.1092846446717361, 0.017154746654641125, -0.012673072432586932, -0.07500599753595345, -0.0933401669929649, 0.14130368763019768, 0.20100674753802786, 0.03887895494301049, 0.051475674316537316, -0.04595608637413075, -0.09527943386995169, -0.04826683278279409, -0.06766683684914389, 0.03660224536387251, 0.045419977643093315, -0.1001084927105024, 0.04264637136224281, 0.07112560961784813, 0.03262029762827628, 0.0722044856416069, 0.0340291351687121, 0.044464532347900654, -0.215855942036601, 0.02759698224876103, -0.03823149322957599, -0.19740947764934125, -0.0020634073457190096, -0.09092589328551587, 0.09144791757443342, -0.01934861490886157, -0.034990057002596435, -0.12113444422296554, -0.03546083258619442, 0.05956093164005835, 0.006524396576107557, 0.0669095890648565, -0.034806406191219615, 0.08627444748910486, -0.10611176751032088, 0.0410407913261841, 0.07446374345733583, 0.055063912681813126, -0.0030608273990708063, -0.04085124357963135, -0.054461876542638656, 0.021154510282237502, -0.1887157483455621, 0.09461140463002433, 0.156931101340923, -0.06881411157144048, 0.08296334582246992, 0.2060188153573281, -0.3122547384502024, 0.02946769956992031, -0.0804955003463203, -0.2250901150063835, 0.11794249865075607, 0.028892331733785526, 0.06961542130100111, -0.03392236263788241, -0.010055715285741937, 0.05000375063163712, 0.01247448469311225, 0.1251153272437707, -0.0795436958876807, -0.09157651994606625, 0.002310673085231471, 0.0014054252903272823, -0.2376171428864876, 0.07158111592888003, -0.08215641759965625, 0.023859181611411262, 0.08552586858222354, -0.07467085912852894, -0.055946981488830566, -0.0729170423149715, 0.09723179726820867, -0.005786717526394754, -0.0972121824625265, 0.13466450457400023, -0.07881435591955312, 0.09613242548207708, 0.00840049636122371, 0.17451785061000286, 0.13549159047790166, 0.17719413776520987, -0.051847666358331726, 0.0031596090445149003, 0.004692432275312315, -0.11236615805903415, -0.10067985728402672, -0.0040039012167378, -0.0188815570334006, 0.09457701052373987, 0.055570377735324465, -0.15701669910318838, -0.24393769982503946, -0.07362392514565877, -0.10326003117349353, -0.10219078924557422, -0.024275460375426952, -0.039773168788497626, 0.11802502944057243, 0.03162244050242876, -0.0027119301045552277, 0.1495695868787927, 0.08385959318480234, -0.054739050709455186, 0.016260480700647843, 0.05628607955112217, 0.058536947668331056, 0.05470976017361173, 0.20827038260880273, -0.011161027843095389, -0.11037754174612005], [-0.233708543363237, 0.060346818202763886, 0.14985186468547904, 0.14022614159455718, -0.11344658066472298, 0.02105146762118427, -0.00025781105847617094, -0.05965081123465084, 0.07855497100441239, 0.13879888941455507, 0.10294707885601746, 0.08835937774641084, -0.13794361354985862, 0.0930402039844917, 0.12061819081937737, -0.10696431079129123, 0.0921747954876933, -0.11263212350356776, 0.008011148355524448, 0.1319503368555914, 0.1611915752491461, -0.00967931233999292, 0.0979490787399429, -0.0616251000098069, 0.056623572146502224, -0.06270109030391877, -0.0933151562560884, -0.1479263698235547, 0.0075553633496281206, 0.10670428207107602, 0.025828580922380585, 0.0890382348294112, -0.07452858056238333, -0.12223398990045281, 0.08800044584982086, 0.03738242361305957, -0.026761908024564563, -0.07723706754179793, -0.11685062377978038, -0.0939589187159413, -0.0008248883967258026, 0.03812287406948172, 0.18685488433790254, 0.10415000661038612, 0.13656541024351052, -0.04432976050312654, 0.013615267057294912, 0.17759562383756802, 0.07990214976922072, 0.1931208934082161, 0.02940898012565965, -0.039409752783577556, -0.03982849331802083, -0.1900454229413617, -0.17136992015168573, -0.0006221750981692346, 0.06376351778558825, 0.0035066647821125094, -0.04540349415667043, -0.13007229068072224, -0.03905554416055378, -0.06846989362565896, -0.1651185950651261, -0.1804947822638763, 0.02787200465879404, 0.09493391528647023, 0.076007827121028, -0.08579519879097502, -0.008792070339617923, 0.07484876689717058, 0.013269693215411904, 0.00953861575474652, 0.011727744039315877, 0.08219789101743104, 0.040864108013834916, 0.25165498510224615, -0.03743608152478494, -0.026253719953963264, 0.03973464430178189, -0.12859084108028918, 0.024827895271767406, 0.19340416922463763, 0.19470351136585898, -0.02904204161071924, 0.08882262293170451, -0.00856978714439072, 0.04411105459936054, 0.03140187187541151, -0.0035106769198292604, 0.06630854522394794, 0.1668693672434913, -0.02414783440924537, 0.029125742308590965, -0.1208428594905514, 0.020728778531496933, 0.08600668179645968, -0.15196063422266837, 0.10382429632584947, -0.2589669296194713, -0.05223757851330696, -0.0061448055764126795, -0.014421170285277458, 0.07887777253019768, -0.10688064983651822, 0.16970114376478684, -0.17240343470449138, -0.04479589631427297, 0.009268993792203849, 0.06638941420860868, -0.14772429737495124, 0.02513345005302179, -0.016612159625497124, 0.0238942346526262, 0.06559806734998673, 0.10696194297330777, -0.25892240980575004, 0.10000593644210856, -0.1331225730822805, 0.16757483766721099, -0.11013726093587327, -0.01069523022433643, 0.11787645776190031, -0.11770987826047329, 0.06177587003671469, 0.07123044444285086, -0.0017118043094313353, 0.11369392375856452, 0.04079291829310706], [0.01262319829973625, 0.2350362778661674, 0.048342281009000766, -0.15129297266412772, -0.0013655518461811826, -0.04916895354248638, -0.0740664609103534, -0.0057260910997137685, 0.10863521439372395, -0.04449000368269171, 0.00248383301273257, 0.03515484297258217, -0.022302486334101024, -0.06815741200079456, 0.08397946416327412, 0.23803765894564122, -0.046637428961287704, -0.15904423836185533, -0.0011340497815890182, 0.10228694201549637, -0.12387111438448645, 0.009924736071664764, 0.05525223189234668, 0.11786096723940692, -0.16853785331358348, -0.011550482854184784, -0.056414534672663254, 0.08296122911398879, -0.06229649525076219, 0.023592377127155076, -0.10124956705793348, -0.039212534994938826, 0.18518051862011475, -0.02387884607028571, -0.2077039483305998, 0.01863057453810707, 0.03474297027970473, -0.0366119249421517, -0.0890921866249627, -0.07399820431691327, 0.17661944545155336, 0.07883322509312629, -0.17076639783324368, -0.026311460108347135, -0.05581372765461734, -0.05758761854720068, -0.17771771639367961, 0.08194302911504664, 0.013802037657224576, 0.048337183700475, -0.1329073589137195, 0.016299288226687286, -0.03525889545220218, 0.019498558559566684, 0.05769526646221414, 0.03906944702061312, 0.003977570638211964, -0.09637773135589384, 0.02051630273607792, 0.183664888275035, 0.1636649638520376, 0.01928876895920869, -0.12428614210130376, 0.06712775476658557, 0.19180854997954705, 0.09237665400065553, 0.1808125568488005, 0.014807557447884444, -0.07584577326181147, -0.1232746648188937, -0.03455602651574779, -0.04572001587011655, -0.18078138910517588, -0.029502876271663037, -0.012168996564020877, -0.23312283897976457, -0.10110925253615924, 0.09189238744958918, 0.00867056932700376, 0.010879034768077908, -0.13731690682046832, 0.20259395745842582, 0.035581371445608724, -0.11381090925562523, 0.003812093254346732, 0.15598815634696117, -0.011767529268394864, -0.030705317049355176, -0.13733847047160655, -0.02320129993625737, 0.10339316023080176, -0.0749029257756288, -0.15269498228027642, -0.02756933175936188, 0.04246282193802293, 0.06703660867326806, 0.09878867629038361, -0.09121322395547125, -0.08310655560565834, 0.01360331868675594, -0.1271119505987722, -0.03531085089374592, 0.10582602118960467, 0.04554954425755839, -0.017405745126971062, -0.03613926834315009, 0.014735453357199066, -0.012084146233074348, -0.2937062779547363, 0.05649185069673018, 0.01635080270286748, 0.12907256446450593, -0.0689340618045841, 0.09948603038597414, -0.09535736113738447, 0.10771823364000473, -0.08688271023342017, 0.19129246299680047, 0.05583150005751702, -0.2914304072747263, -0.06858392747279678, 0.1318690660245677, 0.04403201535139015, -0.061326554975693705, 0.05616898001813499, -0.27339651768189016, -0.04560933358994132, 0.05917738153451249], [0.03749979700407972, 0.000987339450649769, -0.022114046572101587, -0.19191106920374784, -0.15392470831919383, 0.040953623116311025, 0.10947690177785119, 0.19103509696263254, -0.028488003278024934, 0.14486469964367837, -0.1008092222825544, -0.021562723514521567, 0.14067857412116413, 0.2864044726694209, -0.006238418896610299, -0.0040886424344435375, 0.03440794704537483, -0.07929433747660355, 0.023626766079466927, -0.14375834395657724, -0.13481695146604933, 0.07700333777182909, -0.2322877401425234, -0.04296922976286474, 0.09405133353713253, -0.12752909276500057, -0.07098505867790494, 0.03119190773716037, -0.038355046949323124, 0.10268182547288668, 0.02142845607761429, 0.05904527038333074, 0.1051965100806372, -0.04397864723676849, 0.04392843086174879, 0.06036511699290356, 0.010293594088913172, 0.2965578378489885, -0.009095359494207925, 0.11360325246323535, -0.04852204255076381, -0.10669001530895038, 0.10510089960363578, 0.02320534111567468, 0.04216301329499908, 0.04759263395621612, -0.022402864793097565, -0.03579884417800419, 0.10361720234004557, 0.06847405845495562, -0.1423505543024862, 0.20436615040270445, 0.028308655377494496, -0.0976909371685417, -0.04071995912706647, -0.1291256732374586, -0.0732281140606387, 0.026412451732449813, -0.134379789987817, 0.06944034320229424, -0.012394677478328935, -0.0359124359540405, -0.18664580397617975, 0.13933394788590978, -0.09432209698848872, -0.01634276716520028, 0.07758796882939704, -0.037209024145104956, 0.0970642443267622, -0.1387819364606446, 0.021566020562663067, -0.07243774624902843, -0.044239925322756446, -0.042354337228371605, 0.018762078994250538, 0.15812794422294038, 0.13193467501040584, 0.009500651762500815, -0.10764977590163405, 0.03495331408374865, 0.09716934987550535, 0.1435121724811106, -0.07324136339810038, -0.017681323652060866, -0.07662182010233394, -0.004485446068599855, 0.08889712383274086, -0.013714099338081088, -0.10225046332990076, 0.11575680813680528, -0.07797831509276554, -0.01051374099656207, -0.10308735097941815, 0.05063514051565202, -0.05689725998785772, -0.20182892243335804, 0.05216535164232061, 0.03916565045191164, -0.04573732617704118, 0.04451349377729721, 0.05196537953555842, 0.04159357322470605, 0.035936548112104075, 0.010028727550190906, 0.0039065594448162546, -0.14631507553450238, 0.12670029145010947, 0.11107823903366254, -0.13219740907186814, 0.08984394150296371, 0.014417004160698006, 0.00031478628960448737, 0.22175189360121816, 0.041070265305381465, -0.0467019451219123, -0.09316871073701757, -0.0947898715551944, 0.09343940737468709, 0.08703102295621161, -0.030371425839595387, -0.05835172979834317, -0.05791745481485745, -0.009339846867397044, 0.09408476814543776, 0.1761953655757355, -0.10771537456551604, 0.004271703591400898, -0.1118102487281194], [0.03614419965048654, -0.05298005506514034, 0.0483825513379112, -0.07172122361294327, 0.07604640314321087, 0.0735517160151064, -0.0067553214867475345, -0.06756998724398697, -0.060988638698455534, -8.284350484469234e-05, 0.02129425828532062, -0.11507472411587016, 0.20072789847411668, -0.10079188272073077, 0.08409168929623256, -0.10510416585157001, 0.07867486107720023, 0.027876916392682423, 0.013164900670039635, -0.1075506397360429, 0.14478523635136215, -0.03285334350125749, -0.026263168809142385, 0.08331441909900246, -0.01699755653624608, 0.21557173545019734, -0.10963937297268543, -0.023835368371388915, 0.11432469703064421, 0.15480114807900253, -0.15369136890610202, 0.006271811307046295, -0.16071526562545319, 0.008413210274540981, 0.19786526341890057, -0.07747520061830507, -0.07197238924037531, -0.12162832875563322, 0.16688136091688413, -0.03869251888913844, -0.1430647798237595, 0.07725117311281811, -0.0439000963903242, -0.0956092158278064, 0.03397128371506642, 0.10377749531911135, -0.052055177756540755, -0.24543345872542266, -0.14445714310845745, -0.2028149774740614, -0.056757490430815474, -0.021941287068621418, 0.17747222293418702, -0.042009564262017796, -0.03025104444282091, 0.1525035882779525, 0.04438679615570293, -0.07018578442434392, -0.0935134112047765, 0.0049830071760043546, 0.17857487208032652, 0.032701978370860446, -0.14242066000211395, -0.08692473328847079, 0.09451958530928271, 0.14313777861906216, -0.14484026205481837, -0.15364751546536387, -0.05175152951523541, -0.08379604690161069, -0.15486970393416377, -0.009154815160778032, 0.054096174362271376, -0.03560133538138945, -0.07799095852928095, 0.07571701881677428, 0.2243271457716304, -0.040176098548478326, 0.04342791614836503, 0.0677411734769396, -0.035407560751376105, -0.026080536149188052, 0.11188177202712196, 0.1444265269007711, -0.12291109999189379, -0.10555143764027014, -0.09988616239389474, -0.041951419811173174, 0.10935252319339017, -0.07209197117153565, -0.01375796044720095, 0.11452119338874495, 0.14546439707001232, -0.05409713314790779, 0.10540103315758903, -0.04833257852149398, 0.11449508045293583, -0.25460443884970557, 0.03085199343877515, -0.14903357441167095, -0.08256104209700803, 0.06283668988521975, 0.027014730269081067, 0.004211526795603663, -0.11363288315301304, -0.1691275493617731, 0.159323209113601, 0.09851551133525346, -0.13045909839582928, 0.20039341340996134, 0.07431284395602025, 0.03937141493743166, 0.04803516043987102, 0.07468826119138955, 0.11439757219183538, -0.08063692472489821, 0.09145848831880599, -0.08308425296708097, 0.09308159914005572, 0.08407595579064038, 0.0356673960192724, -0.02338632318158388, 0.006096413617386451, 0.09981748819178585, -0.05163650347495744, -0.20185770621442442, 0.07806198842075253, 0.03436347376334842], [0.08683096444879185, 0.029492878793293865, 0.07653937641215607, 0.06602665525123635, 0.04424348775220371, 0.1906775471419714, 0.035368045970771235, 0.018553236644286656, 0.14918383082398917, -0.1342435817766896, 0.06046014970256419, -0.02052771967027048, -0.0004160469512334102, 0.24656944333351563, 0.1602402904740638, 0.03913273785721391, -0.08826251050397023, 0.09269168719885974, 0.10977520774431743, -0.062011297699014624, -0.02261843198385006, 0.030706008658518875, 0.053262823880910706, 0.09933225746630894, 0.04769940125027766, 0.10228037426753017, 0.012356607968933186, -0.04668323488816409, 0.02082945982903895, 0.005495761226591615, 0.15356269739619927, -0.07577829020109234, -0.00790769803009169, -0.17716526968632296, -0.09473707218704908, 0.06895340813224007, 0.04138209306548419, 0.13785914798437776, 0.15574996272209968, 0.16881611657068052, -0.20879874608334298, -0.0587176456324324, 0.20384389475783388, 0.10188702739468934, -0.0007628509438461785, 0.06480263930157668, 0.07961317053429187, -0.013438905658222672, -0.04614540695712822, -0.06695324432097648, 0.10607193601470077, 0.0065449827226875595, -0.0421133694145131, 0.0497105797005153, -0.1768064893034268, 0.005275351145307736, 0.06675992809946463, 0.13852815187650117, 0.03908988021788165, -0.08098776668617276, -0.018627718605316933, 0.02107708709078814, 0.001401037635519716, -0.19582594388773916, 0.11281040797568785, 0.20568555862735463, 0.11838793977036642, -0.1026502877963253, -0.07954856701027882, -0.030777507789682038, 0.19420397346798152, 0.0025062027560475673, -0.13315924851743607, 0.189214816513539, 0.15164736795035091, -0.05139030499676165, -0.21493975891816308, 0.17912603481873748, 0.08981315151830783, 0.0184345805933625, 0.010195622732279114, -0.09999147993713006, 0.08496564101082138, -0.10042471577778181, -0.1364962276125288, -0.07568422365767775, 0.07752099368980289, 0.03171521838742411, -0.0048032785769406856, 0.045807652032189734, 0.2975052756849727, 0.07507941133482765, -0.04855623867274322, 0.06654689757509913, 0.024446103384509893, 0.09550596800471305, -0.10159283224196135, 0.14008070306667159, -0.18810879418589838, -0.058994006605649886, 0.10743358526803493, 0.029902903332606257, 0.12221156773418165, -0.08564529368565825, -0.03257035975559827, -0.039770894013627975, 0.06748617771961554, 0.17143036356651764, -0.10195760953243962, -0.06686641382550894, -0.08704435243205735, 0.024443366024644732, -0.06427048154963587, -0.04378677676767562, -0.03407961095575707, -0.029644959613777517, 0.07858899785907719, -0.007861104797065345, 0.055012701502254804, 0.08860408768613277, -0.013224058537373129, 0.11301210156631863, -0.018441656338755295, 0.06499182875691187, 0.01497091679967812, -0.08415227602430833, 0.003315074946919991, 0.00932614971835735], [-0.013417035611350995, -0.010926167442229719, -0.03870348475859958, -0.030251493193665553, -0.017885947466499498, -0.09615106963305771, 0.10693833572282485, -0.10950136530538977, -0.13636693308444417, 0.04808611999693191, 0.1421517542783924, -0.22803902925556457, -0.06526205124599985, 0.011082041100554774, 0.055674818340663484, 0.057041357115171824, 0.040336458610697234, 0.12371111305926781, -0.054702890007809105, -0.04057759170249031, -0.15221878503508196, 0.15027098628483326, 0.008461945195411212, 0.14857916106553112, -0.0777565345064134, -0.012259931748026717, -0.07956454570975353, 0.055220416568245834, -0.15720467410823616, -0.09661538097373112, 0.15420405467994783, -0.02306481545263564, 0.023244617715021614, -0.05178338040036162, -0.03778245069834085, -0.00754206385673057, -0.04263149179193174, -0.005119289193104438, 0.05257512861261074, 0.010314421623789703, 0.0604991014916382, -0.11388276805513353, 0.06826518256308771, 0.08007468044979836, 0.08397445037234173, -0.058813759772336965, 0.20148552437753142, -0.011891956017190449, -0.11652174887031289, 0.0632040978857971, 0.07175009819115342, -0.04034262004467017, 0.23116775004681758, 0.06490467016379028, -0.02630142895292116, 0.06698635404198298, 0.12625203602706445, -0.22358820148497074, -0.10568858679116733, 0.07154716937904476, -0.04032178067734705, -0.10679748164827213, 0.10049362117853611, -0.10925412178864256, -0.018232110680948304, 0.17713399031180313, -0.32395191273434076, 0.18840313990617077, -0.05671273846339972, -0.04333042641498244, 0.054105397489259556, -0.1280586825161548, -0.14386317178219174, -0.01587999246511852, 0.15617001790380233, -0.1174449550754422, -0.04050137636974324, 0.07844489860406412, -0.05230536672863117, 0.13872593257301674, 0.08880545327221327, 0.1284996457052993, 0.15610746448249468, 0.03778631001287086, -0.031703925705519664, 0.10285372467870585, -0.07108842226608002, 0.04693099826298176, 0.01742393616356584, -0.051517352461592336, 0.11491723894747795, -0.015208395811108642, 0.06895614453659109, 0.25975073586076297, 0.11962469258283435, 0.11357297664294269, -0.039363958738004357, 0.08442683705893662, -0.03627116979100207, -0.07836517285664638, 0.01568849902599024, -0.085828831517607, -0.17641967938487008, 0.023168017275586334, -0.02999604068268801, -0.016722491824557352, -0.03810332790573745, 0.03269256463203415, 0.050866969140838214, -0.15613198675829043, 0.02882476825349838, -0.003118761861230758, -0.15871080385781483, 0.1602098803767115, -0.026834944981984462, -0.03106979557928969, 0.07358046436580339, 0.01885636481823736, -0.11583329899823963, 0.16798167536898492, 0.10650593030497338, -0.00891428960176773, 0.13632569326035068, -0.007127272474279942, -0.025985001293481497, -0.09195501912840043, 0.040242143948740594, -0.19502818541783837], [-0.1224599915916957, 0.10010293019893578, 0.005780428232443148, -0.09848399157179757, 0.03781326476770656, -0.08565721170095948, 0.1735775685896621, -0.16525910393589918, -0.17174257716232794, 0.21804052349605915, 0.06959549924189712, 0.05783431431503571, 0.18174495195825774, 0.12460600291715201, -0.1365852254637403, -0.03569292029125722, 0.030969810949175405, -0.1330503071702016, 0.006253532176565111, 0.02416253896120206, -0.03693704507065228, 0.03981759398154718, -0.19495748858268086, 0.10776270232808326, 0.09401939039656095, 0.12486946687188467, 0.002341326925702411, 0.027008240265969582, -0.09493028617477052, -0.005962376201983728, -0.09593450577079551, 0.0724991482518369, -0.03200778805791943, -0.12869332779440837, -0.0010346813472246175, 0.10921211392716926, 0.021667484148621564, 0.025589355991435206, -0.13553861787888002, 0.06683661020021762, 0.03895784384063274, 0.14725884630579644, -0.0594928825935746, -0.08114148730116882, 0.13453716499274657, 0.0707478463444071, 0.011609957988672317, 0.041558737054574565, 0.026345425437397596, 0.12603305401801873, 0.10216493268656082, 0.11772156914657031, -0.11471237092093348, -0.11168139092139617, 0.07084743128288927, -0.050792790691873806, 0.04716539450351555, -0.10057523577316799, 0.00026964830602001493, 0.07663913958855628, 0.07070818905446828, 0.12307093921720413, 0.022565548831339304, -0.012191135557757329, 0.022667929244402557, -0.10927392686485804, -0.015472450196177684, 0.1022287413654822, -0.07346451602244715, 0.03734510651166196, 0.023831738250667003, 0.03067189815467399, -0.12846679058088367, -0.1000321617706307, -0.041829537225205916, -0.020957720353482378, 0.17771127029825917, -0.061012383094880475, 0.06352069361896502, 0.11069160774694692, -0.0112312955305848, 0.17931189687476926, -0.11394830408012879, 0.08853494468385537, 0.04644803284321137, 0.11796467867852829, -0.11355498540044068, 0.07095552781332438, -0.008999653645667498, 0.0637905789996273, -0.10563939942969197, -0.1288292769370119, -0.025803867186206964, 0.01780519535540418, -0.1454579168750888, -0.018106931122764878, -0.005250192586106137, -0.10943201161646482, 0.17395894971822282, -0.06965973535057497, 0.010966863540257702, 0.12270973053789176, 0.2087596384064454, 0.016685003472919905, -0.08849497581031908, 0.07857499370959581, 0.137582105742738, -0.20636485180084851, 0.11016632970703835, -0.16470258049638287, -0.17277309820753475, -0.01801497044206836, 0.09850486842867472, -0.004929541211613608, -0.06156513450877693, 0.03139439425807435, -0.01761745457563479, 0.029759394429015335, -0.008181947917377613, 0.14396725088634563, 0.09640309917198328, 0.02698957909633288, -0.010204278249903762, -0.18607062647379935, 0.020867685024826815, -0.08351009444118528, 0.06603296517549131, -0.024042853647150517], [-0.02356201437625593, 0.09641383457385169, 0.0345078170212629, -0.10135484836959702, 0.11113301356514944, -0.09959648990426731, 0.09565115352655147, -0.006605180085002115, -0.047506727354552775, 0.06367875884210308, -0.1317389525222372, -0.04514841203990554, 0.051681243128545995, 0.09498562906363556, -0.009702230973545552, -0.02628951309522097, 0.17714039232045728, 0.07603797727785709, 0.15419196013605832, -0.10246711502159259, -0.03483385582075329, 0.09261692030747685, 0.04416622961857423, 0.04748200074710529, 0.1017026885433678, -0.06582448936598251, 0.0856052369961966, -0.04016145326641404, 0.15018882595504823, 0.16594032516174037, 0.07516288555620021, 0.034867371584030075, -0.1352748973954127, 0.1415880798851222, 0.16262256608609946, 0.056357901253384995, -0.01737185390810569, 0.11225153552485644, 0.09860726608224141, -0.06849321085681591, -0.06626901478163554, 0.04922345835180901, 0.027723661008614443, -0.07421172737904366, -0.08829189475926422, 0.04807413566185813, -0.00927411951574996, -0.06877092898674504, 0.07780017006758484, -0.0896120001733487, -0.16035966502855958, -0.00757530493341959, -0.09806782357224733, -0.23341503785001444, 0.11660680163483864, -0.09925115137590462, 0.025386909162701605, 0.2573632025686418, 0.08606088266300115, -0.16256562390984072, 0.026805253344658237, 0.02065812120610169, 0.06775508876883812, 0.17085525969946952, -0.04511385077728077, 0.014862691217707766, 0.05377183702347426, -0.046106452573429206, 0.013144023113626167, -0.09233738422225435, 0.008051065844069288, -0.009777601056834161, -0.10760313660887806, -0.11637391333668633, 0.04287123432498757, -0.13535173008297627, 0.09942252284007005, -0.14968182344476508, 0.0331503073112862, 0.1290389131530882, 0.06486080705498457, -0.09112765524374832, -0.07824720766432813, 0.05042983850963728, -0.030077453642519993, -0.018191327858099755, -0.0768096078992135, -0.04493955650123613, 0.09206061104496602, -0.0018227652911462712, -0.05299542199005269, 0.018219527922278215, -0.007674143120322437, 0.0490211749979855, 0.002202981435869584, -0.0350371012298077, 0.1332552036065196, 0.07807098528745118, -0.047319481098408306, -0.07326968294400224, -0.07665763971515907, -0.14924581481557542, 0.019943815705766033, 0.06976418484195998, 0.13739608989715993, -0.06943807524498495, -0.02953405746638321, 0.07510661980280972, -0.06409920759787474, 0.21112248330943492, -0.10956580578015258, 0.07663941224799553, -0.10381237538118174, 0.007517494276116495, 0.20502928443893526, -0.03405933922073728, -0.0221457420981606, 0.06917894653979, 0.07565130622271783, 0.07109866642886886, -0.15046670112501348, 0.0692598551845086, 0.02361754610690716, -0.01780365377538537, 0.016571807445771258, -0.050342228718027716, -0.010119724092372925, 0.13371420660702146], [-0.026414291388978706, 0.10363901757670889, 0.017667477702126302, -0.08382533760894853, -0.17876099304820808, 0.12938286485391437, 0.09238594254883739, -0.08520647844638501, -0.06480371185847171, 0.130824026402633, -0.07368887324342165, -0.016017413317658147, 0.10209061736712502, 0.015083580667303443, -0.17464901856252735, 0.02528601831092799, 0.06034234622539145, -0.03516291543489843, -0.2067214633786835, -0.044000722224517, -0.0880683865284529, 0.017649228235092723, -0.04294947448509084, -0.0675086357859394, -0.07729444207479207, 0.07151817187623169, 0.08316620058292178, 0.16573562205323095, 0.08355807132290227, 0.0910254028930591, -0.17507908659307364, 0.0358606370378019, -0.14069081185571938, -0.07205186347809206, -0.008264918234828118, 0.04732040857073793, -0.06694251949990739, -0.11921839261865226, 0.0168205370250649, -0.27716427906485813, -0.022263834520306353, -0.0380340516863271, -0.016095522433962745, -0.02685721248829094, 0.004256891054372327, 0.07505621446293644, 0.01548808214860016, -0.1391171485538824, 0.04498699304008158, -0.09018605693292402, -0.08304593845176937, -0.08492530376323268, 0.0054223512921233626, -0.08104175062047235, 0.09395011391650565, 0.005389948045629104, -0.001415217608864163, -0.06731236021132947, 0.06952655080875814, 0.1174455048189518, -0.1014673269219383, 0.036549040670542904, 0.018076076437342062, -0.055777403188763064, 0.09185228073395688, 0.045644010065466936, -0.12508809762955717, 0.04649608833252986, 0.15241999231892822, -0.25220886993977815, 0.04128452256149862, -0.04396413178719369, 0.0748526516684924, -0.067995512371803, -0.04599646774116117, -0.023848771237046082, 0.1192533370378357, -0.05247272923981372, -0.04205937569370103, -0.13671758423534355, 0.06883772535738485, -0.11396737672262425, -0.01077207579145471, 0.20465543722712348, 0.15251554251777671, 0.013751152682845633, -0.016877726801643535, 0.15727628331115373, -2.8650962571642953e-05, 0.029601886846335912, 0.02653512425214119, 0.06687416332364773, -0.07945384141863492, -0.016820914844192385, -0.06500563311976114, -0.10595579336180404, 0.039872611667215965, -0.08036971258644594, -0.2108404301552593, 0.0028519394583487435, -0.12483835273000149, -0.0619183080950843, 0.16068842755902626, -0.0013133889059565183, 0.0487043263995815, -0.014574169999157352, -0.07038905378336563, 0.034794025692541315, -0.0567003695173644, -0.30432177930213633, -0.02980119299568725, 0.0499084591841635, -0.08315911838385551, -0.07874251518644662, -0.03412714720415238, 0.11105258132764802, -0.07018505413432698, 0.12464221815510329, -0.07220307551985565, -0.06528828515838957, 0.01351973149155619, 0.22606669481206765, 0.008736900147424636, 0.09067152547694865, 0.035960480788655394, -0.019564358312328407, -0.07753974885914086, -0.01754975650962411], [-0.07197478942124083, 0.12647138736948882, -0.061082190911131595, 0.10900991734143912, 0.0668848868092735, -0.16802483197482226, -0.026543528413490742, 0.04926964952254032, 0.12704797762630554, 0.08291351832740433, 0.07561283039600938, 0.004036721825076565, -0.08141669899118484, 0.10261334595707089, 0.27375835790340014, 0.04360483639051448, -0.0749564229884412, -0.05133662565880734, -0.037764259410186685, 0.03279618164936093, 0.033176370160873894, -0.02774226422667152, -0.18540011179726285, 0.01552385033987059, 0.008818199857214614, -0.1328465571057564, -0.10535330101843572, -0.09832460183380859, -0.05945090801073022, 0.0839323263272308, -0.003919106564517869, -0.07626577189570091, -0.009354062518441056, 0.015363546771229926, 0.20873807694634033, -0.01700025816339803, 0.034464171590611284, 0.0491748895359872, 0.00010481904546324722, -0.14996520067111738, 0.07024828380970528, -0.08531757613910247, -0.0549994414484334, 0.06273259912019706, 0.022024128703998908, 0.29196976519243883, 0.010773169694987117, -0.027868379359586967, 0.11464647960197179, -0.11670813128013305, 0.028119536548825944, -0.07405207699040588, -0.13411717151554456, -0.0054713870155091195, 0.08487478901828246, 0.12156420757317635, -0.06237998828090067, 0.008782869120312954, 0.15934766248467114, 0.0025782202617903732, -0.0543818783670222, -0.0660207356334175, 0.20360535355836676, -0.020435192487088995, 0.16474623062185467, -0.05701573858617, 0.06537977200081443, -0.0035361453718073636, 0.013144995300150328, -0.014010300677174722, -0.057859020290584956, 0.13549811319159646, 0.09270026236826873, -0.022646503505889558, 0.15928892765776834, 0.09982432858124136, -0.04974751530458182, 0.057277075844092806, -0.02570186648595664, -0.04120925994519788, 0.045002986330079014, -0.19633687643944644, 0.03266051253602222, -0.11375821421288757, -0.09608998027041558, 0.01842134845107002, 0.10586408812415032, -0.06282198766563266, 0.027728191623699706, -0.003015372528363355, -0.03837830042616705, 0.03566548518195397, -0.06866189168883129, 0.04944012688583687, -0.09926361814784139, 0.1863471086888997, -0.16869498205804806, -0.0392579345333127, 0.15584902386981866, -0.013324367064490078, -0.005143787324001411, 0.06782270059061395, -0.06865121531896974, 0.08604416876256361, -0.11087475242780712, -0.12979663695362506, -0.03995513188341836, -0.1471038734573829, 0.17279128764452084, -0.04594333877327491, -0.014842817891882451, -0.022978702943468737, -0.21000087320127392, -0.06750313302249243, 0.14900342100927189, 0.06955424014960407, 0.22476387339076928, -0.12751585472239893, -0.15341888359216257, 0.015518420539860215, -0.18401801388299333, 0.046066138550593064, 0.06376379064704053, 0.0029749667070377945, -0.0348781816301352, -0.09605229608210192, 0.09758714670565338, 0.2230298051161527], [0.07458228660528085, 0.05165268448806997, -0.06987472667645334, 0.005799271978115812, -0.0038635305144765703, -0.04906136904923899, 0.06409884708572672, -0.09724307844134125, -0.05333564063727291, 0.1043420031846535, -0.06590893966222693, 0.0380195686068513, -0.005272704271974022, 0.07447999969708542, 0.03662724693849684, -0.024035274565723172, -0.025468290595666434, 0.2623295243605084, -0.0001998137774744043, 0.05076688136320731, 0.0031475331174222274, 0.04937960219192471, -0.005986967183884258, 0.14927402090012484, -0.05520026504412932, 0.04479444928046483, 0.23613478797407567, -0.020456711969883974, 0.05802601576042998, 0.05668520996262506, 0.02447751939909526, 0.006946146818856649, -0.03355833591244572, 0.004464095519905825, -0.061612031855876104, -0.092165433704981, -0.05821179298971575, -0.21008235360941235, 0.031707993663164576, 0.11721423258409276, -0.0561745461366198, -0.02016813834363358, -0.0725598913478869, -0.004671013739961765, -0.08523979924926617, -0.04071799562661336, -0.06691517351740638, 0.0016127622486592367, 0.05983994620674026, -0.09272036359867224, 0.05385669163555447, 0.09344384228695715, -0.022026438266975187, -0.07666802065304242, 0.01597247368326217, 0.08028828826346213, -0.02772531800850231, -0.05395765211251326, 0.028087765831385416, -0.05447634988222619, 0.042607084854565484, 0.08532354656582426, 0.0713935235377751, 0.025491561632589723, 0.014308136155762312, -0.04982453603046704, 0.09266560907413751, -0.07626573093799138, 0.008564915191756539, 0.02904957839662535, 0.006732211217862535, -0.024027958022246856, -0.02551007696740337, 0.2250621706303039, 0.048137178628842356, -0.12654889909415867, -0.23261417125261832, 0.18703231620092103, -0.030429932595360233, 0.14751254632119276, -0.1029845006403074, 0.08224199097273371, 0.0326272972740764, -0.03841630923558269, -0.032041410297142525, -0.1784617981607184, -0.10966214446238964, -0.008455340615139908, -0.040230187390564894, 0.04444621685216698, 0.1463880607925094, 0.20062345714621857, 0.05299839224871106, 0.0986603344305887, -0.014613842054146536, -0.06731599654866365, -0.012759427040176153, 0.01307920895492881, -0.03439031266469196, 0.009455935301305375, 0.03337428440008323, -0.06097379826822, -0.11503065291466841, 0.24839662083110944, -0.02393096072898078, -0.05127706385678887, 0.023801926481968487, -0.2093905846937455, 0.028044468723975053, -0.011766193996751382, -0.010167335187384174, 0.012407767049220357, 0.0709158230993037, -0.008982476289637048, 0.12617382349602055, -0.014308597357179815, -0.07550656049041511, 0.10773445456219138, -0.06561756943668987, 0.043245960554732364, 0.04536456716587343, -0.05134622850940963, -0.012048886790672193, -0.10245911037527516, -0.15091408721175653, -0.10830291858996487, 0.01724130095307051, 0.15877211673301458], [0.28405634364420823, -0.12022716273322992, 0.10575055750217735, -0.018988013931551063, 0.03393494591071581, -0.13152542044487717, 0.04242888644288637, -0.028715313819840965, -0.08275699967745004, 0.16372474739066467, 0.21437983816652004, -0.018113307867348764, 0.07705978641867572, -0.11070785728865168, -0.07254631485357653, 0.06516727394462778, -0.16511901267030732, -0.23458972859628116, 0.07949961632354006, -0.08088412757293745, -0.13349766105459074, -0.12558041758534344, -0.1344248744314413, -0.05819496510425212, 0.10094910832999478, 0.06169872596733601, 0.11436665877989916, 0.16499808110336217, -0.04401759306334412, 0.009356594270546914, 0.1028982092422079, -0.0362657756492079, -0.17161673389346047, -0.05298202794053611, -0.11333841758960883, -0.018953867978173642, -0.1488874882280446, -0.08399018078411016, -0.013677578478648611, -0.03614650181562606, -0.00912475030279263, 0.09175063636772629, -0.008130372245920867, -0.07376909339437282, -0.1283642118641913, -0.13510305638247042, -0.013829532003389608, 0.07725068544662735, -0.007338143838231413, -0.06276647663675708, -0.029789505528144297, 0.2099121418621401, -0.1252705587630416, 0.01809013357761177, 0.0794189682375549, -0.0021884484869480435, -0.05101975072896686, -0.0026071390138323533, 0.0735524698746317, -0.02159142462488549, -0.03613102171115987, -0.15968285291811132, 0.06816553998060644, -0.011592406252041781, -0.12524725305665502, -0.020840601884073454, 0.09100596429735502, -0.01955422466676099, 0.01539371935896014, 0.11775922935513557, 0.237906665640944, 0.040222980700966235, -0.1133633040391332, -0.03179084464661239, -0.0385185574823407, 0.05765625694374125, 0.22391410408814738, 0.11700472822490163, -0.004935812635519752, 0.12113771574777321, 0.02683109932251604, -0.0063888015426709676, -0.013570282482988827, 0.06615482858108016, 0.2529707591788334, 0.07903034729433299, 0.04556739447349009, 0.16390550498138884, -0.046407605202874985, -0.09985233513437182, -0.09281538852242789, 0.07746516898973636, -0.07037001211275125, 0.10123661473675488, -0.042031277855146466, 0.012761552281512876, -0.05700014823626698, -0.0581010857005559, -0.025809264176980186, 0.13186976411149043, -0.1969994930199591, -0.017075114760325694, -0.23507541184752798, 0.0924313616981885, -0.11524922348035438, 0.004203352762623735, -0.17082824183798262, 0.22442634462209665, -0.03147622581093737, -0.20388914939546665, -0.1280677484341056, -0.006597261284080756, 0.09149691909709061, 0.14249818125887054, -0.025240851234408092, -0.17882961999249214, 0.11596008098503718, 0.001050024585605408, -0.21635531587255105, 0.1330603820252103, -0.013527150217406393, -0.050104411845852896, -0.17689187242275053, 0.12769939323937854, -0.008025988486991696, 0.03997012226809617, -0.13132757923530589, -0.03532060694745443], [0.05468846182663139, 0.0782592269585907, -0.10559612974847953, 0.02774039957165893, -0.07918429787717926, -0.12033043362254214, -0.10279610582342119, -0.048056968044921836, -0.12707852853145776, 0.08465917467857012, -0.028764500500369557, -0.04308630253379967, 0.03460301500878917, 0.12513629707199772, 0.038870769179888805, -0.03503903470625829, 0.10973754408787416, 0.10589330323231719, -0.13537703000907, -0.14469800356067358, 0.08450642561600737, 0.11178015688694476, -0.014623561801695882, 0.012218554499083885, 0.02593466372869535, -0.03494389754583942, -0.1790735946051446, -0.1707008967349185, -0.03864539867566111, 0.09669898914637383, 0.22486339455561125, -0.052033887505657156, -0.0010053810839621101, -0.1536864996002667, -0.02024061109095235, 0.22346424784054386, -0.04941784917227999, 0.12005149002280642, -0.016077333195664983, -0.016911014028653772, 0.16811460704373907, -0.11784809692466028, 0.16315710741872957, -0.18991594449771096, 0.07725383373656086, -0.11196385257839508, 0.03633400384619556, 0.02170508174329838, -0.29420304979729045, 0.10134868920973594, -0.016773687568148492, -0.0021320014801328546, -0.007003899683810499, 0.013164094766642587, 0.025693105695921092, 0.07434033014550784, 0.04006990984904741, 0.03267961310606723, -0.027228634447876772, -0.058672836779624975, -0.06769774085876612, -0.017371054124285322, 0.026750680955723423, -0.02351751692141967, -0.08533874936574178, -0.2675997847664484, 0.07774388463560379, -0.14006272385789262, -0.020117813076791637, -0.22420841832813948, 0.03118918878298098, 0.13169962103836444, 0.08487456027915564, -0.031162124272377086, -0.07149843250191139, 0.1392580323257774, 0.07999662143921094, 0.15802466145638305, -0.020362275641206577, -0.07507119348494094, 0.023542084431086983, 0.08224206347131024, 0.003935445094255769, 0.19520397437448908, -0.07958710412174919, 0.059306796014473376, 0.021013965617706173, -0.13189001342954013, -0.06556401079762167, -0.00853479556421969, 0.13398075477006663, -0.06950395139961064, 0.12268985415908569, 0.004677256177033778, -0.0640982324763465, 0.04993195295071396, 0.1497612658132706, 0.06388222380898136, -0.09088145819865885, -0.09489579552879962, 0.16149357104805653, 0.03288213884290156, 0.005652927660287721, 0.12099552595961921, -0.03222273179712616, 0.11901224520690977, 0.05664451386200023, -0.03548272176694961, -0.13144612481134704, -0.08487943885702043, 0.03641714380172916, -0.05447122600674073, -0.03395225155280556, 0.18025711008184447, -0.09436365663376788, 0.0485390704790882, -0.03588630530694371, -0.13406600687648665, 0.1014415351256522, -0.0288983876656157, 0.11053771288751878, 0.011283912679475719, -0.09909147919117225, 0.09603069754342458, -0.0892213494295218, -0.14946689173909988, -0.19284809161845137, 0.029849197991173682], [-0.09754114668840429, 0.025663784394657288, -0.05767062769036729, 0.16982573330381145, -0.09520640322941828, 0.04365596792596432, 0.011422382011784965, 0.056139438948054246, -0.038704362137442966, 0.03633759059084115, -0.10307190661709656, -0.0668682549478597, -0.015940510434512625, 0.05426407742474708, -0.027760476988916805, -0.12597770522086205, 0.007026321124332173, -0.08704592141363998, -0.10939148298422181, -0.08427588241219967, 0.22951722801162502, -0.1021107291895328, -0.01766637407668218, -0.15139084622550733, 0.09872285806825436, -0.01070538794952263, 0.016336999272415092, 0.00922299438848257, 0.17105591110156457, -0.18588619745729335, 0.002349169991179698, -0.02704177244510947, -0.01302459162022198, -0.037356858363034776, -0.04474389405136815, -0.15079972010182752, -0.020846119298235585, -0.028987182640917087, -0.08508233949464275, 0.10318267199051344, 0.02221329060033715, 0.06299192825580845, 0.14093378393923006, -0.013639667462443624, 0.11809432264717064, -0.19335491049117526, 0.029971091182752197, 0.20963378607219296, 0.16532932782031684, -0.0815278690555937, -0.14448008366220064, -0.006487158520125275, 0.16009171348566903, -0.010178493352991383, 0.008049979032673755, -0.035482536731117564, 0.07178787810830296, -0.015465575015524055, -0.022438024952706227, 0.17380201024261094, -0.04083403591701345, -0.08262744184297585, 0.14972248846104402, -0.02993746763626138, 0.02281916282849221, -0.10651463715866369, 0.06803592844573034, 0.04508518662045788, 0.253737275720147, -0.1418265709827371, -0.034179309510227046, 0.06625796352789158, -0.1802726395313379, -0.11262480009700078, -0.12254403524831922, -0.11771382565124694, -0.10363385728460392, 0.04831141590762955, 0.17371980065673273, 0.056532761093721774, 0.006512326473771183, 0.17940558930819467, 0.014916399239210332, -0.07961497514783031, -0.02434951439926053, -0.03417675102940418, 0.13468850824488945, -0.04286922876637737, 0.07381817816176696, 0.004697882196028039, -0.004122727955288147, 0.1430117822133962, -0.010336512179297663, -0.036468064630809, 0.04177351280812138, -0.24516044085381816, -0.02160442874748636, 0.054545595499273875, 0.05448823738498453, 0.07279617384436389, 0.032180765484575755, 0.06333383179227842, -0.07156241348384663, -0.19324485167920002, -0.07539633676221487, -0.03708599907007914, 0.03889170571906355, -0.011500834701080162, 0.15537137132764803, -0.1941747984836668, 0.022313751292955788, 0.09498541192425397, -0.08836570553068424, -0.1474507470151716, -0.09733197773615718, -0.01863107213822426, 0.019938812351531856, 0.017672904785494346, 0.12676669106953503, -0.024326867151366345, -0.0839742586852902, -0.04622422515928857, -0.032684890356224815, -0.10724397654194803, 0.16344768022346004, 0.005365531322399638, -0.19231166197839142, 0.0170646321733318], [0.09022594984623797, -0.04236343686568611, 0.03195605423550264, 0.35416565158241803, -0.04726581581946404, 0.05077834691280541, 0.029055334053533794, -0.06933010919295328, -0.17463622669454265, -0.006856134060082483, -0.03443398787008755, 0.1585496785934961, 0.2496199016949494, 0.06630331133392313, 0.09581128031878391, -0.06300681412339952, 0.16357909959666958, -0.10801049818968297, 0.09207667860423976, -0.07183713373283314, -0.043192291099428466, -0.0858440452321968, -0.19405087345504643, 0.22227025206226306, 0.10044830056654583, 0.1293925848870893, -0.007060282256450156, 0.07228838888885923, 0.08715168827713968, -0.1063559213526359, 0.18978827898627046, -0.15006077977730195, -0.07225629509210264, 0.040016137339936406, 0.028435886979737895, 0.06894305934924508, 0.03978953984111404, 0.11425315474148086, -0.0894504019245013, 0.002702632080026605, -0.027234933167053145, -0.12615370506860904, -0.022220256624620616, 0.056294255595130724, 0.1303074580089746, -0.007027634292584335, -0.23858804178458992, -0.01074972193521538, 0.07215676636173608, -0.08903102601732447, -0.10598332077105697, -0.15207236767323074, -0.014913979270028792, 0.04032640302838009, -0.05725377579082926, -0.0694052274399877, -0.007566390737833945, -0.06011107627304538, 0.09933656449956285, 0.08571009930912096, 0.007065497018091959, 0.029446925045997812, -0.18521539358354022, 0.11806014626799002, -0.08284139295593401, -0.05951406190720599, 0.28716639889659207, -0.06269254211193076, 0.1732423017846442, 0.038402222501425366, 0.023218894371113057, -0.0047513748818578845, 0.07186741450115698, 0.06391477678451711, 0.033046353742030715, 0.06121072386765254, -0.18098490435617057, -0.011456882955490874, -0.01610416661135123, -0.04015235604465458, 0.04359428276953509, 0.050523697530234994, 0.027514145406596413, -0.16562800401124986, -0.23684633508789313, 0.07303217302642369, -0.08314987023180173, 0.2871940165031418, 0.09674630338421411, -0.14375232576476535, 0.04277742445923001, 0.09274927838867215, -0.029265492648371152, 0.0787952518300107, 0.13599024248769884, 0.10394206797067726, -0.221753930493506, 0.1174985932623033, -0.1814217144951283, -0.0007663544758329042, -0.03369009525482334, 0.10061591671394549, 0.054649349059134704, -0.09193124818628527, 0.059910109875607784, 0.11653206764557303, 0.03716548464575506, -0.078867549847254, -0.1399372960102524, 0.07883657961784031, 0.017195617682234095, 0.054189978431118654, 0.12986953993638514, 0.07040909133787637, 0.02904868241607477, -0.10994611244649813, 0.015349727951925178, -0.12694527223300728, -0.05149192472528769, 0.02561599641373008, -0.0873520682296414, -0.07506004090293308, -0.09909602725646832, -0.1179994935976289, 0.2063614117006086, -0.002990195537441772, 0.17410602668774328, -0.033421216189412246], [-0.0481156161065351, -0.2374469751453206, -0.008312950140451495, 0.2644615713431829, -0.041018540081753485, 0.12459039605959393, 5.5895496444904025e-05, 0.0240621262924807, -0.1948493813906534, 0.12462939204361409, -0.0622071862824664, -0.14640293742958516, 0.11514316008036167, -0.035761463021592, -0.05977989961385269, -0.18896704844908196, 0.015544518277280393, 0.059152373348189645, 0.041755969946263634, 0.1763733150671923, 0.1079211957746769, -0.026795693679156754, -0.1735495673162851, 0.1854347301137338, -0.12236180671463719, 0.0729025076963372, -0.18924860125578605, -0.03404965401707282, 0.11336119424155011, 0.010339928321619868, 0.02461271045698679, 0.04513554312653175, 0.14484619497687193, -0.00530627882391093, 0.10009904225248667, -0.057403360611546564, 0.09518358766905173, 0.0384117125956787, -0.15385945576393198, -0.19034613557578278, 0.03302199663345112, 0.19161837780064483, 0.03368902076871722, -0.23205811242359176, -0.15581548821255223, -0.1059242818500168, -0.08596949778025004, -0.11158842008288378, 0.05476201172741366, 0.037932708639166195, -0.10685790554010013, -0.13362649199268506, 0.0689837463019683, -0.21725502920494472, 0.08137252492269355, -0.05927229868317004, -0.13869847536819527, -0.20268288579530286, 0.14831162051072835, -0.03796465827877234, -0.0583122556256011, 0.13122379131922912, -0.1882497414106224, 0.10369945000522801, 0.014771798601293159, -0.1589776849337956, 0.12002372666327084, -0.2419754929616139, -0.04942387113830599, -0.02061122419847383, 0.15094037749334108, -0.008607060490573503, -0.05893957376794062, 0.04317303126150414, -0.1287787385420139, -0.05699125425007397, 0.006124754626547172, -0.03858298680420866, 0.025667981374857502, 0.045548853438552736, 0.10020633160758632, 0.1761772227074706, 0.16350749692228334, 0.22324696274119712, 0.02195549121827041, 0.01970775961159584, -0.13007751337754994, 0.07491070567249185, -0.000154255379180173, -0.07189157793135968, 0.2068350631168834, 0.05148027219213069, -0.23091105791996125, 0.12203437429178572, 0.06680447390733237, -0.25230118252732636, -0.045876004067927634, -0.04498283336766967, 0.07310904134154482, 0.07208484036576801, 0.046575534910170406, -0.0182609083286601, -0.03207659769938515, -0.2930903780698555, 0.19598701493826187, -0.04552244724455847, -0.09564222689052665, -0.07017136518590811, 0.07777040308270945, -0.25881316036582425, -0.015561681189974481, 0.22704497681813565, 0.05763083552377943, 0.0809434968735015, 0.13854000417444629, -0.0034989232293612814, -0.028895805606564785, 0.12052039512552162, 0.015766418247518982, 0.050240214957869414, -0.12088871749219772, -0.11296839535483108, 0.08630356312084973, -0.06256340118606415, -0.012686988275237954, -0.1406055669167693, 0.06291988381645398, -0.06309861087865735], [-0.0054747067132102515, -0.06175116148336736, -0.12707035874493497, 0.06398699011531267, 0.1108276819696764, 0.09908441789133267, -0.026674055733706372, -0.08684208324676695, 0.046097985484019686, 0.03788962880704155, 0.020106961466577717, -0.09499187202722308, 0.08039154864853283, -0.11950925980844891, -0.11390767931016837, -0.03613607158350352, 0.14348128405214114, -0.25108712471481137, 0.025088819410319253, -0.0188073329505618, 0.11647745952284094, 0.04907080181863791, -0.20382198903677445, -0.05165830514582543, 0.10200299469955998, -0.061107105777894334, 0.0588629398482155, 0.0024058001367835515, -0.050148102381608765, -0.11185218341161698, -0.12012513913606289, 0.1857802495949787, 0.06513956171038963, -0.04294434519762714, 0.3043656516075967, 0.16732082868654133, 0.10173561111533529, 0.25374983890034, -0.16344819609822078, -0.10584276258191455, 0.054512427876466776, -0.020046684301351037, 0.16939676338952436, -0.042231222692257424, 0.04330679867257774, 0.0035620296760900424, -0.09855799719593467, -0.09762897721091204, -0.0022903152520915996, 0.01828411129826464, 0.046031752179501596, -0.20971017091863492, -0.11611922416331853, -0.14064751720661206, -0.038522082586801294, -0.03367377955559, -0.049531877590830845, -0.1445216177019803, 0.1631134568275526, -0.09449264421912093, -0.0032779593886371355, -0.08354069901547824, -0.05029151071617019, 0.03352421485437338, 0.1698239769156746, -0.2091596022632658, 0.04270385558806899, -0.057287107559406074, 0.11839713905676096, -0.07926916286766626, 0.2848739311288112, -0.09998232730442977, 0.027604889139795696, -0.02902115346341322, 0.13897766803961673, 0.012086441183109243, 0.008513213518590062, 0.001771495388380705, -0.1348653918044971, 0.12008178339167792, -0.004435850024599004, -0.14792729892540554, 0.04874930361660958, -0.09150022309295566, -0.09667831288493665, 0.011455959605299085, -0.13431444170938323, 0.0860199143194385, -0.10361811964925773, -0.08773478626171462, 0.14280101908708312, 0.09657577381387768, -0.11960988212921499, 0.022027291045963605, 0.008062807059951027, -0.038050995890071965, 0.01076992385395589, -0.12155211241890146, -0.030074900359227514, 0.14850684504464282, 0.027282657482516404, -0.09390740445082195, 0.06732006463521592, -0.05030077733429499, 0.13468654152858212, -0.05554141901116194, -0.09544396235036733, 0.08390580465811276, 0.10572741002318597, -0.28204377985848933, -0.09374063007125022, 0.02078018891917655, 0.07027195387647568, 0.09392511857417414, -0.04819042478297446, 0.12216371682550504, 0.08116684336688121, -0.029655604639832685, 0.21908848755658114, -0.13538006673591174, -0.09113199685763247, 0.13069642587281932, -0.19113047733491306, 0.14882359883056864, 0.1818745964096606, 0.07778203807597228, -0.03863282526024152, -0.17597190701898582], [-0.11463909905808387, -0.337102775282932, 0.060770952472060505, -0.06311107810756791, -0.09801310578571153, 0.12334604703126036, 0.11582193465182125, -0.08830574023039069, 0.15061299423083052, 0.08750690588973581, 0.04990284251246565, 0.33701450440493014, 0.30035724747405046, 