model = [{"layer": {"type": "Dense", "weights": [[-0.16918788067875698, -0.050227636160536174, -0.19239066174645522, 0.060927969344978794, 0.22011794460451464, -0.11421933482647487, 0.06933322912617461, -0.026056276084597676, 0.09004752258580123, 0.012929834328409925, -0.14661371388067446, 0.08762570830960426, 0.12015907735617677, 0.08970455766358083, -0.05836763881142139, -0.08374031890650385, 0.07894593285136274, 0.003748336665620341, -0.08461258638208094, 0.15131301280365994, 0.20394808782425777, -0.10966188000632043, 0.023406774028605297, 0.11062655068119379, 0.10192147062151946, 0.12333225852707158, -0.11812845742245288, 0.11324526721707405, -0.20449843654372515, 0.09391254335262393, 0.09657948722479681, -0.0797197450660074, 0.17863390402858267, -0.03423432126611072, 0.10486483784811718, 0.09914575214777216, 0.10719924527757461, 0.06297972066002981, -0.0026383436295079133, 0.03484201098280689, 0.08632472981652242, 0.10133220172808065, 0.0233209882830072, -0.15482216971768573, 0.2429028956115663, -0.0014907632773684155, 0.13549829305579716, -0.1796278503660671, -0.09812685236380729, 0.1720842301762248, 0.07245846738495591, 0.10270736426725376, -0.008797380688482556, -0.12356840119456265, 0.01619177649336216, -0.11133491403879313, 0.03785074888115998, 0.18003478110412613, -0.0061013395751700165, 0.01943977432880812, 0.0864386958273365, 0.12764883897856177, 0.0017250190279571706, 0.006988997021831318, -0.16894802468499098, -0.004973104079360938, 0.051031096149652726, 0.012870971102690025, -0.03442967465982663, 0.08201833470312835, -0.029099166807629747, 0.09531015450995142, 0.05016204619748091, 0.06786571422508945, -0.040260745999859515, 0.1259900989983739, -0.06650037529057995, 0.06238720922669319, -0.02268699353145813, -0.08050432329059612, 0.11204851426868961, 0.1343219629260883, 0.02479413616997278, -0.11873927852690508, -0.021022490456471664, -0.10789377021046076, -0.0305607037295492, -0.03500956468069949, -0.1740420856657049, 0.021226356214410075, -0.0032491365657263856, -0.06798393917033958, -0.039049060221406084, 0.09548851206426096, 0.14373621333007028, -0.05314699268966684, 0.05118924777755268, 0.07583487908320637, -0.10750095928899223, 0.14701983304408556, -0.04918799152040282, -0.11394320276331271, 0.07051987050173368, -0.03174978279593842, 0.16444948834855316, -0.04963688482348935, -0.1203925931843519, 0.045210817859607504, 0.021679749360432665, -0.06731535201764664, -0.16183856773317923, 0.10050986221197021, 0.09839067752386373, -0.17221537638717, -0.05662552756334489, -0.17826103527685053, -0.07186358550507359, -0.07095220071160993, 0.1492546925177968, -0.038194883699505376, 0.026244382660590704, 0.03819629674524139, 0.04947461159815326, 0.08425193642862201, -0.07075110196263465, 0.1525581805278703, 0.04662517916250577, -0.00889201595021262], [0.0024701448037448724, 0.020793138940851566, -0.07949345736592255, 0.08987360734253638, 0.09869848716575838, 0.02302128115726312, -0.03359613758892151, -0.19562028912802332, -0.026329168369686948, -0.05490843496429022, -0.0162550127861908, 0.08063477831601724, 0.18645473432426432, -0.11183629059865477, -0.09352376259337253, -0.0063757930682435335, -0.16561976425176173, -0.032945324131378156, 0.09808535768363746, 0.16214652700763313, -0.06071002448223298, -0.016369901925595832, -0.17141131253025668, -0.05241346537347263, 0.06809659403765303, 0.05521083104060859, -0.11115322500201424, 0.0578853565997802, 0.12935124031293296, 0.03299704596410529, 0.008729822690543813, -0.15006761852380213, -0.1069771924482474, 0.029655401174185136, 0.22070355085693577, 0.10054155735317716, -0.09228417281595208, -0.10898073312053957, 0.060212765156074766, 0.07825478926306717, 0.0661589299817883, 0.029241641982404355, -0.0406701123633755, -0.03956514150268339, 0.016878182727767376, 0.06281845285512698, -0.001326830937092884, 0.1347216812811912, -0.02583964429876558, -0.23137622543537134, -0.037610718812772906, -0.07008251521224772, 0.20617602318396058, 0.03923136176592001, 0.14090462905511367, 0.1479891463833192, 0.032952363325182414, 0.14827951627306832, 0.05403273272138679, -0.03395866813895534, 0.1007664564648485, 0.0018822926739459783, 0.14912680338964923, 0.03453424311717112, -0.15806364553859986, -0.19840306936560492, 0.020403880974290467, 0.10885069111086405, 0.18156652589534386, -0.03645462041365044, -0.05012351507790291, -0.082679321747856, -0.026381543678108483, 0.07566256596837626, 0.02279105722645111, 0.042736169472884736, 0.00788998438491447, 0.268033472461228, -0.048482950929027, -0.10773350000699232, -0.07490260902666923, 0.01307744544507441, -0.131307842361617, 0.004922384735741303, 0.14126171455309036, -0.027568533603807233, 0.15372878098889833, 0.12954438442196944, 0.08842271587568737, 0.039874933750281144, -0.01528987073104629, -0.21231376769718252, 0.008335825086659705, 0.11298733732565425, -0.03207927659736962, -0.13023334340720574, 0.039085317680378755, 0.04088875803050299, -0.004767931720605688, -0.03801112486680976, 0.06572778670358755, -0.023195489229095093, 0.07330816934196098, 0.11834717904471753, -0.10117997637839225, 0.11927929902084558, 0.009793480659045223, -0.0039016041227440193, 0.035109697789482246, -0.052103126692423334, -0.10435892412861417, -0.1056472168244031, -0.1638794369518095, -0.17117969093254906, 0.06257112993984582, -0.1741687017323107, -0.09964834318013806, 0.042391240189051965, 0.03901042779616617, -0.10856339860031786, -0.14859687188834622, 0.0031736300348799056, -0.08652714121248645, 0.21803899034572122, 0.026384673664183712, 0.018534446728521524, -0.05388542023400625, -0.06059728555607853], [0.1459774651987051, 0.05611989087004923, 0.17240289751465, 0.00445576349391611, 0.11175046245993668, 0.021182523456160906, -0.12915315509112263, 0.04544575163892817, -0.019227449147443287, -0.02951352235857779, 0.05348214740273238, 0.08215768283112672, 0.1510908568632169, -0.07380111685004312, -0.05451752666740022, -0.017371902940925128, -0.18333855410933, -0.07208255846914281, -0.05773293302384841, 0.023822169846195687, 0.004803818463113803, -0.057101674330490695, -0.00690536975486704, -0.030653868926888442, -0.09633231077642002, -0.12888612459681897, -0.3334993771394566, -0.07789895563451653, 0.04644877456951499, 0.0007136481134220505, -0.08846681354848947, -0.06432484375824529, -0.11395016078135317, -0.09703651213365458, 0.04245529665729253, -0.10665003412162018, -0.19368057280587903, -0.1511926136961506, 0.0456199474481718, -0.021032964168300902, -0.07726775141287967, 0.04880272555421811, -0.011086604186976814, 0.10949542447234857, -0.13043829497715173, -0.1250415092407204, 0.04857225884487005, -0.05408571933121821, 0.11104385952000242, 0.012300342253463799, 0.0648570212857993, 0.037017494033073826, -0.10992457004714058, -0.2679487082072668, 0.10138339138016661, -0.018520428735943176, 0.03046800023402557, -0.03836508213610423, 0.15627148306452104, -0.07790937793799424, 0.13860171144880903, 0.019842011606228657, -0.04620048435971197, 0.1460521924474953, -0.027209433771379462, 0.12889693930612786, -0.08096069154265714, -0.08449346689880241, 0.010451245297742265, -0.04309970739584642, -0.22713187692914355, -0.023090635395765693, -0.0030804241474141156, -0.09756018332371505, 0.09993482195953313, -0.06881073027981047, -0.05209274277740427, -0.03661132459263925, -0.017257219342232944, -0.1606891772910476, -0.14584514631756337, 0.0033552134915697095, 0.03491017105619831, -0.03592253500052461, 0.12443244780174319, -0.04366253970269457, -0.08928299111834846, -0.02757532238316391, 0.05193310167361788, 0.1589216527018561, -0.05330729588056036, 0.18006877158944454, -0.03810366619338048, -0.01639361945853157, 0.005840073508874669, -0.016337257855851734, 0.013448668493981509, -0.003211453840728288, -0.014899884253668417, 0.05444531142769221, -0.09120343525109753, -0.04839972538077547, 0.03956561602438139, -0.005306290164010607, -0.0046670372285866546, -0.05174473300065984, 0.04732854645791772, -0.04461012856811799, 0.042650526584727906, -0.13534148187550607, 0.014682974632877828, 0.045277834157229635, -0.02865478914239187, 0.1258012022629653, -0.24625527058129537, -0.13823328131080545, -0.04052758453185826, 0.02236405196720967, -0.06034961545443776, -0.039706248421386356, -0.00030282332615817433, 0.1337687471971085, 0.03892997952101886, -0.14576799894901776, 0.046699468307498784, 0.05267828621523744, 0.022909012084021383, 0.1739861792212674], [0.16812288693451338, 0.027005180521686337, -0.040917330665169296, 0.05485685672896932, -0.07777093369619124, 0.07196379304754721, -0.03170489191629797, 0.10313247517569285, 0.028246910758616586, -0.07070817594362393, 0.3012096245179765, -0.04920948922423948, -0.18984313671227154, -0.17921443537253437, 0.03041905421669637, 0.015607608161613102, 0.0858930798084026, 0.016961330491855147, 0.046826332815967577, -0.02955155380865972, 0.01960168340760797, -0.09307238676981512, -0.005266058267105121, 0.22239569061770326, -0.022216328297958245, -0.050740411759849335, 0.05110987522614418, 0.014177840468999413, 0.03057980775574838, -0.04293400627412097, -0.06051975106624376, -0.011556212954118157, 0.16195382018881868, -0.04693506399545666, -0.031000459862044572, -0.12804874777476077, -0.10239850142394674, -0.13561408072227338, 0.04666832469960796, -0.11212859667872735, -0.12335767383550085, 0.19160191036336885, -0.23074000323477395, -0.10494621761050218, 0.04928780496088212, -0.21688778525930222, -0.007718264814814077, 0.022932675243212835, -0.09294144487480932, -0.006055524256804341, -0.03262072486638986, 0.139033739412007, 0.10890816705865501, -0.13356897621494876, 0.023355742273625912, -0.034069352256346504, -0.1233766815975155, 0.03192260030901547, -0.0019118996886844748, -0.1254742951408724, -0.02870888228214384, 0.04828675653303699, -0.10897603756667203, 0.06174688065231848, 0.08285093537580329, 0.02789892131416153, 0.1373062241233616, 0.02301392005675617, -0.07137744216130919, -0.002266464159220441, -0.09234715703503943, -0.0662808883887087, -0.02555693306779403, -0.030800925462698428, -0.09293401238770653, 0.02109300822368224, -0.21786715112921937, -0.1533400375528608, -0.09621921074179776, -0.0626638228558739, -0.16258382839343744, -0.03884857769006711, 0.043560768168039034, 0.008893419968495197, -0.07910401045517841, 0.05122461245556488, 0.03342360578891665, 0.06101415718389508, -0.1281016002237508, 0.01353391869615344, -5.70673815621334e-05, 0.12851296188573735, 0.19260952300688164, 0.12832928948598393, -0.12942575192748762, 0.20961070908884466, -0.002616959706359291, -0.08879160071177973, 0.11017497594059816, -0.003538042803888759, -0.24338618769423911, -0.1254283798008161, -0.08305366035942847, -0.004853546370265549, 0.07532674268829442, -0.016627840767422446, -0.15917448954309843, 0.07584005549695537, 0.11907869690593305, -0.06026202797582353, 0.012629537511458356, 0.04442281842137563, 0.005343482744690907, -0.09032798383980135, -0.06664263150207161, 0.08324657616744052, 0.1683719200970243, 0.026375371752444605, -0.016352848020892537, -0.10657221283386123, -0.05836191411232893, -0.1446600093721164, -0.01849657377449146, 0.15258081248218194, 0.004788170136368053, 0.07779583832026109, -0.008472570033834342, -0.06723834580553338], [-0.03223480398730103, -0.1372460330902707, -0.0030989000043205265, -0.14874147515597466, 0.00016171046021475427, 0.03144832721776141, 0.08327828511551531, 0.05363746634647154, -0.14246339689978021, 0.20911321843935832, 0.12100062271213081, 0.05785379645988832, -0.0467213847539999, 0.04442842075804016, 0.04679512791977586, 0.08789121143357798, 0.0033818189988486405, 0.17963947927212454, 0.040236135333753545, -0.017666435923157732, 0.02343193415120504, 0.05280556273696997, 0.004716106116663973, -0.06625028120468765, 0.05934987330987112, -0.06956986553711995, 0.06426615008284543, -0.15563837422729865, 0.059584515203025074, -0.10480146054062259, -0.02827724264515309, 0.06675495208619843, 0.035067827293499734, 0.01856212552911622, -0.028740589116509604, 0.009816734630795687, -0.033940722534149884, 0.02527428514746596, -0.06701473605730349, -0.1339142121549388, -0.0381468625773684, 0.006907027627597504, 0.060119351883952954, 0.1071105795430531, 0.043916408591424955, -0.048118199452532165, 0.02383837922283192, 0.07276971791504747, -0.12882138182918484, 0.2217958864726772, 0.028845633045991238, -0.04568775517221875, -0.07492145981768325, 0.06485463983948934, -0.06171624476281154, 0.05933076642215285, 0.14682375442162718, 0.04375450960729368, -0.11083734866642328, 0.05620021132739135, -0.17801428809753875, -0.006173645638691661, -0.13067567929328322, -0.004486639788454049, -0.12072507849805242, 0.04102417147498591, 0.14396105087506142, 0.06717224132555426, 0.09836080060520822, -0.02479920986646709, 0.08141672732400951, 0.038398255132354314, 0.17930983876085033, 0.05740465912280788, -0.01926193329735712, 0.019364561945700905, 0.12804337894453918, -0.0818203168036681, 0.03042947587310604, -0.028237084331191094, 0.129636480991388, 0.0938436601706727, -0.0642871011508, -0.15422311480404702, -0.09573637632220554, -0.10413101167483772, 0.0162812148845423, 0.03141841246867386, 0.14437793404237834, 0.11019814373531972, -0.21408724416315694, -0.11947840679835547, -0.08384635011999414, 0.019388514765905477, -0.03652988489566995, 0.08206494828703503, 0.027831575042074154, 0.08105806504116424, -0.1320521817418937, 0.0897530528735189, -0.026884678731368766, 0.16855859555432584, 0.032997019483744235, 0.04431420911656245, 0.0028575730301056675, 0.015285998227548156, -0.043403162643643266, 0.08168273204924274, -0.0726517869978944, -0.1386619711933784, 0.06330683476157603, -0.020624953475223577, -0.0664147617410965, -0.10579223454945447, -0.11240477032551224, 0.04243120940334705, -0.21045755148171477, -0.20923112728028098, 0.11581128954592756, 0.21498446311151992, 0.055426600153593755, -0.12262281067939873, -0.009837309100028517, 0.046801056789160154, -0.048545439417482336, -0.095744687541639, -0.19315518595545433, -0.025536285348149904], [0.10773630029527166, 0.009827636355417961, 0.16340781787999473, 0.12909808394114497, 0.021287160230381245, 0.1132013309876727, 0.11521488905104932, 0.009031293708660086, 0.05252458504652591, -0.21226892106888298, -0.0004069349669129632, -0.061542170215630146, 0.08811011592460027, 0.15518886333493595, -0.03675485179968445, 0.12436555790313393, 0.0016951392520538418, 0.12469194579912389, -0.20959227495720026, 0.026421130272525573, -0.00027427356249446925, -0.031209526587392147, 0.08223840999474033, 0.05888979875812831, 0.06492364294535662, -0.04487613651878905, 0.13473381418025304, 0.14276123111141176, -0.1285739071392554, -0.01799192237074419, -0.00639903824414486, -0.025871057020623273, -0.19510432977483716, -0.005531047541352402, -0.04281818174419988, -0.012912112411030428, -0.033156514440045574, -0.2860595051952363, 0.03511638127063067, 0.021569266389666733, -0.0072020093498947405, -0.04648211449639215, 0.10780119999170418, 0.12732855253422357, -0.031028181368691572, -0.02506392432593347, 0.15011527744152156, -0.02235370079830881, -0.020082319662283764, 0.13684908955522707, -0.06439122736775506, 0.02703641056830386, 0.07794271351413147, 0.010448514083538526, 0.26481485402159205, -0.1571590388854698, 0.05825936247008587, 0.006274029347678427, 0.06994332082725481, -0.04823806878133141, 0.02100931584812227, -0.16170042415638808, 0.057319593289656204, 0.006822751719484971, 0.003709218404479519, 0.006597527299539183, -0.09805149344004366, -0.10736009125238621, 0.21437470855270735, -0.07358148503638738, -0.07602708229051115, 0.0727050951237825, 0.12537080908603868, 0.03765542918148703, -0.0452070675983047, -0.0023737837804702153, 0.10278818245568543, -0.0221612426674471, 0.10858997007691251, -0.030296523352918173, 0.06248698845669355, -0.07838875221071913, 0.18210598679528173, 0.08053336418739586, -0.04004845670747681, 0.11993593484252063, -0.0586027469907671, -0.034581498471290655, 0.017639352773254686, -0.11383848441214105, 0.010562154489190491, -0.056861759808233325, -0.08489675058177976, -0.028461169955676553, -0.09458375165565935, -0.004654677969221242, -0.07482747021402053, -0.02315680357818864, 0.15880496902460575, 0.11401565494799876, -0.19614994205207126, -0.11317167522493875, -0.04272329478041217, -0.007566118621953805, -0.0905323643825157, -0.1133659754037899, 0.007689017417301687, 0.019598106341633226, 0.07217490003606439, 0.004879049123310158, -0.09388212369718561, -0.2323940389692869, -0.2702468894400783, 0.031275625415148535, -0.2568045645759132, 0.09913524367492135, -0.08682163113430287, -0.04742989198880841, -0.06052400561478484, 0.0889353811143101, -0.047507918793037084, -0.10521492005009403, -0.1293495171956233, -0.04121049736254701, -0.09144160829145898, 0.13043357932231198, 0.05990533847058241, -0.23740382976421712], [-0.017624515562291925, 0.1441422361046213, 0.002713542016090092, -0.14450133324069928, 0.02860395233746297, -0.024017225929195557, 0.11363594314384162, 0.05383402142970181, 0.22448691922594635, 0.05740119951991434, -0.09246244209083876, 0.006007375975254622, -0.07760419183448308, 0.15086555447182023, 0.004861683976398312, 0.001745059616624642, 0.06014113457021947, -0.028120564005758276, -0.08772477023211132, -0.08218085541953724, 0.09308601868251677, -0.012173811233961598, 0.09734824404269625, 0.08545631913164448, -0.018977157538407372, -0.10988268485093722, -0.2363619482253333, -0.0542036433068605, 0.20932533469959452, -0.06021919224995338, -0.1169515271546773, 0.1963242023178592, 0.09466082083036242, -0.12960514491980707, -0.038374860162506574, -0.038044410847810704, 0.23828081614623728, 0.21729193074491449, -0.10494570010101385, 0.08016410969553944, 0.03164822394962429, 0.19201637629566531, -0.051951655103432984, 0.07277757074824796, -0.19622256708077246, 0.025804763357090196, 0.18905868350994823, 0.03478296738241451, -0.026575254152433853, -0.044665565287454884, -0.05457877442682382, 0.00469506899860213, 0.1790243964386098, 0.058442753732186305, -0.0822668506033857, -0.007632026016879572, 0.12856552111423597, -0.022864558450985548, -0.09684432904992396, -0.050538407140897204, -0.1406954183111622, 0.002995422438840168, 0.06689999491439746, 0.09479252318927785, 0.11134313104909868, -0.09820133053200167, -0.007569312387022498, -0.10624556301529008, 0.0645783288450642, 0.0750689369918049, -0.14692751596000053, 0.002869370048864243, 0.04460918661660141, 0.07657901607865439, 0.05771880447612335, 0.10719119329145277, 0.13051287380966478, 0.08041205624258191, 0.009157383904863512, 0.07936977010037018, -0.051395489335224566, -0.14461776748066904, -0.0993312001817232, -0.05657437968359372, -0.0019931510776703865, -0.07002395645205849, 0.08481433945344455, -0.03682436443716537, -0.09530475513858731, 0.20248916910428552, 0.03308943160172818, 0.10688219971226154, 0.05522324004177562, 0.19712737463915045, 0.1979225906467195, -0.11396355181471388, 0.04017905611839025, 0.164533617307609, 0.061690592364978314, -0.047709988035220696, -0.05773145582745677, -0.10794334367130068, -0.10070055976047745, 0.0559379565222506, -0.17512566242984623, -0.12890729189286396, 0.10851301206770458, -0.03461546725581164, 0.030580879852484567, 0.11269675621342252, 0.011473613015922217, 0.19912447355805551, 0.06485025520068073, -0.08914696974583572, -0.03604986628414664, -0.03815421363111485, -0.071621270575881, -0.02162059254762585, -0.05358433064038927, 0.0443909143801042, 0.08551627361569238, 0.03847019054965642, 0.018893855583675647, -0.0010243055605134068, 0.050834370843781465, -0.11528519567027531, 0.016150087272775757, -0.20366325601484087], [0.03300146920012833, 0.07410332039137384, 0.12375398702996701, 0.09108810149493823, 0.1912837785874252, 0.008303112910008285, -0.02920845649587277, -0.05600556450573614, 0.05122577028243202, 0.19576187306463097, 0.11277791115429608, 0.03993776134868701, 0.109230884417159, 0.03949340031231636, -0.1394241609323968, 0.005211384302184585, -0.1130987729628573, 0.01260636057031548, 0.007506264255943811, -0.0933648570929616, 0.10427466074091424, -0.07016017175755178, 0.06585421317494303, 0.13028497744968, 0.05983290787427047, 0.07422438623309478, -0.025694010666719714, 0.1753093911405884, 0.024491294714858298, 0.023380389104165872, 0.012419281293389282, 0.09241442843648885, 0.021274355380029746, -0.06147685258479221, -0.13154144687881406, 0.09207551337076317, -0.0018365628717214016, -0.09085555986169469, -0.0967610449755487, -0.08456570147669466, -0.1186520847015708, 0.1669414229443364, -0.08906360328013874, -0.010358833248711275, -0.022861841897687682, 0.0024702427458783197, -0.09462353662450658, -0.07995945889093466, 0.012217050923943958, -0.019024505710539964, 0.01756131982668858, -0.11236362343064853, -0.016952732178982403, -0.05666476444915637, 0.01237403405018305, 0.06921808288117103, 0.020076982867528702, 0.0032175754981539706, 0.0953394787482425, -0.18482843463389909, 0.15146333461705677, 0.10305161055135424, 0.09011884891481407, -0.059412107566293976, 0.11312475287641613, 0.0005551561243086594, -0.0626183581105286, 0.1635419576064796, 0.14305978999602703, 0.012324897336674422, 0.0013177792006154867, 0.03453375098572195, -0.12213878491871344, 0.09786464349082263, 0.15724814228659492, -0.15596121605300975, 0.045914956431174214, 0.006864446792241446, -0.051823944527401355, -0.010816380659962186, 0.0504869994339814, 0.10010740728163912, -0.0612424906943581, -0.12042344785226877, -0.058439374272491455, -0.13530004774794416, 0.2283737071480998, -0.015330913192936738, -0.12241683190204306, -0.0624438509099995, -0.05825491753151488, 0.194349233560852, 0.011061026378120056, 0.03560927586603853, 0.3017564407897262, -0.034767333935664994, -0.021292286704651064, -0.045902576814030704, -0.10665598594262973, 0.01619842284398732, -0.07757235585609049, 0.21673779908348467, 0.04891945365641045, 0.2200984151584435, 0.06246678457373997, -0.15076889933574195, -0.3013088248815188, -0.06252003078801431, 0.04730261614341273, -0.13542104869209795, -0.1536102542688893, 0.04265084315121125, -0.09605142739386546, -0.07172693235811425, 0.11539344375475108, -0.074151843842242, -0.06715269343524358, -0.07391350112588312, 0.039048405675957104, 0.08610765856073721, 0.030213884120904172, 0.11739544424755435, -0.22028274959422572, 0.001818324030115258, 0.014481065746283925, 0.0228839107231794, -0.005891993199710144, 0.055786701895286984], [-0.03388351100189236, -0.1165250861174687, 0.009904919936296106, -0.05362869505529533, -0.15707272586283974, 0.22770769194328802, -0.22601994364522132, 0.06592615790066894, 0.009486937224036346, -0.0027898163713183967, -0.026950515866204863, 0.07575325376103317, -0.04286646834495192, -0.12522043230615285, 0.19282682723475608, -0.01798929805699669, -0.015129819898190684, 0.06413291688892508, -0.06836730679685978, -0.021821164472219934, 0.1751975670793205, -0.02556903601893957, -0.13774017447727935, -0.01984752153523839, -0.22379248107942337, 0.08981526494711421, 0.0243613345625914, -0.0696301481012305, 0.14681555696120382, 0.008840871034792665, 0.11411310469611465, -0.012215833717424412, -0.17464295057987808, -0.1005537864832298, -0.15400671207101346, -0.005125716783959466, -0.026667903936028733, -0.05767944499382214, 0.005492546161027145, -0.07395117977035057, -0.03322780495134283, 0.08297694307954384, 0.02847294899996848, 0.02585779164255818, -0.015157155550874725, 0.09777307503748417, 0.17456028181484307, 0.03685743345734096, 0.016729359171528606, -0.09682199081594538, -0.17948464944199483, -0.09219813886867995, 0.027291782160329188, -0.10831218823544615, -0.0469017752306732, 0.028864056992159194, -0.0007266576467395345, -0.11736348551370264, 0.006694937528804039, -0.044264213801964714, -0.035529424456246454, -0.01703772080141501, 0.2577736880033137, 0.10585732081977872, -0.05338473224346443, 0.1862141374689141, 0.13963525146099087, -0.025541838204398055, 0.08994561775025935, -0.02429644151725019, 0.06827872504033394, -0.05827878950044721, -0.021000739721693355, -0.0651326547189816, 0.02869301363707696, 0.014082871391504471, 0.12599145522731225, -0.050566978842914, -0.06837629910452624, 0.007422528877618856, 0.018859540751725624, 0.10304633377650302, 0.11761172252809189, 0.026616150025818783, 0.1054914638992594, -0.07528586035473848, -0.05070281540377441, 0.1376686136075766, -0.06581801578638229, -0.07595295878179194, -0.025906130245250143, -0.09148426050373652, 0.08560507592633604, -0.0172520593652979, -0.04482648355262654, -0.08309397530675156, -0.09802527989562237, 0.15958294628195954, 0.0506084081352312, -0.06860564056708235, 0.21035058130143003, -0.031345365413009786, 0.06733688912807394, -0.052201284806014006, 0.11795368222393612, 0.03189594015954227, 0.11354382417132569, 0.025060251935571345, 0.08764816337242826, 0.10960394966143974, 0.05228033074432279, -0.018379855618149095, -0.029148788437187864, -0.06439244254459824, 0.031301837115782584, -0.11366652488135952, -0.11036177560919616, 0.0667084196682319, 0.12295912577698526, 0.015504035984061283, -0.06600141886226972, -0.121212326238482, 0.05880139927813832, -0.1122705419903449, 0.10697201343586704, -0.13452357345248442, -0.06283158010349953, 0.01743143250564122], [-0.12693861713845203, 0.03151731527468867, 0.02109569183090161, -0.18512549817334634, 0.07254529978868128, -0.13331582796480784, 0.24765301621519856, 0.02675905206281311, 0.04790370758803266, -0.009416152770059244, -0.028404003760388898, 0.07653467393657662, -0.16938172990042802, 0.001378611973876944, 0.07188752805077674, 0.07922270843134332, -0.12541305455701132, 0.03023588495477182, -0.0070661247488565644, -0.04643279560783434, -4.769805246974771e-05, 0.19317603904031133, 0.10039771676100112, -0.1038082175743851, 0.020769498831810645, 0.10192105380567258, -0.08332538345058162, 0.030313705818442335, 0.024556860790363386, 0.044315775493348815, -0.15561679821346963, -0.04355462284425358, -0.016155882523791545, 0.21586848842577666, 0.06571387101038595, 0.05340990358215939, 0.044728929913894475, 0.017210982369112823, 0.11424116722770322, -0.1417072365758781, 0.10861780602466285, 0.061902201505279114, 0.08802234328559716, 0.013483095363710455, -0.03992841877040462, 0.03649565858357972, -0.021765559100073308, 0.04236014810603012, 0.15033090474379313, -0.09133925467478476, -0.07840515580137462, 0.03199659597498305, -0.0174412398648365, -0.03288226422663492, -0.13706680855023268, -0.036126872807399554, -0.009927994396961258, -0.09905996322567001, 0.0669058925193378, 0.07323825863242972, -0.0531757897691004, -0.14299193128809906, 0.13442751000022576, 0.04263400865546729, 0.17909712316821924, 0.03608074579463829, 0.1463656511805824, 0.22937083990056173, -0.0048723090322391124, -0.07293058429354776, -0.14937833657980867, 0.07759619762669812, 0.14024739486539936, -0.10666127832549391, -0.2559006278974784, -0.20951812978435613, -0.005735906519857439, 0.04008942653201916, -0.014906434322285292, 0.029669881483991065, 0.18913933043494768, -0.04754478647610935, -0.07635789376789928, 0.0469617520337477, -0.10221176473492713, 0.12611271937875698, -0.1296048113810866, 0.14009244739047744, -0.03909683972496749, -0.006423481054727762, 0.02146737629323538, 0.1615132693289415, -0.09861956814084447, -0.09625595589120067, -0.1186705425792915, -0.09918600269307032, 0.00642713852386108, -0.03991363474535265, -0.1388577369857162, -0.05052269482289189, 0.05508340665512811, -0.12340460245207273, -0.043403042266135956, 0.10940696347962414, -0.0031658809437286883, -0.004724965819234429, -0.18717214271789354, 0.0626267351843475, 0.06461768911834813, 0.0812656747866507, -0.12781969348705677, -0.08910024255868337, -0.016585599795610962, 0.07050774956005866, -0.09345744385084764, 0.1179104234854935, 0.011823717787709498, -0.025684274881613785, 0.01813053517721237, 0.04306701958095821, 0.026508657644873965, 0.18889751696954857, -0.09881537557313722, -0.11931747855489155, -0.21178198284652872, -0.053108475681528315, -0.07163642050110401, 0.028809933982366906], [-0.1500230294540178, -0.12412078194111614, -0.126667246977134, 0.002855957601002946, -0.06703562538315776, -0.10158704164777788, 0.0012619354286239307, 0.08128035578354854, -0.09878021028854599, -0.030424509154601993, 0.15639283747560448, 0.16516995577152027, 0.128334940896106, -0.02164186044231649, 0.003188692545269312, -0.042450411455377556, 0.1575439773287115, 0.07123668339114318, 0.03547046842576814, -0.04669278328667244, 0.10894962111577362, 0.13454795225761326, 0.06896272124848964, -0.15588934937684076, 0.06350377649195552, -0.11899145699772724, 0.1790452019255454, 0.0634546339714335, -0.059198495129653854, 0.024664448286307955, 0.08249479792796521, 0.11893923885587654, 0.0646147437470445, 0.15028867053480754, 0.1541366879628747, 0.020296486123416824, 0.0762993677854415, 0.014908620214517988, 0.08147600004670157, -0.03706585678909885, 0.005250439747197907, -0.028144316493649308, 0.18076755578020276, 0.08639474975379907, -0.010769539240455497, -0.09736748125247441, -0.19654527903665983, 0.033233437849214745, 0.0643346804758793, -0.18663653159350682, -0.29292917784734557, -0.11437645330505536, -0.02362866875556224, 0.12568129402670652, 0.036391757948988135, 0.16498622544217545, 0.04482092223538195, -0.008908554771801728, 0.01694129180866873, -0.048148811937819745, -0.13084308405992184, -0.14961355710286192, -0.13043587875511473, -0.12381930191297506, 0.09292866126511401, 0.11277248610857926, 0.014961195587559845, -0.016380137990751834, 0.03770697309886384, 0.08152429423664519, 0.111232536053752, -0.11885460517240083, -0.0696370475306386, -0.06392465323559558, 0.19321774929995728, -0.01309166819773691, -0.11364251936492187, -0.10376171062764855, 0.03662216526184304, -0.20416500869006748, -0.04187046706381824, -0.18921627223873602, -0.0906032357851303, 0.024690482470615723, -0.0633237285720573, -0.1761317893005151, -0.05755056482625362, -0.011202809641542045, 0.015093177400359646, -0.23901248847078596, -0.12259417540661921, -0.09037777959720816, -0.0840627778111587, 0.0047670616174427215, 0.10799313746740576, -0.051551201544801334, -0.04669543048892607, -0.03491044677929413, 0.07601028822591058, 0.14668990071007165, 0.09868762514026043, -0.0419531431276703, 0.058987892343407726, -0.07515143007456798, -0.008628687416199618, -0.08745630197173744, 0.06869745796312857, -0.014220390658920607, 0.055815079453004124, -0.2232298716169936, 0.05670730852325743, -0.00173049144857644, -0.021433797491554676, 0.0746668473627646, 0.04164126584034005, 0.16721197579009506, -0.13399875643807999, 0.20816583080179718, 0.015053429660000962, 0.05118081228809051, -0.020508414540987244, -0.054593721384930044, -0.12728081034926073, 0.13315749397500046, 0.011041741438002212, -0.017017439592979387, -0.04647509699164207, 0.015686070026843437], [-0.10115420652377222, -0.19538971279611575, 0.03728071201329605, -0.05024917108329324, 0.08504804384990705, 0.05057489591713499, 0.00017419289702922958, 0.156571376693883, -0.012170345594138765, -0.0014222096728885515, 0.10469868155916705, -0.013450554279805356, -0.03780621291227293, 0.11379653699430324, 0.015270965715073274, -0.023505500183597483, 0.11126400793277909, -0.14947351705843223, 0.03657361451728174, -0.1545414002788674, -0.11624430951823549, -0.05372009759770058, -0.08874458779986594, 0.03716722226961674, 0.02679691941502346, 0.058105070903268274, -0.09999802501250711, -0.0993711654011486, -0.07014000404700736, 0.052817779768984024, 0.005472679220879808, -0.0669466626954654, -0.018587478437038812, 0.03426747002966717, -0.12751101144921412, -0.0817662043897536, -0.17121495498205985, 0.018724792636583557, -0.12435455932194428, 0.11898383379014373, 0.08821011812176795, 0.12576182061868335, 0.043057659697122073, 0.10331285674955877, -0.22580536040579974, -0.03538970837156382, -0.015187393531762761, 0.05277528620560265, -0.06676950703536287, 0.03609327275176443, 0.06719390209483879, -0.12530947684033217, 0.04193281691209332, 0.12938897643650213, -0.024980383164181625, -0.04288456851718772, -0.1095938185714797, -0.0331199823561597, 0.09732304816396538, 0.049223894615900446, 0.09506212928393312, 0.028205999685587697, 0.09733241701033862, -0.1436897399162738, 0.10600094496006929, 0.08403963493672689, -0.015357900315634793, -0.016158683313401645, 0.044258660833624446, -0.03579698913152079, 0.16950689797691343, -0.02853136113968249, -0.18953421455636335, 0.05696034118834267, -0.004712700566161892, 0.018273110524250912, -0.23266101737609618, -0.052392750227649214, -0.03801912865258233, 0.001828933338868601, 0.0035706259651013383, -0.13736867060737676, 0.035043075635304094, 0.03718181690220931, -0.012844587757828983, 0.13580409752669584, -0.17239713585078653, 0.07878079100755439, 0.01692560887063973, 0.09116686639417106, -0.054958972429497634, -0.08529968561319029, 0.007730077507663202, 0.052491975816762806, 0.16391036361391087, 0.10705223321188728, 0.03492878683678087, -0.02581852513401532, 0.15419386571966065, -0.0007495491477236623, 0.054084825812532246, 0.10142613185524461, 0.013889507806330968, -0.01310309108053033, 0.03929125219513771, -0.10382994661042551, -0.07414407588284225, 0.026814936459068923, 0.04311740158329801, 0.027578327881543685, -0.03391700318503526, 0.0538604055189412, 0.005686416722594231, -0.12674887099277468, 0.11809908143113884, 0.05319396226538647, 0.04656583234906182, 0.17935734047981214, 0.06843502538018796, 0.18919503309299707, 0.12813084655545534, -0.034143509926882386, -0.026405517974509157, -0.17354166073634755, -0.07001515852104716, 0.25226683002923767, 0.12867285677963428, 0.07563639085705719], [0.09148740276523816, 0.24897971367970717, 0.0007160127629805741, 0.030928427747114642, 0.08201193145855903, 0.116443234333861, 0.10159229213424253, 0.10594641199486748, -0.15528265533229213, 0.007465641487842879, -0.07376063730824399, -0.12349543182919978, 0.022635740413860336, 0.0013362798470732628, -0.19473968407030284, 0.006668507315863795, 0.1474029138554243, 0.1198270246201582, 0.054346901947962004, -0.012797247619519817, 0.14692942969963077, -0.09789966133621607, -0.05012515853744675, -0.1678153636674954, 0.011621044960197065, 0.07079813807799681, -0.022855069914122894, 0.03549886735629856, -0.25742689111086364, 0.09702610666011245, 0.0511730340646615, 0.0739180281722552, 0.20296566796157306, 0.11017573606227418, 0.06664218606136532, -0.2284122285674679, 0.07759249475726115, -0.014934983785598141, -0.07153752992269945, -0.16092835391701155, -0.06532665366819955, -0.07195465914972292, -0.053369442251564314, 0.10621540017910072, -0.13590452130082536, 0.10128287324862112, 0.01189638234976173, -0.0016875934783433058, 0.02761038735344798, 0.0423250926387955, 0.14149113869050708, -0.11342029217811554, 0.23506817340358044, -0.07292186692241438, -0.027704469769559727, -0.05592145105216877, 0.2153086834804011, 0.10062232120035045, -0.25249575326548207, 0.1063129886202447, -0.019968670256831206, -0.058465852123918374, -0.02503572385448077, 0.13537435274639623, 0.003111777349644648, 0.06215083414030841, -0.0012503836339422395, 0.026557628340243424, 0.030018051292695882, -0.158335927410744, 0.04750936494293334, -0.06964051734702534, 0.02182859257647249, 0.055717593334173365, 0.10867273111396603, -0.0970353953925317, 0.0758858428462988, 0.02083596175629329, 0.0911887856702559, -0.17255142652815392, -0.23799360230518443, 0.10003791201953012, 0.011344178491781057, -0.062006849628604636, 0.020466375485463092, 0.12460789344690877, -0.09043041946661096, -0.0047194307254824226, -0.11323847320705496, 0.017024312012903407, 0.10876086946123556, 0.07119959870800584, -0.0620361531352736, -0.23320033458993683, 0.04313449428564049, -0.04154308481379539, 0.02894025763783288, 0.06276702261867333, 0.005059853733540174, -0.07715521225102404, -0.0812035300022198, 0.17348443221998971, -0.023123071666334365, 0.22932398281328933, 0.056247554285611484, 0.01758594536532533, 0.006103813617865205, -0.03958759252210063, -0.06544972983532694, -0.14547319487834195, -0.15501810382985748, 0.015344251884353018, -0.14560094710980442, 0.05077696946637919, -0.1574892161927904, 0.11669068369257583, -0.1495591111725123, -0.011227399635040096, -0.19329614168086917, 0.11543338519454499, 0.0019328612877354578, -0.15264006334567792, 0.03345939441079152, -0.06500084776755966, 0.2476852555906635, 0.16295226726443374, -0.07033044774446533, 0.0020736332722140404], [-0.04782243551750359, 0.021738174704669613, -0.2533112727740903, -0.026351968496707574, -0.1025054103292542, 0.05292934434205392, 0.016451262800007433, 0.1782657829957631, -0.05472441763604711, -0.2100319085547889, -0.08998724157780402, 0.09353667104537572, -0.024079741780261434, -0.17071688751866992, -0.015110027322256725, 0.07021400164883955, 0.2409232652974591, 0.1458128149971852, -0.032190213663871724, -0.12466910608735123, 0.16864184714321112, -0.007734631035947778, 0.020100928554511052, -0.246660144436617, -0.10987425657514854, 0.09812692456097546, -0.08698554633484538, 0.02623418529356375, -0.25457711167397906, -0.02302649997768982, 0.028373446112903315, 0.026607431635396875, -0.07264182797968723, -0.08034482005374557, -0.006551813411491513, 0.04627672544120642, 0.18929772134906978, 0.12200699918140928, -0.07246383514521108, 0.09778066712270875, -0.040354588202648825, 0.04218670393702456, -0.07921460584224828, -0.1619889511992027, -0.044844158507638586, 0.19506048599633372, 0.18530320452805038, -0.23184620631947414, 0.006002452368338209, 0.0752772922823782, 0.13287562502287306, 0.045443203013983, -0.03516451175283616, -0.01027878700887533, -0.09049700466307622, 0.17807129478319134, 0.276418144174544, -0.011964692815181874, 0.07324681735726588, 0.20838736441229969, -0.04268445017205799, -0.18639333621471674, 0.22972171548296905, 0.1881537624105992, -0.10995340884707874, 0.10134666550995074, -0.0033438042779342352, 0.4409162545417766, 0.12380041427110647, 0.03485388782445564, 0.05557289008577881, -0.0014671797495163033, 0.06368320763843355, 0.2391228098198649, -0.15167599389325895, 0.009169599583860195, -0.2882145919893394, -0.08268519408068695, 0.0918290461849071, -0.02168627293225304, -0.08203751044217633, -0.12507968389381016, 0.2905106473677017, -0.0544176688969605, -0.03666617884351605, -0.01048439147267967, 0.3089489105563603, -0.11981461264425619, 0.005918458727704578, -0.1345296222153754, -0.01735707744316175, -0.10389708352055732, 0.04580061878331185, -0.18264837546629242, -0.06481544988085754, 0.22745171642276577, 0.0320202446690823, -0.0016425663426624674, -0.10909087089374932, 0.06305205242944419, 0.012097108254862151, -0.049612813014986636, -0.0531891448023749, 0.10846619294139088, -0.424390989477107, -0.05262840291611155, -0.010162262227176002, -0.03671151379125739, 0.34720761115482784, 0.027714625596965723, -0.19256562109588135, 0.08503205247936091, -0.19773344236822035, 0.0024252656038718104, 0.02664518234341627, 0.2295648866411525, -0.10580985845736941, 0.040455596842151276, -0.10854885242445411, -0.1149181418764142, -0.02726321153177087, 0.029864198540857895, 0.0015046954375968545, -0.1506926055227691, 0.22935544231982508, -0.08439095462519704, 0.033859835494267944, -0.21229406477835788], [-0.17504427150132637, 0.13321103594102876, -0.03353050884310818, -0.09502932745955667, -0.03852771891138879, -0.1321387156759392, -0.1283096049372261, 0.17687923315133178, -0.10429949761431419, 0.0030744611219368835, -0.0754016131061826, 0.013574915583381173, 0.04740376857280277, -0.2747324456839284, -0.18066889161678126, 0.3042304255199668, 0.1404839005287705, -0.07978643964668342, -0.3041092514429275, 0.05235977242912685, 0.07168774698539358, -0.16890370984609457, 0.1575764152166713, -0.105407453640134, -0.16485825185342157, -0.04642727792996487, -0.22191112270103117, -0.10109215376778674, -0.018161945826117465, 0.027885078135598634, 0.08537660270841617, -0.12319388284249524, 0.013544879178137162, -0.10467243320215917, -0.04351133646132168, -0.16139536285949246, 0.1645282858217037, -0.10368738006651344, -0.03146604127545062, 0.04323803279315111, -0.18822072026307285, 0.13478688251753776, -0.05637908915673104, -0.06780717529450757, -0.14131590053408577, 0.44836507748163584, -0.010815648726890677, -0.021181104395419106, 0.08474151299773476, -0.2258520795596856, -0.05398088576566723, 0.017089274225241334, -0.12209923589949752, 0.04503858356203748, 0.11080073623407141, -0.014816820147350016, 0.2904140571080625, -0.20959647487261837, 0.015425768962058273, -0.046288930475358696, -0.0632125997379896, 0.030847667147149996, -0.16697891583409394, 0.0629408695360927, -0.09336803021536731, 0.11697499864178613, -0.1178016940293168, 0.22157488140423248, 0.09849505339572562, 0.051303328593353195, 0.05476513789700112, 0.0702128424048963, -0.25249627708577127, 0.19449021559630944, -0.19585951290454542, 0.05789035339840767, -0.05486373663301315, 8.73413314541127e-05, -0.02796725243893994, 0.1347746210521502, -0.1399899256382092, 0.09307925037308395, 0.2690519043009996, 0.17566394624062248, -0.05074020969457245, -0.16649385017186835, 0.3811947997800441, -0.05325014293060564, 0.05425690504083798, 0.1263279510804319, 0.03830076482848645, 0.05353746303815523, 0.08769866836607781, -0.10438190498959665, -0.0911407929241475, -0.22117291549699453, 0.030350321560367648, -0.13292224463356636, 0.01256987390765368, 0.0359134400681309, 0.21322006151813316, -0.04434945491098157, -0.04164213390807581, -0.1058979280228206, -0.266661092512691, -0.014999921843435541, -0.04196797905972335, -0.11648685399689784, 0.15609065385337634, 0.07929453604812915, -0.08189097457537889, 0.10349384341881554, -0.06518539755335381, 0.007758636939678781, 0.1843037008528762, 0.0052338405822860996, -0.08944170517007265, -0.08583461162540833, -0.08331055283325511, 0.21292982725988888, -0.01984658166305804, 0.1444250696713254, -0.1684456703085082, 0.1660066996813128, -0.1313799110014002, -0.00041838495029787495, -0.022109119569250338, -0.16043859585073214], [0.06665808684833445, 0.11833390279026663, 0.0355950903529338, 0.04273792305201893, -0.053596388191164794, -0.14649636421400788, -0.04473439189121764, -0.05100086325915766, -0.012304618103743906, 0.06198508344546209, -0.026482199950503674, -0.04185445634524406, 0.01961618369065808, -0.1302155396190054, 0.1592529352098329, -0.10057524111192538, -0.06158603868684364, 0.06759800690378188, -0.10327003900194581, 0.13512983688038296, 0.07514277777294254, 0.028168972054040314, 0.029429068926639032, 0.20122083315952344, -0.08656878594437045, -0.1151158423778484, -0.10690942230406526, -0.05835966849781193, 0.054903773131869504, 0.039641270721626855, -0.08986770663328532, 0.011951551036936002, 0.1772478819751474, -0.055256799156669326, -0.06790346484420999, -0.10660104509750307, -0.012420767986780035, -0.05887383817042549, 0.03742069724619543, 0.05739510633229548, -0.09047708261593329, -0.1640952671948346, -0.029626881205965756, 0.02287342594151807, 0.02484181360932718, -0.02232906373672042, 0.04156134736048724, -0.13729865425290316, -0.07360333950125143, 0.09012821083734059, 0.07671408521625292, 0.06274802500584008, 0.021918375292951996, 0.1251077402160356, 0.07380652406336569, -0.13028202654908583, -0.10212811045849134, -0.07594029794101073, -0.019170667122734596, -0.041215924207641336, 0.0037331438929806993, -0.018802333834257175, -0.14559239246687034, -0.05335957872386726, -0.22166874805711184, 0.0020090053818971037, -0.09085840443702009, 0.010790142402344025, 0.10470998680470647, 0.05732105024585789, 0.08061808548690008, 0.05706118611201205, -0.11766723152125554, 0.17827109123151508, 0.06926415873799076, -0.13359194722568435, -0.060962529023573075, 0.2446538763297272, 0.14818738561446607, 0.17186301116662617, 0.11143172209839258, 0.007231637517176805, 0.03895742604400633, 0.07057112663359998, -0.06511672188963975, -0.21552843468887334, 0.2787320919906792, 0.10942642766973693, -0.053538640718624866, -0.009294421835568634, -0.18004811303890061, 0.03333525730999975, 0.12442230567222577, -0.030672866600490303, -0.04403621707121985, -0.010339180903124863, -0.14504931225970438, 0.011011804220737706, 0.008103264683628075, -0.11860544709995201, 0.05434053674023203, -0.023627587926413382, 0.04718850547553665, 0.009384859051220863, 0.110978190309092, 0.001596073540874259, 0.12299440315971183, -0.01855071195108496, -0.021869579255558252, -0.08387441958456837, 0.15501782206281278, -0.16275824743960227, 0.2582032060281496, -0.059467813214500134, 0.038465140229029686, 0.05111134802597833, -0.017135144986173235, -0.0039100937592806495, -0.06173646323838893, -0.0030968465238333104, 0.11461232956580936, 0.06487404149693397, -0.151538472580098, 0.13674521810229504, 0.009186963921286699, 0.17319730522313193, -0.017504135630061646, 0.07102587804695312], [-0.1073136634039204, 0.014502957128177209, 0.004423856465867458, 0.014692152090416011, 0.03199438866161372, 0.07401484709456217, -0.007382687406263847, -0.03966870841916583, 0.023343795665704034, -0.07560919540663191, 0.22852582880150601, 0.061601247035082754, 0.07908454868924392, 0.04396651674829952, 0.12232472302110649, -0.017794215115309008, -0.009424989418039306, 0.11312234930486598, -0.061135022880048774, 0.017976980107508707, 0.02029642877572921, -0.23408865757032574, 0.1808649655139883, 0.13121281096394619, 0.07650847109730743, -0.10328877714533574, -0.08106397654473886, 0.11707541801254458, -0.02691332679817507, 0.06759670458108476, -0.12557952711562312, 0.07721195524244831, 0.04626870621239536, -0.042938693274501616, -0.04319270212898016, 0.05996024863862779, 0.03914596517243591, 0.048633670424549504, -0.055497158180707766, 0.032346745222491306, -0.0031523873626334953, 0.05896399819204167, -0.0491938645070277, -0.15250897450239972, 0.03498019334057148, -0.15260789328750518, -0.18158782964430642, -0.050873797060055174, -0.0888526065854711, -0.05420858226993285, 0.03305121700409643, 0.08316075248381298, 0.03809156366168458, -0.2426936392265735, 0.09166254447166017, -0.11360043504546069, 0.07101537790107856, -0.06775418438909885, 0.010227053205673041, 0.004035802725863206, -0.16673767578690848, -0.019099265161591602, 0.2356713425127866, -0.06326947818779029, -0.04199812231421491, 0.03925325957902294, -0.001330837449906745, -0.1379468608556845, 0.01774330291413599, -0.06845517957665097, -0.053402277663340714, 0.14683739539620985, -0.12701272420981607, 0.03514073796558514, 0.06402046335162828, -0.1588371629006481, -0.10394594366289983, 1.211417458165849e-05, 0.11161764944319093, 0.012871005034492344, 0.2671734969611703, 0.005242379818857647, -0.018500883880463722, 0.033763498777843855, 0.039472479885372516, 0.015668175038156994, -0.06252157568705913, -0.03440025800810449, -0.07032514931990431, -0.05340891781827115, 0.06798110882399848, 0.09479427951107094, 0.11086469870390543, 0.05895440526843825, 0.031217819938470545, 0.11397803618929923, 0.01811647513719497, 0.05048058782145606, 0.08270353296648317, 0.03404486784323428, -0.08438912039963338, -0.030800945916411256, 0.0874152998153675, -0.12039324835071899, -0.06511833356654227, 0.20406509577589682, 0.03768736880311305, -0.059347518588933, -0.016561991298718808, 0.0298196669551579, -0.10250802931115673, -0.3005014549163119, -0.04294002326574712, -0.12701021645221555, -0.12692900238845392, -0.09501811010161085, 0.05606498894710552, 0.014736313198334659, 0.15545477416274184, 0.09598282081062894, -0.19059128007108955, -0.02855851577691637, 0.031011940994541715, 0.06398715738676392, 0.0036070612858447692, -0.1534596456339976, -0.024157982189367, 0.25958259160932945], [0.09470559183478866, -0.041198094888895864, 0.016369308701071124, -0.23248820423912045, 0.007492187320384404, 0.0044065654254606245, -0.0901410629406303, 0.05581533181569409, -0.042086107649338705, 0.0033237486594987382, -0.07236822182335081, -0.020995586817333933, -0.03515023439364572, 0.013878478649391983, 0.0036062061756740194, 0.09481719888615182, -0.013540956576469095, -0.019367888429628555, -0.04091272128484191, -0.06374692687334065, -0.01990987372461572, -0.10467661414216123, 0.070801088784177, 0.10095636934536532, -0.09827400487351234, 0.010216746913916167, -0.022063324021765498, -0.03306388115686539, -0.07281060773177725, -0.015519142010070285, -0.014321305981658643, -0.00571487484479688, 0.05134854159636091, -0.2035743531232034, 0.1415889710209177, -0.04436313275769336, 0.03415758036497184, 0.07117657649263621, -0.04324437673060799, 0.07606894357497929, 0.06691161337557125, -0.014295114466477144, -0.1115961615710325, -0.028826486858828267, -0.08592008324720397, -0.0966755453085237, -0.14087800195237116, -0.1452736657325538, -0.08843631407497778, 0.01899526371578363, -0.0055674867439272436, -0.03912556865690775, 0.08748298318797701, -0.10094722221287161, 0.029592284867149085, 0.15717925102540872, -0.07839595635922265, -0.02914521632980302, -0.16217068137556595, -0.01681317569977298, -0.04551893197431074, -0.053623366803015916, -0.13295220468788158, -0.019187452438739927, -0.26119433761936106, 0.06642131307483262, 0.2537231280574826, -0.07436771837733333, 0.10985673275344206, -0.13503283219072756, 0.022924311717980546, 0.03454073551699565, -0.05185534810022901, -0.0669732924102223, 0.2003445908806072, -0.05594470649887017, 0.06592465840522665, -0.1180716533387125, -0.04288595582700085, -0.12473483193546592, -0.04951626543051854, 0.10761433634242368, -0.06101604575349685, -0.12696741497887715, 0.06833760916257166, -0.18423107076831713, -0.07691346094452943, -0.11297449387248273, 0.00685022350856389, 0.05083659007452379, -0.005935173525865713, 0.04623336692098565, 0.03462841860770631, 0.007308396385258993, -0.17885450595554336, -0.0845534462192693, 0.058127761784222944, -0.08379855694769468, 0.198329246693759, -0.027211084644560974, -0.0488115341581338, -0.11100592245469539, 0.22478684394267343, 0.0575948638691717, -0.13904023766844675, 0.08452169303203769, -0.0055234803376628516, 0.08615754257684405, -0.02287901055265723, -0.20687544172963995, 0.12597005544741188, 0.06819179895749071, -0.024750662870440338, -0.05433577298937449, 0.0062503468924187304, -0.03225073757268573, 0.1424380089940872, 0.009862407179989596, 0.008937732394977268, 0.05856180946347689, -0.15413235157499133, 0.0769344081459444, 0.012301336959347682, 0.1231098956616119, 0.1954552854827326, -0.030506972686967917, 0.057853975703297714, -0.10931997139998605], [-0.08864622594994875, -0.05545017054582862, -0.2637924976944082, -0.14511461158603264, -0.01409545231197634, 0.1352521248523653, -0.0837917365543062, -0.12473796319160024, 0.03361746872058167, -0.0970971521672577, 0.062377325382716634, -0.1156585773998393, -0.04430110493359479, -0.09767966107782912, 0.23758014761016477, 0.14984611852992533, -0.21787383025660823, 0.027475358720343082, 0.028247278375410287, -0.14622985050365347, 0.03981484924284781, -0.053674434387194804, 0.041155532978468565, -0.22929275041230068, -0.09289283945732905, 0.008410612648509853, 0.0971740259844276, 0.04267188727240439, -0.04363042396990613, -0.11672935610277907, -0.06947955976770744, -0.08146063821219901, 0.08187855191369783, -0.012333814337225685, -0.0891918277443441, -0.002234348207268713, 0.008134587509660599, -0.03777850424686069, 0.11757868888528414, -0.08425047460054527, -0.015860828005040347, -0.0814474396376927, 0.12299835105695074, -0.2000391809844777, -0.1565853389840589, 0.0990184043279393, 0.0627709696504053, 0.049969395176203954, -0.026744277423814133, 0.11567687562599833, 0.039946476535653856, 0.04526559573444673, -0.10284077462313829, 0.08238616883831307, -0.13650913425192532, 0.07177901352468406, -0.19169695523374872, 0.028645928721817638, -0.052985385963894994, -0.14227618775709167, 0.09540395994897727, 0.023404719000583933, -0.055993888077530585, -0.09305383798540752, 0.1088824252032557, 0.030771411762421992, -0.0011957285409414675, -0.18915127057834735, 0.006414073390535522, 0.22901214123278965, 0.025526222538124435, 0.10164760108767677, 0.12094163365533589, 0.02404762192455375, -0.19644301233990685, -0.1903753395389228, -0.0981851716861292, 0.20775307753732344, 0.02046420550845679, 0.054452744648084375, -0.07498434604988648, 0.2165938386498464, 0.08412724728537024, -0.06800987959971487, 0.03478890599631135, -0.16156935208779666, 0.0536418325082529, -0.15150937540561016, -0.01258840588701751, -0.011519611644904176, 0.0512038275181976, -0.06730061644989022, -0.0839787642220487, 0.02823859231729833, -0.08144416654642733, 0.11277897783833193, 0.08678193240479085, 0.03563452437269487, -0.04547181150796188, 0.05795665874292505, -0.01366366190027487, -0.05404548114894958, 0.08209929582401176, -0.07504083249829192, 0.15028188708972653, 0.06555583911558274, -0.09814255063133305, -0.0539047354581544, -0.0928437414951036, -0.0008039624971289145, -0.031237429519417565, 0.0622714608619411, 0.01627318282863358, 0.06909528498102006, 0.037697653364563675, -0.07103645850827399, -0.016274978323052105, -0.030041393091878112, 0.2014439737158627, 0.18796311150713135, -0.19527834997273635, 0.09196442243643309, 0.11701956782476386, 0.08399315086670178, -0.05867333124659573, -0.04385524287985291, 0.06837889589071221, 0.16726180911670913], [-0.17459799065476572, 0.24157014612557753, 0.11533391837921941, 0.1258652323332004, 0.017009141515164514, 0.04766859796894746, 0.06701314998606803, 0.02427776397997024, 0.15011739093758744, -0.03948510968378447, -0.125214963541332, 0.10328418308574544, 0.10964675939458977, 0.11055544749601749, 0.04911843726889317, 0.18313831474585637, -0.06680691074986121, 0.07891540820297173, 0.06237992837169873, -0.18303239462548535, -0.05150012991504439, 0.07668123217190351, -0.02828120863816363, -0.010598039924985883, 0.06720529709487666, -0.009560128245479284, -0.10602699877814666, -0.01549971078292198, 0.018670620256743372, -0.013675685693101198, -0.14855375066320883, 0.05335212888532215, -0.14152193992333403, -0.03278711070321664, -0.04320346274228537, 0.28573042994475967, -0.08515874662689744, -0.15792882217006032, 0.11823071262168608, -0.017951962159759194, -0.10768880815499367, -0.06710522252415117, 0.08341393279622628, 0.1551759263814196, 0.1623678262793534, 0.054338440874855704, 0.06905915828087913, 0.025886263086674362, 0.023499182345142183, 0.010622067937050467, -0.06449742552413558, 0.04269233335455707, 0.0785941367545451, -0.032150976019098, -0.033501627892784026, 0.13778672537866046, -0.017686347859107752, -0.02889055977385876, 0.010803243608600858, -0.11711177253767534, 0.09252475183866966, 0.03644778515647692, -0.057194895183854545, -0.08834161326161369, 0.07732235926328988, 0.09026635738923972, 0.010202042932555055, -0.08318657681896867, -0.040184442164221956, 0.05223792876291786, 0.15155937902689753, 0.08569603544818279, 0.044138240090563906, 0.041021782013385515, 0.05642796447992058, 0.1536421462298195, -0.045284150488387964, 0.10074928378477382, -0.02756310159443895, -0.035534307372406725, 0.055222368203890454, 0.05383452901417719, 0.09552323121900691, -0.07006636071893874, -0.023204184986099177, 0.06238589748410465, 0.018617578219028402, 0.12492611344404321, -0.24158047655630727, 0.05694730318140561, 0.009588932963102734, -0.05294823927293475, 0.13790926797669945, 0.08097520792946794, -0.03456403687561901, -0.15024578159279744, -0.10326418705080942, 0.20821534494537763, 0.06613532798602591, 0.08351571453637016, 0.16705322354692378, -0.055227841036768824, -0.1204282310561285, 0.13447467688617262, -0.09881193013010642, -0.15655283808921405, 0.08422115047600481, -0.04480917144140025, 0.23902433303459852, -0.04455283305155486, -0.00912799432787204, -0.23373402550577246, -0.035216146413627074, -0.05504909548836412, 0.06738191456408484, 0.12407271906944464, -0.05084850480855078, -0.021792080992322188, -0.223275414787789, 0.1440781876729433, 0.22082333319573616, 0.05218385271147494, -0.13209113436436065, 0.1689695875075969, -0.05092448991385225, -0.00863620184596202, -0.056777709074452135, 0.1433246023190806], [-0.07935222542239534, 0.09383411000666629, 0.20760974653939324, -0.0242497990840356, 0.0012336885441087556, -0.21738348858740017, 0.0830208482174504, -0.040161166642075044, 0.03007706427829628, -0.006781341338412027, -0.044054271693717964, -0.017270544670617814, -0.0671673652004663, 0.12238613230559221, -0.12128347903097723, -0.05209370339906621, 0.02282681152000065, -0.1844814121359107, -0.1411789100587277, 0.13615385264906632, -0.13098484385220596, 0.11991937440441224, -0.07649648301812341, 0.2779067770156349, 0.179404376471029, -0.08901484971639424, 0.08492065809573975, -0.17077508057286828, -0.06478569905855608, 0.08718806737720025, 0.02756588104180408, 0.01730034032146714, 0.1639822580028112, -0.017463570557169857, -0.06509825111496294, 0.036950648754582885, 0.17473703234237548, 0.12596521251933288, 0.12461762715794547, 0.07038755055362472, -0.16440223325044379, -0.03453993032295227, -0.0470053516069297, 0.01814718139365636, -0.08319770653520257, 0.379906733686362, 0.18649733411722805, -0.1118717760394816, 0.0001542141414155265, -0.060940609533194814, 0.1199913251927348, -0.04202968745994501, 0.00011382783925639076, 0.0037213923382074404, 0.10033689360866432, 0.16707405191486926, 0.0346188754947216, -0.02244415222850524, -0.07921103801249754, -0.21285442278600109, 0.021219252586526863, -0.1413627964271155, 0.11317137217219186, -0.0821802759016755, -0.000999785985488694, 0.04990459175401401, 0.01407940032635567, 0.05156722347332148, 0.01931077136287504, 0.01713817852192775, -0.04633698714166858, 0.07626409434449634, -0.02591089956445738, 0.1540661256012599, 0.1608002633251988, 0.07961517358636011, 0.03944248638260729, -0.013330659363456735, 0.0641331415927411, -0.0441405831360912, 0.04017058980913017, -0.13655912641912396, -0.0012439613384164138, -0.0014722904881249233, 6.409247758051093e-05, 0.09507646774839973, -0.06712202967806334, -0.03805889509385221, 0.1609600543444027, -0.1703268082221343, -0.09611084113370567, -0.11457041106040824, -0.08104421585988403, -0.04680477527747382, -0.006639868287271463, 0.057289025382454, -0.20771472372363933, -0.2210772460294067, 0.00432436695458578, 0.0750300764037462, -0.055865740527031915, -0.026509325125702102, 0.14854688217466203, 0.029078834096519887, 0.0627430611653594, -0.004498624659642124, 0.046399770352720714, 0.012820056516469945, -0.050779396204668106, -0.0031693920447140424, 0.0759465182341677, 0.026705038154408823, 0.1792771543724132, -0.0036407118755358834, -0.022914461240717054, 0.0845635315039426, 0.03331956003625067, 0.10852498603528662, 0.04704729216379813, -0.053304023900717305, -0.05520793765363168, -0.005122392680644626, 0.04579873824423959, 0.05819824142461612, -0.07216296038747043, -0.06903626626239834, 0.09945217468550005, 0.19830313847678765], [-0.09595099933994944, -0.041913479635967275, 0.2139278432873987, 0.07771393132250998, -0.03727807993942204, -0.1226827619328353, 0.04879090230032376, -0.034715685542782815, -0.09704725236077355, -0.032324770682523034, -0.16569444333690253, 0.002556639706693169, -0.0976406429005925, -0.06932428087332736, -0.1292974559725358, 0.09455524521307346, 0.05814461195959465, 0.018536546537252296, -0.15822452959273536, -0.2000840106934066, -0.16238455136311636, 0.10180490994538949, 0.19081572779668005, -0.11472331543447074, 0.022500767426183288, -0.041010591457295825, 0.1290922478083166, -0.05401672087916601, 0.007850671173937524, 0.02590331249370863, -0.023671850493386173, -0.2513941373154655, 0.04098541508134148, 0.14482620070316896, 0.12238221514878343, 0.04564225863302527, -0.0467504900381272, -0.010036419427509567, -0.21357272404493052, 0.09574582083627378, 0.03426829544283793, 0.03731770907819634, -0.04785223833512746, -0.0006498622122776443, 0.026534524319251115, 0.1141984849436628, 0.06198979889249741, 0.09454268568054777, 0.019781600957613457, 0.01885826842589651, -0.1430659324858969, -0.04547318230613091, 0.06799159399275727, 0.0033045656424662523, -0.17819928393823203, -0.03644352935419221, 0.06181711959879325, 0.006084476344452178, -0.0402195709354509, -0.01600856831013513, -0.00565641245408016, 0.043358504496012994, 0.029413795094030096, 0.15231141891449532, 0.02687101155391094, -0.033310038507537804, -0.019879210636495684, -0.047836142404532815, -0.06372658131029207, 0.07431242554007898, 0.10847433970324619, -0.1622963273817533, 0.07956363653207599, -0.04686701919951068, -0.03539193351077938, 0.0721035819421159, 0.060828815773192074, 0.07028985869053132, -0.030838913610376797, 0.08556816765973718, -0.04758030065925787, -0.1116112248960888, 0.021944230491549376, 0.033593156042210234, -0.10248946956444693, -0.12812794221403084, 0.044377357134895073, 0.05192383113944067, 0.08617648661473377, 0.06266731504863415, 0.09722541246805334, 0.03995505435229692, 0.034264933903086006, -0.08563883828519343, 0.06662232639207182, -0.04145994043547186, -0.05730597331481102, -0.18401639448675525, 0.1070796859103585, 0.054438959675591585, 0.049474603856873384, -0.14728104902723235, -0.07805715564711732, 0.0665380671130852, -0.039784936570228566, -0.11204698283789315, 0.026833208377579305, 0.03939042322975506, -0.06705933877512975, 0.0728989373619283, -0.03401533431221268, 0.08341687370877736, 0.01506432206449368, -0.033615575823359355, 0.07176869180005614, 0.07291140388536964, 0.15137038406179792, -0.06023531587714214, 0.011936017824126378, -0.07956309495675157, 0.08696450020493786, 0.14769134463157604, -0.11182613186736234, -0.02718476466171782, 0.03322780086028043, 0.004772315544436679, 0.15178375932703175, 0.024319559923370284], [-0.08080293373371923, 0.10306659428579142, 0.0015635923671571833, -0.0737097035209281, 0.0135471008295466, 0.1221549200835984, -0.03151848138122966, -0.04221418594403433, 0.050863104286310024, -0.017580280899544505, 0.1092936815214437, -0.11180286977736836, -0.09375666967513552, 0.06794096297744777, 0.030389916177055956, 0.06157949723701681, 0.09527082514435377, 0.1209319671950351, 0.05970350998831767, -0.05971674242658988, 0.02610755238839671, 0.08377003798959197, -0.019879768412948515, 0.2320728552650605, 0.06494780107393379, -0.15740288834344768, 0.039536587869909316, -0.0009969722588306917, -0.1744206797447095, -0.012584529988536007, 0.1317612783878257, -0.12220563001401363, -0.15082041854446876, 0.05180097068995779, -0.04243359013501647, 0.0267030143772775, 0.05618378328217938, 0.049897722100223245, 0.10402507431864172, -0.14926868166034848, -0.06125876582716569, 0.20711611102052224, -0.032418050731204656, -0.023427562605613322, -0.0331787506842307, -0.006467508394598612, -0.10908419828849568, -0.10514372506545716, -0.07835057717426158, -0.10321425779815437, 0.015787334983895823, -0.1445905450329533, -0.19699080022909443, -0.053995203968284194, 0.06469405232575286, -0.037128894401897344, -0.05201984089356968, -0.03245428465457306, -0.018486207587246516, -0.052052866532540036, -0.050223591652861194, -0.04301765357661586, 0.05987323795614376, -0.10782447052958387, 0.07269470398523685, -0.31507254352991604, 0.026819098131154524, -0.02163066797273838, 0.009194009407723386, -0.19488505388049504, 0.026650949820276455, -0.1620755455176068, -0.004744577281096854, -0.03178415387579646, 0.14124888873335714, 0.09424529875923068, -0.16635482844443464, -0.14770145226507345, 0.1450750711027165, 0.047944407864680905, 0.22770369983940478, -0.1877338383654297, -0.06518889799748301, -0.039642454945528226, 0.0026678588268132515, 0.02564611362743018, -0.14821633522755748, -0.09469624124089697, 0.20807157154926126, 0.09119460668545946, -0.05436591875513395, 0.09478697345653647, -0.014838106356314718, -0.016197621605443656, -0.029248833329658754, -0.11679154904297269, 0.1036575066688422, 0.2589686617539903, -0.003996498444392069, 0.0011678881360887205, 0.11705351182515494, 0.018258116495767276, -0.05745363155168024, 0.12020389406082535, -0.07408471825032457, -0.12953221565093379, 0.0037512677295162646, 0.060026392622645176, -0.030275737814649407, -0.002533391691611146, 0.12296000450811735, -0.034391506078468435, -0.0339902762713895, -0.06578923040307529, -0.021386984485571664, 0.01431736817327786, -0.1422600930506369, 0.15229977348380938, -0.027874310574510553, 0.11218175731394514, -0.013572947245558718, -0.0914285888988669, 0.016219612127571517, -0.11893113421862112, 0.09038416078971606, -0.11497211220426236, 0.09458146970038293, 0.011219818736474678], [-0.02525590952776482, 0.07747954150356011, 0.07462815986260682, 0.1614247659292799, -0.10026938165372981, 0.04096384515344475, -0.040923442190636455, 0.004888882013912287, -0.007161603609498435, 0.0476530416909095, -0.04642291269503022, 0.0604339905821386, -0.01222857376782891, 0.15355367170676407, -0.1382766945311897, -0.0005020346109468782, 0.1064065777689634, -0.06580383748414442, 0.07208223808256004, -0.06193767864423502, -0.012338540027084286, 0.02737775307014246, 0.048768909839665704, -0.03947138455721956, 0.039709517130290334, -0.021982041622645665, 0.09301148813901798, 0.0004795316187974113, 0.03858156934795225, -0.07689113757326764, -0.01999962386440395, -0.1743238766376495, -0.04957932867199884, 0.09296381421166335, -0.0290418733571146, -0.3179287650644361, -0.08216106675775801, 0.020910871812347083, 0.09151746622287778, -0.032611945056995204, -0.08775902205750812, -0.14695676399054405, 0.04270389639284692, -0.03873966764570796, 0.04110659903220314, 0.18406532137123632, -0.20310981898628594, -0.22197821430818512, -0.11759081413386861, -0.0422493791039073, -0.08284538380819848, 0.10012828370409546, 0.023626138189468075, -0.028196334977807238, 0.12146427738749506, -0.09675674834338634, -0.04151262904079764, -0.03976945093692483, -0.12421229146754803, 0.13423167284858392, 0.04126688056713976, 0.0011026516642947029, -0.03054669837865742, 0.03488945545766959, 0.0014246672277921186, -0.11198377962496518, 0.09960940741808877, -0.10237474176047585, 0.1619327302387033, 0.16803090794264913, 0.2046077455277724, 0.005102869460341145, 0.045260449459090246, -0.10375675179700612, -0.23552030780507974, 0.04711994818325123, 0.006029536279845402, 0.06009183820179862, 0.12195281222126489, -0.09791791518682108, 0.06008408592285446, 0.22511385597776115, 0.025576828587749574, -0.1291726002021899, -0.09837081938733255, -0.0026935418778988047, -0.11865385022206967, -0.07295187085328686, -0.11768099946706288, 0.055381963988525476, -0.009012648478423186, -0.2385508095403096, -0.07209509989265342, 0.06671230340703359, -0.12326566623707624, -0.10901283930611992, -0.03735375869254941, 0.05791993821481478, 0.08571949762258657, 0.08145081732431671, 0.16662362460777935, -0.02796854372469105, 0.22907952633938217, -0.14618281040177597, 0.042010143338816336, 0.19044025142282564, 0.06947275410115641, 0.0275343163289868, -0.04000053194921191, -0.04435407733352289, 0.1681708824420558, 0.13487665968865567, 0.0024284854055041066, -0.08352697771364642, 0.1079484996508729, -0.09418742501782083, 0.06730062617368932, -0.116746333483134, 0.011746574465153918, -0.08529265967178679, -0.0025877017380854937, -0.0792289289180776, 0.1450572167764685, 0.057800976356827016, 0.14286115866361512, 0.014962699687994074, -0.022062533012277886, -0.0542156336061777], [0.03906241479553659, -0.0717117877513678, 0.03933663603430458, 0.114233664761968, -0.024023598033685516, 0.003989163875846857, -0.17901898466010657, 0.020221334796672596, 0.09768017674737814, -0.10576339859967698, -0.10114051128790658, -0.07048986294320987, 0.18041772602276826, 0.1522555809019538, 0.14742478153073144, 0.0506177031160611, -0.09769973310649727, -0.017528131726436687, -0.08785695118090162, 0.025502663357217115, 0.10368611953365812, -0.2028306020451348, 0.09005051935492475, 0.2009141227428205, 0.13082410834289893, 0.1019918307354813, -0.13669426246943264, 0.053495007800849925, -0.03277654124118685, 0.09451129191371398, 0.09611206525662169, 0.08844918475259389, -0.19952263376831558, -0.043527433946786924, 0.001367960492193007, 0.13516185480815593, 0.09420749965197968, -0.22899473256360753, -0.20859228927507176, -0.048401771170292034, 0.005968278507948972, 0.12014242453738638, -0.08478770166121577, -0.03579757143923585, 0.10428801208309453, -0.020554553814924142, 0.12090110274373507, 0.1144875382913408, 0.06153905599071111, -0.043014392462085334, 0.020240433913359324, -0.11313079712423083, -0.05650405801946276, -0.15283170682521324, 0.028501951206360773, 0.08568614038222319, -0.11921852678755816, 0.08359026852674017, 0.06594962362220327, -0.03212878505839886, 0.12341461521020435, 0.1035466563862264, 0.08830884799355232, -0.09453305423758862, 0.26328946349473087, 0.11580860469357011, 0.11868100293286934, 0.10093304998119937, 0.039050022095540204, 0.05533960470629208, -0.09907634399978511, 0.06820257403888275, -0.08183822746713162, -0.15524026692876033, 0.09139586435365687, -0.10815238923340934, -0.06332731134989032, 0.053326569716036235, 0.06796103812972427, 0.05590200168088977, -0.09327284526882142, 0.009150662340877002, 0.047817843831194244, 0.18329020699045107, 0.0038683902856063764, -0.1467692596572174, -0.06707108605453892, 0.07936156848836504, -0.03558828130366518, 0.16183760821972018, -0.002401118969315299, -0.011731157577960756, -0.11151133037659461, -0.0359927377639263, 0.022795239627007746, 0.046519718978328656, 0.08519079605877093, -0.13985580168243933, -0.021889470550629633, 0.14462364946128173, -0.02091114697988086, 0.18749839781400174, -0.0005435675565951316, -0.05890489453134345, -0.01165044954530138, 0.00462094618551622, -0.034716875735926876, -0.22097977518108514, 0.2416651173687636, 0.13087865336553928, 0.03282398344790837, -0.2325164084753608, 0.03018651223671715, -0.21234504295613366, 0.024529039858421257, 0.05609820673218591, 0.09120842373192559, -0.08132266000833824, -0.030465103773184163, -0.14533969561954457, 0.11472882557098447, 0.055096740861095256, -0.08763371381889236, -0.12381939897858657, -0.14054549551319004, 0.07414733248324505, 0.018864437102079003, 0.07138560021936301], [-0.07876192251676106, 0.05296782917556656, 0.16494855469490505, 0.045240882014311236, -0.0938907561165059, -0.07328224390470858, 0.06050874183813415, -0.0946298430428886, -0.008695281381807599, 0.20565321623826374, -0.11793091333818494, -0.11792406154442288, -0.0892593496903825, -0.0962258291472035, -0.1738979058854579, 0.07240611763486038, -0.1009166432406488, 0.13582733455723622, 0.1577175755709667, -0.024555093265453132, -0.07565927199448494, 0.1896356649371503, 0.017150358988988434, -0.09042208862816171, -0.1522937895058529, 0.1518121027676934, 0.05793508069640061, -0.07094407328661181, -0.1847647849165251, -0.15111981193279805, 0.01082297489043223, -0.015475260401875308, 0.012118926016000998, -0.09657602668740878, -0.07757196668141764, 0.039726199461114685, 0.019332756453971697, 0.059088028422786536, -0.08735373956726637, -0.027165111626026802, -0.03350307423280496, 0.011351625013656455, -0.09904581037691707, 0.03893052590531437, -0.04269372744373906, 0.049033554207724955, 0.01747002847754021, -0.06740323887341527, -0.051966137172730055, -0.02032299113762487, 0.1766839759282359, 0.045631275549823186, 0.0563348732709424, -0.033669064960530445, -0.11490874572059095, 0.17596368378500488, 0.010175197857515118, 0.1065412190300701, 0.014215736778042673, 0.09831640254411225, 0.062402966745545956, -0.05179007375077043, 0.08046587893717622, 0.05557766288271324, 0.063939898476079, 0.15684850235323844, -0.057415441851759834, -0.10805451980342994, -0.062336925814107894, -0.03151701101168357, -0.016886016114281657, -0.036902928373697706, -0.0375232533926167, 0.07966088525258443, 0.07561067972595197, -0.03941661157420311, -0.036888168547082066, -0.01225229496528298, 0.24534200195793826, 0.035769158526037584, -0.13004518513669605, -0.04032774642107326, 0.03375688578764662, -0.2678938008747748, 0.06266488059530109, -0.06412417517788871, 0.019810167873313675, -0.12201101400574975, 0.06871008181664251, -0.0046373717258972645, -0.06374027783364224, -0.07542744736239997, -0.003370011039512263, 0.07417835256418845, -0.07107976039019902, 0.09498473897074376, 0.03564402185368856, 0.20119587153834462, 0.14699075373003836, 0.04368097682636661, -0.0019478557127625324, 0.14229748481518845, -0.0810869865774179, 0.03569495764311222, -0.12088212439665252, 0.10166469037973268, 0.017163054292578427, 0.050058904598921844, 0.006323343401698181, -0.06740733264765167, 0.08819039267731525, -0.056132127510187285, 0.03238254084043303, -0.12092689058381562, 0.06682946140082369, -0.03253226353241386, -0.01390664094055264, 0.06558945989866412, 0.05646171393944689, 0.014802465102806715, 0.004889164485985927, 0.06171826552761842, -0.05765387850873308, -0.04130437770097142, -0.21261312980597738, -0.07862604820561969, -0.08894899766860387, -0.052848921939192633], [-0.014411641521501824, -0.010603839429818507, 0.04308908751316883, 0.02178384875680768, 0.19984241687038243, 0.1787038602429104, 0.17851328188572893, -0.16298111295202317, -0.10286666698011684, 0.11306544606593108, -0.009624842617851044, -0.027287421889951143, 0.003877312861218125, -0.06093166168348377, -0.002937925835411205, 0.18529199137450278, 0.1106335240397274, 0.048334808472907026, 0.10574433961574732, -0.12224894489478536, 0.07123878107453295, 0.024414893404097845, -0.004193542677990569, -0.08471953373149987, -0.0016483759694331072, -0.041905313931712346, 0.018251118908348418, -0.11558877226701646, 0.11013146372063042, 0.05892588347536409, -0.13372808408181733, -0.07727712065519983, -0.12375208377320975, -0.0003791882881665928, 0.10840523088527534, 0.062146513138095355, 0.12536495765342534, 0.13588304302347384, -0.020201413419093192, 0.002925605716469389, -0.15422044080170844, 0.016241352708076213, 0.17861908270268745, -0.15685941558951172, -0.00262765999005386, 0.13041346252320926, 0.055835405142102536, -0.015154580174719849, 0.23281294558395632, -0.11296734981947441, -0.12356149748643241, 0.013212613393554354, 0.027107269373183418, -0.019619214210108413, -0.09116472006426565, 0.0054986552960762936, -0.10374578393428291, -0.10736833660011987, -0.19478225245952202, -0.029049386537077573, -0.0454178202641248, 0.1396599877392087, 0.21825391474431344, -0.020458050464536887, 0.13201693188180239, -0.0733570054663817, 0.0900099500211099, -0.018890474828400405, 0.08028637958277024, -0.0018132416982921031, -0.09581465397041461, 0.09063050161840591, 0.06718301634076362, 0.02019263420263129, -0.1529864046294895, -0.07829406946570497, -0.031057281620417262, 0.01230998643235824, -0.1253461183053211, -0.03697925961273197, -0.22830134392538054, 0.10975232023069303, -0.17586988317083355, 0.05802499172122924, -0.011227412724751955, -0.04971951015156134, -0.08233391755718533, -0.004354134867871384, 0.13564167831991955, -0.05714516115407828, 0.06460735181412261, 0.13525814220656351, 0.0001460987244138235, -0.21214280956700746, 0.17757150592312224, -0.06710030894793943, -0.0335375163435388, 0.12615675835608556, 0.0673161411523179, 0.11260173486170683, 0.08679439292922866, 0.08187190824335172, -0.08805831866776855, 0.1329433025260596, -0.08946907531094371, 0.029504266757799064, 0.03575297125518985, 0.10685960838439648, 0.11493575456189993, -0.08664331431910101, -0.06871553023185899, 0.07070759222286795, -0.08197781120390192, 0.023578804100543537, -0.13604121591096757, 0.08184075411290095, -0.05451935273226292, 0.02004417940647874, -0.03739889603590897, 0.049860938442177774, -0.017671821931070145, 0.1406031302889373, 0.011539309362980782, 0.10165455889228968, -0.010780953414269384, 0.05960008119469562, 0.068166220370115, 0.0543935394141859], [-0.02158430717404845, -0.06678526273375825, -0.21915417314855695, 0.11853823254557641, -0.025978231472907988, 0.08214941771003198, -0.05861141537866724, 0.05973620858752732, 0.11687629537729807, 0.13075431477625518, -0.13116422448428441, -0.09092905881597697, -0.06841626024814172, -0.08963627349827413, 0.02425586809540584, -0.15190648314504696, -0.023773394953495983, 0.06362463262515734, 0.009031410059688013, 0.04674343275159876, 0.06022901939228943, 0.040759254891531656, 0.057572397146456025, 0.09089767334253865, 0.09261611056973451, -0.27551568789501024, 0.0200610812285515, 0.012459765220756373, 0.03129124491075607, -0.027418438500076348, 0.008875354934391353, 0.11221038220330502, -0.008590966387474395, 0.01103677892949147, -0.25214616135726525, -0.04020481730689433, 0.10245910405611343, -0.17269793905424743, 0.052078020567793974, -0.15813230257580055, 0.2118793342046649, -0.08726503855902012, -0.1531466074959796, -0.041450680119833355, -0.11833376290364779, -0.07926586081687216, 0.03178023443162312, -0.011723126621357964, 0.009953067056735045, -0.1176654937449231, -0.0073179936379000185, 0.02424833082205581, -0.06251778510767984, -0.0370932585570825, 0.023161202569414507, -0.25546337348056875, -0.02590378749632537, -0.061715578020527774, -0.005384602454775116, -0.06558309458336453, 0.06574087142155767, 0.017386115183922513, -0.05093858802701772, 0.1168716041942455, 0.0996513657905156, 0.07294388295192514, -0.06480479118074715, 0.0636163547115504, 0.08565465158094222, -0.013349723318145776, -0.19689836117776088, 0.05168231285291535, 0.08092523794794275, 0.048937729809273106, -0.036069609187747896, -0.03972661854142684, 0.0036335638947040325, -0.0842809970694289, 0.08246116868303327, -0.03683636426726264, -0.039915577458067716, -0.11227650829749103, -0.03140599353999699, -0.0042330095972600915, -0.26496079045696547, 0.02547820173961171, -0.06888819678331153, -0.09510225885406212, -0.1519702212304178, -0.013603364802316921, 0.18788943388841775, -0.14319937967756244, -0.14900334729732673, 0.13477641485447775, 1.3640024357754445e-05, 0.09422051440361638, -0.026890329013835958, -0.1315523776263041, 0.061343967712206716, -0.01727255916234972, 0.07730562618444577, -0.18771497306431062, -0.1271764036100673, 0.11368686306609943, 0.02229477552700473, -0.10111816486669123, 0.011337968527464727, -0.02681379465703723, -0.10237244338407413, -0.0009773529945393549, 0.014125619340611725, 0.038425057451363875, 0.19535288437016973, 0.0061285706623846565, -0.2672394449958336, -0.15829146082678702, 0.11824820375248651, 0.1477855363791877, 0.08080792859846782, 0.044148501838937496, -0.11508203130402, -0.12657691056341427, 0.011879753904552742, -0.020058113760541684, -0.13049042242355874, -0.11115071434336983, -0.10546044452282316, -0.13821842107560153], [0.004186177588344744, 0.09404345043782165, -0.058681792259416124, -0.14475499038597658, -0.07669222463733798, -0.1065618511949352, 0.16710871438176852, 0.056589200319063726, -0.13352347641264123, 0.08394349592290636, -0.06253032108997202, -0.19251246221800414, -0.012297318905182502, -0.06754187326074824, -0.07432972292179467, 0.14836081679719818, -0.12635809484131658, -0.12556420774471053, -0.054872486255575226, 0.16212181098938666, 0.16316280840375794, 0.07349249631585553, 0.08874595774065971, 0.0548096549821026, 0.06921299721084466, 0.05195641195031778, -0.008973787987470696, 0.015328580349193141, -0.21487440394923518, -0.1303588928386485, -0.09942886416414902, 0.010511598926574422, -0.016073261428976863, -0.1614541850598158, 0.060265673063628324, -0.016185451679991063, 0.011576748773018885, -0.06284697173921702, 0.003531042657418557, 0.041527345465746573, 0.1303021828668863, -0.07512043460572637, -0.08375149474327422, 0.03478275081598521, -0.013700910822491589, 0.007715165583630313, 0.06700273584451939, 0.1284118999766405, 0.1108479725039103, -0.03601983996608004, 0.060022236539451636, -0.0729368936817678, -0.05175454500912181, 0.10064107952833919, 0.10729656700201383, -0.10953061811316103, -0.017106343143578926, -0.03757041447223536, -0.11755811360511273, 0.03480486150493425, 0.08195635822617, 0.21228214163968095, -0.05400769212717504, -0.2917519762719521, 0.07280355261481214, 0.12416747264442785, 0.11126420994046177, -0.12167509450574883, 0.002665602993563684, -0.08851623274970555, -0.002624901725914912, -0.060074223390951836, -0.09909982265721379, -0.0018171841630894353, -0.06687435312898307, -0.08618425310146652, -0.16717295980376382, 0.14940380463194353, 0.030073538393309868, 0.004909335856152945, -0.13810985261040196, 0.08493435159771132, 0.062025744818264984, -0.027450848294645877, -0.13545617252921577, 0.1492460110633895, 0.05784365935121619, 0.033799151544666346, 0.20705806550253214, -0.052018731092687114, 0.13622192521021267, 0.1326647532624212, 0.09538096122050982, -0.05804303747536278, 0.1106603819390867, 0.06559698726224099, -0.025987283780771888, -0.06073355561083298, 0.021178204427372307, -0.1646197298425946, 0.043350693557124335, -0.08708403131561308, -0.008274767724470786, -0.036587139817669125, 0.024972496698742953, -0.09244169780836961, 0.16665775310395115, 0.03423877397249355, -0.01432575110985889, 0.038123201855789934, 0.1416962467742344, -0.08263902521199035, -0.10218036640608011, 0.051632712686974384, -0.06333333097198629, -0.15166478623145657, -0.02655544682986401, -0.10459385906058541, 0.21328893894343992, 0.13209311618867212, -0.037715480572932246, -0.06335053375748449, 0.044625798245952926, -0.060872028160898775, -0.07026410404968807, -0.02968897383491456, 0.0724208186513302, 0.07543442717140275], [0.017314892601954734, 0.10992878175377124, -0.019070216782493585, -0.13908012443724832, 0.03118340613198356, -0.1100525330626029, -0.09607628549509029, 0.10880097968445071, -0.05776380720685434, -0.09704582006527457, 0.17445233978399266, 0.06909110934848069, 0.01918957454286194, 0.0777201457963739, -0.07991816291104349, 0.035761134156811925, 0.0012437304169537727, -0.0573824471349158, 0.09789847661816589, 0.1787189623200144, -0.009386342605114598, -0.1467403625122836, 0.033626743172299876, 0.09096129430335528, 0.028838784402282908, -0.009333992159206791, 0.060178192747505466, -0.05781922170467468, 0.034833346899236395, 0.024411151685571446, -0.10506446030663281, -0.09027999013838267, -0.01740288440336663, 0.12321314321104536, 0.18608888547690783, -0.12404045710369171, 0.18799752934767433, -0.03889263502725582, -0.054858303254787015, -0.09992842812182623, 0.019415514594191653, -0.0831524466279889, -0.06041512240775753, 0.1534673296961469, 0.05624202802844513, -0.05886339722371873, -0.10745588667910472, -0.12154959064783073, -0.12070448350832211, -0.14301303801732818, -0.057481397090331954, -0.09819105135966724, -0.04312735566298624, 0.04444825466022887, 0.019623625359330044, -0.0016861105661860531, -0.15608137321052257, -0.11477228241408866, 0.011135690957834057, -0.015386182191767232, 0.04672115318039534, 0.06960716435921808, -0.019822136712291237, 0.11865003177949902, 0.10096089149322157, 0.0827501775521985, 0.10677976972496794, -0.007257029415457316, -0.07481832169565991, -0.009214079655382746, -0.18497208885816682, 0.1323359485903207, -0.07651335797988511, 0.17520696892496848, -0.0843047714923596, -0.052048951983702345, 0.014152247872548325, 0.18929611164792787, 0.12280166935730862, 0.08876496184586263, -0.058632634123888853, -0.08585548650420156, -0.004472542081342786, 0.01788017457106782, 0.10194739546517236, 0.09082423484666012, 0.01372094086803407, -0.06754912749739282, -0.0035489607193081828, -0.15434381475375938, 0.12062398123360907, 0.06887510296464515, 0.029760617332705314, 0.0044671572823660145, 0.12067537431255931, -0.2094142144105333, -0.007916213490828742, 0.02512174028071919, -0.06422768039625296, -0.11097118292963999, 0.07673422325048955, 0.1589619289984573, 0.2855285786787553, -0.007073850368425984, -0.08306260348407751, -0.18603385019366125, -0.09300699423678216, -0.07134473693193377, -0.049209238348310314, -0.01763993681671979, -0.08699317097818039, -0.033047806516900646, 0.04946495287858906, -0.10867588878216908, -0.07707945554820522, -0.028935108712068315, 0.06797746826095627, -0.1238413774521816, 0.13372902958635985, -0.08416048611660146, 0.09736288132387944, -0.00018984807567578484, -0.013219098129064613, -0.05390951687522577, 0.09062818121724776, 0.14539633442311786, -0.06288386038463759, 0.011147368262321539], [-0.09942641420905288, -0.055420661582250445, 0.035236915711457595, -0.13252064475370792, -0.1000876676751743, 0.14592854059974622, 0.10340017726718186, 0.18718335743300907, 0.21000823116478062, -0.09703325553236831, -0.09683545990792719, 0.04721302283126011, 0.1643565455915675, -0.0015659801727755465, -0.13494982376032366, 0.05217473408345949, -0.03976409287507949, 0.013115654228720117, 0.0037840299789791846, -0.13394126972449336, -0.20543598029027793, 0.0038428361817991114, 0.0019056638675898586, 0.038910219430837834, 0.02583133572841206, 0.025956690291234676, -0.036445114390533176, 0.026427620611429666, 0.04754945629732872, -0.07587146729690165, -0.06925348070596159, -0.13450965325908304, -0.11327491319185963, -0.0006889436379701279, -0.05821690326161549, -0.0311692871278795, -0.06660620457520615, 0.03895536319365092, -0.1522744903948206, 0.16677524509524777, 0.059977226658324945, -0.12577051186376295, 0.1542291848186187, -0.13598524825835814, -0.1269366715870249, 0.10229858784202561, -0.05429610404721692, 0.005057558767276752, -0.18419467246485025, -0.08201562304504387, 0.0528221160013512, -0.10446554942194007, 0.022791139133017307, -0.10420041071820235, -0.11239167271626263, 0.0373406575872118, 0.04191283341893323, -0.022254750256076716, 0.019550011695315894, -0.020201250195022197, 0.008340880658721147, -0.039907831587299374, -0.2295436227952318, 0.06555621720603151, -0.09005681304581334, 0.059548635740396455, -0.06494485537829982, 0.05500229722497581, -0.2598299093325888, 0.07783386606839121, -0.06505773790903814, -0.10971230863309232, 0.08076817124447856, -0.011692220738545102, -0.06949733647921268, -0.15046636896076726, 0.025378512978152842, -0.03929934291564545, 0.05013309521346063, 0.04866692870240621, 0.014799950814998976, -0.15327886821269818, -0.12923935466707456, 0.129000786037288, 0.04459235270230378, -0.04921722131585475, -0.21475697012091355, 0.07863084291662312, 0.10430331778545104, 0.07601519237792831, 0.029596059786986675, 0.03676215489752798, -0.0602823519957684, -0.14731177461280018, -0.011349368673276228, -0.08105462324567798, 0.007577430574984712, 0.15398928618403526, 0.03293573176929353, -0.03152025211803288, -0.08730687487417488, 0.007651144092756514, 0.04480419462777931, 0.05714701422561546, -0.04726770323009047, -0.1895361323312435, 0.04022923576845467, 0.0769138941792607, -0.05048544402993245, 0.07498907242974066, 0.08716138156762793, -0.06279643611508354, 0.03533717646008, -0.1665378833710703, 0.05033611526086719, -0.013303460860647147, -0.08733921257424675, 0.22084984520184367, 0.024133222250233455, 0.008457386277556364, -0.06656995325743158, 0.15624612446658637, 0.04430435897957936, 0.09079187953890155, -0.1894277451237452, 0.07095456024598108, -0.08508102408257373, -0.0915113636020625], [0.09488556007471224, 0.16882797965754948, 0.10085145671230325, 0.07952324405372113, 0.13387972082080565, -0.018598368206561213, 0.04660599949860772, -0.14306491252697612, 0.16063108058454145, -0.16468842800229277, -0.0238840315375738, 0.09739040164667334, -0.08280623125984671, 0.03281049543392118, 0.04594907036235694, -0.1992244765054471, 0.16756471029576883, 0.18883694469541115, -0.03906138075728116, -0.08953089561644983, 0.06808600949833382, -0.04396532867579703, -0.02370003104402452, -0.042567118977825086, -0.08948370119256167, -0.06275227507572, -0.09686057437084339, 0.10092812461037193, 0.18331050701011495, -0.044250304090384454, 0.16808473971385984, -0.08349593319592902, 0.20028269582376282, -0.04725628807549047, -0.04089662831034767, 0.06510358915622215, -0.0033721986043496292, -0.0887822486051031, 0.029485128257639853, -0.05850190530897958, 0.012335077153631493, -0.02833582444682573, -0.221602685961375, 0.12434401448064454, -0.11440701327320107, 0.027308948117543187, -0.023329223581328613, -0.04968871162014123, 0.2148913715429889, -0.11656020104360446, 0.11648867370175349, 0.11934541464439236, 0.12035123993582363, 0.013989829061601296, 0.12105885988329473, 0.04094511435432974, 0.015890193659008192, 0.1599204373252403, 0.1002576289783565, -0.07086811523516126, 0.06229466192657438, 0.021023176397166277, -0.060753568191334484, -0.01994461187897587, -0.039789229539312757, 0.1554226323674555, 0.08760362129428924, -0.14134506898564422, 0.12726097628435304, -0.024966582013167163, -0.032096837701758744, 0.06234170457504362, -0.20245181515531308, 0.12700499500644533, 0.18142576812056374, 0.04687697907301082, -0.1725218660554307, -0.03905472691484504, 0.0502412648941421, 0.14944833059059967, -0.09407761759638374, -0.02967638261124387, -0.08346503980019482, -0.09534309890037101, -0.09093777696124508, -0.005523769187437761, 0.09341749562726422, 0.12228731911983795, 0.11167010729581904, 0.09156798010346681, 0.19749629806810476, -0.07686559050523682, 0.13300715510434466, -0.07687740785584467, -0.1612891878364602, 0.044333470217892745, 0.00821138943246709, -0.05063839615709385, -0.017875855462317455, 0.09074332070489022, 0.11886785487242202, -0.07987331865915417, 0.17167411182150413, 0.029350439196619123, 0.021461909096961815, -0.21638262610880946, -0.02626289534473841, 0.13977292988203993, 0.10287628866062618, 0.003660078754731562, -0.1327741114406238, 0.07140231906695699, 0.15332615579927308, -0.052256184636663344, -0.07326961178861274, 0.10503797158264737, -0.10858185817460538, -0.0006974636066104967, 0.1444205072030634, -0.07897946008519768, 0.04890637303426142, -0.07354823019327959, 0.12832748168133035, 0.131800158860219, -0.010120710210548459, -0.19528555621708268, -0.03301080986115911, 0.027804930289470193], [-0.1503812503417599, 0.16208746739257474, 0.030479386554760318, -0.10818945457764824, -0.19346879011905285, -0.10732083796986676, -0.11675940675942546, 0.07202164326239917, -0.030360928867223788, -0.15202708836113685, -0.09940041352478074, -0.0921387579021189, 0.00043949578181662547, -0.074815705531716, 0.018729627428622032, 0.08946117998263195, -0.05755750148306922, -0.09417271406446573, -0.05994592738850718, -0.0805283818487778, 0.02823927915762576, -0.07416421747691536, -0.11868533807788016, -0.23432962632102436, 0.024846964361052964, -0.06603786705255625, -0.19928129465821184, -0.04349552027838577, 0.05029972837734641, 0.03271975428141381, 0.02095646671409937, -0.043041338186237274, 0.05983604462242437, -0.12263783601229458, 0.06318686046235106, -0.16778092806225364, 0.18477177602409653, -0.16691351418491873, -0.004579563702345872, 0.029892880128363022, -0.17422982075917054, -0.11920733290824759, 0.06060831942475237, 0.009713781462023476, -0.06947762952363758, 0.21888421985830006, -0.060036830360035556, -0.28996133134316243, 0.02355496787957001, 0.01714631329974039, 0.19995745340772644, 0.19730055017540898, 0.10833338039442222, 0.11856708595307056, 0.12084572073175795, -0.11955801468542866, 0.0006723455700365644, -0.186228124934992, -0.14569620515848572, 0.23587614891632486, -0.0895297728691565, 0.0651690688385107, 0.24850982460843568, 0.13144663567546078, 0.10305596255604935, -0.10653957673055739, -0.10222120369055168, -0.018969363707437955, -0.17499245461613847, 0.031134139404071722, -0.0842317183163311, -0.19207159079372746, 0.062068403854969915, -0.11739966654758187, -0.016831730189143815, 0.016417458747316094, 0.06265899478947064, 0.04095706652228627, -0.03447995992786736, 0.29618488952472677, -0.04477599203577923, 0.11289725412527474, -0.0359345563526218, 0.06983459466569286, -0.12085307875432505, 0.02634377012547103, 0.1589874624119952, 0.07252887747257515, -0.00759389429512429, 0.11330730782746404, 0.01083115001702851, -0.04989678033307544, -0.23071424769953894, -0.10331167719161541, 0.003180725938805705, -0.045394822738521134, 0.039813280259330515, -0.10304678691130659, -0.1137220777043434, -0.11680688243407611, -0.12180377368999384, 0.11130975881962167, 0.05213998946908348, 0.35063222670912303, -0.04468898725931884, 0.06067096530102902, -0.16873757964115474, -0.16254097352836308, 0.11795812082829647, -0.17836929626268044, 0.18698362556048223, 0.13728089929708184, -0.13917742847253298, -0.10270115160124899, 0.012358021065609185, -0.026141450235202035, 0.3704714992475984, 0.13746446462411424, 0.08283249572760783, 0.014546763258839017, -0.17329293169071058, 0.04424700394635648, -0.03217271490449485, -0.06326496919127464, 0.08140264283567711, 0.10444038626390265, -0.22238770344041292, -0.169613012637169], [0.16736769344819213, 0.007096954425950957, 0.04756412300353476, 0.02161784980244291, 0.27429896657751845, 0.08882657805396775, 0.09178469622003625, -0.09311110650925208, 0.05087048007833878, -0.13613197661587428, 0.02824917160065038, -0.17759769280084692, 0.07513977252973184, -0.18433991226709814, -0.11108758849540142, 0.14303432464046453, 0.17203485548980474, -0.07825620673774632, 0.13459216190720308, 0.04857772565630439, 0.19697108616067277, -0.04605073836255232, -0.04715369757121175, 0.07880464269406112, 0.11366921029402118, -0.08709625793732367, 0.08770585428423192, 0.08639979660667833, 0.05528737563054159, 0.17797051930394994, 0.04338955248053512, 0.03333475033038473, 0.006500002674487342, -0.328534648705501, -0.08842249916811254, -0.16516424460294613, -0.015435198984037364, -0.05099883637407343, -0.0007274712816690518, -0.12948035181926218, -0.023680500456440653, 0.33237658315263086, -0.26489105391690776, 0.009103592114294456, 0.13579053564547203, -0.13078257813489433, -0.14051680275561723, 0.031144647347882998, 0.04131331985324088, 0.0384958298615217, 0.09166185689397338, 0.08255410753012789, -0.17649016331605927, -0.0017925626345268364, 0.1082286667202706, 0.15473933033939702, 0.3392638169313871, -0.14008772147944631, -0.18660836829757452, 0.2229631123824123, -0.28853524408263564, 0.005342110615345626, -0.02369288218045759, 0.25232063061065957, -0.1128220245818496, 0.05694184700124915, 0.0788825884245734, -0.2629011390509098, -0.14440459565982153, 0.007480542212668334, 0.03455379561111292, 0.24269129838442693, -0.012785970743130313, -0.06131786178571719, 0.0652791890408497, 0.19344568559305686, -0.1352374016135713, -0.1789929611632166, 0.2356769823258209, 0.16281205367918763, -0.05829380097649073, -0.1041333022921751, 0.3265053236373235, -0.15398506789813754, -0.019089590633297918, 0.046032556633531195, -0.17124978905908572, 0.2659685573292189, 0.04504224209848713, -0.079325035913008, 0.10102945363985437, 0.08344360513339542, -0.08975598795900601, 0.1713261953147195, 0.0007507325803125682, -0.0005971361743579694, -0.01712305366424385, 0.0949483789758016, 0.03064103597145787, -0.009754295549651414, 0.09703249459960336, -0.14188749858114738, 0.3795152518785203, -0.14871605293533235, 0.22126646474911507, -0.11787892836248462, 0.026838404759804327, 0.03310182591929531, 0.0938843400490542, 0.01971087771837895, -0.13103504422925125, 0.07064284821217659, -0.09761112794447112, -0.08624004445020263, 0.23060489060240022, 0.08790389830334511, -0.2299266027420025, 0.06130504819575007, 0.05056035025545235, -0.03010698417117958, 0.08691081527483226, 0.026450041856889747, -0.007543755417986162, -0.20930642500434846, -0.08876865354389801, 0.021473720672956765, -0.1498381208610578, -0.007919807326564476], [0.0927766032427936, 0.03382347787546397, 0.0581009097799983, -0.20544678170364758, -0.06885058947812504, 0.22598257857744763, 0.11715866842313817, -0.019474658033080527, -0.11248996486062418, -0.05543834072425538, 0.0686155460092836, -0.09798660377093646, 0.223394679657793, -0.0626783082495797, 0.011590235230860713, 0.11149746341237793, -0.06339267280593795, 0.1588576700861918, 0.16103296527759947, 0.08227568312810361, 0.30961302521013107, 0.13180173691748137, -0.13761350259877736, 0.018536686764980333, -0.0725948358393816, -0.12147510636672353, 0.280268499789776, 0.04937071383385254, 0.00920625962351739, -0.12102629006318855, 0.026642151986698948, 0.12906831352294854, -0.036082946111004946, -0.03114251840854883, -0.014556184745983889, 0.0045335518911820746, 0.09983246267432748, -0.2078689263961676, -0.07211739587571263, -0.06680040798554929, -0.02220658359481295, 0.2683559295488031, -0.01810254124927371, -0.29026726047159074, 0.013657364601985692, 0.20766665709937945, -0.010612260607949169, -0.07111984607603351, -0.0644993196136002, 0.17850812948117722, 0.20037732716847267, -0.19816935700569818, -0.005746438196332897, 0.07317590314604841, 0.10138999910323084, 0.04593609645852512, 0.33802645106548485, -0.21601156407869745, -0.18393400384383485, 0.12641543919388135, -0.18739440962420081, 0.12923834329213735, 0.03007261456142313, 0.04381035294329294, -0.09464692132359673, 0.09538353743169382, -0.19281299720593054, -0.12767579518012262, -0.021605454272375292, 0.014157128965498584, -0.17381090924074122, 0.23776344048313966, -0.08531010040170464, -0.006734434677029812, 0.2360177020763035, -0.05872499608208544, 0.32504893965681453, 0.0730430739465642, 0.15257205447868236, 0.22099329443473772, -0.04750638152087046, -0.15112806341266752, -0.04329593539077024, -0.2352123755031576, 0.1531094832582333, -0.034867552813719616, 0.19892612913724636, 0.12895233627178662, -0.2159347406921101, 0.17349152694319467, 0.08565977140520792, 0.14144379163485649, -0.2526445231824753, -0.2009142962372708, -0.19335079338633387, -0.13614994922752305, -0.01476623899207129, 0.1718797159712623, -0.14963496833246034, 0.005133799531648536, 0.16082568559476074, -0.14923566722714407, 0.2223760286148139, 0.06273898626667314, -0.12277128832655171, -0.06972698623530267, -0.06107444523857228, 0.0313775662289903, 0.03574345216199597, 0.03117499619799499, -0.04216489268794676, 0.00014539411498614577, -0.08716565158028756, -0.013954773084863873, 0.48291691661186315, -0.12051218357310413, -0.12280270599992002, -0.1373525459044248, 0.18347896559467086, -0.0721525223425609, -0.0037864579084688622, 0.07547466274857928, 0.018868405195496388, -0.16721707749835066, 0.16934268912925396, 0.2365501628798948, 0.00735181070204775, -0.11758256242820785], [-0.07631366990721705, 0.018707691989089816, 0.21406824335600705, -0.03537090953043742, -0.052870483079155435, 0.04605666439031467, 0.015252405331754792, -0.06548988192497204, -0.001346830031997848, -0.09102122289041102, 0.2433283280815458, 0.11229037902517351, 0.09544280081783121, 0.043508994110751, -0.10550041904651133, -0.03973912547277605, 0.03800437859641548, 0.18192579876488774, 0.12878176042298345, -0.03933187673891092, 0.1636572891537841, -0.20516631309767136, 0.045056321176665234, -0.02928758624112371, 0.008078559721428492, 0.18246035893288137, 0.08178098196345716, -0.03922351275749759, 0.21636786334070846, 0.13811045159361954, 0.03277920180240082, 0.0268232866976718, 0.03571386169075226, -0.022401015481150848, 0.17168883812884705, -0.02609303522207092, 0.10274007445404426, 0.03502481619440938, 0.12355385806875228, 0.1919627327809221, -0.18689873207210478, 0.12099187080750495, 0.28351344481413476, -0.44048886034817375, 0.10114935352776169, -0.01175572024395511, 0.02591666177113872, -0.10966763904480521, 0.2136394107928589, 0.26496239883223394, 0.06355282962975455, -0.17967269464507551, 0.054915852013634116, -0.0352077860313799, 0.26193510821040517, 0.1128277080044173, 0.16838304756394876, -0.031434142726864005, -0.22034916385245107, 0.20127035399541898, 0.13545481739938905, 0.10579077091501589, -0.06574268881260958, 0.12723575575696108, -0.09932207379950501, -0.038752069523767814, -0.14967055822044012, -0.10579984227025058, -0.3588549816650084, 0.10807274066234662, -0.08461287964733784, 0.23725334750631868, 0.11368679990798207, 0.20153063203830165, -0.20754399552385935, 0.2947413917879164, 0.15136084680550602, 0.027330841054291784, 0.05884845165621619, 0.2952783270038461, -0.13335948630069727, 0.13573716838009595, 0.09395791207860016, 0.08585037936400515, -0.10123310950295536, -0.11608805676399346, -0.07550526759236134, 0.15370846164543794, -0.08330174349278766, -0.15404676656957786, -0.0487515357739507, -0.30800931303199736, -0.15430366264378748, -0.10283861782543985, 0.08349669440642804, -0.10041081659331323, -0.05249634543783887, 0.18994369755342114, -0.1324410750096687, 0.08381267874854535, 0.3871180927253809, 0.27288903225472494, 0.13898141983709122, 0.12098990830187385, -0.023938739715629487, -0.21304791855955776, 0.09328835944624, 0.106001745463833, 0.2193968628027577, 0.012534637109819549, 0.14011619181040838, 0.01200666384454141, -0.12569653164530695, 0.18220412716914583, 0.32497821942949645, -0.1770436018479763, 0.04739174964941525, -0.2162131899306154, 0.07295195188092767, -0.009543661729710863, 0.08831111992960196, 0.0918445297433458, -0.11460350639189998, -0.07497365592597946, -0.12419598259777254, -0.062278423704528595, -0.11459483673344203, -0.09371655296353451], [-0.19338617087835897, -0.061011547111149415, 0.008025979167097288, -0.07331437828562493, 0.14229626274002558, -0.2564721453000985, -0.28134184693611713, -0.10027610455228678, -0.017338444462384448, 0.1831289786466702, -0.08005770111864935, 0.025285866846700762, 