[{"layer": {"type": "Dense", "weights": [[0.17640523612499237, 0.02480895072221756, 0.13093438744544983, 0.1943172961473465, 0.18675580620765686, -0.125088632106781, 0.09500884264707565, 0.02035721018910408, 0.028529126197099686, 0.06447220593690872, 0.027339553460478783, 0.11569683998823166, 0.04328093305230141, 0.012167501263320446, 0.04438632354140282, 0.03336743637919426], [0.14940790832042694, -0.03576258197426796, 0.06455092877149582, -0.11518160253763199, -0.2552989721298218, 0.03800097480416298, 0.08644362539052963, -0.03894491121172905, 0.2655370533466339, -0.12174374610185623, 0.017273761332035065, -0.048449695110321045, 0.1204395443201065, 0.14693588018417358, 0.01549474336206913, 0.03781625255942345], [-0.08877857774496078, -0.21329554915428162, -0.0017282577464357018, -0.014137154445052147, 0.12302906811237335, 0.0928770899772644, -0.038732681423425674, 0.00526111526414752, -0.06601095199584961, -0.1185830757021904, -0.1576930582523346, 0.16534700989723206, -0.08378805220127106, -0.04380742833018303, -0.1252795308828354, 0.07774903625249863], [-0.1613897830247879, -0.03647762909531593, -0.05656414106488228, 0.00891822949051857, -0.05108051374554634, -0.14542406797409058, -0.0028182228561490774, 0.07841446250677109, 0.045615535229444504, 0.05356073006987572, -0.050402045249938965, -0.06600441783666611, -0.10005902498960495, -0.035955317318439484, -0.08131463080644608, -0.1726282685995102], [0.017742615193128586, -0.05542416498064995, -0.1297946572303772, 0.016506170853972435, -0.09072984009981155, -0.022157780826091766, 0.07290905714035034, 0.048189569264650345, 0.15252737700939178, -0.09981715679168701, 0.05295366793870926, -0.09821221232414246, -0.11991770565509796, -0.05788496881723404, -0.03115525282919407, 0.005616534035652876], [-0.11651498079299927, 0.07484670728445053, 0.07978782057762146, -0.18339639902114868, 0.14882521331310272, 0.1622280776500702, 0.11787796020507812, 0.01730884239077568, -0.06847552955150604, 0.1290983259677887, -0.027590647339820862, 0.09251333773136139, -0.012009277939796448, 0.09766390174627304, 0.03563664108514786, 0.07065732032060623], [0.0010500020580366254, 0.16336210072040558, 0.04580824077129364, 0.010426892898976803, 0.18831507861614227, -0.1621367484331131, -0.12704850733280182, 0.13236163556575775, -0.07855500280857086, 0.21785761415958405, -0.028505461290478706, -0.10447611659765244, 0.15946578979492188, 0.14805148541927338, 0.18675589561462402, 0.09060446918010712], [-0.08612256497144699, 0.1757526844739914, 0.006488523446023464, 0.05047357827425003, 0.09472519904375076, -0.04286189749836922, 0.06140793487429619, 0.1274370700120926, 0.0761336013674736, -0.08618289977312088, 0.04246113449335098, 0.10290710628032684, -0.10230166465044022, -0.014963454566895962, -0.04351535439491272, 0.184926375746727], [0.06722947210073471, 0.02550087310373783, -0.04379291832447052, 0.02415286935865879, -0.06743326783180237, -0.024177847430109978, -0.06358461081981659, 0.10296491533517838, 0.09628686308860779, 0.002792197745293379, 0.05235152691602707, -0.13903723657131195, -0.18196320533752441, 0.043939169496297836, 0.016667349264025688, 0.06350314617156982], [0.23831449449062347, 0.07923367619514465, -0.058236509561538696, 0.08192963153123856, -0.13159073889255524, -0.07351934164762497, -0.0068241604603827, 0.20684078335762024, -0.03561053425073624, -0.05925177410244942, 0.0031066653318703175, -0.0960782840847969, 0.07984291762113571, -0.10799314826726913, -0.11474686861038208, -0.043782006949186325], [-0.049803245812654495, 0.17769648134708405, 0.12822912633419037, -0.021016934886574745, -0.12254355102777481, 0.05707541108131409, -0.10002153366804123, -0.11925718933343887, 0.15729784965515137, 0.05544527992606163, 0.10472738742828369, 0.002141285454854369, 0.05283939093351364, -0.06510256230831146, -0.10342428833246231, 0.06815945357084274], [-0.08034096658229828, -0.08418300002813339, -0.012396738864481449, -0.02802412398159504, -0.03539939224720001, -0.16484738886356354, -0.06436184048652649, -0.18696337938308716, 0.10121873021125793, -0.13664883375167847, -0.0976279154419899, -0.02451442740857601, -0.10678932815790176, 0.1543014645576477, -0.12928569316864014, 0.02670508623123169], [-0.003928281832486391, -0.1319885104894638, 0.08519332110881805, -0.04692661389708519, 0.07717905938625336, 0.055006738752126694, 0.2163235992193222, 0.16938196122646332, 0.00225349934771657, -0.0007994779152795672, 0.12315896153450012, 0.03579648211598396, 0.03120543248951435, -0.16169559955596924, -0.002432612469419837, -0.07380308955907822], [0.027992460876703262, -0.025050383061170578, 0.12419462203979492, 0.0019497834146022797, 0.07863279432058334, -0.0739942342042923, -0.0944446250796318, -0.005641072988510132, 0.03698231652379036, 0.061504971235990524, 0.23872660100460052, -0.03395684063434601, -0.12843410670757294, -0.034598179161548615, -0.0463595986366272, 0.04814814776182175], [-0.15407970547676086, -0.008900906890630722, 0.04878833889961243, -0.0065539125353097916, -0.059731610119342804, -0.051144469529390335, -0.14240609109401703, -0.01392256561666727, -0.015540512278676033, 0.0651409700512886, -0.10277286916971207, 0.04838886111974716, 0.11661490797996521, -0.20699849724769592, 0.042625874280929565, 0.06769080460071564], [-0.0637437030673027, -0.05493374913930893, 0.019585251808166504, -0.059551071375608444, -0.03090129792690277, -0.19496122002601624, 0.1152331605553627, 0.14365443587303162, -0.04220280796289444, -0.12346486002206802, 0.06527198106050491, -0.08730904757976532, -0.01862061396241188, -0.03193284198641777, 0.06915387511253357, 0.06947491317987442], [-0.07255973666906357, -0.1535990983247757, -0.12505821883678436, 0.031265925616025925, -0.11888592690229416, -0.07804252207279205, -0.05963140353560448, 0.030005427077412605, -0.15505747497081757, 0.04256889224052429, 0.06508153676986694, -0.020889466628432274, -0.06393332779407501, 0.009740016423165798, 0.03990463539958, -0.27725929021835327], [0.19559124112129211, 0.023767385631799698, -0.03209133818745613, -0.0688672810792923, 0.04937417805194855, -0.03894534334540367, -0.20306845009326935, 0.24182340502738953, 0.027649665251374245, 0.12557493150234222, -0.056392353028059006, 0.12390643358230591, -0.004198633600026369, 0.06088438630104065, -0.10452534258365631, 0.12111452966928482], [0.06898181885480881, 0.11460291594266891, -0.028646061196923256, -0.07787450402975082, 0.23039166629314423, -0.13336241245269775, -0.013594970107078552, 0.14787492156028748, 0.04695260524749756, 0.08320752531290054, -0.028407085686922073, 0.007270712871104479, -0.16364891827106476, 0.16581307351589203, -0.01181640475988388, -0.06801782548427582], [0.06663831323385239, -0.0618562176823616, -0.09837964922189713, -0.1644435077905655, 0.06937731802463531, -0.043309636414051056, -0.013370156288146973, 0.14094632863998413, -0.07686780393123627, -0.04692099988460541, -0.028049832209944725, -0.020302314311265945, -0.03729938715696335, -0.028688719496130943, -0.006162640172988176, -0.010730527341365814], [-0.0719604417681694, -0.09706440567970276, 0.062480777502059937, -0.1188632920384407, -0.11573553085327148, -0.0585901103913784, -0.015766700729727745, 0.25894832611083984, -0.03454461693763733, 0.12041576951742172, 0.08526800572872162, -0.14863170683383942, 0.04426038637757301, -0.11838807165622711, -0.26591724157333374, 0.06063195690512657], [-0.17558906972408295, 0.02923540025949478, -0.02915707789361477, 0.13618385791778564, 0.10685093700885773, -0.07269091159105301, -0.06878376007080078, -0.09063521027565002, -0.012403586879372597, 0.002309451811015606, -0.02901301346719265, -0.014071035198867321, 0.024510156363248825, 0.03496544808149338, -0.07641439884901047, -0.14377914369106293], [0.13645319640636444, -0.08525413274765015, -0.02311207726597786, -0.08189027011394501, -0.18430696427822113, -0.07514972239732742, -0.047965582460165024, 0.08983784168958664, 0.09725474566221237, 0.0346815399825573, 0.09730213135480881, 0.004250196740031242, -0.03513914719223976, 0.01609281823039055, -0.01906534843146801, -0.03948495164513588], [-0.026773354038596153, -0.1290818154811859, 0.0699291005730629, -0.12908369302749634, 0.0841631293296814, -0.052289534360170364, 0.004949498455971479, 0.07725749164819717, 0.09184789657592773, -0.12289922684431076, -0.01648208685219288, 0.058272045105695724, -0.2033359855413437, 0.03872804716229439, -0.225556418299675, -0.10225068777799606], [0.003863055258989334, -0.17969119548797607, -0.06440742313861847, -0.17695260047912598, 0.16481350362300873, -0.010920895263552666, 0.0567290298640728, 0.01910109631717205, 0.00973945576697588, -0.14087659120559692, -0.000651613634545356, -0.10586944967508316, 0.053026627749204636, 0.11411018669605255, 0.14665786921977997, 0.0852551981806755], [-0.05986539274454117, -0.1268959641456604, 0.12009087204933167, 0.005859808996319771, -0.17685385048389435, 0.008195864036679268, 0.08145198225975037, 0.03749201074242592, 0.012813877314329147, -0.04782656952738762, -0.12716256082057953, 0.05028862878680229, -0.06439150124788284, -0.023346666246652603, 0.17327211797237396, 0.06845011562108994], [0.037082500755786896, -0.0014080172404646873, 0.19652949273586273, 0.14218907058238983, 0.09295051544904709, 0.03087013028562069, -0.2094603031873703, 0.041391048580408096, 0.014982695691287518, 0.044754285365343094, 0.09920851141214371, -0.30371180176734924, -0.090492382645607, 0.026990434154868126, -0.04668455570936203, -0.14169061183929443], [0.08689635246992111, 0.01684165559709072, -0.09534446895122528, 0.0017156326211988926, 0.08215857297182083, -0.026823054999113083, 0.08005648106336594, 0.07376819849014282, 0.03567447140812874, -0.12553595006465912, 0.04650319367647171, 0.04821987822651863, 0.0665215328335762, -0.011510747484862804, 0.04574156180024147, -0.09646119922399521], [-0.07826291769742966, -0.024457881227135658, -0.07108458876609802, 0.05225749686360359, 0.04631303250789642, 0.0005486687296070158, 0.033890411257743835, 0.24747157096862793, 0.0024199089966714382, -0.20173972845077515, 0.05226890370249748, -0.03476027026772499, -0.08418189734220505, -0.09788298606872559, -0.043918952345848083, 0.018133843317627907], [-0.050281669944524765, 0.2267654687166214, -0.05636505037546158, -0.10908018797636032, -0.228862002491951, -0.0022038808092474937, -0.20164065062999725, -0.017146751284599304, 0.010861674323678017, -0.043963536620140076, 0.19705511629581451, 0.06971389055252075, 0.09898248314857483, -0.08824188262224197, 0.11285940557718277, 0.04960009455680847], [0.07714059203863144, 0.09520845115184784, -0.11243441700935364, -0.07219525426626205, 0.08625960350036621, -0.2929227650165558, 0.1513328105211258, 0.13812360167503357, 0.0886312797665596, -0.014916175976395607, -0.029489386826753616, -0.0052837044931948185, 0.09058357030153275, 0.12980221211910248, 0.26962241530418396, -0.007392466999590397], [-0.06585529446601868, -0.06269433349370956, -0.08615320920944214, -0.037551216781139374, 0.03827324137091637, -0.030776549130678177, 0.10963468998670578, 0.033047452569007874, 0.0279580969363451, -0.05264078825712204, -0.11902719736099243, -0.18627770245075226, -0.1397579312324524, 0.13014280796051025, 0.08952602744102478, 0.13749641180038452], [-0.13322116434574127, -0.21013925969600677, -0.02910553105175495, -0.012185747735202312, 0.049869026988744736, 0.0774449035525322, 0.0284279678016901, 0.21524839103221893, 0.021413009613752365, -0.06882344186306, -0.14050400257110596, -0.11859949678182602, -0.008380007930099964, -0.088872030377388, 0.09367424994707108, 0.14123277366161346], [-0.23695869743824005, 0.08000800758600235, -0.256143182516098, 0.010387643240392208, 0.12248706072568893, -0.020875293761491776, -0.1279689222574234, 0.0293301809579134, 0.07252416759729385, -0.06569384783506393, 0.05930403620004654, 0.01874181628227234, 0.002596940379589796, -0.120857372879982, -0.024201983585953712, 0.15182612836360931], [-0.03846454247832298, -0.054602477699518204, 0.11919892579317093, -0.28568318486213684, 0.11813785880804062, -0.09053400903940201, 0.01639285683631897, 0.07018271833658218, 0.16202674806118011, -0.026735534891486168, -0.019037876278162003, 0.10189533233642578, -0.25793230533599854, 0.0020334182772785425, -0.13479255139827728, -0.0761573389172554], [0.20112566649913788, -0.01715804636478424, 0.05607883632183075, -0.20792338252067566, -0.07290446758270264, -0.007705168332904577, 0.03547577187418938, 0.10335022956132889, 0.045378271490335464, 0.07455744594335556, 0.07370775192975998, -0.21266961097717285, -0.019253090023994446, 0.07679024338722229, 0.05898798257112503, -0.03638588264584541], [-0.08056265115737915, -0.1198643371462822, -0.05186256393790245, 0.08355266600847244, -0.19518041610717773, -0.09113842993974686, -0.1139802485704422, 0.16696543991565704, 0.04579370468854904, -0.0973053053021431, 0.059690553694963455, 0.07422825694084167, -0.05933025851845741, -0.3046143054962158, 0.05433119088411331, 0.043904297053813934], [-0.02195410244166851, -0.12075193226337433, 0.0535951629281044, 0.00816411804407835, -0.04700328782200813, -0.04675864800810814, -0.093015655875206, 0.0388965904712677, -0.0887676551938057, 0.042815614491701126, -0.048174213618040085, -0.005850032903254032, -0.17343111336231232, -0.05900576710700989, -0.011048940941691399, -0.16606998443603516], [0.011514787562191486, -0.05280765891075134, -0.13715988397598267, -0.16008737683296204, 0.060512006282806396, 0.06437508761882782, -0.013190864585340023, 0.07579251378774643, 0.06114111840724945, 0.05974106118083, 0.1422332525253296, -0.1804337203502655, 0.033944856375455856, -0.038200896233320236, -0.02242589369416237, -0.03022497333586216], [-0.037514712661504745, -0.13045038282871246, -0.020067568868398666, 0.13733361661434174, -0.00561330234631896, -0.027482187375426292, -0.06872989982366562, 0.07648216933012009, 0.14794468879699707, -0.08707486838102341, 0.03596784174442291, 0.07005639374256134, -0.11151598393917084, 0.0252496637403965, 0.08203218132257462, 0.13599485158920288], [-0.009038201533257961, 0.12545885145664215, 0.10437384992837906, -0.1293848752975464, -0.12179385870695114, -0.05783131346106529, 0.10289355367422104, 0.05627851188182831, 0.014277135021984577, 0.14653123915195465, 0.08234496414661407, -0.20269136130809784, 0.009729210287332535, 0.05200406536459923, 0.02256086654961109, 0.04497120901942253], [-0.006727560888975859, -0.14513792097568512, -0.007404607720673084, -0.12432790547609329, -0.09327409416437149, -0.15365909039974213, 0.045248907059431076, 0.05465240031480789, 0.006104002706706524, -0.04990411177277565, 0.03056030161678791, 0.0782678946852684, -0.2330174595117569, 0.03768765553832054, -0.05457120016217232, -0.18845859169960022], [-0.19457030296325684, -0.09690704941749573, -0.019792849197983742, 0.009541841223835945, -0.09389816224575043, 0.07434120029211044, 0.1422983556985855, 0.1291007250547409, 0.04327017813920975, 0.05903702601790428, 0.15761610865592957, 0.11648700386285782, -0.08409010618925095, -0.2834554612636566, 0.2116791009902954, -0.16108784079551697], [-0.0035768074449151754, 0.2302677184343338, 0.01977270469069481, 0.0651584044098854, -0.15023966133594513, -0.20511895418167114, -0.05327028036117554, 0.18248620629310608, 0.05080913379788399, -0.103682741522789, 0.08365202695131302, 0.13789506256580353, -0.16473734378814697, -0.12105430662631989, -0.07886692136526108, 0.10946383327245712], [0.023482153192162514, 0.20332342386245728, 0.09965306520462036, -0.03327745571732521, 0.12650778889656067, -0.006202620919793844, -0.07049214094877243, 0.1252766251564026, -0.002989974105730653, -0.030406931415200233, 0.1789552867412567, 0.019086703658103943, -0.10166861861944199, -0.046433769166469574, 0.10217906534671783, -0.05525406822562218], [-0.0386870875954628, -0.05865933373570442, -0.008609071373939514, -0.06831534951925278, -0.1601836085319519, -0.11607898771762848, -0.0932789072394371, 0.20549657940864563, 0.17510102689266205, 0.020238477736711502, 0.021654564887285233, -0.051846034824848175, -0.0701168030500412, -0.10518801212310791, 0.24972005188465118, -0.22453217208385468], [0.056400854140520096, -0.13727082312107086, -0.021968599408864975, -0.12856756150722504, -0.11776290088891983, -0.14137187600135803, 0.1754986196756363, 0.05748029798269272, 0.006001777481287718, 0.034110378473997116, 0.061803411692380905, 0.10169640928506851, -0.20278654992580414, 0.03036039136350155, 0.07726948708295822, -0.16615983843803406], [0.044819530099630356, 0.15945984423160553, 0.0007122794631868601, 0.052372150123119354, 0.0670570433139801, -0.09811146557331085, 0.003976673819124699, -0.09736864268779755, 0.02407989837229252, 0.021379131823778152, 0.12061096727848053, 0.03192706033587456, 0.050840023905038834, -0.11029062420129776, -0.010169727727770805, 0.0019279385451227427], [0.18495912849903107, -0.03405251353979111, -0.04015258327126503, -0.027634698897600174, -0.09191134572029114, -0.008068287745118141, -0.03650552034378052, -0.12879884243011475, 0.05265853554010391, -0.026131369173526764, -0.12421191483736038, -0.03628965839743614, 0.12691378593444824, 0.052130378782749176, 0.061192721128463745, -0.1341496706008911], [0.04768983647227287, 0.0017125935992226005, 0.07729985564947128, 0.012492721900343895, -0.1359780728816986, -0.03150097653269768, -0.07578708976507187, 0.04044762998819351, -0.03743709996342659, 0.14301516115665436, -0.052185144275426865, -0.11955957859754562, -0.014997189864516258, -0.10770990699529648, -0.04246633127331734, -0.08299645781517029], [0.14111720025539398, 0.06498805433511734, 0.022983677685260773, -0.06889213621616364, 0.09409176558256149, 0.013159509748220444, 0.04980524256825447, 0.03839490935206413, -0.1224404126405716, 0.006004625000059605, -0.024428706616163254, 0.03480690345168114, 0.0686270147562027, -0.06579510867595673, 0.04683852195739746, 0.17358790338039398], [-0.06677127629518509, 0.15312951803207397, -0.05180862545967102, -0.02747568115592003, -0.0011145612224936485, -0.02619379200041294, -0.08376780152320862, -0.024000385776162148, -0.028414439409971237, 0.056611787527799606, 0.04543730244040489, 0.19286581873893738, 0.10413867235183716, -0.050984323024749756, 0.03248696029186249, 0.09971179813146591], [0.003060182323679328, -0.022137103602290154, 0.03958646580576897, 0.0569559670984745, -0.08483205735683441, -0.05992782860994339, 0.047043316066265106, 0.06516867876052856, 0.06085550785064697, -0.011699769645929337, 0.10848169028759003, 0.18365563452243805, 0.00757024809718132, -0.019317669793963432, 0.07557403296232224, -0.053913265466690063], [-0.07496903836727142, -0.011852707713842392, -0.2233327180147171, -0.14516663551330566, -0.03479618579149246, -0.16269972920417786, -0.10326430946588516, -0.010170342400670052, -0.12813390791416168, -0.014641862362623215, -0.04289375990629196, -0.027191508561372757, 0.08234259486198425, 0.017250441014766693, 0.0021062023006379604, 0.009945445694029331], [0.02273927815258503, -0.11690077185630798, 0.02152213267982006, 0.00110314367339015, -0.1370760053396225, 0.059213005006313324, 0.10813760757446289, -0.02762632817029953, 0.014784679748117924, -0.06443049758672714, 0.0829019621014595, -0.13585205376148224, -0.05513567849993706, -0.08589199185371399, 0.005095427855849266, -0.17942292988300323], [0.13264617323875427, -0.11173873394727707, 0.03930501267313957, -0.05102432146668434, -0.07621145248413086, -0.11613890528678894, 0.09363985806703568, -0.017410393804311752, 0.06555178761482239, -0.0563214011490345, -0.05215591564774513, 0.01749393902719021, 0.06011299043893814, -0.017531640827655792, -0.14219199120998383, 0.19979560375213623], [-0.08565493673086166, -0.1694532036781311, 0.2930266261100769, -0.0701751783490181, -0.14617328345775604, -0.09569630026817322, 0.036754488945007324, 0.053882110863924026, -0.047144144773483276, 0.20646676421165466, -0.03992919996380806, -0.14820006489753723, 0.06312887370586395, 0.13290628790855408, -0.0817493125796318, -0.14013473689556122], [0.10304383188486099, -0.21989920735359192, -0.08974328637123108, 0.06697265803813934, -0.005535254720598459, -0.053754620254039764, 0.03528166189789772, 0.020406071096658707, -0.09077254682779312, 0.15081430971622467, 0.14563949406147003, -0.009196624159812927, -0.028290696442127228, 0.23396249115467072, -0.02764328382909298, -0.02595769800245762], [0.036448124796152115, 0.1319189965724945, 0.19241976737976074, -0.05562929809093475, 0.030833125114440918, -0.16516061127185822, -0.03119761124253273, -0.048607517033815384, -0.06192991882562637, 0.19168509542942047, -0.06637056171894073, -0.08289127796888351, 0.0037572099827229977, 0.1297825276851654, 0.04811151325702667, 0.27593550086021423], [-0.0074667977169156075, 0.01065882295370102, 0.06063971295952797, 0.1137329488992691, 0.05072389170527458, -0.03897526115179062, -0.09474886208772659, 0.05992549657821655, 0.17897376418113708, -0.01758703775703907, 0.06582024693489075, -0.005115712992846966, 0.05352664738893509, -0.08047537505626678, 0.2346647083759308, -0.1279161125421524], [-0.036555107682943344, 0.07856003195047379, 0.06293520331382751, 0.05322658270597458, -0.049610234797000885, -0.034841388463974, 0.0012231983710080385, 0.19216707348823547, 0.10757610201835632, 0.10339148342609406, -0.05312390998005867, 0.06715691834688187, -0.010286768898367882, 0.1389145404100418, 0.20140603184700012, -0.030676577240228653], [-0.040630314499139786, -0.10166135430335999, 0.018952801823616028, -0.06797456741333008, 0.0359504409134388, -0.041817568242549896, -0.036159928888082504, 0.14165329933166504, -0.05532769858837128, 0.06710032373666763, -0.027979591861367226, 0.042705319821834564, 0.10567926615476608, -0.030309826135635376, 0.044103290885686874, 0.017879286780953407], [-0.0799422413110733, 0.008828941732645035, 0.06218986213207245, 0.011515012010931969, -0.01983989030122757, -0.01794167049229145, -0.11476109176874161, -0.0005731370765715837, 0.09411256015300751, 0.11298225075006485, -0.029570292681455612, -0.01925991103053093, -0.010041597299277782, 0.02014799416065216, 0.054077357053756714, -0.1818077713251114], [-0.004932406824082136, 0.008700812235474586, -0.0669398233294487, 0.13762657344341278, 0.016155926510691643, 0.1289796382188797, -0.07905229926109314, -0.055262528359889984, 0.06123954802751541, -0.14441125094890594, 0.034403812140226364, -0.02000870183110237, 0.06874021887779236, 0.07010413706302643, -0.04174773395061493, -0.10974966734647751], [0.1712305247783661, -0.09447360038757324, -0.07122240960597992, -0.13825762271881104, 0.11173053085803986, -0.07925090938806534, -0.07537045329809189, 0.04894249141216278, 0.01773812063038349, -0.043997623026371, 0.08798893541097641, 0.07680004835128784, 0.06568270176649094, 0.07669197022914886, 0.040262553840875626, -0.1775888055562973], [0.1669250875711441, 0.014955569989979267, 0.09405094385147095, 0.08172421157360077, 0.1433352530002594, 0.014478900469839573, 0.04355461522936821, -0.02463667467236519, 0.04189075902104378, -0.06173566356301308, -0.05927921086549759, -0.11908867210149765, -0.04844210669398308, 0.10490932315587997, 0.3170974850654602, 0.0189499631524086], [-0.13484130799770355, 0.11124257743358612, 0.0032721729949116707, -0.09583287686109543, 0.020984947681427002, -0.15142329037189484, 0.022246316075325012, 0.026315301656723022, 0.048243917524814606, 0.061979990452528, 0.01932056061923504, -0.028097782284021378, -0.004419906530529261, 0.04154006391763687, -0.10314824432134628, -0.14299912750720978], [-0.00616380525752902, -0.15851829946041107, 0.04196583107113838, 0.0641026571393013, 0.060711171478033066, -0.13217787444591522, -0.08602624386548996, 0.06812797486782074, -0.001519865938462317, -0.00799921341240406, 0.07242350280284882, -0.12846000492572784, -0.07296179234981537, -0.08000825345516205, -0.1043129488825798, -0.08570782095193863], [0.06774621456861496, -0.010034729726612568, -0.05478885769844055, -0.052882205694913864, -0.16388073563575745, -0.10069217532873154, 0.21495746076107025, 0.02640550583600998, 0.11192786693572998, 0.016955649480223656, 0.047680988907814026, 0.03659508004784584, -0.14328837394714355, -0.003093625884503126, 0.15788652002811432, -0.07955005764961243], [-0.05664398893713951, -0.04598860442638397, 0.059985216706991196, 0.022719740867614746, 0.1267411708831787, 0.022597502917051315, -0.006205312442034483, 0.16137680411338806, 0.1092328205704689, -0.1260923445224762, 0.2655446529388428, 0.14726139605045319, -0.04964675009250641, 0.03779100999236107, 0.1324358731508255, -0.01722007989883423], [0.07303518056869507, 0.09520426392555237, -0.06819499284029007, -0.09000522643327713, 0.09214084595441818, 0.01872055046260357, 0.09237965196371078, 0.021967953070998192, 0.009597995318472385, -0.17610859870910645, -0.1019531711935997, -0.025024855509400368, 0.04961344227194786, 0.05311783775687218, -0.012824197299778461, -0.02717715874314308], [0.021717963740229607, -0.007420065347105265, 0.17367348074913025, -0.015127988532185555, -0.1481246054172516, -0.15461665391921997, 0.15187594294548035, -0.08181540668010712, 0.11505597084760666, -0.003172149183228612, -0.0042437342926859856, -0.043144591152668, 0.08930138498544693, -0.019284183159470558, -0.0033319282811135054, -0.15308034420013428], [0.02066905051469803, 0.037846989929676056, 0.05722704902291298, 0.11001759022474289, 0.005517135839909315, 0.0025368400383740664, 0.1648503988981247, -0.11980876326560974, -0.007125471252948046, 0.1664082556962967, 0.10622450709342957, 0.03810642287135124, 0.05042106658220291, 0.032706622034311295, 0.16315974295139313, 0.0377759151160717], [0.023986710235476494, 0.0006385884480550885, 0.05259888991713524, -0.14547377824783325, 0.0770673081278801, -0.04040485993027687, 0.18219152092933655, 0.02762771025300026, 0.08054877072572708, 0.04845255985856056, -0.04994427412748337, 0.06948217004537582, 0.15766245126724243, -0.001477721962146461, -0.030047878623008728, -0.03550287336111069], [-0.18923619389533997, -0.03303857147693634, 0.058412302285432816, 0.07570376247167587, 0.09600477665662766, -0.06901079416275024, -0.02768229879438877, 0.1475830376148224, 0.0211106576025486, -0.02721056528389454, 0.15186312794685364, 0.07402705401182175, -0.03096483089029789, -0.05937774106860161, -0.20118804275989532, 0.058970361948013306], [-0.08963697403669357, -0.21146918833255768, 0.19135843217372894, 0.03502476215362549, -0.1139008179306984, -0.14880096912384033, 0.08709617704153061, -0.05209675803780556, 0.1687292456626892, 0.08480389416217804, 0.06682197749614716, 0.010739801451563835, -0.013658256269991398, 0.08805112540721893, -0.045408036559820175, 0.008595197461545467], [0.07519465684890747, 0.041054774075746536, -0.08627278357744217, -0.07981298863887787, 0.02528035081923008, -0.06816236674785614, 0.17746585607528687, -0.004020167049020529, 0.022366920486092567, 0.10060671716928482, 0.04577503725886345, -0.04425867646932602, -0.10848645120859146, 0.030151406303048134, 0.10390964895486832, 0.04790952429175377], [-0.0778183564543724, 0.15844200551509857, -0.11143627017736435, -0.1880405992269516, 0.09605572372674942, -0.004776861052960157, -0.05494985729455948, -0.07455401867628098, 0.2706820070743561, 0.03535915166139603, 0.06614913791418076, 0.002057313220575452, 0.010642983950674534, 0.05400944501161575, 0.07324240356683731, -0.03752224147319794], [-0.02916419878602028, -0.18926510214805603, -0.04524141922593117, -0.002660728758201003, 0.10450233519077301, 0.03254307433962822, -0.0340692363679409, -0.09049484878778458, -0.23845940828323364, 0.13816840946674347, -0.04563359171152115, -0.0745757594704628, -0.019638972356915474, -0.14055600762367249, -0.034978218376636505, 0.20234718918800354], [0.050538696348667145, 0.0206743236631155, -0.12495759129524231, 0.19458813965320587, -0.1422794908285141, 0.16487163305282593, -0.21150560677051544, 0.17575541138648987, 0.200296089053154, -0.05868283659219742, 0.05489726364612579, 0.025016585364937782, -0.11422253400087357, -0.1449117660522461, -0.1317717283964157, 0.054100822657346725], [-0.008511560969054699, -0.07165735960006714, 0.12974610924720764, 0.02103475108742714, -0.0755462720990181, -0.1474810093641281, 0.05232617259025574, -0.018282948061823845, 0.0487433522939682, 0.1810760796070099, 0.06315404921770096, -0.1159573420882225, -0.016759004443883896, -0.0952644944190979, 0.16085222363471985, -0.056157875806093216], [0.020727073773741722, 0.015535412356257439, 0.04913109913468361, -0.2256269007921219, -0.14464209973812103, -0.07259591668844223, 0.0319431833922863, 0.021536707878112793, -0.0570981428027153, -0.11119761317968369, -0.027410520240664482, -0.07657887041568756, 0.01844349317252636, -0.03263184800744057, 0.0602707676589489, -0.05946497991681099], [-0.02559576742351055, -0.050055935978889465, -0.04498933255672455, 0.03273981437087059, -0.08135960251092911, -0.07952503859996796, -0.007311964873224497, -0.09447016566991806, 0.006063519045710564, -0.04743240773677826, -0.026121394708752632, -0.03572412207722664, -0.11283152550458908, -0.02200757898390293, 0.1308668702840805, -0.0025798557326197624], [0.11452621221542358, 0.01943105086684227, 0.11052877455949783, -0.10721789300441742, 0.010490716435015202, -0.013961024582386017, -0.061262574046850204, -0.04685918614268303, -0.11027020961046219, 0.1730998158454895, -0.08437971025705338, 0.1048913523554802, -0.0795806273818016, -0.08624932914972305, 0.06225191429257393, -0.06311919540166855], [0.05684589222073555, -0.048458196222782135, 0.08087977021932602, -0.1265905350446701, 0.08313510566949844, 0.02143636904656887, -0.09196507185697556, 0.30004650354385376, 0.09320395439863205, 0.25213852524757385, 0.17324060201644897, -0.048613209277391434, -0.0740325078368187, -0.040345918387174606, -0.18300285935401917, -0.06958351284265518], [0.024676604196429253, 0.137331023812294, -0.04400540143251419, 0.05843360722064972, -0.12525933980941772, -0.08598432689905167, -0.04576405882835388, 0.07240372896194458, 0.08422970771789551, 0.11996931582689285, 0.08972864598035812, -0.005414597690105438, 0.0061891754157841206, 0.15885306894779205, -0.05109262093901634, 0.07747282832860947], [-0.18081440031528473, 0.025864889845252037, -0.015020872466266155, -0.029514938592910767, 0.10400862991809845, -0.010896519757807255, 0.08851876109838486, 0.1825641393661499, 0.07736506313085556, 0.14088749885559082, -0.020046884194016457, -0.030552584677934647, -0.08511406183242798, 0.10429775714874268, 0.04140913486480713, -0.050723444670438766], [0.015466883778572083, 0.08817306905984879, 0.03183861821889877, -0.12466491013765335, 0.013191175647079945, -0.22540882229804993, 0.07687706500291824, -0.010226383805274963, -0.012637992389500141, 0.11501424759626389, -0.12743613123893738, 0.16496922075748444, -0.08130738139152527, -0.05232509598135948, 0.1021224781870842, 0.07086952775716782], [0.2451229840517044, -0.03733224421739578, 0.024547424167394638, -0.1777031272649765, -0.03321022912859917, -0.09948676079511642, -0.04487670212984085, -0.14356492459774017, 0.1989743709564209, -0.11295635998249054, -0.27226486802101135, -0.1485852599143982, -0.09378249943256378, -0.11495540291070938, 0.1098303571343422, -0.01378391869366169], [0.0025385606568306684, 0.04499382898211479, 0.06440131366252899, 0.06808510422706604, -0.11094775050878525, -0.08211269974708557, 0.06659671664237976, -0.2215985506772995, -0.10329000651836395, 0.07762789726257324, -0.038981370627880096, 0.06387016922235489, 0.047634582966566086, -0.11980929225683212, 0.04066571220755577, 0.12016978114843369], [0.014743439853191376, -0.1167040467262268, 0.13103407621383667, 0.03377220779657364, 0.05426107719540596, 0.044267699122428894, -0.299461305141449, 0.11090157926082611, 0.20289447903633118, 0.08315688371658325, 0.018591728061437607, 0.039889145642519, -0.0006230671424418688, 0.06517812609672546, 0.0001471000286983326, -0.07667049020528793], [-0.10043227672576904, -0.11966127902269363, -0.09157075732946396, -0.13654416799545288, 0.1761266142129898, 0.04811910539865494, -0.06250274181365967, -0.019506115466356277, 0.028787042945623398, -0.01157443504780531, 0.002460069488734007, 0.04800248518586159, -0.03837088868021965, 0.03360157459974289, 0.08864915370941162, -0.02721317671239376], [0.028479060158133507, -0.04979443922638893, 0.040654804557561874, -0.06224352493882179, -0.05288698896765709, -0.009835019707679749, 0.05665453150868416, 0.03718023747205734, 0.07140770554542542, -0.03344438970088959, -0.1214040145277977, 0.011949463747441769, 0.03440975770354271, 0.0049857269041240215, 0.13480357825756073, 0.09076987951993942], [0.26805707812309265, -0.03552286699414253, -0.07049252837896347, -0.1037762463092804, -0.056549783796072006, 0.021022843196988106, -0.21580687165260315, 0.17677897214889526, 0.0267591904848814, -0.010567552410066128, -0.0753965899348259, -0.04114432632923126, -0.03307868912816048, -0.012194492854177952, 0.03390592709183693, -0.05896320566534996], [-0.08958157896995544, 0.03571091219782829, 0.05721687898039818, -0.010045485571026802, 0.10590272396802902, -0.12850640714168549, -0.0855240449309349, 0.14926677942276, -0.12610755860805511, -0.08860735595226288, 0.08117111772298813, -0.0059317126870155334, -0.02547476813197136, -0.00916594173759222, 0.0031267546582967043, -0.00921121146529913], [0.13554427027702332, -0.0577956847846508, 0.029076220467686653, 0.14967863261699677, 0.0027509701903909445, 0.1968456506729126, -0.010497970506548882, 0.16167262196540833, -0.14162874221801758, 0.055490847676992416, -0.15768945217132568, 0.054695095866918564, -0.15635767579078674, 0.028376955538988113, -0.028219586238265038, -0.11582032591104507], [-0.16193599998950958, -0.0583239309489727, 0.1286877989768982, -0.059097807854413986, 0.09172215312719345, -0.03125522658228874, 0.08767267316579819, -0.08926323056221008, 0.06263682246208191, 0.032209612429142, 0.0700034350156784, 0.02102883718907833, -0.06460173428058624, 0.11493793874979019, 0.029751434922218323, 0.004402227699756622], [0.06430545449256897, 0.04221508651971817, 0.0612071268260479, 0.12494615465402603, -0.0060287537053227425, 0.0028215714264661074, -0.06429525464773178, 0.054837629199028015, 0.2005293220281601, -0.038928333669900894, -0.08726508915424347, 0.0699475035071373, -0.051060762256383896, 0.009600420482456684, -0.004511330276727676, 0.007912172935903072], [0.08505307137966156, -0.10129870474338531, -0.05830296874046326, -0.021267155185341835, -0.16064397990703583, -0.16222348809242249, 0.18666832149028778, 0.1045239195227623, 0.02757122553884983, 0.15952041745185852, -0.0890856385231018, -0.06130114942789078, 0.02718963474035263, 0.08906716853380203, 0.05129168555140495, -0.25412389636039734], [-0.09680821746587753, 0.042676880955696106, -0.10814876109361649, 0.2242816537618637, 0.09265583008527756, 0.029812201857566833, -0.11169495433568954, 0.09529466927051544, 0.13342078030109406, 0.02948608063161373, 0.18369169533252716, 0.13302364945411682, -0.11316811293363571, 0.14121517539024353, -0.13804307579994202, -0.05359145626425743], [0.04307711496949196, -0.033664800226688385, -0.055983442813158035, -0.11190947145223618, -0.15482543408870697, 0.02767288312315941, 0.12605689465999603, 0.02414672076702118, -0.0055228774435818195, -0.11567877233028412, 0.11193203926086426, 0.1914064586162567, -0.216984361410141, -0.10634329169988632, -0.06795930117368698, -0.056431788951158524], [0.022734595462679863, 0.14200527966022491, 0.1477530300617218, 0.02299632504582405, -0.07239287346601486, -0.1372932344675064, -0.0796775296330452, 0.17619380354881287, 0.012894569896161556, 0.009447960183024406, -0.02068380080163479, 0.05271776765584946, -0.1670040786266327, 0.14148740470409393, 0.01564762555062771, -0.02163439802825451], [0.04428461194038391, 0.01756705902516842, -0.11274895071983337, -0.05501047894358635, -0.08688625693321228, 0.03867663815617561, -0.05319938063621521, 0.0038743389304727316, 0.1267603039741516, 0.04627670347690582, 0.09219172596931458, -0.031076055020093918, 0.02053927630186081, 0.19367125630378723, -0.1451905518770218, 0.038220278918743134], [0.02050866186618805, 0.09642164409160614, 0.14762984216213226, -0.048424914479255676, -0.168451726436615, 0.05386633053421974, -0.08351927250623703, -0.06488779187202454, 0.14322029054164886, -0.05463903769850731, 0.15578918159008026, 0.0038670548237860203, -0.005379372742027044, 0.03072647750377655, -0.1638423651456833, -0.17763887345790863], [0.021555306389927864, 0.03713139891624451, 0.05617981031537056, -0.11191657930612564, 0.0018922103336080909, -0.03492666408419609, -0.09571581333875656, 0.12082768231630325, -0.15656644105911255, 0.11476443707942963, 0.03372233361005783, 0.07122869044542313, -0.13590528070926666, 0.010140715166926384, 0.21711650490760803, 0.06620743125677109], [0.01005812082439661, 0.05034542456269264, -0.07112690061330795, 0.18935012817382812, 0.09836362302303314, -0.03592238575220108, 0.02523314394056797, 0.06045607104897499, 0.23118741810321808, -0.22782723605632782, -0.06334313005208969, 0.17561084032058716, 0.19689872860908508, 0.04683049023151398, 0.011273793876171112, 0.06572677195072174], [-0.06470535695552826, -0.002514421008527279, 0.05331820622086525, 0.03290215879678726, -0.15579985082149506, -0.07806436717510223, 0.08449956029653549, -0.03771043196320534, -0.07150982320308685, 0.2403784692287445, 0.0188430268317461, -0.0875915065407753, -0.20591294765472412, 0.07293463498353958, 0.06991361826658249, -0.02987596206367016], [-0.11022301763296127, -0.021786507219076157, -0.03556051850318909, -0.12397250533103943, -0.01032127533107996, -0.13243848085403442, 0.024664895609021187, 0.08009294420480728, -0.06781080365180969, -0.08138588815927505, 0.1509363055229187, -0.12376516312360764, -0.10083992779254913, 0.021301716566085815, 0.05993693694472313, -0.02563169039785862], [0.04607943445444107, -0.04268644005060196, -0.1765437126159668, 0.11289216578006744, 0.248844176530838, 0.14224469661712646, 0.014180663041770458, 0.28283557295799255, 0.14568229019641876, -0.13437268137931824, 0.1434403955936432, 0.020302005112171173, -0.11572445929050446, -0.08983220160007477, 0.08020517230033875, -0.18465320765972137], [0.060413677245378494, -0.18194463849067688, -0.15999318659305573, -0.21363882720470428, 0.19667640328407288, -0.04698428511619568, 0.008658318780362606, 0.1687455028295517, 0.11683168262243271, -0.09985332936048508, 0.09888707846403122, -0.011264660395681858, -0.0705333948135376, 0.0024290913715958595, 0.12798120081424713, -0.0885966494679451], [0.04008856788277626, -0.0199908260256052, -0.13042017817497253, -0.1099882498383522, 0.01932135596871376, 0.10244375467300415, 0.10013309866189957, 0.07698532938957214, -0.06817316263914108, 0.23741616308689117, 0.01431626733392477, -0.13037165999412537, -0.05291295051574707, 0.08962484449148178, 0.0007617498631589115, 0.08868646621704102], [0.11036939918994904, 0.03802522271871567, -0.1646750569343567, -0.016184654086828232, 0.0045165857300162315, 0.1593395173549652, -0.16263219714164734, 0.08612635731697083, 0.0521698072552681, -0.0528942309319973, -0.14698638021945953, 0.14122484624385834, -0.01636086404323578, -0.18447011709213257, -0.036111313849687576, 0.06089623644948006], [-0.159144788980484, -0.01829129084944725, -0.04941133037209511, -0.08534788340330124, 0.002673838287591934, -0.008094631135463715, -0.047074250876903534, 0.04573610797524452, 0.09470238536596298, 0.020663367584347725, 0.14705225825309753, 0.11651307344436646, -0.07984061539173126, -0.06378405541181564, -0.16641730070114136, -0.01265693362802267], [-0.0363437794148922, 0.05924244225025177, -0.09930489212274551, -0.057500164955854416, 0.09687443822622299, -0.09947535395622253, -0.07623615115880966, -0.13174103200435638, 0.2698514461517334, -0.013232048600912094, -0.1415216326713562, -0.11012741178274155, -0.11236120015382767, -0.02693897858262062, 0.0825372263789177, -0.02983231656253338], [-0.09228233247995377, -0.14485211670398712, -0.07648267596960068, -0.025484994053840637, 0.15309323370456696, -0.0171784907579422, -0.009900831617414951, -0.005835740361362696, 0.07907326519489288, -0.12937426567077637, 0.05926283448934555, -0.06617684662342072, 0.038455523550510406, -0.01424454152584076, -0.02003534696996212, -0.1714046150445938], [0.04936441034078598, 0.03434116020798683, -0.033740583807229996, 0.06925898045301437, -0.1364758312702179, -0.028381450101733208, -0.02712073363363743, -0.10103052854537964, 0.04718552157282829, 0.20513631403446198, 0.023928454145789146, -0.07576891779899597, 0.00939295906573534, 0.010572000406682491, 0.0027762132231146097, -0.04255422204732895], [0.14219756424427032, 0.02874799445271492, -0.0030655120499432087, -0.040562812238931656, -0.07408667355775833, -0.08721910417079926, -0.06407257169485092, -0.09558448195457458, 0.0915350690484047, 0.01618877984583378, 0.049482885748147964, -0.09673237055540085, -0.04024999588727951, -0.07110406458377838, 0.07196681946516037, -0.024841930717229843], [-0.07308735698461533, -0.1627340167760849, -0.05629862844944, -0.10057643800973892, -0.001577921793796122, -0.07464388012886047, 0.09541895985603333, 0.1539352834224701, 0.15529832243919373, -0.15000906586647034, 0.14404919743537903, 0.2012362778186798, -0.09767843782901764, 0.017233913764357567, -0.16492170095443726, 0.13985620439052582], [-0.039791207760572433, 0.0671786293387413, -0.13089917600154877, 0.15000206232070923, -0.0356871522963047, 0.029324060305953026, 0.015081820078194141, 0.017485149204730988, 0.21266759932041168, -0.14259594678878784, 0.06016208603978157, 0.11995743215084076, -0.037186309695243835, -0.011817078106105328, -0.014268770813941956, -0.12276364862918854], [0.00381273846141994, 0.035611242055892944, 0.05571232736110687, -0.0569891482591629, -0.04897250235080719, -0.0532308965921402, 0.12577442824840546, -0.1877128779888153, 0.02170765958726406, 0.008788074366748333, 0.1526256948709488, -0.02415907010436058, 0.11423878371715546, -0.2123889923095703, 0.045958489179611206, 0.02800578437745571], [0.13905338943004608, -0.16287772357463837, -0.10104822367429733, -0.023133570328354836, -0.049579549580812454, 0.09570419788360596, -0.0338682197034359, 0.3031647205352783, 0.21665699779987335, 0.005514161661267281, 0.1537148654460907, -0.07661257684230804, -0.05691976100206375, 0.057275135070085526, 0.06775570660829544, 0.130718395113945], [-0.046744104474782944, -0.09403891116380692, 0.10136044770479202, -0.11071427166461945, 0.08733118325471878, 0.09419950842857361, 0.045615304261446, 0.02502327971160412, 0.0701773539185524, 0.05890143662691116, 0.04981233552098274, 0.24948371946811676, -0.12132702022790909, -0.10026686638593674, -0.09768953919410706, -0.05895799398422241], [-0.21789315342903137, -0.07702793180942535, -0.019778404384851456, -0.021909473463892937, 0.04178005829453468, -0.14977218210697174, 0.09000542014837265, 0.20767918229103088, 0.005374948028475046, 0.1920071542263031, 0.034348566085100174, 0.16920439898967743, 0.07803221046924591, -0.1563904732465744, 0.0018627370009198785, 0.10543250292539597], [0.0030546581838279963, -0.0027695309836417437, 0.039982110261917114, -0.10073196887969971, 0.0017515612998977304, 0.005782279651612043, -0.033379096537828445, 0.09832657128572464, 0.19020074605941772, -0.04744497314095497, 0.017556868493556976, -0.08065041154623032, -0.09256171435117722, 0.00012484558101277798, -0.015993978828191757, -0.0831957533955574], [-0.059815045446157455, -0.15672282874584198, 0.02685212902724743, -0.033756155520677567, -0.1259787380695343, -0.023527933284640312, 0.13426220417022705, 0.0069045196287333965, 0.22135764360427856, -0.06703818589448929, 0.08996151387691498, 0.03950658440589905, 0.12067333608865738, 0.015843383967876434, -0.11419013887643814, -0.13109704852104187], [-0.15329210460186005, -0.18176519870758057, 0.027597080916166306, -0.12559901177883148, -0.008081161417067051, -0.0967072919011116, -0.0770784318447113, -0.003297339892014861, 0.1191784143447876, 0.10911612212657928, 0.06955449283123016, -0.07115358114242554, 0.04204936698079109, 0.06888967007398605, 0.027464721351861954, -0.060362040996551514], [0.07088595628738403, 0.04115264490246773, -0.3859289884567261, 0.03468699753284454, -0.191374272108078, 0.038995277136564255, -0.015407240949571133, 0.2188744992017746, 0.10211968421936035, -0.1714644730091095, 0.08039010316133499, 0.13574397563934326, -0.013212823309004307, -0.011433515697717667, 0.0743553563952446, 0.0210359375923872], [-0.0005927406018599868, 0.1329580843448639, 0.11521077901124954, 0.03157156705856323, -0.02859591506421566, 0.12233874946832657, 0.11831195652484894, 0.16189570724964142, -0.02006874792277813, -0.04127008095383644, 0.007077055983245373, 0.01385038997977972, 0.005515410099178553, 0.010015941224992275, -0.04751751199364662, 0.1272953748703003], [-0.16961312294006348, 0.06577540189027786, -0.19144773483276367, 0.00849525723606348, -0.08869042992591858, 0.06052188202738762, 0.008645252324640751, 0.09416218101978302, -0.0221248771995306, -0.08301830291748047, 0.07921408116817474, 0.08807124942541122, 0.2723240256309509, 0.022285832092165947, 0.09760375320911407, -0.1556933969259262], [-0.13298919796943665, -0.04552965611219406, -0.11883969604969025, 0.11887241899967194, -0.04102186858654022, 0.11086585372686386, 0.1486782431602478, 0.06498453766107559, 0.11977025866508484, -0.013791779056191444, 0.10287778824567795, 0.0779968649148941, -0.034080322831869125, 0.05049699544906616, 0.17236962914466858, 0.07130162417888641], [0.03257996216416359, 0.0017496328800916672, -0.09274286031723022, -0.13249757885932922, 0.03233565390110016, -0.16429995000362396, -0.07663276046514511, 0.181352898478508, 0.2522558569908142, -0.16484273970127106, 0.203855961561203, 0.008318772539496422, -0.023953011259436607, -0.011341162957251072, 0.10805441439151764, -0.16076765954494476], [0.04561636224389076, -0.10603085905313492, 0.07255386561155319, 0.12451095134019852, -4.173264096607454e-05, 0.01005460787564516, 0.04095517843961716, -0.03392855450510979, 0.2031146138906479, 0.1816202849149704, 0.10381795465946198, -0.021973978728055954, -0.0788399800658226, -0.06264902651309967, 0.17108365893363953, 0.14144150912761688], [-0.006366148591041565, -0.17398394644260406, -0.24692150950431824, -0.13811437785625458, -0.013062039390206337, 0.11270801723003387, -0.06516562402248383, 0.08183645457029343, 0.16390655934810638, 0.0410209521651268, -0.005837123841047287, -0.16061252355575562, -0.1539687216281891, 0.04160996526479721, -0.020090753212571144, 0.012253131717443466], [-0.004727771505713463, 0.05029232054948807, -0.041257794946432114, -0.06332981586456299, 0.18961821496486664, -0.10733950883150101, -0.028157545253634453, -0.028719356283545494, 0.07656734436750412, 0.13180561363697052, -0.04267115890979767, -0.07287989556789398, -0.061774034053087234, 0.05298338085412979, -0.07393953204154968, -0.037595998495817184], [-0.23721937835216522, -0.15420538187026978, 0.026322709396481514, 0.06001465395092964, 0.029507577419281006, -0.13723769783973694, -0.14002561569213867, 0.047413233667612076, -0.13364626467227936, 0.13658997416496277, 0.01321359258145094, -0.19047102332115173, -0.13042210042476654, -0.07243113219738007, -0.07731925696134567, -0.14899329841136932], [-0.08746625483036041, -0.08395744860172272, -0.0370355062186718, 0.08302366733551025, 0.010482780635356903, -0.12668655812740326, -0.03346216306090355, -0.05378442630171776, 0.007185863330960274, 0.11252821236848831, 0.03673848137259483, 0.19882671535015106, 0.00452691875398159, -0.0913594514131546, 0.08097407221794128, 0.10799312591552734], [0.10941670089960098, -0.12501826882362366, 0.01954164355993271, 0.08340919762849808, -0.16847290098667145, -0.07730256766080856, -0.14269377291202545, -0.059379756450653076, -0.06443826109170914, 0.15035808086395264, -0.012257908470928669, -0.11606952548027039, -0.1366756558418274, 0.014166717417538166, -0.001113562728278339, 0.13440744578838348], [0.05000166967511177, -0.15872760117053986, -0.028741126880049706, 0.07723527401685715, -0.062108274549245834, 0.1460963785648346, -0.10982894897460938, 0.09132356196641922, -0.04906848818063736, -0.02589898183941841, 0.12125252932310104, -0.04244011268019676, 0.04824227839708328, 0.04732906073331833, 0.07538656890392303, -0.08881881833076477], [-0.022157439962029457, 0.027216952294111252, -0.05186808481812477, 0.1331780105829239, -0.07772281020879745, -0.057361241430044174, -0.10065590590238571, -0.17880547046661377, 0.21859833598136902, 0.002958447439596057, -0.03181534633040428, -0.049601949751377106, 0.10916334390640259, -0.09651066362857819, 0.06795679032802582, -0.04237882420420647], [-0.059667088091373444, 0.04146658629179001, 0.1320495307445526, -0.08116231858730316, -0.0768849179148674, -0.1442704200744629, 0.11035038530826569, -0.022227441892027855, -0.14631809294223785, 0.1646517664194107, -0.12426044046878815, 0.04821489751338959, -0.014494787901639938, 0.02879154495894909, -0.0584375262260437, 0.03655914589762688], [-0.16677799820899963, 0.04353819414973259, 0.18909920752048492, 0.05863064527511597, -0.20195400714874268, -0.12578172981739044, -0.018779492005705833, 0.08380277454853058, 0.02767745777964592, -0.025424538180232048, 0.07204766571521759, 0.08668354153633118, -0.056086789816617966, 0.07289298623800278, -0.25790509581565857, -0.09375093877315521], [-0.032125893980264664, -0.0640648752450943, 0.06629445403814316, 0.07160305976867676, 0.05066690593957901, -0.08958344161510468, -0.15227681398391724, 0.09125781804323196, -0.14487402141094208, 0.08866172283887863, -0.005831948481500149, -0.1473139226436615, -0.004093498457223177, -0.0002876102807931602, -0.00365972938016057, -0.008422330021858215], [0.04195241257548332, 0.07719694823026657, 0.08293912559747696, 0.07144130021333694, -0.004413972143083811, 0.13448509573936462, 0.0571109838783741, -0.01912589743733406, -0.07087063789367676, 0.0443093478679657, -0.11798737198114395, -0.12706893682479858, -0.008933329954743385, -0.06078874692320824, -0.09333162754774094, -0.0034475047141313553], [0.007267789449542761, -0.0357850156724453, -0.004759117960929871, 0.05569224804639816, 0.03424273431301117, -0.04970349743962288, 0.24643218517303467, 0.054941482841968536, 0.15216048061847687, -0.032748881727457047, -0.1232747733592987, -0.108906090259552, -0.05961555615067482, -0.0496608205139637, 0.13363862037658691, -0.01200411282479763], [0.04614688828587532, -0.0198874119669199, -0.010035963729023933, -0.02597244828939438, 0.1714051514863968, -0.10415574908256531, 0.07669904083013535, -0.06739925593137741, -0.007498441729694605, 0.0241401344537735, 0.04525375738739967, 0.11858141422271729, -0.037852942943573, -0.08436156064271927, 0.06500419974327087, -0.03641698136925697], [0.023868156597018242, -0.026862170547246933, -0.1611308455467224, 0.021057860925793648, 0.05833680182695389, 0.06529958546161652, 0.18004627525806427, -0.08420030027627945, 0.09026594460010529, 0.06458061188459396, -0.029166996479034424, 0.009979401715099812, 0.017129046842455864, -0.12186838686466217, 0.024622276425361633, -0.09179843217134476], [-0.06518565118312836, -0.19271017611026764, -0.014138085767626762, -0.05012911558151245, 0.05498568341135979, -0.027270911261439323, -0.1542288213968277, 0.12155383080244064, 0.026788625866174698, 0.0724545270204544, 0.10936486721038818, 0.11252947896718979, 0.16328729689121246, -0.007223875727504492, 0.031112445518374443, -0.10783610492944717], [0.10616002231836319, -0.13374587893486023, -0.1472124606370926, 0.05326652526855469, -0.05216965079307556, 0.05039983615279198, 0.040807466953992844, -0.12780779600143433, -0.2335103452205658, -0.08586791157722473, 0.014260596595704556, -0.1519092470407486, -0.09812015295028687, -0.14589408040046692, 0.016987796872854233, 0.009082593023777008], [-0.048139262944459915, 0.12444926053285599, 0.18308420479297638, 0.026754656806588173, -0.17997711896896362, -0.13782986998558044, 0.04071303457021713, -0.027663009241223335, -0.010252086445689201, 0.11368900537490845, 0.06369907408952713, 0.10168392211198807, -0.07576493173837662, 0.13752254843711853, -0.055413126945495605, 0.14994914829730988], [0.010583464056253433, -0.10130825638771057, -0.12980924546718597, -0.05991930142045021, -0.025623271241784096, 0.05840529873967171, -0.01105905044823885, -0.008050423115491867, 0.14616137742996216, 0.00130971590988338, -0.04501275345683098, 0.02772931382060051, -0.0818268284201622, 0.06588021665811539, -0.05969170853495598, -0.022295918315649033], [0.01521769817918539, -0.05263400077819824, 0.031796496361494064, 0.05177516117691994, 0.041060179471969604, 0.0207360852509737, -0.06354304403066635, 0.12067637592554092, 0.10567232966423035, 0.12397563457489014, -0.05981411039829254, -0.04697674885392189, 0.030523378401994705, -0.060881514102220535, -0.022612247616052628, 0.19258056581020355], [0.1951761096715927, 0.10874557495117188, 0.12712325155735016, -0.13169711828231812, 0.051256220787763596, -0.06327253580093384, -0.10585719347000122, -0.01565304398536682, 0.05009748041629791, -0.031013716012239456, -0.04240824282169342, 0.04947276413440704, -0.018430575728416443, 0.023345809429883957, 0.011187239550054073, -0.06757032126188278], [-0.13705720007419586, 0.01583274081349373, -0.017540136352181435, -0.2308502495288849, -0.03925672546029091, -0.1365826427936554, 0.06986502557992935, 0.08753614127635956, 0.08838006854057312, -0.042942628264427185, 0.08595956861972809, 0.00223410758189857, -0.07381509244441986, -0.04533374309539795, 0.08927082270383835, -0.04736040532588959], [0.03036564588546753, 0.08817095309495926, 0.224116250872612, 0.13661529123783112, 0.09008228033781052, -0.17795197665691376, -0.06890483945608139, -0.0194631926715374, 0.2039758265018463, -0.04632575437426567, 0.05139633268117905, -0.019644390791654587, -0.1263478696346283, 0.03818240389227867, 0.03982960805296898, -0.12557749450206757], [0.12228775024414062, -0.2238989770412445, -0.025832951068878174, 0.06742500513792038, -0.11932577937841415, 0.007665688171982765, -0.1296360343694687, 0.025969648733735085, -0.19281405210494995, -0.060563936829566956, -0.14159347116947174, -0.06990761309862137, -0.07436289638280869, -0.06736641377210617, 0.07979132235050201, -0.088687963783741], [0.06343866884708405, 0.1477179378271103, 0.04695865139365196, -0.11553902179002762, -0.12493385374546051, -0.09832214564085007, 0.07046427577733994, 0.05105755105614662, 0.13253441452980042, 0.10043267905712128, 0.027023375034332275, 0.01761833019554615, 0.15270288288593292, 0.14156562089920044, -0.03027460351586342, 0.09896794706583023], [0.05858508497476578, 0.09846565127372742, 0.09967276453971863, -0.12718863785266876, -0.16196845471858978, 0.0299103744328022, 0.1902618259191513, -0.041453421115875244, 0.02085096202790737, -0.08093675971031189, 0.13140052556991577, -0.26024484634399414, -0.25915297865867615, 0.0375019907951355, -0.008234364911913872, -0.04796230420470238], [-0.030109480023384094, 0.03844083473086357, -0.008197094313800335, -0.13946449756622314, -0.09273629635572433, 0.06149893254041672, -0.05247419700026512, -0.10322559624910355, 0.04883802309632301, 0.07412221282720566, 0.14563405513763428, -0.007940729148685932, -0.09883004426956177, 0.047400787472724915, 0.07271748781204224, -0.0038905309047549963], [-0.004459939431399107, 0.010750156827270985, 0.026204682886600494, -0.004760616924613714, -0.10219132900238037, -0.14240461587905884, -0.0836111381649971, 0.09952392429113388, 0.06450293213129044, 0.1276601403951645, -0.005933085456490517, -0.14409518241882324, 0.08159282803535461, -0.0018767055589705706, 0.12834550440311432, 0.05979464575648308], [0.21886186301708221, -0.03862305358052254, 0.12827403843402863, 0.05936494097113609, -0.05551263689994812, -0.04460911825299263, -0.14617383480072021, -0.12626968324184418, 0.04272569715976715, 0.11073920875787735, 0.06931523233652115, 0.0042568775825202465, 0.05244556441903114, -0.05896977707743645, -0.027253275737166405, 0.07375215739011765], [0.04331187531352043, -0.03795352205634117, 0.17125019431114197, -0.15897142887115479, -0.05186786875128746, -0.05570065975189209, 0.08165349066257477, 0.027580687776207924, -0.0977458655834198, 0.08448178321123123, 0.11289375275373459, 0.04418278485536575, 0.02788771502673626, -0.18743135035037994, -0.08998864889144897, 0.04820806160569191], [-0.005488818511366844, 0.035610802471637726, -0.08877186477184296, -0.03592080622911453, -0.13897810876369476, -0.22268514335155487, 0.029577909037470818, 0.11327517032623291, 0.055150922387838364, 0.0276247076690197, -0.15023165941238403, 0.07086575031280518, -0.03820045292377472, 0.19595621526241302, 0.09423143416643143, -0.20051255822181702], [0.07550497353076935, -0.15991471707820892, -0.035146549344062805, -0.0548417754471302, -0.009406245313584805, 0.013913115486502647, -0.10228550434112549, -0.09264086186885834, 0.08335363119840622, 0.04730938747525215, 0.016870856285095215, -0.2491215318441391, -0.05333719030022621, -0.08907292038202286, -0.09206264466047287, 0.09219347685575485], [-0.10956712067127228, -0.13137440383434296, 0.01383658405393362, 0.015262612141668797, -0.08840147405862808, 0.09788980334997177, 0.14498476684093475, -0.07328721135854721, -0.01186633575707674, -0.021360715851187706, -0.17756935954093933, 0.0005413859616965055, 0.03704880550503731, 0.2011864185333252, -0.08974095433950424, 0.13362351059913635], [0.13423536717891693, -0.0007013211725279689, 0.1051504984498024, 0.05755950137972832, 0.1974100023508072, 0.021960271522402763, -0.006013788748532534, -0.06828107684850693, 0.04739648476243019, 0.15667995810508728, 0.019101914018392563, -0.10774952173233032, -0.02660038135945797, -0.012915347702801228, 0.0264738779515028, -0.16618484258651733], [0.055078864097595215, 0.04963725060224533, 0.0019229452591389418, -0.030121613293886185, -0.18059362471103668, -0.025036385282874107, 0.10607149451971054, 0.005042121279984713, -0.097000353038311, -0.21268069744110107, 0.11487678438425064, 0.06690189987421036, 0.06610755622386932, -0.005525899585336447, -0.15003284811973572, -0.08185041695833206], [0.08188393712043762, -0.005132612306624651, 0.10103683918714523, 0.013724178075790405, -0.020496055483818054, -0.039433110505342484, 0.18571023643016815, 0.07674150913953781, 0.025081979110836983, 0.07264737039804459, 0.04446060582995415, -0.24547061324119568, 0.02861277014017105, 0.18209393322467804, -0.07802798599004745, 0.14540357887744904], [-0.025686969980597496, 0.010478382930159569, 0.15134510397911072, -0.10176347941160202, 0.12424939125776291, -0.14575691521167755, -0.08751547336578369, -0.034726012498140335, 0.08922520279884338, 0.01661209762096405, -0.15150658786296844, -0.05139898508787155, -0.11373596638441086, 0.07312936335802078, -0.03432350605726242, 0.007077408023178577], [-0.04054724797606468, 0.036598630249500275, -0.09647522866725922, 0.002796313725411892, -0.2593388557434082, -0.013244722969830036, 0.041391368955373764, 0.0796971321105957, 0.17814166843891144, -0.013615305535495281, 0.2277943640947342, 0.04018835350871086, -0.2120254635810852, -0.22854994237422943, -0.1601841002702713, -0.0037907061632722616], [-0.01573052816092968, 0.004129274282604456, -0.008212433196604252, -0.10339868813753128, 0.05550479516386986, 0.043301843106746674, -0.02566501498222351, 0.01212532538920641, 0.05039672181010246, 0.11273995786905289, -0.12370909750461578, -0.10169948637485504, -0.16070035099983215, -0.0506906621158123, 0.08123335987329483, 0.0546271875500679], [-0.10980979353189468, 0.02916935831308365, 0.0637039840221405, -0.07915498316287994, -0.14064596593379974, -0.04154286906123161, 0.06799440085887909, -0.20669101178646088, -0.03756443038582802, 0.29093536734580994, 0.05143167823553085, -0.0037709218449890614, -0.10979662835597992, -0.06783298403024673, -0.00832883920520544, 0.16028636693954468], [0.0465589202940464, -0.09322648495435715, 0.03567947447299957, -0.05897163599729538, 0.1697346419095993, -0.08036267012357712, -0.10032657533884048, 0.11745265871286392, 0.21005019545555115, 0.013989761471748352, 0.11415746062994003, -0.069097138941288, -0.07054684311151505, -0.20182819664478302, -0.09131215512752533, -0.017845680937170982], [0.038900215178728104, -0.058638542890548706, 0.054759006947278976, -0.06936519593000412, 0.07510253041982651, -0.11281183362007141, 0.08375479280948639, 0.20322592556476593, 0.044552333652973175, 0.016681039705872536, -0.07268689572811127, 0.09124059975147247, -0.15061718225479126, -0.09538044780492783, -0.11644484847784042, -0.12785138189792633], [-0.10448163747787476, 0.05665495991706848, 0.16605375707149506, -0.09946905821561813, 0.020733404904603958, 0.051714394241571426, 0.010056420229375362, -0.08854714035987854, -0.14831969141960144, 0.1678135246038437, 0.03095155768096447, 0.027941174805164337, -0.1467927247285843, 0.023497719317674637, 0.06289996206760406, 0.03140338510274887], [-0.07450231909751892, 0.09643096476793289, -0.23520195484161377, 0.06317243725061417, 0.1081055998802185, 0.13364149630069733, -0.03424922004342079, 0.00020480759849306196, 0.19152171909809113, -0.159650981426239, 0.1024530902504921, -0.002033254597336054, -0.10856640338897705, 0.032099947333335876, -0.1392015963792801, 0.0592205710709095], [-0.09669311344623566, -0.1982295662164688, 0.06194859743118286, 0.013419422321021557, 0.05769345909357071, 0.05907764285802841, -0.23536403477191925, -0.1021103784441948, -0.005732003599405289, 0.22820313274860382, 0.04915995895862579, 0.1603909283876419, -0.09032272547483444, 0.02744169905781746, -0.10999708622694016, -0.040435221046209335], [-0.07352957129478455, -0.08557707816362381, 0.01775478944182396, -0.029489269480109215, 0.002221266506239772, 0.02976079098880291, 0.013998846523463726, -0.030235659331083298, -0.057506874203681946, 0.03775022551417351, -0.06673210114240646, 0.019343219697475433, 0.050859227776527405, 0.12740445137023926, -0.0797702819108963, 0.04693722352385521], [-0.1394679695367813, 0.0336846224963665, 0.02497602440416813, -0.044650912284851074, 0.10726360231637955, -0.13739141821861267, -0.0888645276427269, 0.0868673324584961, 0.21511857211589813, -0.1316109597682953, 0.05251912772655487, -0.06944853812456131, 0.004550463054329157, 0.12466951459646225, 0.07006801664829254, 0.06966506689786911], [-0.020697448402643204, -0.08161181956529617, 0.14038985967636108, -0.032932233065366745, -0.01736082322895527, 0.06737092137336731, -0.019778745248913765, -0.09515273571014404, 0.05916464328765869, 0.09022311121225357, -0.14391490817070007, -0.14103278517723083, -0.027926703914999962, 0.23374097049236298, -0.03928206115961075, -0.03362738713622093], [0.15237711369991302, -0.027947647497057915, -0.08608399331569672, -0.18703974783420563, 0.12266639620065689, 0.04197285696864128, 0.08261256664991379, -0.005779871251434088, -0.08393359184265137, 0.04891250282526016, -0.012811088934540749, -0.11358487606048584, 0.020824691280722618, -0.1259596198797226, -0.03327587619423866, -0.020400788635015488], [-0.069101981818676, -0.22378739714622498, -0.038558200001716614, -0.10526347905397415, 0.1325707882642746, -0.05795454978942871, -0.05413595959544182, 0.1096254512667656, 0.21845681965351105, -0.14618141949176788, 0.19913898408412933, 0.1737445443868637, 0.08420762419700623, 0.16264314949512482, 0.12926460802555084, 0.15148822963237762], [0.1604326367378235, -0.004476548638194799, 0.03033560886979103, -0.2559642791748047, -0.13227331638336182, -0.06772882491350174, -0.038173507899045944, -0.028588147833943367, -0.13466885685920715, -0.07660457491874695, -0.05519234761595726, -0.048682574182748795, -0.11806101351976395, -0.07421521842479706, -0.09401565790176392, -0.039652373641729355], [-0.08563028275966644, 0.10376844555139542, 0.08204910159111023, -0.12699148058891296, -0.02804477885365486, -0.14265236258506775, 0.10121683031320572, 0.13834431767463684, 0.11416219174861908, -0.044360242784023285, -0.03552140295505524, -0.06991052627563477, 0.02098296396434307, -0.10079097747802734, -0.067589171230793, -0.041321706026792526], [0.015328846871852875, 0.06662745773792267, -0.11686066538095474, 0.036709073930978775, 0.08220764249563217, -0.04467872902750969, -0.12456581741571426, -0.016579043120145798, 0.172401562333107, -0.13773034512996674, -0.07345622777938843, 0.09100949019193649, -0.0016233434434980154, -0.14059671759605408, 0.11794199794530869, 0.08366360515356064], [0.01387452520430088, -0.15218736231327057, -0.06793403625488281, -0.060446061193943024, -0.1713915318250656, 0.018387524411082268, -0.14108233153820038, 0.0045141614973545074, -0.06125161796808243, 0.1533348262310028, -0.1344074010848999, -0.0023655325639992952, -0.17670570313930511, 0.0795549601316452, -0.011496176943182945, 0.049585070461034775], [-0.13205252587795258, 0.027849657461047173, 0.08772065490484238, 0.006610429845750332, 0.03126339614391327, -0.04372483119368553, 0.12412992864847183, -0.014841316267848015, -0.08346101641654968, 0.0634254440665245, -0.12053783982992172, -0.0761525109410286, -0.05289116129279137, -0.03795541450381279, 0.019939707592129707, 0.19457614421844482], [0.057094987481832504, 0.1048206090927124, -0.13547633588314056, -0.08838796615600586, -0.037817806005477905, 0.06275710463523865, -0.21481184661388397, -0.002703482750803232, 0.1236470639705658, -0.11310028284788132, 0.29492640495300293, 0.07448278367519379, -0.08079824596643448, -0.15776070952415466, -0.034056004136800766, -0.13032200932502747], [0.04667506739497185, -0.007959251292049885, 0.10264688730239868, 0.1781795173883438, -0.09074660390615463, -0.04109042510390282, -0.12125157564878464, -0.017672372981905937, 0.13071870803833008, 0.1375366747379303, -0.04934871196746826, -0.004572177305817604, -0.15812300145626068, -0.03937337175011635, 0.008525257930159569, 0.009942199103534222], [-0.1530616283416748, 0.01092089805752039, 0.08464964479207993, -0.06746391952037811, 0.0004174998903181404, -0.17245738208293915, -0.14797955751419067, 0.014623227529227734, -0.07557336986064911, 0.06775639206171036, 0.058917030692100525, -0.047145359218120575, -0.3162045180797577, -0.01506536453962326, -0.04810440167784691, -0.023469436913728714], [0.089973084628582, -0.16006186604499817, -0.06180879846215248, 0.12734241783618927, -0.06259431689977646, 0.025200339034199715, 0.09663058072328568, 0.12173829972743988, 0.04502744600176811, -0.1621515154838562, 0.17292141914367676, 0.08893121778964996, -0.09336892515420914, -0.11764731258153915, -0.12808066606521606, 0.16616518795490265], [-0.0067945122718811035, 0.2127934694290161, 0.12370183318853378, 0.014214916154742241, 0.03062724880874157, 0.07825636863708496, -0.09660632163286209, 0.209857776761055, -0.03297937288880348, 0.008082300424575806, -0.0035852401051670313, 0.07950401306152344, -0.13750991225242615, 0.05668693780899048, -0.07164441794157028, -0.05062735080718994], [-0.048948243260383606, 0.05448633432388306, -0.054032061249017715, -0.010496293194591999, -0.03434178605675697, -0.10878154635429382, -0.12135236710309982, -0.11921791732311249, -0.17227940261363983, 0.15859366953372955, -0.04920636862516403, -0.013886433094739914, 0.08257681131362915, -0.12201172113418579, -0.09415456652641296, 0.025471553206443787], [-0.18240796029567719, -0.05941995233297348, -0.18108585476875305, 0.0032600359991192818, -0.04258158802986145, 0.17887263000011444, 0.09378913789987564, 0.01549621019512415, 0.07496754080057144, -0.12713482975959778, 0.42988693714141846, -0.1212984025478363, 0.005685706157237291, -0.20844320952892303, -0.000693744164891541, 0.19098906219005585], [-0.04084554314613342, 0.08875709772109985, 0.05774157494306564, -0.07198672741651535, -0.025165636092424393, -0.079936183989048, -0.0626058280467987, -0.13340698182582855, 0.136786550283432, 0.03532066196203232, 0.0023546251468360424, -0.11737348139286041, 0.07527091354131699, -0.027355579659342766, -0.009103267453610897, -0.1828976720571518], [0.03959762305021286, 0.15939626097679138, -0.03008027747273445, -0.07557996362447739, -0.11383239179849625, -0.01133047416806221, 0.006402419414371252, 0.07184967398643494, 0.04667834937572479, -0.012463864870369434, -0.0020630815997719765, -0.0625799372792244, -0.14443939924240112, -0.01268558856099844, 0.38016602396965027, 0.23151706159114838], [0.013982660137116909, 0.17245253920555115, -0.09251042455434799, -0.03501730039715767, -0.1949571818113327, -0.117952860891819, -0.07834992557764053, 0.11119376122951508, 0.11435084044933319, -0.14961187541484833, 0.04018673300743103, 0.013111704029142857, -0.1539328247308731, -0.061263855546712875, -0.038128986954689026, -0.1248948946595192], [-0.03302378952503204, -0.10361264646053314, 0.18110068142414093, -0.05411892011761665, -0.01895456574857235, 0.021345308050513268, 0.05569683387875557, -0.16169820725917816, -0.033594582229852676, -0.02551225945353508, -0.021646099165081978, -0.08333202451467514, -0.0207607951015234, -0.09804593026638031, -0.056776728481054306, -0.05911596491932869], [0.10825914144515991, 0.015275003388524055, 0.09268711507320404, -0.05838906019926071, -0.03847178444266319, 0.032397884875535965, 0.07774339616298676, 0.0061257039196789265, 0.11053694039583206, 0.19443589448928833, -0.18699508905410767, 0.013291205279529095, -0.03992846980690956, 0.038828883320093155, 0.11159765720367432, -0.09205382317304611], [-0.16202740371227264, 0.11045627295970917, -0.1874087005853653, -0.09833251684904099, 0.020462090149521828, -0.09046018123626709, -0.15922106802463531, 0.1033577099442482, 0.03376738354563713, -0.031390465795993805, 0.04808155447244644, -0.03910943493247032, -0.03691845387220383, 0.10521534830331802, 0.09079041332006454, -0.10932262241840363], [0.27997076511383057, -0.04813418164849281, -0.0681692361831665, 0.059083759784698486, -0.036167245358228683, 0.19361655414104462, 0.08474083989858627, 0.010474256239831448, 0.18717972934246063, 0.11855346709489822, -0.10496409982442856, 0.05921487882733345, -0.08746340125799179, -0.008332628756761551, 0.013105444610118866, -0.08790960162878036], [-0.1333342343568802, 0.017333896830677986, -0.08527740091085434, -0.2872774004936218, -0.08361055701971054, 0.010139433667063713, -0.026988113299012184, 0.1369776427745819, 0.022900506854057312, -0.013176780194044113, -0.05782223492860794, -0.17339405417442322, 0.07276351749897003, -0.13811001181602478, -0.0920407697558403, -0.016028622165322304], [0.00023532645718660206, -0.1504853069782257, -0.1779976785182953, -0.0032131492625921965, 0.11297233402729034, 0.012216303497552872, -0.002580976113677025, -0.056537967175245285, 0.05004706606268883, -0.03906721994280815, 0.20650017261505127, 0.11868071556091309, -0.001606202800758183, 0.12046004831790924, 0.28814607858657837, -0.05938619375228882], [-0.07631158083677292, 0.1407897025346756, 0.05241210013628006, -0.018508099019527435, 0.03923743590712547, -0.08748108148574829, -0.1034795269370079, -0.02372068725526333, 0.18422989547252655, -0.13684053719043732, 0.092645063996315, -0.029988983646035194, -0.06908854842185974, 0.07429509609937668, 0.08439888805150986, 0.03429765626788139], [-0.18731197714805603, 0.1401161104440689, 0.18074804544448853, -0.020612413063645363, 0.0010257817339152098, 0.15731503069400787, 0.09472242742776871, 0.014973726123571396, -0.014296559616923332, 0.027061868458986282, 0.1124805212020874, 0.07427189499139786, -0.19659274816513062, 0.04646424204111099, 0.08641213178634644, -0.15064631402492523], [-0.00029647513292729855, -0.17742662131786346, -0.07666881382465363, -0.23805679380893707, -0.06817455589771271, -0.08605915307998657, -0.07088498771190643, 0.24545668065547943, 0.16623003780841827, -0.13222083449363708, 0.005719509907066822, 0.00587833346799016, -0.117458276450634, 0.09730800241231918, 0.19967660307884216, 0.10531999170780182], [0.033169034868478775, -0.022792881354689598, -0.057177167385816574, 0.14478467404842377, -0.057593561708927155, 0.13164709508419037, -0.11315392702817917, 0.0517565980553627, -0.08084726333618164, -0.020533621311187744, -0.05522233247756958, 0.19621728360652924, 0.020567091181874275, 0.053739674389362335, 0.028267845511436462, -0.10925408452749252], [0.012411829084157944, 0.17044074833393097, 0.039395496249198914, -0.13145790994167328, -0.18523426353931427, -0.09548790752887726, -0.17622289061546326, 0.11911183595657349, 0.11661598086357117, -0.06220535188913345, 0.08522626012563705, -0.08724229037761688, -0.038404468446969986, 0.03719555586576462, -0.04439600184559822, 0.04182033613324165], [-0.1685728132724762, 0.008846831507980824, -0.06559132784605026, -0.23439690470695496, -0.1809690296649933, -0.2130368947982788, 0.04143068194389343, 0.10918314754962921, 0.13541147112846375, -0.20805729925632477, 0.20405128598213196, 0.128043994307518, -0.09422076493501663, 0.1176060363650322, -0.025092242285609245, -0.1776205152273178], [-0.16326947510242462, 0.068593829870224, -0.048778992146253586, 0.05836338922381401, -0.008837312459945679, -0.00021836900850757957, 0.21235263347625732, 0.2288742959499359, 0.05652749538421631, -0.01762346550822258, 0.12932729721069336, 0.10588902980089188, -0.012326574884355068, -0.049353186041116714, -0.0003622817457653582, -0.04802871122956276], [0.16833673417568207, 0.1162765696644783, -0.028227517381310463, 0.013066990301012993, -0.01654592715203762, 0.09247013181447983, 0.10488804429769516, 0.1279149353504181, 0.16801047325134277, 0.044735491275787354, 0.17736293375492096, 0.08283023536205292, -0.006092792376875877, -0.05772256478667259, -0.15717507898807526, -0.00278483796864748], [-0.07410555332899094, -0.009253210388123989, 0.14763231575489044, -0.012488299049437046, -0.041500166058540344, -0.11267375946044922, -0.14301352202892303, 0.16767698526382446, -0.13996727764606476, -0.07007994502782822, -0.20968015491962433, -0.061333056539297104, -0.06796621531248093, -0.04042944312095642, -0.006312990095466375, -0.08212651312351227], [-0.09136556833982468, 0.16606956720352173, 0.002745344303548336, 0.060995012521743774, -0.08367710560560226, 0.1339206099510193, 0.15141820907592773, 0.05438977852463722, -0.07630623877048492, 0.03581102192401886, 0.022994142025709152, -0.005766153801232576, -0.13189861178398132, -0.15230001509189606, 0.016236303374171257, -0.0010291317012161016], [0.00020750219118781388, 0.08676469326019287, -0.10919883847236633, 0.07129842787981033, -0.07432275265455246, -0.06685715913772583, -0.08257793635129929, 0.03796519339084625, -0.16011355817317963, -0.0265686996281147, -0.04572449252009392, 0.09665842354297638, -0.019124120473861694, 0.06955183297395706, 0.0005938814720138907, -0.10489004105329514], [0.09072048962116241, -0.10029356926679611, -0.016887256875634193, -0.011561959981918335, 0.0945538803935051, -0.04748213291168213, 0.15105247497558594, -0.02496163360774517, 0.10110936313867569, 0.027632156386971474, 0.16397927701473236, -0.00829728227108717, -0.22102387249469757, 0.10883351415395737, -0.008154851384460926, -0.055306192487478256], [0.12229647487401962, -0.048918355256319046, 0.09561654925346375, -0.10661022365093231, -0.08361301571130753, 0.1537059247493744, -0.07870327681303024, -0.02623768523335457, -0.1361588090658188, 0.19014538824558258, 0.04918961599469185, -0.005959745030850172, 0.06417800486087799, -0.13293366134166718, -0.05410468205809593, -0.009143773466348648], [-0.15484711527824402, 0.11542148143053055, 0.03338521718978882, -0.06210070103406906, 0.023622548207640648, -0.10261055082082748, 0.004511300474405289, 0.37538209557533264, 0.09569640457630157, 0.1934024542570114, -0.02569345384836197, -0.10489323735237122, -0.002360246842727065, -0.1341705024242401, -0.23069576919078827, 0.07315924763679504], [0.06413381546735764, 0.06815657764673233, 0.03579598665237427, 0.16806527972221375, -0.008732818998396397, -0.08274010568857193, -0.30064988136291504, 0.030841859057545662, 0.12215147167444229, 0.0240126121789217, 0.12544168531894684, 0.1997578740119934, -0.05016517639160156, 0.1231253519654274, -0.15858526527881622, 0.10313191264867783], [0.006349048111587763, -0.037395935505628586, 0.01693044789135456, -0.0454024001955986, -0.030880291014909744, -0.007493611890822649, -0.017429213970899582, -0.08033601194620132, 0.08022740483283997, -0.03706757724285126, 0.11746697127819061, -0.0331139899790287, -0.020140212029218674, -0.20492319762706757, -0.1256680190563202, 0.0939614400267601], [-0.07338167726993561, -0.0685039758682251, 0.005607885774224997, 0.10660223662853241, 0.03741380199790001, 0.10366556793451309, -0.026774778962135315, 0.05644792690873146, -0.0819651260972023, 0.14168047904968262, 0.02339961566030979, -0.0253186896443367, 0.0009788309689611197, 0.1446792185306549, -0.021449511870741844, 0.16630390286445618], [-0.08515226095914841, 0.026990655809640884, 0.23404406011104584, -0.07875347137451172, 0.024525586515665054, 0.06038960814476013, -0.013789969496428967, -0.1146080270409584, -0.06683443486690521, 0.08160508424043655, 0.10202006250619888, 0.04872466251254082, 0.08181164413690567, 0.007198519539088011, 0.020823318511247635, -0.15188686549663544], [0.03173289820551872, 0.0460035540163517, -0.024974513798952103, 0.034628111869096756, -0.18158888816833496, 0.04774906858801842, 0.030028432607650757, 0.2462194263935089, 0.17972047626972198, 0.1745293289422989, 0.09431441873311996, 0.03492993861436844, -0.15101374685764313, -0.03350913152098656, 0.18267284333705902, -0.14561645686626434], [-0.04502818360924721, -0.15715435147285461, 0.1782829761505127, -0.08635015040636063, 0.15445344150066376, -0.06873713433742523, -0.050413209944963455, 0.16320307552814484, 0.13254494965076447, -0.24803446233272552, 0.057894375175237656, 0.030285684391856194, -0.011853940784931183, -0.06576579809188843, 0.0028408446814864874, -0.039806149899959564], [0.021132303401827812, -0.03549668565392494, -0.028880281373858452, -0.0133950375020504, 0.08024389296770096, 0.0015396829694509506, -0.05536423996090889, 0.06881806999444962, 0.14543688297271729, 0.18333278596401215, 0.13336655497550964, 0.024006444960832596, -0.1337563395500183, -0.1365552842617035, -0.020238121971488, -0.14091847836971283], [-0.07847847789525986, -0.03226948156952858, -0.01510851364582777, -0.06256384402513504, -0.13280045986175537, -0.004214234184473753, 0.0996508076786995, -0.019620999693870544, 0.11103247851133347, 0.2900662124156952, 0.003430345095694065, 0.03538941964507103, -0.013167008757591248, 0.09696237742900848, -0.17186498641967773, -0.1056956797838211], [0.014346392825245857, 0.07343898713588715, 0.04636489972472191, -0.19622936844825745, -0.08236133307218552, -0.10683150589466095, 0.038899194449186325, -0.04101117327809334, -0.02962367795407772, 0.13226713240146637, 0.14614291489124298, -0.07105901092290878, 0.009646250866353512, -0.1881483793258667, 0.019832706078886986, 0.11899780482053757], [0.05267816781997681, -0.005091708153486252, -0.005854779854416847, -0.09445119649171829, -0.017908241599798203, -0.18250496685504913, 0.1610458940267563, 0.09198102355003357, 0.028689991682767868, -0.03864958509802818, 0.005972180049866438, 0.05004922300577164, 0.06832975149154663, -0.0903690978884697, -0.09735287725925446, 0.2078229933977127], [0.11365928500890732, 0.055601269006729126, 0.01941204071044922, 0.06263000518083572, -0.12732331454753876, 0.1258160024881363, -0.0035772223491221666, 0.11432021111249924, 0.10313466191291809, 0.010578165762126446, -0.004881440196186304, 0.09242697805166245, 0.06980714946985245, -0.1772231161594391, -0.1692405790090561, -0.09462206810712814], [-0.08935453742742538, -0.12708425521850586, 0.060364920645952225, -0.07614245265722275, 0.12061246484518051, 0.11792688071727753, -0.0028683238197118044, 0.20372645556926727, 0.04112289473414421, -0.019923144951462746, 0.019293509423732758, 0.06475508958101273, -0.1942780762910843, -0.020859932526946068, 0.02974056638777256, 0.036308467388153076], [-0.03684363514184952, 0.03369925171136856, 0.061922453343868256, -0.08896275609731674, 0.21815986931324005, 0.016594121232628822, -0.03311833366751671, -0.021277660503983498, 0.1423129439353943, 0.03311832994222641, 0.26818445324897766, -0.07332145422697067, -0.1570466011762619, -0.0027698460035026073, 0.01750674657523632, -0.21184507012367249], [-0.030916852876544, -0.052081767469644547, -0.003666378790512681, -0.09279458969831467, -0.1343192607164383, 0.04844291880726814, -0.058384086936712265, -0.0670582726597786, -0.037383295595645905, -0.023593246936798096, 0.02360464073717594, 0.03710271045565605, -0.12815451622009277, -0.04792974144220352, -0.1345507800579071, -0.3392300009727478], [0.015579394064843655, 0.13674461841583252, 0.0855291411280632, -0.0804780125617981, 0.009647914208471775, -0.14484284818172455, -0.012229235842823982, -0.007593103218823671, -0.0468304380774498, 0.0643681138753891, 0.2725832164287567, 0.13681341707706451, -0.040058355778455734, 0.08841147273778915, 0.08627074211835861, -0.06475380063056946], [0.06439041346311569, -0.16004428267478943, -0.0427798368036747, -0.005896400660276413, -0.04147876426577568, 0.14829561114311218, 0.06480403989553452, -0.008604688569903374, -0.015834158286452293, 0.04912803694605827, -0.09909375011920929, 0.029819129034876823, -0.17124836146831512, 0.062301021069288254, -0.016459472477436066, 0.04146135225892067], [-0.10125859081745148, 0.008307824842631817, 0.27986884117126465, -0.07549328356981277, 0.031739987432956696, 0.12320435047149658, 0.076170414686203, 0.07161878794431686, -0.07166814059019089, -0.0958709642291069, 0.010538275353610516, -0.07606753706932068, -0.035786062479019165, 0.020565668120980263, -0.06764278560876846, 0.04941030219197273], [0.18585561215877533, -0.11711113154888153, -0.009005491621792316, -0.03473254665732384, 0.11404597014188766, -0.14594666659832, -0.1065148115158081, -0.187148317694664, -0.01330553088337183, 0.09886360168457031, 0.11259832978248596, 0.005972803570330143, -0.09388125687837601, 0.07064716517925262, 0.02043185941874981, -0.19207055866718292], [-0.12280948460102081, 0.13466957211494446, 0.05977284535765648, -0.1672433316707611, 0.08199530839920044, 0.08148089796304703, -0.043503403663635254, 0.10358542948961258, -0.33114588260650635, 0.11371342092752457, 0.14339955151081085, -0.1421789675951004, -0.006213007960468531, -0.033812057226896286, -0.01025294791907072, -0.04248804599046707], [-0.13322953879833221, 0.16933530569076538, 0.008276259526610374, -0.019289188086986542, -0.10094006359577179, -0.12788799405097961, 0.04125984013080597, 0.07572019100189209, 0.11152864992618561, 0.15753032267093658, -0.020873572677373886, -0.07416632771492004, 0.03898681700229645, -0.06374391913414001, 0.08717585355043411, 0.03745002672076225], [0.11550264805555344, 0.04749736562371254, -0.06443415582180023, -0.1163303330540657, 0.07324852794408798, 0.1656201183795929, -0.13228116929531097, 0.024211933836340904, 0.04984304681420326, -0.10294479131698608, 0.04649710655212402, -0.039061497896909714, -0.24492312967777252, 0.16217279434204102, -0.08632082492113113, -0.1282503455877304], [0.04201416298747063, 0.046736277639865875, 0.009965959005057812, -0.06833160668611526, -0.0010914338054135442, -0.09483614563941956, -0.1310197412967682, 0.20508329570293427, 0.09915917366743088, -0.09475910663604736, -0.10832370072603226, 0.011875431053340435, -0.1047075092792511, -0.017461365088820457, -0.021924415603280067, -0.044646479189395905], [0.09388386458158493, 0.023808708414435387, 0.14811621606349945, -0.16223230957984924, -0.06489559262990952, -0.02538115158677101, -0.04066389799118042, 0.020706066861748695, -0.0876382440328598, -0.028214771300554276, -0.15816430747509003, -0.1187329888343811, 0.03341280296444893, -0.021420689299702644, 0.15057532489299774, -0.05955338478088379], [0.011907108128070831, -0.14249281585216522, 0.3102506995201111, -0.047624338418245316, 0.08296298235654831, 0.01663772575557232, -0.0583878830075264, -0.11938982456922531, 0.024196064099669456, 0.005198827013373375, -0.02678174152970314, 0.03537929803133011, -0.02800936996936798, 0.03771163150668144, 0.015004657208919525, -0.14672492444515228], [0.13960622251033783, 0.1116562932729721, -0.19522231817245483, 0.020821206271648407, -0.06620242446660995, -0.09644710272550583, -0.00048416617210023105, 0.2748534381389618, 0.2179403156042099, -0.029109744355082512, -0.01701734960079193, 0.28515657782554626, 0.06726524978876114, -0.23488374054431915, 0.03994743153452873, -0.04886947199702263], [0.04099823534488678, 0.015100974589586258, -0.028645310550928116, 0.1528416872024536, 0.019978461787104607, 0.07267726957798004, 0.13514237105846405, -0.07119669765233994, -0.1006036251783371, 0.18496961891651154, 0.11522120982408524, -0.1674479991197586, 0.1629396378993988, -0.023550331592559814, 0.06917845457792282, 0.05643882229924202], [-0.09713423252105713, -0.10955329984426498, -0.1470378041267395, -0.144877627491951, -0.1482475996017456, -0.020182250067591667, 0.13694022595882416, -0.0008064100984483957, 0.024281715974211693, 0.14980553090572357, 0.0434630811214447, -0.06834039837121964, -0.18313410878181458, -0.04298055171966553, 0.006295935716480017, -0.08716452121734619], [0.03619607165455818, -0.035177845507860184, -0.016532428562641144, -0.1100262776017189, -0.09219677001237869, 0.15565024316310883, 0.002875623991712928, 0.15504524111747742, 0.0016644285060465336, -0.1254306137561798, 0.16512201726436615, 0.18626804649829865, -0.09294215589761734, -0.0802917405962944, -0.002266894094645977, -0.15243951976299286], [-0.0030133307445794344, -0.03320401906967163, 0.14337866008281708, 0.11171527951955795, 0.05698443204164505, 0.05290916562080383, 0.005227894987910986, -0.04323646053671837, -0.22435279190540314, -0.008297104388475418, -0.013097971677780151, -0.19430674612522125, -0.014619555324316025, -0.040083471685647964, -0.10215598344802856, -0.04700243100523949], [0.0728781521320343, 0.0653093010187149, -0.13263744115829468, -0.04471087455749512, 0.09138846397399902, -0.05003616586327553, 0.010881527327001095, -0.1488991528749466, -0.058992255479097366, 0.25503942370414734, -0.10443415492773056, -0.17381981015205383, -0.02174159325659275, 0.07886293530464172, 0.11938104778528214, -0.05177226662635803], [0.02224755845963955, 0.05004569888114929, -0.016671817749738693, -0.08440842479467392, 0.17127250134944916, -0.08997563272714615, 0.070787213742733, 0.09821145236492157, 0.05444982275366783, -0.1534491330385208, 0.038751740008592606, -0.014976100996136665, -0.11897817254066467, 0.06974097341299057, -0.07035153359174728, -0.061502087861299515], [0.0488690584897995, -0.03727976977825165, -0.06524717807769775, -0.12334351241588593, -0.019655724987387657, -0.07874470949172974, 0.07504826039075851, -0.0945272445678711, -0.13797113299369812, -0.015061317943036556, -0.0063020009547472, 0.018599776551127434, -0.20566439628601074, 0.06220752000808716, 0.08609732985496521, -0.16909977793693542], [-0.06904314458370209, 0.11964523792266846, 0.16197971999645233, -0.02728230692446232, 0.050124939531087875, 0.1869107037782669, 0.05027969554066658, -0.12444852292537689, 0.12116212397813797, -0.014062325470149517, 0.07027339190244675, 0.035871174186468124, 0.0529714897274971, 0.15409331023693085, -0.1465914398431778, -0.006958855781704187], [0.19460494816303253, 0.09361796081066132, -0.06714743375778198, -0.131997212767601, 0.010672049596905708, -0.11254119127988815, -0.14683669805526733, 0.15912482142448425, 0.12180651724338531, -0.16871517896652222, 0.13806991279125214, -0.02067437581717968, 0.16315168142318726, -0.0030572444666177034, 0.15770882368087769, -0.08128020912408829], [0.061334915459156036, 0.15834985673427582, 0.10409867018461227, 0.08390408754348755, -0.1738331913948059, 0.049467530101537704, 0.003038613125681877, 0.056291140615940094, 0.04334872588515282, -0.13951294124126434, -0.09348872303962708, -0.09674879163503647, -0.022595278918743134, -0.19405333697795868, -0.10905086994171143, 0.10019207000732422], [0.01768924482166767, -0.13174912333488464, 0.034132249653339386, 0.08006610721349716, -0.18395668268203735, -0.045646894723176956, -0.022966323420405388, 0.017305321991443634, 0.03710917755961418, 0.26240456104278564, 0.027444686740636826, -0.08850336819887161, 0.0902373418211937, -0.08586683869361877, 0.04361870884895325, 0.15714631974697113], [0.10773148387670517, 0.07720747590065002, -0.3106409013271332, -0.03977781534194946, -0.05873750522732735, 0.11054452508687973, 0.08406484872102737, 0.1282808929681778, 0.19577138125896454, -0.1580280214548111, 0.16310299932956696, 0.039216578006744385, -0.1826469451189041, 0.03440461680293083, 0.07071580737829208, 0.11934145539999008], [0.05273885279893875, 0.07486959546804428, -0.09750697761774063, -0.06708134710788727, -0.014251040294766426, -0.05432731658220291, -0.008904212154448032, -0.07646463066339493, 0.03216269239783287, -0.014026708900928497, -0.035074200481176376, -0.02243008092045784, -0.023242594674229622, -0.09477243572473526, 0.13992299139499664, -0.022612372413277626], [-0.14388541877269745, 0.05745306983590126, 0.05752858892083168, -0.0394551046192646, -0.009587145410478115, 0.014557157643139362, -0.005324304103851318, -0.07741626352071762, -0.15279608964920044, 0.10028491169214249, -0.17818664014339447, 0.08221598714590073, -0.13078464567661285, -0.0849614068865776, -0.09818997234106064, -0.1363077610731125], [-0.077259860932827, -0.031954746693372726, -0.32091498374938965, -0.27419808506965637, -0.0715864971280098, 0.0668821632862091, -0.13004398345947266, 0.09444268047809601, 0.25921761989593506, -0.22561219334602356, 0.05593475326895714, -0.0445995107293129, 0.07500582933425903, 0.04638727754354477, 0.06176608428359032, 0.24964170157909393], [0.16294752061367035, -0.03548269346356392, 0.05557135492563248, -0.17462199926376343, -0.1714164763689041, -0.025987232103943825, -0.12993954122066498, 0.04435214027762413, -0.12028791755437851, 0.026889344677329063, -0.20243749022483826, 0.18127116560935974, 0.038305994123220444, -0.07099302858114243, 0.01511470414698124, 0.13230912387371063], [-0.09278251230716705, 0.16804824769496918, -0.046106986701488495, -0.047496747225522995, -0.1650378406047821, -0.27843570709228516, 0.10100908577442169, 0.008959498256444931, -0.18333855271339417, -0.09477713704109192, 0.0887870118021965, -0.0448138564825058, 0.1077791303396225, 0.06365867704153061, -0.006656284909695387, 0.003232998074963689], [-0.0555073618888855, 0.006751822307705879, -0.0941677838563919, 0.05407879874110222, -0.01634184457361698, 0.06060006842017174, 0.09206323325634003, 0.11971312016248703, -0.015894530341029167, -0.10901665687561035, -0.09115662425756454, -0.09094798564910889, 0.058903127908706665, 0.049489278346300125, -0.00032088786247186363, -0.030243316665291786], [-0.07394009083509445, -0.076533742249012, 0.17158319056034088, 0.01792953908443451, -0.13712166249752045, -0.0014678018633276224, 0.013996283523738384, 0.14805153012275696, -0.21521306037902832, 0.006298585794866085, 0.05155201628804207, -0.14083541929721832, 0.20109814405441284, -0.11789442598819733, 0.0029122147243469954, 0.05595475435256958], [0.08810371160507202, 0.04897341877222061, 0.01051504909992218, 0.061560552567243576, -0.07546525448560715, -0.07808225601911545, 0.04566424712538719, 0.15156316757202148, -0.032314904034137726, -0.020082591101527214, 0.09549923241138458, -0.15623392164707184, 0.14848941564559937, -0.0984082743525505, 0.06409484893083572, 0.09266912192106247], [0.07850340753793716, 0.01988097093999386, -0.08297114074230194, -0.19498884677886963, -0.07808196544647217, 0.050614453852176666, 0.06633692234754562, -0.0024056110996752977, 0.14963391423225403, -0.06754615157842636, 0.274368017911911, -0.012127315625548363, -0.06611379235982895, -0.09234429895877838, -0.09992785006761551, 0.03749483451247215], [-0.07043411582708359, 0.08262241631746292, 0.010718081146478653, 0.12366236746311188, 0.041772544384002686, 0.0044852797873318195, -0.11504285782575607, 0.018477248027920723, -0.0315527617931366, 0.14648304879665375, -0.09437248855829239, -0.17510226368904114, -0.009727006778120995, 0.013978724367916584, 0.0243892353028059, 0.10056501626968384], [-0.09396406263113022, -0.2607126832008362, 0.10391966998577118, 0.010831784456968307, -0.04770563170313835, -0.007524735294282436, -0.10477807372808456, -0.20983949303627014, -0.17839042842388153, 0.0728929415345192, 0.1130194440484047, -0.06870510429143906, 0.046106137335300446, -0.05943319946527481, -0.005543902050703764, 0.07965607196092606], [0.013317989185452461, -0.05663353577256203, -0.17576998472213745, -0.03892315924167633, 0.11821021139621735, -0.17852291464805603, 0.08593308180570602, 0.1297980546951294, 0.018117107450962067, -0.09519850462675095, 0.07923799008131027, -0.06506134569644928, -0.06803359091281891, -0.1256287395954132, -0.2071523666381836, 0.015123644843697548], [0.10444895178079605, 0.13927794992923737, -0.03994083032011986, 0.18500064313411713, 0.15263067185878754, 0.12121155858039856, -0.07856664061546326, -0.0674113929271698, -0.22498150169849396, 0.10045783221721649, -0.07907400280237198, -0.013556060381233692, -0.1204214096069336, 0.06728705018758774, 0.03431881219148636, -0.11441230773925781], [-0.004588794894516468, 0.00584636814892292, 0.25753024220466614, -0.020180372521281242, -0.0940409004688263, -0.05604731664061546, -0.0031223467085510492, -0.01295401155948639, -0.19382500648498535, 0.03572193160653114, -0.094978466629982, -0.055804017931222916, 0.17677593231201172, -0.08322905749082565, 0.14379410445690155, 0.11606182157993317], [0.06834978610277176, -0.0017483928240835667, -0.024849293753504753, -0.07466496527194977, -0.05464591458439827, -0.09634548425674438, 0.02739015780389309, 0.0804305374622345, 0.09097430109977722, 0.048105306923389435, 0.029472870752215385, 0.10324934124946594, -0.06638828665018082, -0.15921950340270996, -0.14259503781795502, -0.04915523901581764], [0.0629611536860466, 0.04090454429388046, 0.044467419385910034, 0.03210745006799698, 0.007626310922205448, -0.04750211164355278, 0.08547312766313553, 0.11136789619922638, 0.07655791193246841, 0.048273492604494095, 0.021385708823800087, -0.24265414476394653, -0.017188701778650284, 0.03610023483633995, 0.015197520144283772, -0.022227272391319275], [0.13047732412815094, -0.032068897038698196, 0.043122753500938416, -0.05385102704167366, 0.10341054201126099, -0.05344724282622337, -0.08343493938446045, -0.010898852720856667, 0.16041789948940277, 0.03910354897379875, 0.03547026589512825, -0.057563163340091705, -0.063106007874012, -0.05608413740992546, -0.12163040786981583, -0.010978163219988346], [0.07184557616710663, 0.15585079789161682, -0.04639921709895134, -0.11136522144079208, 0.07455046474933624, 0.023647425696253777, 0.13983632624149323, 0.31031185388565063, 0.2361644208431244, -0.1332123577594757, 0.08407095074653625, 0.14550720155239105, -0.0653396025300026, -0.014048347249627113, 0.06343402713537216, 0.10706061124801636], [0.02229107730090618, -0.31126508116722107, 0.09832321852445602, -0.060938358306884766, -0.09759210050106049, -0.019044486805796623, 0.11204642057418823, -0.11468479782342911, 0.14336059987545013, 0.17284224927425385, 0.06474332511425018, -0.11119194328784943, -0.061464644968509674, -0.038283489644527435, 3.409579221624881e-05, -0.006220479961484671], [-0.0317348875105381, -0.04061666503548622, 0.036400746554136276, -0.0030077858828008175, -0.1651817113161087, 0.025123203173279762, 0.1697271764278412, 0.10692334175109863, -0.10548337548971176, 0.17397549748420715, 0.20257121324539185, -0.05400661379098892, 0.03649324178695679, 0.22993803024291992, 0.10302956402301788, 0.15507206320762634], [-0.10952255874872208, 0.022084277123212814, -0.05266953259706497, 0.026743322610855103, 0.07895075529813766, -0.00613798201084137, -0.1312394142150879, 0.20801174640655518, 0.15261293947696686, -0.2123737931251526, 0.17633135616779327, 0.08501327782869339, 0.03881191089749336, -0.02868351899087429, 0.16344057023525238, 0.057122666388750076], [-0.07899540662765503, -0.17462784051895142, -0.01848652958869934, -0.2666941285133362, -0.026055986061692238, -0.008663607761263847, -0.12076663970947266, -0.04738723486661911, 0.1533234566450119, 0.0791231095790863, 0.13510467112064362, -0.048200421035289764, -0.0535862073302269, -0.2199254035949707, 0.07292887568473816, 0.1100558266043663], [-0.03423680365085602, -0.053663261234760284, 0.13884606957435608, -0.10338443517684937, -0.07823242992162704, 0.008118226192891598, -0.06062513589859009, 0.06130647286772728, -0.10210201144218445, 0.22025564312934875, 0.039861325174570084, -0.02316410467028618, -0.12307307869195938, -0.1057753935456276, -0.08972369879484177, -0.14322033524513245], [0.13404302299022675, 0.03303930163383484, 0.016122782602906227, 0.1442088782787323, 0.13066060841083527, 0.023504173383116722, -0.04110504314303398, 0.1758100688457489, 0.13486456871032715, -0.11967332661151886, 0.048494089394807816, 0.13763831555843353, 0.1317514032125473, -0.02751087211072445, -0.043700773268938065, 0.06981697678565979], [-0.06351764500141144, 0.04268897697329521, 0.22168037295341492, -0.07151638716459274, 0.0024513232056051493, 0.17751185595989227, -0.037316832691431046, 0.037858325988054276, -0.07233881205320358, -0.02971065230667591, -0.12745901942253113, 0.262855589389801, 0.02149778977036476, -0.0045875548385083675, -0.10570643097162247, -0.18246930837631226], [0.024173829704523087, -0.03681252524256706, 0.10751235485076904, 0.03947872295975685, 0.10122751444578171, -0.02697545476257801, 0.06220104917883873, -0.03824685886502266, -0.09169653803110123, 0.03449714556336403, 0.05395796522498131, 0.030903253704309464, -0.03741508722305298, 0.03224277123808861, 0.1607508361339569, -0.18024101853370667], [-0.12550680339336395, -0.0018356780055910349, -0.020184943452477455, -0.051233816891908646, 0.09030884504318237, -0.3223028779029846, -0.2330467253923416, 0.04341941326856613, 0.3793400526046753, -0.0929860770702362, -0.12469752877950668, -0.006275675725191832, 0.045250922441482544, 0.09622224420309067, 0.04705489054322243, -0.02358042076230049], [0.06787893176078796, 0.10263405740261078, -0.025326335802674294, -0.04209332913160324, -0.013609769754111767, -0.19201169908046722, -0.1257096379995346, -0.18215207755565643, 0.06407808512449265, -0.018855176866054535, 0.00466478755697608, -0.03289496526122093, 0.017307374626398087, -0.0672583132982254, 0.11736112833023071, -0.15922294557094574], [-0.0013649201719090343, -0.029696539044380188, 0.13850639760494232, -0.07925216853618622, 0.10687308758497238, -0.045759424567222595, -0.010180510580539703, -0.004441504832357168, 0.07507462799549103, 0.14860254526138306, -0.07398119568824768, -0.17062732577323914, -0.134329155087471, 0.016518307849764824, -0.001664585666731, 0.014093266800045967], [-0.07251720875501633, 0.07925213128328323, -0.10567698627710342, -0.19306156039237976, 0.015534977428615093, 0.03191268816590309, 0.01437603123486042, 0.11268338561058044, 0.13438549637794495, -0.19701115787029266, 0.25153622031211853, -0.0029067581053823233, 0.13081470131874084, -0.055412888526916504, 0.09666754305362701, 0.02401796542108059], [0.01003144308924675, -0.10142076015472412, 0.11065882444381714, 0.012163659557700157, -0.00902500655502081, 0.09861703217029572, 0.008858020417392254, 0.29867127537727356, 0.18825902044773102, -0.062449440360069275, 0.20317503809928894, 0.03571164980530739, 0.17856888473033905, 0.008165836334228516, -0.007920936681330204, 0.009396830573678017], [0.039950668811798096, 0.13958001136779785, 0.07414013892412186, -0.04042308032512665, -0.04934600368142128, 0.055272359400987625, -0.055434513837099075, -0.09041651338338852, -0.06761781126260757, -0.009924909099936485, 0.0013681309064850211, 0.07561171799898148, -0.09277351200580597, 0.11971284449100494, -0.1637706309556961, 0.26346027851104736], [-0.15864239633083344, 0.01811259239912033, -0.094423308968544, -0.10827954858541489, 0.06764087080955505, 0.07997088879346848, -0.017218610271811485, 0.219122976064682, 0.1150699183344841, -0.18945908546447754, 0.08554448932409286, -0.02299102209508419, 0.029430508613586426, -0.039916690438985825, -0.007418319582939148, -0.10853574424982071], [0.10693564265966415, -0.04002697020769119, -0.1475294679403305, 0.23339693248271942, -0.14129744470119476, 0.025327259674668312, -0.21636655926704407, 0.12199821323156357, 0.11887460201978683, -0.08515270054340363, -0.05414149537682533, -0.05610710382461548, -0.09995703399181366, -0.11741236597299576, -0.09480458498001099, 0.14351259171962738], [0.03912090137600899, 0.12409224361181259, 